-1.451746523380279541e-01 -6.501132249832153320e-02 7.592267543077468872e-02 -1.622499525547027588e-01 1.910063251852989197e-02 -9.113083779811859131e-02 -1.894143596291542053e-02 -1.824511773884296417e-02 -1.679381430149078369e-01 7.005038112401962280e-02 -2.375288680195808411e-02 -6.189553532749414444e-03 7.645226269960403442e-02 -4.080819338560104370e-02 -4.246493801474571228e-03 -1.928249746561050415e-01 -9.426660835742950439e-02 -4.770747385919094086e-03 2.152665257453918457e-01 2.107039093971252441e-02 -1.043918877840042114e-01 -1.203568875789642334e-01 7.417200505733489990e-02 -2.212311699986457825e-02 -2.342661172151565552e-01 1.351015735417604446e-02 -2.686745859682559967e-02 2.775388397276401520e-02 8.634126186370849609e-02 -1.428420245647430420e-01 3.140022233128547668e-02 -1.185661107301712036e-01 4.206758365035057068e-02 -4.856186360120773315e-02 3.077051416039466858e-02 -3.564117103815078735e-02 -4.426515102386474609e-02 -7.531099021434783936e-02 -1.910140961408615112e-01 5.569833517074584961e-02 8.333093672990798950e-02 -2.023827880620956421e-01 -5.127976089715957642e-02 -3.570032119750976562e-02 -2.281411141157150269e-01 6.461483240127563477e-02 8.643571287393569946e-03 1.744642853736877441e-01 2.119153738021850586e-01 5.823885276913642883e-02 1.623513102531433105e-01 1.413078606128692627e-01 3.062620013952255249e-02 1.171285510063171387e-01 1.922460794448852539e-01 -1.456535756587982178e-01 1.829745024442672729e-01 2.502255886793136597e-02 2.744818851351737976e-02 4.314009472727775574e-02 -1.620739400386810303e-01 5.084372311830520630e-02 -1.785350888967514038e-01 2.196204066276550293e-01 -2.693569473922252655e-02 -4.609390720725059509e-02 -1.633501350879669189e-01 -1.249588467180728912e-02 1.198903936892747879e-02 -9.320916980504989624e-02 1.120525225996971130e-01 -1.811924576759338379e-01 -6.036407873034477234e-02 6.591260433197021484e-02 -7.473053038120269775e-02 1.132325455546379089e-01 -2.122399806976318359e-01 -1.942327767610549927e-01 7.016262412071228027e-02 2.103324830532073975e-01 -1.540559679269790649e-01 -4.747604485601186752e-03 2.065190374851226807e-01 7.284253835678100586e-02 1.313741654157638550e-01 1.739092618227005005e-01 -1.465476006269454956e-01 -1.456869989633560181e-01 -1.221001520752906799e-01 1.892769932746887207e-01 9.962627291679382324e-02 1.574487686157226562e-01 -7.585778087377548218e-02 4.477342963218688965e-02 -2.398851960897445679e-01 1.142079979181289673e-01 -2.209640145301818848e-01 -1.388050168752670288e-01 1.190761551260948181e-01 2.108882665634155273e-01 1.233325060456991196e-02 -3.985825926065444946e-02 8.795273490250110626e-03 -1.410980373620986938e-01 -1.117722094058990479e-01 -3.353219479322433472e-02 -1.712124794721603394e-01 1.637035012245178223e-01 -3.917221724987030029e-02 -3.078840486705303192e-02 -5.311688035726547241e-02 -1.957618631422519684e-02 2.052095904946327209e-02 1.928077079355716705e-02 -7.804617285728454590e-02 8.517500013113021851e-02 2.260531783103942871e-01 1.741570532321929932e-01 4.097590595483779907e-02 2.426120489835739136e-01 -1.563124507665634155e-01 -1.609545350074768066e-01 -8.886890858411788940e-02 -1.984505653381347656e-01 -2.631350606679916382e-02 -1.463475078344345093e-01 6.072625145316123962e-02 -2.008422650396823883e-02 3.436506167054176331e-02 -1.874531991779804230e-02 -2.914881892502307892e-02 1.538264155387878418e-01 3.622239455580711365e-02 1.276633590459823608e-01 2.982054352760314941e-01 1.487895995378494263e-01 2.049174010753631592e-01 -1.719063073396682739e-01 2.835236191749572754e-01 1.437173485755920410e-01 -2.920215129852294922e-01 2.565512955188751221e-01 1.710355430841445923e-01 1.431047767400741577e-01 -1.097987405955791473e-04 2.409873902797698975e-01 -1.247807815670967102e-01 -1.627659946680068970e-01 2.338544577360153198e-01 2.074719965457916260e-01 -2.407990247011184692e-01 2.517373301088809967e-02 1.540156751871109009e-01 2.696347534656524658e-01 3.430620767176151276e-03 -1.945567317306995392e-02 -1.508176922798156738e-01 -1.076167076826095581e-02 5.610167980194091797e-02 2.778347432613372803e-01 2.686301767826080322e-01 1.922113746404647827e-01 1.558607071638107300e-01 -1.552846431732177734e-01 -1.395806521177291870e-01 1.185564398765563965e-01 1.966637521982192993e-01 1.422127932310104370e-01 -2.887304723262786865e-01 5.264399200677871704e-02 9.457165002822875977e-02 2.857246100902557373e-01 2.475286573171615601e-01 -1.360620651394128799e-02 3.579518944025039673e-02 -7.311789691448211670e-02 -6.974732875823974609e-02 -1.378790140151977539e-01 -1.611266732215881348e-01 -2.985009551048278809e-01 2.223208844661712646e-01 -2.826299965381622314e-01 -1.076295375823974609e-01 1.073987111449241638e-01 -3.786964341998100281e-02 -2.895491719245910645e-01 -6.378762423992156982e-02 4.944685474038124084e-02 1.154828891158103943e-01 3.955848142504692078e-02 1.942644082009792328e-02 -1.347663551568984985e-01 7.523060590028762817e-02 -1.040798574686050415e-01 2.739601135253906250e-01 -1.733788251876831055e-01 -1.869775652885437012e-01 1.443053595721721649e-02 -3.542951494455337524e-02 1.305973231792449951e-01 2.180528789758682251e-01 -1.007749885320663452e-01 1.159454807639122009e-01 -2.496375739574432373e-01 1.584101468324661255e-01 2.724036574363708496e-01 -2.004119008779525757e-01 -9.751424193382263184e-02 1.239295378327369690e-01 2.276867032051086426e-01 -1.236717030405998230e-01 1.895461827516555786e-01 -2.504323609173297882e-02 -2.112705856561660767e-01 7.701783627271652222e-02 2.496634125709533691e-01 5.435471609234809875e-02 -3.522517904639244080e-02 -8.364908397197723389e-02 -2.304917573928833008e-01 2.783799171447753906e-01 -2.934270799160003662e-01 2.583349347114562988e-01 -2.007058411836624146e-01 8.598051220178604126e-02 2.786747813224792480e-01 -6.889054179191589355e-02 -1.646729558706283569e-01 1.426280140876770020e-01 1.385206431150436401e-01 2.835977375507354736e-01 8.450682461261749268e-02 8.824019879102706909e-02 1.217592954635620117e-01 5.292634293437004089e-02 -1.018188968300819397e-01 -2.789856493473052979e-01 -1.231221258640289307e-01 9.596262127161026001e-02 2.639561705291271210e-02 2.276498228311538696e-01 2.463321685791015625e-01 1.242193952202796936e-01 -3.882113471627235413e-02 -1.581498384475708008e-01 -6.070573255419731140e-02 -2.879373729228973389e-01 -2.750671654939651489e-02 2.213715016841888428e-01 2.600199580192565918e-01 1.388777196407318115e-01 9.655570238828659058e-02 -8.998258411884307861e-02 2.234227061271667480e-01 -2.832093834877014160e-01 -2.708475291728973389e-01 1.004402413964271545e-01 -5.439703352749347687e-03 -1.630678325891494751e-01 -4.877800866961479187e-02 8.182776719331741333e-02 -3.536929562687873840e-02 5.277084559202194214e-02 8.856439590454101562e-02 -1.039880141615867615e-02 -1.673873960971832275e-01 1.720403730869293213e-01 1.284219976514577866e-02 -3.758333623409271240e-02 1.783041656017303467e-02 1.794338822364807129e-01 9.756283462047576904e-02 4.575931653380393982e-02 2.157202363014221191e-02 -6.561785191297531128e-02 3.490195050835609436e-02 7.811144739389419556e-02 1.456818580627441406e-01 -1.503536850214004517e-01 4.219013080000877380e-02 -4.407441243529319763e-02 -5.155319347977638245e-02 1.874289810657501221e-01 -2.012841552495956421e-01 -1.635170280933380127e-01 8.562234789133071899e-02 4.967005178332328796e-02 2.138262689113616943e-01 1.487920880317687988e-01 1.679371595382690430e-01 2.714363159611821175e-03 7.372915744781494141e-02 7.006837427616119385e-02 1.676502823829650879e-01 1.515440642833709717e-01 -8.211505413055419922e-02 -5.289605259895324707e-02 1.293185651302337646e-01 5.918435379862785339e-02 2.037238925695419312e-01 -5.789231881499290466e-02 7.777293026447296143e-02 1.949948519468307495e-01 -2.058918476104736328e-01 -1.005319729447364807e-01 1.739303022623062134e-02 -8.908538520336151123e-02 -2.242757380008697510e-01 -6.556192785501480103e-02 5.474215373396873474e-03 -7.752022892236709595e-02 6.576712429523468018e-02 -3.866549953818321228e-02 6.485889852046966553e-02 -4.230980575084686279e-02 1.801923364400863647e-01 -4.687974974513053894e-02 -2.663740701973438263e-02 3.072574175894260406e-02 -1.686230003833770752e-01 5.782428197562694550e-03 -2.422065660357475281e-02 9.955029189586639404e-02 -7.470573484897613525e-02 -1.140273828059434891e-02 1.088930517435073853e-01 -1.804055571556091309e-01 3.042633831501007080e-02 1.792109012603759766e-01 6.216699257493019104e-02 1.044068187475204468e-01 3.505391301587224007e-03 2.083248496055603027e-01 8.468432724475860596e-02 9.368547052145004272e-02 4.963355883955955505e-02 6.790342926979064941e-02 -9.521511942148208618e-02 -6.537090986967086792e-02 8.811162412166595459e-02 -1.318022757768630981e-01 -2.756211161613464355e-02 1.935429126024246216e-01 -4.104513302445411682e-02 1.225295886397361755e-01 3.800882771611213684e-02 -1.534158736467361450e-01 -8.921441435813903809e-02 1.909808069467544556e-01 -1.698921471834182739e-01 4.421860352158546448e-02 2.444739826023578644e-02 1.725121140480041504e-01 1.965521275997161865e-01 6.557653099298477173e-02 -7.811423391103744507e-02 5.969760939478874207e-02 8.919607847929000854e-02 1.115735098719596863e-01 3.947136923670768738e-02 7.938973605632781982e-02 1.071772128343582153e-01 -8.206719532608985901e-03 -2.310679666697978973e-02 -1.585270315408706665e-01 -1.326981782913208008e-01 1.829579025506973267e-01 1.615304946899414062e-01 1.443533003330230713e-01 -8.157747983932495117e-02 1.543961018323898315e-01 -6.729874014854431152e-02 4.775966703891754150e-02 -3.352108597755432129e-02 -1.939290463924407959e-01 -1.894371956586837769e-01 -9.144087880849838257e-02 5.569067597389221191e-02 4.790977388620376587e-02 -5.512306466698646545e-02 -1.938302367925643921e-01 -1.020047161728143692e-02 -1.985811740159988403e-01 -1.689408272504806519e-01 8.116590231657028198e-02 -1.347266584634780884e-01 -1.428254544734954834e-01 7.257522642612457275e-02 2.936387658119201660e-01 2.162747234106063843e-01 2.057118564844131470e-01 1.146401464939117432e-01 1.934955865144729614e-01 -3.039144277572631836e-01 2.230684161186218262e-01 2.814505398273468018e-01 -2.903050780296325684e-01 5.176235735416412354e-02 1.891737431287765503e-01 2.205384522676467896e-02 2.600785195827484131e-01 1.004404127597808838e-01 -2.255786210298538208e-01 -1.183520853519439697e-01 2.056453824043273926e-01 1.190405040979385376e-01 -2.074811160564422607e-01 2.717762887477874756e-01 2.799262702465057373e-01 1.127852350473403931e-01 1.513818800449371338e-01 -3.085559904575347900e-01 -9.639947675168514252e-03 1.544061750173568726e-01 6.242763251066207886e-02 2.065265774726867676e-01 1.508064270019531250e-01 4.910729452967643738e-02 2.486672550439834595e-01 -9.792359918355941772e-02 -2.429087460041046143e-01 2.096546143293380737e-01 6.245326250791549683e-02 3.309160470962524414e-02 -1.925247907638549805e-01 2.223135530948638916e-01 2.917611896991729736e-01 2.680373005568981171e-02 2.126413136720657349e-01 -1.189693138003349304e-01 2.132382094860076904e-01 -2.534157633781433105e-01 -2.693322598934173584e-01 -2.052428275346755981e-01 -3.024900257587432861e-01 -1.779438555240631104e-01 2.562979757785797119e-01 -3.192189335823059082e-01 -9.783130884170532227e-02 2.681324779987335205e-01 -2.995700538158416748e-01 -1.290307492017745972e-01 -1.253084391355514526e-01 2.876030206680297852e-01 3.262712359428405762e-01 1.167881861329078674e-01 2.493751794099807739e-01 -1.876069456338882446e-01 1.529056578874588013e-01 -1.190290227532386780e-01 1.878982186317443848e-01 -2.685402333736419678e-01 -4.007356986403465271e-02 1.931924670934677124e-01 -2.002028226852416992e-01 1.940656155347824097e-01 2.674296200275421143e-01 -1.338500231504440308e-01 2.632605731487274170e-01 -2.703880965709686279e-01 2.667973637580871582e-01 1.299460828304290771e-01 -6.066171079874038696e-02 -3.032899200916290283e-01 2.873090505599975586e-01 5.689660087227821350e-02 -2.249401211738586426e-01 2.138508558273315430e-01 -1.507941931486129761e-01 -2.509190142154693604e-01 6.228408962488174438e-02 1.961467862129211426e-01 2.108305245637893677e-01 -1.412854641675949097e-01 -2.401735335588455200e-01 -8.060599863529205322e-02 3.732439130544662476e-02 -5.642031133174896240e-02 6.659417878836393356e-03 -1.502608209848403931e-01 2.080887109041213989e-01 2.458734214305877686e-01 -2.805012166500091553e-01 -1.222433596849441528e-01 1.606844663619995117e-01 3.959537670016288757e-02 1.729342490434646606e-01 2.507771849632263184e-01 2.233325988054275513e-01 2.196809202432632446e-01 1.940513551235198975e-01 -6.215565279126167297e-02 -2.501774728298187256e-01 -2.315145134925842285e-01 1.766675263643264771e-01 2.787781357765197754e-01 2.498177438974380493e-01 4.022789001464843750e-02 2.019795030355453491e-02 -6.969845294952392578e-02 -2.362620681524276733e-01 -1.641317084431648254e-02 -2.907331883907318115e-01 -2.066822350025177002e-01 6.088041141629219055e-02 1.617193669080734253e-01 2.376303076744079590e-01 1.925161331892013550e-01 -1.641153246164321899e-01 2.800423204898834229e-01 -1.009537577629089355e-01 -1.182826831936836243e-01 -6.890744715929031372e-02 5.134481936693191528e-02 -6.178337335586547852e-02 -2.553381025791168213e-02 -5.266819149255752563e-02 -3.890319541096687317e-02 -1.358890682458877563e-01 -1.349814534187316895e-01 -7.940010726451873779e-02 3.775250166654586792e-02 -1.981515735387802124e-01 -6.595956161618232727e-03 2.002445906400680542e-01 -2.290572673082351685e-01 -1.788121834397315979e-02 -3.468082472681999207e-02 -1.376079767942428589e-01 -2.257065922021865845e-01 1.897596865892410278e-01 8.587668836116790771e-02 -1.137885525822639465e-01 2.816595509648323059e-02 3.601850941777229309e-02 -1.389344632625579834e-01 -2.369995787739753723e-02 -2.541667968034744263e-02 -9.572139382362365723e-02 1.572694331407546997e-01 1.943176686763763428e-01 -1.090856082737445831e-02 -1.019222289323806763e-01 -4.738638922572135925e-02 -9.124576300382614136e-02 -1.174888014793395996e-01 -2.094102948904037476e-01 1.526196897029876709e-01 2.866511419415473938e-02 -2.348563820123672485e-01 -1.480341404676437378e-01 -1.612632423639297485e-01 2.332675755023956299e-01 -6.441103667020797729e-02 -6.836940348148345947e-02 -1.034921593964099884e-02 1.345501653850078583e-02 6.493000686168670654e-02 4.014908522367477417e-02 1.912320852279663086e-01 6.126366183161735535e-02 6.041793897747993469e-02 -1.933911815285682678e-02 1.132903024554252625e-01 -5.272115767002105713e-02 1.193499863147735596e-01 1.050353050231933594e-02 -2.004287093877792358e-01 1.376759111881256104e-01 -3.760752966627478600e-03 3.778783231973648071e-02 -1.280494481325149536e-01 -9.353436529636383057e-02 -2.095864564180374146e-01 -1.624318659305572510e-01 -5.991755798459053040e-02 -1.129260435700416565e-01 2.435905337333679199e-01 3.044058009982109070e-02 1.432436704635620117e-01 1.354509890079498291e-01 -1.908468902111053467e-01 1.232021376490592957e-01 -1.039260104298591614e-01 -7.338159531354904175e-02 7.635857909917831421e-02 1.798273995518684387e-02 1.275410652160644531e-01 -9.544566273689270020e-02 1.753572188317775726e-02 1.731683015823364258e-01 -4.578546434640884399e-02 -9.752413630485534668e-02 2.979686670005321503e-02 -6.022242456674575806e-02 5.891657248139381409e-02 1.032270714640617371e-01 8.806292712688446045e-02 -4.538928717374801636e-02 -6.021433509886264801e-03 -2.281677424907684326e-01 1.339013129472732544e-01 1.360444873571395874e-01 2.193211317062377930e-01 1.065804809331893921e-02 2.261100113391876221e-01 -9.556003659963607788e-02 -1.114640012383460999e-02 -1.455391347408294678e-01 -1.209322959184646606e-01 -5.848851799964904785e-02 1.930195391178131104e-01 1.786811091005802155e-02 -1.534416675567626953e-01 -1.569563895463943481e-01 -5.416385456919670105e-02 -2.085341066122055054e-01 -1.630929261445999146e-01 6.334632635116577148e-02 -4.594307765364646912e-02 7.952918112277984619e-02 1.060145497322082520e-01 -4.615437239408493042e-02 -6.939212977886199951e-02 -8.495090529322624207e-03 -3.710174188017845154e-02 -9.883467853069305420e-02 1.515205353498458862e-01 -3.641032427549362183e-02 1.782479882240295410e-01 8.774173259735107422e-02 2.476427853107452393e-01 -2.535375356674194336e-01 -7.055870443582534790e-02 -1.884535104036331177e-01 -1.275450289249420166e-01 1.863120645284652710e-01 -1.985661089420318604e-01 -1.330052595585584641e-02 -5.819426476955413818e-02 -1.700580418109893799e-01 1.940429806709289551e-01 3.141030371189117432e-01 -3.996037319302558899e-02 -1.685956716537475586e-01 -2.293671518564224243e-01 -2.160121500492095947e-02 -3.103445768356323242e-01 -1.174954846501350403e-01 1.005494967103004456e-01 -4.324931278824806213e-02 -5.282251909375190735e-02 2.259356379508972168e-01 -3.273167014122009277e-01 -2.531303167343139648e-01 -3.458482325077056885e-01 -2.632974684238433838e-01 -2.455932199954986572e-01 9.649422019720077515e-02 7.424312084913253784e-02 -1.324461400508880615e-01 -1.907636821269989014e-01 2.534393370151519775e-01 -1.554587632417678833e-01 -1.091969236731529236e-01 -2.771843373775482178e-01 -2.286728769540786743e-01 4.429100826382637024e-02 1.684634983539581299e-01 -7.000073045492172241e-02 -2.939724922180175781e-01 -2.121306657791137695e-01 -1.270439326763153076e-01 -2.238928675651550293e-01 -6.483823806047439575e-02 6.211642548441886902e-02 1.582315862178802490e-01 -1.353926807641983032e-01 -6.067525595426559448e-02 -1.511688381433486938e-01 3.278603255748748779e-01 -3.001614809036254883e-01 -1.562353372573852539e-01 -1.134409606456756592e-01 -1.508188992738723755e-01 3.189285695552825928e-01 -2.416008412837982178e-01 2.363456338644027710e-01 1.816125214099884033e-01 2.071048766374588013e-01 1.613898724317550659e-01 8.543533831834793091e-02 -2.596525847911834717e-01 2.808722853660583496e-01 2.543305456638336182e-01 -1.046643108129501343e-01 2.903839349746704102e-01 8.144818246364593506e-02 2.160669714212417603e-01 -3.310341536998748779e-01 -4.678168147802352905e-02 -5.691960826516151428e-02 -2.290320396423339844e-01 2.981056272983551025e-01 -2.405272871255874634e-01 1.224774345755577087e-01 -9.279032051563262939e-02 3.317897617816925049e-01 1.275388896465301514e-01 -2.195746600627899170e-01 3.025904297828674316e-01 -2.538571953773498535e-01 -1.462925374507904053e-01 1.106355562806129456e-01 -3.290055394172668457e-01 2.754869461059570312e-01 -1.667825728654861450e-01 -2.757719457149505615e-01 2.854970097541809082e-01 2.193223983049392700e-01 -2.781370840966701508e-02 -6.260737031698226929e-02 1.623980998992919922e-01 -2.021267414093017578e-01 8.202333003282546997e-02 9.398998320102691650e-02 -2.856895923614501953e-01 -2.746646106243133545e-01 -1.301070302724838257e-01 1.785057634115219116e-01 1.359948664903640747e-01 1.361914575099945068e-01 -7.165651768445968628e-02 7.878709584474563599e-02 -3.118096590042114258e-01 9.407608956098556519e-02 -2.802841663360595703e-01 -2.996831834316253662e-01 1.591352522373199463e-01 2.137590199708938599e-02 -2.978234291076660156e-01 -2.944878041744232178e-01 -2.276255935430526733e-01 -2.901608347892761230e-01 -4.792920872569084167e-02 -1.857690066099166870e-01 -1.517610847949981689e-01 3.268328905105590820e-01 2.621446847915649414e-01 1.881566494703292847e-01 -2.031290233135223389e-01 -2.723719179630279541e-01 -1.320269703865051270e-01 -2.722872197628021240e-01 -1.672275811433792114e-01 7.715570926666259766e-02 1.272846311330795288e-01 2.661231458187103271e-01 2.152650058269500732e-01 1.092665269970893860e-01 -2.254987508058547974e-01 -1.351651251316070557e-01 -1.971541345119476318e-01 -3.112243413925170898e-01 1.459151208400726318e-01 -2.935363352298736572e-01 5.022153630852699280e-02 1.489193439483642578e-01 3.053104579448699951e-01 -2.299874722957611084e-01 -3.147230744361877441e-01 1.886350810527801514e-01 1.422316282987594604e-01 1.509313732385635376e-01 2.559376358985900879e-01 1.819452047348022461e-01 2.484088987112045288e-01 -2.555420398712158203e-01 3.979264944791793823e-02 3.020370006561279297e-01 -1.174318194389343262e-01 2.454208731651306152e-01 3.116164803504943848e-01 2.981080710887908936e-01 1.834453195333480835e-01 2.164564877748489380e-01 -1.398751288652420044e-01 -2.916269302368164062e-01 1.142500936985015869e-01 1.288943141698837280e-01 -1.379815042018890381e-01 1.902786046266555786e-01 3.198698163032531738e-01 5.429361015558242798e-02 2.506552040576934814e-01 -2.629961967468261719e-01 -3.654446825385093689e-02 3.097164928913116455e-01 2.953910231590270996e-01 5.846738442778587341e-02 3.267273306846618652e-01 2.369291931390762329e-01 1.184724122285842896e-01 -6.419420987367630005e-02 -2.060645669698715210e-01 3.485983312129974365e-01 5.062834173440933228e-02 2.388256937265396118e-01 -9.079832583665847778e-02 1.287282556295394897e-01 2.393498867750167847e-01 5.856896564364433289e-02 1.653086245059967041e-01 -5.339880287647247314e-02 2.300323545932769775e-01 -1.164518594741821289e-01 -2.405890375375747681e-01 -3.403233587741851807e-01 -1.566277891397476196e-01 -1.504935473203659058e-01 1.852900981903076172e-01 -1.485786885023117065e-01 -3.019811809062957764e-01 2.876418530941009521e-01 -1.884115338325500488e-01 -1.340553462505340576e-01 -1.474050730466842651e-01 1.006662771105766296e-01 2.396193593740463257e-01 2.701143622398376465e-01 3.482359349727630615e-01 -5.825976654887199402e-02 3.383246958255767822e-01 -1.044366061687469482e-01 3.033391237258911133e-01 -1.540987193584442139e-01 -1.449161618947982788e-01 1.616786420345306396e-01 -1.253740638494491577e-01 2.889927327632904053e-01 1.594022214412689209e-01 -2.943696975708007812e-01 3.196210265159606934e-01 -3.246744275093078613e-01 3.378316462039947510e-01 2.659212350845336914e-01 -2.684106528759002686e-01 -1.496490091085433960e-01 2.447514832019805908e-01 2.892646789550781250e-01 -8.926110714673995972e-02 2.904349565505981445e-01 -6.381379812955856323e-02 -3.721455857157707214e-02 1.852788589894771576e-02 1.265852898359298706e-01 1.536336988210678101e-01 -1.072563901543617249e-01 -1.285422295331954956e-01 -5.237116292119026184e-02 1.700967997312545776e-01 -1.760480850934982300e-01 6.042633950710296631e-02 -1.397340372204780579e-02 1.333890706300735474e-01 1.794855296611785889e-01 -2.370386123657226562e-01 -2.640863656997680664e-01 1.057833060622215271e-01 2.722870707511901855e-01 3.578203022480010986e-01 2.993052452802658081e-02 9.829899668693542480e-02 1.879444420337677002e-01 1.119442582130432129e-01 -2.507939040660858154e-01 -1.701892167329788208e-01 -2.406997978687286377e-01 2.953087091445922852e-01 2.570470236241817474e-02 1.327224373817443848e-01 3.025576770305633545e-01 8.685987442731857300e-02 -3.901932388544082642e-02 -1.301041245460510254e-01 -7.975996285676956177e-02 -2.519078552722930908e-01 -3.411858379840850830e-01 1.942117214202880859e-01 1.601143479347229004e-01 2.944817543029785156e-01 7.771389186382293701e-02 -1.471375077962875366e-01 1.471439898014068604e-01 -1.321030110120773315e-01 -3.153178393840789795e-01 1.509886533021926880e-01 -1.169496178627014160e-01 -8.451466262340545654e-02 1.857859343290328979e-01 1.897583343088626862e-02 1.649744659662246704e-01 7.528181374073028564e-02 1.854661852121353149e-01 2.314074486494064331e-01 -2.839154303073883057e-01 1.893016993999481201e-01 2.177728861570358276e-01 -1.955168843269348145e-01 -1.162290014326572418e-02 2.130578011274337769e-01 2.000959366559982300e-01 4.877897724509239197e-02 2.380938380956649780e-01 -1.935971528291702271e-02 -1.402366608381271362e-01 2.839954793453216553e-01 4.142394289374351501e-02 -2.214024364948272705e-01 8.273965865373611450e-02 1.026426702737808228e-01 4.614628106355667114e-02 2.280549556016921997e-01 -2.256348133087158203e-01 -3.014302626252174377e-02 8.500574529170989990e-02 1.805135607719421387e-01 1.437889039516448975e-01 1.005141660571098328e-01 2.255040556192398071e-01 2.797603011131286621e-01 -1.506312787532806396e-01 -2.876114249229431152e-01 2.764288485050201416e-01 4.517053812742233276e-02 3.691612556576728821e-02 -6.614745128899812698e-03 1.223796010017395020e-01 2.391185164451599121e-01 1.126898303627967834e-01 2.039411365985870361e-01 -9.106784313917160034e-02 2.678056992590427399e-02 -2.669325768947601318e-01 -1.447005122900009155e-01 -2.309695333242416382e-01 -5.498806759715080261e-02 -1.009216755628585815e-01 2.833071351051330566e-01 -3.022592961788177490e-01 -1.678534001111984253e-01 1.805369742214679718e-02 -2.890986800193786621e-01 -1.121018156409263611e-01 -3.198256343603134155e-02 2.524217069149017334e-01 3.566623851656913757e-02 1.844570785760879517e-01 1.296776384115219116e-01 -1.942417025566101074e-01 7.843640632927417755e-03 -6.447590887546539307e-02 8.076643943786621094e-02 -1.176665648818016052e-01 -2.757230103015899658e-01 5.635643005371093750e-02 -2.391740828752517700e-01 2.283660471439361572e-01 2.544581890106201172e-01 -4.258237034082412720e-02 1.326803416013717651e-01 -5.216012895107269287e-02 7.659500837326049805e-02 5.546198785305023193e-02 -2.299856990575790405e-01 -2.956492006778717041e-01 6.723365187644958496e-02 -1.467017922550439835e-03 -8.927754312753677368e-02 2.826762795448303223e-01 -2.760182917118072510e-01 -2.997665405273437500e-01 2.658464312553405762e-01 1.301014274358749390e-01 2.921302914619445801e-01 -1.593589037656784058e-01 -2.476683109998703003e-01 -2.661464549601078033e-02 5.370758101344108582e-02 -1.476486027240753174e-01 1.645215004682540894e-01 -1.383465379476547241e-01 4.454151913523674011e-02 1.748994588851928711e-01 -3.116761445999145508e-01 -9.515277296304702759e-02 5.704151839017868042e-02 2.319266051054000854e-01 1.598833799362182617e-01 2.613926529884338379e-01 2.111159265041351318e-01 8.464595675468444824e-02 2.113159596920013428e-01 -4.685656167566776276e-03 -4.533435404300689697e-02 -9.213808178901672363e-02 2.634263038635253906e-01 1.737331598997116089e-01 1.359007358551025391e-01 1.100002899765968323e-01 1.206130534410476685e-01 9.858496487140655518e-03 -3.375098481774330139e-02 -1.616985797882080078e-01 -1.438528299331665039e-01 -2.565358579158782959e-01 2.061001062393188477e-01 9.835109859704971313e-02 2.615718841552734375e-01 6.197169050574302673e-02 -2.346172034740447998e-01 1.178566738963127136e-01 -2.131529301404953003e-01 -2.885409593582153320e-01 2.025836408138275146e-01 -1.233574673533439636e-01 -1.705377399921417236e-01 5.403349921107292175e-02 1.345959901809692383e-01 1.369741708040237427e-01 2.340503633022308350e-01 2.154643833637237549e-02 3.029816225171089172e-02 -1.574226319789886475e-01 1.889225989580154419e-01 2.569607794284820557e-01 -6.861474364995956421e-02 2.515502572059631348e-01 2.099383771419525146e-01 4.577856138348579407e-02 5.160443112254142761e-02 2.797310799360275269e-02 -1.864435970783233643e-01 -2.263431847095489502e-01 -4.277462605386972427e-03 3.997151553630828857e-02 -7.134204357862472534e-02 2.274623811244964600e-01 4.464367777109146118e-02 1.941163688898086548e-01 -3.092007013037800789e-03 -4.469305276870727539e-02 -1.154609546065330505e-01 6.718872115015983582e-03 1.176334470510482788e-01 7.953299582004547119e-02 4.651077464222908020e-02 1.423540860414505005e-01 -1.295762602239847183e-02 -1.766261756420135498e-01 -2.528499662876129150e-01 4.259084910154342651e-02 1.387399137020111084e-01 1.456031203269958496e-01 -2.673280239105224609e-01 1.827708929777145386e-01 2.052174061536788940e-01 1.944944411516189575e-01 2.335956394672393799e-01 -9.136118739843368530e-02 8.685818314552307129e-02 -2.802700921893119812e-02 -8.908941596746444702e-02 -1.092608869075775146e-01 -1.790035702288150787e-02 -2.585623562335968018e-01 2.921689115464687347e-02 -2.338407039642333984e-01 -2.149026542901992798e-01 -3.596136718988418579e-02 1.950835809111595154e-02 -6.645715236663818359e-02 -2.004887610673904419e-01 3.631301224231719971e-02 1.637869775295257568e-01 1.727038323879241943e-01 2.577236592769622803e-01 -7.926938682794570923e-02 -3.186374669894576073e-03 -2.221451699733734131e-01 3.338408889248967171e-03 -9.264060854911804199e-02 -1.423673629760742188e-01 3.262117132544517517e-02 -1.130960956215858459e-01 8.966103196144104004e-02 1.587311178445816040e-02 -1.612391620874404907e-01 -5.468968767672777176e-03 -1.718190461397171021e-01 1.819919347763061523e-01 2.314781099557876587e-01 -7.926034182310104370e-02 -1.294958740472793579e-01 -3.060456365346908569e-02 8.219836652278900146e-02 -1.673708409070968628e-01 2.199077606201171875e-01 -1.453682929277420044e-01 -2.111502736806869507e-01 1.997632235288619995e-01 1.806820333003997803e-01 2.619688510894775391e-01 -2.545929253101348877e-01 -2.524999380111694336e-01 -1.489684432744979858e-01 6.346156448125839233e-02 -1.181646063923835754e-01 1.634958535432815552e-01 -1.752666234970092773e-01 -2.244668081402778625e-02 4.293847363442182541e-03 -3.095472790300846100e-02 -1.521376222372055054e-01 2.005130946636199951e-01 1.831874996423721313e-01 1.455091983079910278e-01 2.196494936943054199e-01 1.093298718333244324e-01 2.424646615982055664e-01 1.273495405912399292e-01 -1.018824577331542969e-01 -2.615320980548858643e-01 -1.608196049928665161e-01 1.171688660979270935e-01 1.130447164177894592e-01 7.563868910074234009e-02 2.558913826942443848e-01 -2.717601880431175232e-02 -1.456732898950576782e-01 -1.675449311733245850e-01 -8.786295354366302490e-02 1.858974993228912354e-02 -1.356996297836303711e-01 2.861075662076473236e-02 1.336340010166168213e-01 1.367009580135345459e-01 1.701838225126266479e-01 -1.527158170938491821e-01 -2.521983906626701355e-02 -1.338566839694976807e-01 -1.539546102285385132e-01 3.311700522899627686e-01 -6.943797320127487183e-02 -1.702486276626586914e-01 2.755128145217895508e-01 3.120940029621124268e-01 7.943288236856460571e-02 9.727513045072555542e-02 1.572254896163940430e-01 1.216759234666824341e-01 -1.112585142254829407e-01 2.324088662862777710e-01 1.843913048505783081e-01 -8.491371572017669678e-02 1.948771625757217407e-01 3.041713237762451172e-01 2.099081575870513916e-01 1.467807888984680176e-01 6.611115485429763794e-02 -2.364737093448638916e-01 -6.348393857479095459e-02 1.673068106174468994e-01 8.003205806016921997e-02 -6.259665638208389282e-02 2.511434853076934814e-01 1.937040239572525024e-01 2.207087576389312744e-01 2.538118362426757812e-01 -3.491497337818145752e-01 -3.782419487833976746e-02 2.643122076988220215e-01 1.042310670018196106e-01 2.312507480382919312e-01 3.002601563930511475e-01 2.682314813137054443e-01 2.527334094047546387e-01 -8.366539329290390015e-02 -2.514051496982574463e-01 9.132363647222518921e-02 1.462002247571945190e-01 2.145528048276901245e-01 -8.866713196039199829e-02 2.064116299152374268e-01 1.598573774099349976e-01 2.719974815845489502e-01 1.961255520582199097e-01 -2.240589112043380737e-01 6.051332131028175354e-02 -1.780173629522323608e-01 -3.011211156845092773e-01 -2.923102974891662598e-01 -1.496670842170715332e-01 -1.295467615127563477e-01 2.888062894344329834e-01 -2.479788810014724731e-01 -2.305486649274826050e-01 1.304684430360794067e-01 -2.983280420303344727e-01 -2.414709478616714478e-01 -1.057011783123016357e-01 2.158516347408294678e-01 7.540637254714965820e-02 1.590814739465713501e-01 2.736139297485351562e-01 -1.779181212186813354e-01 1.028901562094688416e-01 -2.138165831565856934e-01 1.976914405822753906e-01 -3.088222146034240723e-01 -2.761889994144439697e-01 2.811249494552612305e-01 -2.737216651439666748e-01 3.065887987613677979e-01 3.082171678543090820e-01 -2.855965197086334229e-01 1.895201504230499268e-01 -3.172031044960021973e-01 2.414027452468872070e-01 1.100697740912437439e-01 -1.476773321628570557e-01 -3.087528645992279053e-01 3.268107175827026367e-01 9.892947971820831299e-02 -1.320273280143737793e-01 3.375538289546966553e-01 -3.688015341758728027e-01 -2.633343935012817383e-01 1.147625371813774109e-01 1.656973063945770264e-01 2.278485596179962158e-01 -2.600556910037994385e-01 -2.071563154458999634e-01 -3.163174092769622803e-01 2.343750000000000000e-01 -1.495372802019119263e-01 1.185654178261756897e-01 -1.656236797571182251e-01 1.037831082940101624e-01 1.885527521371841431e-01 -3.597436845302581787e-01 -8.838716894388198853e-02 3.045917153358459473e-01 1.154808774590492249e-01 2.324865907430648804e-01 3.360815644264221191e-01 1.335001438856124878e-01 3.160656094551086426e-01 2.894422113895416260e-01 -2.203247845172882080e-01 -2.207911312580108643e-01 -2.898926138877868652e-01 2.563085854053497314e-01 3.682248294353485107e-02 1.489960700273513794e-01 3.657765090465545654e-01 9.557545185089111328e-02 -2.984869480133056641e-01 -1.812508255243301392e-01 -1.504690498113632202e-01 -3.578054606914520264e-01 -8.978267759084701538e-02 2.586029171943664551e-01 1.795722991228103638e-01 1.537957191467285156e-01 1.295499652624130249e-01 -1.698039919137954712e-01 1.004622727632522583e-01 -2.101274132728576660e-01 -2.681652307510375977e-01 2.835038006305694580e-01 -2.758321464061737061e-01 -4.895144701004028320e-02 8.440381288528442383e-02 -3.184432629495859146e-03 6.005636602640151978e-02 1.343574821949005127e-01 2.689778208732604980e-01 1.237863227725028992e-01 -2.077090889215469360e-01 1.005543470382690430e-01 -1.339106005616486073e-03 -3.818113729357719421e-02 9.147641807794570923e-02 4.765609651803970337e-02 1.404263228178024292e-01 1.690509170293807983e-01 5.108204111456871033e-02 -1.307037174701690674e-01 -7.076719403266906738e-02 1.382732298225164413e-02 1.541337743401527405e-02 -1.884770244359970093e-01 2.315173894166946411e-01 2.823383212089538574e-01 2.049465477466583252e-01 2.646437883377075195e-01 -1.386887133121490479e-01 -1.664879769086837769e-01 8.967213332653045654e-02 3.904530312865972519e-03 1.369370967149734497e-01 1.323113590478897095e-01 3.034567274153232574e-02 1.578210443258285522e-01 -9.299875795841217041e-02 -1.502755582332611084e-01 2.796309292316436768e-01 1.562620699405670166e-01 9.939927607774734497e-02 -2.158181518316268921e-01 5.610053986310958862e-02 2.745121121406555176e-01 3.042654395103454590e-01 1.882792115211486816e-01 -4.296127706766128540e-02 2.933916263282299042e-02 -2.015002258121967316e-02 -4.063626751303672791e-02 -6.393477320671081543e-02 -1.297082453966140747e-01 -3.017892874777317047e-02 5.348462983965873718e-02 -9.740734845399856567e-02 -9.274965524673461914e-02 9.105519950389862061e-02 -1.425414234399795532e-01 -2.535654604434967041e-01 -6.270966678857803345e-02 1.904487311840057373e-01 3.208711743354797363e-02 1.685619652271270752e-01 1.761286258697509766e-01 -4.471662640571594238e-02 1.395566910505294800e-01 -2.341132313013076782e-01 2.284958958625793457e-01 -1.473547667264938354e-01 -8.798288553953170776e-02 5.889201071113348007e-03 -2.698920108377933502e-02 3.079571574926376343e-02 6.150480825453996658e-03 -1.777681857347488403e-01 9.621982276439666748e-02 -2.733247578144073486e-01 2.426229715347290039e-01 2.790775895118713379e-01 -3.772482275962829590e-03 -4.660013597458600998e-03 1.240151450037956238e-01 2.113383412361145020e-01 -7.887011021375656128e-02 1.926690898835659027e-02 -2.729497551918029785e-01 -2.070053964853286743e-01 2.551017105579376221e-01 2.142679542303085327e-01 2.026513963937759399e-02 -1.668425053358078003e-01 -6.474178284406661987e-02 -2.842577993869781494e-01 1.854145377874374390e-01 -1.548541635274887085e-01 2.534501953050494194e-03 -2.167563140392303467e-02 2.766639590263366699e-01 1.770190298557281494e-01 -1.462739855051040649e-01 -2.379435114562511444e-02 7.150365412235260010e-02 9.177260845899581909e-02 1.074752062559127808e-01 1.226488426327705383e-01 6.939944624900817871e-02 1.477308273315429688e-01 1.781816035509109497e-01 -7.211834192276000977e-02 -2.274174541234970093e-01 -2.404658794403076172e-01 2.284141629934310913e-01 2.108781188726425171e-01 2.506954371929168701e-01 2.556467354297637939e-01 4.586185514926910400e-02 -6.258027255535125732e-02 -2.436978369951248169e-01 -2.531562447547912598e-01 -2.937927246093750000e-01 -1.832236498594284058e-01 1.078063771128654480e-01 1.433095782995223999e-01 2.435792237520217896e-01 2.136688381433486938e-01 -3.493636380881071091e-03 1.755576729774475098e-01 -1.021781861782073975e-01 6.143666338175535202e-03 -6.413253396749496460e-02 1.761459559202194214e-01 5.996394529938697815e-02 -2.941175103187561035e-01 -8.161335438489913940e-02 -2.675223052501678467e-01 -2.787320613861083984e-01 -2.682234644889831543e-01 -2.397626936435699463e-01 2.518841922283172607e-01 -1.856937557458877563e-01 -2.708460092544555664e-01 2.377384305000305176e-01 -3.087157309055328369e-01 -2.466321587562561035e-01 -2.217945307493209839e-01 -9.202618896961212158e-02 -8.100838959217071533e-02 2.496260255575180054e-01 2.396172881126403809e-01 -3.389858305454254150e-01 -2.314545810222625732e-01 2.722540497779846191e-01 -2.217781990766525269e-01 -3.101719617843627930e-01 -2.083843350410461426e-01 -3.380510509014129639e-01 2.804457843303680420e-01 2.636395394802093506e-01 -3.554838299751281738e-01 -1.995956301689147949e-01 -1.786388754844665527e-01 -5.236005038022994995e-02 -8.917555958032608032e-02 -1.781366169452667236e-01 7.764108479022979736e-02 4.543016850948333740e-02 -1.053183525800704956e-01 -2.523537874221801758e-01 -1.362066417932510376e-01 2.343793660402297974e-01 -7.906594127416610718e-02 -1.289951652288436890e-01 -2.726418972015380859e-01 -1.603993922472000122e-01 2.604107558727264404e-01 -2.163292467594146729e-01 2.143359780311584473e-01 8.653111755847930908e-02 2.993974983692169189e-01 2.718060314655303955e-01 2.464344203472137451e-01 -2.205135077238082886e-01 3.271749317646026611e-01 1.080271825194358826e-01 -1.140597686171531677e-01 2.308006584644317627e-01 2.822204828262329102e-01 2.505946755409240723e-01 -7.425641268491744995e-02 -1.841768175363540649e-01 -2.041793167591094971e-01 -1.266848891973495483e-01 2.700677514076232910e-01 -5.355159938335418701e-02 2.786183655261993408e-01 -2.115861177444458008e-01 1.957714259624481201e-01 3.182038962841033936e-01 -2.072365432977676392e-01 2.494261264801025391e-01 -1.783618181943893433e-01 -9.697061032056808472e-02 2.418892979621887207e-01 -3.370409905910491943e-01 2.983483076095581055e-01 -2.395827025175094604e-01 -3.306364119052886963e-01 5.193855613470077515e-02 1.420943289995193481e-01 -2.901440262794494629e-01 -2.138569653034210205e-01 3.085860311985015869e-01 -1.798490881919860840e-01 1.873599886894226074e-01 1.342824101448059082e-01 -6.599305570125579834e-02 -2.505885064601898193e-01 -1.986101567745208740e-01 2.915692925453186035e-01 1.298592984676361084e-01 1.387506276369094849e-01 -2.359357029199600220e-01 1.846737712621688843e-01 -2.747485339641571045e-01 1.947043538093566895e-01 -9.926089644432067871e-02 -3.205457329750061035e-01 2.417712956666946411e-01 1.484048217535018921e-01 -1.245414763689041138e-01 -1.037276685237884521e-01 -8.509130030870437622e-02 -2.001011669635772705e-01 -1.462002545595169067e-01 -3.287085592746734619e-01 -1.998629122972488403e-01 2.330678701400756836e-01 1.235902979969978333e-01 2.753379344940185547e-01 -2.821235656738281250e-01 -3.117096722126007080e-01 -2.179060876369476318e-01 -2.446710020303726196e-01 -3.102965354919433594e-01 3.328858017921447754e-01 1.506384909152984619e-01 3.663137555122375488e-01 2.257509380578994751e-01 1.168310269713401794e-01 -3.325980007648468018e-01 -1.047493517398834229e-01 -6.638247519731521606e-02 -6.559776514768600464e-02 3.192678987979888916e-01 -9.540046751499176025e-02 2.042755186557769775e-01 2.266735434532165527e-01 5.817443877458572388e-02 -1.464988589286804199e-01 -4.299820587038993835e-02 2.230790555477142334e-01 1.841864436864852905e-01 1.067978292703628540e-01 -2.621342428028583527e-02 7.220201194286346436e-02 -9.559884667396545410e-03 -1.691779345273971558e-01 3.543475270271301270e-02 5.086833983659744263e-02 -1.407777070999145508e-01 5.518966168165206909e-02 1.733808070421218872e-01 8.729293942451477051e-02 1.567503511905670166e-01 1.271806210279464722e-01 -2.448572665452957153e-01 -3.035329841077327728e-02 2.117096185684204102e-01 9.359585493803024292e-02 5.991839617490768433e-02 1.509838402271270752e-01 2.007553353905677795e-02 1.276464015245437622e-01 2.129601687192916870e-01 -9.749390929937362671e-02 -1.260173618793487549e-01 2.091863565146923065e-02 1.430951654911041260e-01 1.959296762943267822e-01 1.110007017850875854e-01 2.302484363317489624e-01 9.926121681928634644e-02 -1.173248216509819031e-01 8.719383738934993744e-03 9.497651457786560059e-02 1.673568226397037506e-02 2.175139486789703369e-01 -2.148942947387695312e-01 2.199498936533927917e-02 -2.791730687022209167e-02 -3.474429249763488770e-02 1.986046284437179565e-01 3.943843021988868713e-02 1.745235472917556763e-01 -2.830630354583263397e-02 -1.432217210531234741e-01 -1.987197250127792358e-01 -1.191279441118240356e-01 -1.807224238291382790e-03 -4.288534075021743774e-02 -1.761839240789413452e-01 1.094393339008092880e-02 8.191780745983123779e-02 -2.318017780780792236e-01 -1.644590646028518677e-01 -1.395607143640518188e-01 9.570093452930450439e-02 2.474874705076217651e-01 -1.579581387341022491e-02 3.515196731314063072e-03 -1.383933871984481812e-01 7.262585312128067017e-02 -8.742985129356384277e-02 -3.926815406884998083e-04 2.587188594043254852e-02 1.002774853259325027e-02 -5.275354534387588501e-02 -1.568847745656967163e-01 2.305442988872528076e-01 8.338619023561477661e-02 -3.694169968366622925e-02 1.691323816776275635e-01 -2.181585580110549927e-01 7.183138281106948853e-02 -3.892413526773452759e-02 -1.796707361936569214e-01 -6.058893166482448578e-03 2.400537393987178802e-02 1.634609997272491455e-01 2.654203958809375763e-02 1.644846946001052856e-01 -1.888316571712493896e-01 -2.412253916263580322e-01 5.365361645817756653e-02 6.172843649983406067e-02 1.953630745410919189e-01 -1.626669019460678101e-01 -1.213421523571014404e-01 -2.393199056386947632e-01 6.942165642976760864e-02 -1.176201850175857544e-01 -1.074308063834905624e-02 -1.804810762405395508e-01 1.462014913558959961e-01 2.176715135574340820e-01 -1.165768727660179138e-01 4.714430496096611023e-02 1.362104155123233795e-02 1.591864079236984253e-01 -4.318921267986297607e-02 -1.952141895890235901e-02 6.831791996955871582e-02 1.840621232986450195e-01 1.164087001234292984e-02 1.366722118109464645e-02 -1.845204979181289673e-01 -4.273914918303489685e-02 4.988633445464074612e-04 1.550376862287521362e-01 2.383034229278564453e-01 2.400104403495788574e-01 1.967037767171859741e-01 2.487352304160594940e-02 -8.540406823158264160e-02 -1.103800255805253983e-02 -1.858455389738082886e-01 -2.715559676289558411e-02 1.464912742376327515e-01 2.036089599132537842e-01 1.538777053356170654e-01 1.028293296694755554e-01 1.014254894107580185e-02 -4.621554538607597351e-02 2.128262445330619812e-02 -5.670447647571563721e-02 -7.403928786516189575e-02 -5.606938898563385010e-02 1.837473958730697632e-01 4.875992611050605774e-02 3.684112429618835449e-02 -5.335666984319686890e-02 -1.353658735752105713e-01 -4.097788035869598389e-02 -1.885610222816467285e-01 1.025249734520912170e-01 -1.006228476762771606e-01 6.217667087912559509e-02 1.424055993556976318e-01 -2.237239629030227661e-01 -1.630204766988754272e-01 -1.193624213337898254e-01 3.935453295707702637e-02 4.713004454970359802e-02 1.678600348532199860e-02 -7.143372297286987305e-02 -3.177427500486373901e-02 -1.464904192835092545e-02 1.209230124950408936e-01 -9.138602763414382935e-02 -7.422440499067306519e-02 4.632959142327308655e-02 -2.058604657649993896e-01 -7.079051434993743896e-02 -5.036072805523872375e-02 -1.766612753272056580e-02 6.821513921022415161e-02 -1.838652640581130981e-01 -1.258465796709060669e-01 -1.914956271648406982e-01 -5.406213179230690002e-02 2.111166566610336304e-01 1.526061743497848511e-01 -6.233568489551544189e-02 -1.792439371347427368e-01 -2.149318903684616089e-02 -4.613746330142021179e-02 -2.888608537614345551e-02 -1.982850432395935059e-01 -1.957557797431945801e-01 -3.962133824825286865e-02 1.234866157174110413e-01 -1.362615823745727539e-01 1.884806007146835327e-01 9.076081216335296631e-02 -1.749043352901935577e-02 8.632151037454605103e-02 -2.922858484089374542e-02 -9.625273942947387695e-02 9.775337576866149902e-02 1.715072393417358398e-01 -1.291129440069198608e-01 5.978100234642624855e-04 -6.962469965219497681e-02 4.813495650887489319e-02 6.535416841506958008e-02 -4.623597487807273865e-02 -1.607672870159149170e-01 9.948649443686008453e-03 1.958032697439193726e-01 -1.254617273807525635e-01 8.058051764965057373e-02 5.362506024539470673e-03 1.431968063116073608e-01 9.351576864719390869e-02 -1.067635640501976013e-01 4.659911245107650757e-02 -5.354709550738334656e-02 -2.091164588928222656e-01 1.023360043764114380e-01 -1.045983433723449707e-01 1.072121337056159973e-01 -8.186534978449344635e-03 -8.819770067930221558e-02 1.870421916246414185e-01 -1.607003738172352314e-03 -7.399912178516387939e-02 -9.808775968849658966e-03 -7.506465911865234375e-02 -1.505223661661148071e-01 1.393389999866485596e-01 1.728067398071289062e-01 -6.865741312503814697e-02 4.910795018076896667e-02 7.981356978416442871e-02 3.628321364521980286e-02 1.375930309295654297e-01 1.789050698280334473e-01 3.255285695195198059e-02 2.091765552759170532e-01 4.372215643525123596e-02 -4.326344002038240433e-03 -8.406905084848403931e-02 -1.880547106266021729e-01 6.013262271881103516e-02 -2.843977184966206551e-03 -2.058883756399154663e-01 -1.469000130891799927e-01 -1.107073873281478882e-01 -7.402127981185913086e-02 9.088868647813796997e-02 -1.634562164545059204e-01 6.081457063555717468e-02 -8.255592733621597290e-02 5.623221397399902344e-03 1.934804022312164307e-01 -1.225598976016044617e-01 -1.761704981327056885e-01 -1.210250332951545715e-01 -2.169607877731323242e-01 -1.982529014348983765e-01 1.015092879533767700e-01 1.596252769231796265e-01 4.438094794750213623e-02 1.955324411392211914e-01 2.199866324663162231e-01 2.876324579119682312e-02 -1.087562218308448792e-01 3.689361363649368286e-02 -3.778115287423133850e-02 1.021162718534469604e-01 -9.287910163402557373e-02 -7.411289960145950317e-02 1.946603059768676758e-01 3.298557102680206299e-01 -1.721823662519454956e-01 -2.719712555408477783e-01 3.061919212341308594e-01 2.450402528047561646e-01 1.703648418188095093e-01 2.963827252388000488e-01 1.528504490852355957e-01 2.423499971628189087e-01 -2.321424186229705811e-01 6.316260248422622681e-02 2.434435188770294189e-01 -1.301881521940231323e-01 2.990490198135375977e-01 1.759651452302932739e-01 3.038336932659149170e-01 2.741393148899078369e-01 4.500078782439231873e-02 -3.353463113307952881e-01 -3.364381492137908936e-01 1.223211437463760376e-01 1.265498697757720947e-01 -1.632916331291198730e-01 6.011017039418220520e-02 2.975068055093288422e-02 2.613611221313476562e-01 6.961551308631896973e-02 -2.403846681118011475e-01 -2.754418253898620605e-01 1.716315448284149170e-01 3.823969140648841858e-02 1.009281948208808899e-01 2.258569896221160889e-01 8.147537708282470703e-02 3.082926869392395020e-01 -1.259391903877258301e-01 -6.591413915157318115e-02 3.805980086326599121e-02 2.867302596569061279e-01 1.744020432233810425e-01 -3.002088069915771484e-01 2.166737169027328491e-01 3.110042810440063477e-01 1.393537968397140503e-01 1.753120869398117065e-01 -7.469651103019714355e-02 2.572891116142272949e-01 -3.229851722717285156e-01 -1.948860436677932739e-01 -1.893126219511032104e-01 -2.106441259384155273e-01 -2.421326190233230591e-01 3.384756445884704590e-01 -3.192974627017974854e-01 -3.061429262161254883e-01 2.578153610229492188e-01 -7.116568088531494141e-02 -2.257244437932968140e-01 -3.234666287899017334e-01 2.210823073983192444e-02 7.912961393594741821e-02 1.709779202938079834e-01 2.357193529605865479e-01 -1.295946240425109863e-01 1.754397600889205933e-01 -3.101207613945007324e-01 8.672218024730682373e-02 -1.894855946302413940e-01 -3.127246201038360596e-01 3.143893182277679443e-01 -1.307368725538253784e-01 9.373243898153305054e-02 1.410037726163864136e-01 -2.907341420650482178e-01 1.779479384422302246e-01 -1.946541815996170044e-01 2.547980844974517822e-01 5.644241720438003540e-02 -2.756064832210540771e-01 -2.624830305576324463e-01 1.661476343870162964e-01 8.085277676582336426e-02 -1.071776151657104492e-01 3.249509036540985107e-01 -2.381843924522399902e-01 -1.117964386940002441e-01 2.801191806793212891e-01 1.383484601974487305e-01 1.336406022310256958e-01 -2.235012948513031006e-01 -1.913077980279922485e-01 -2.582537829875946045e-01 1.572422832250595093e-01 -3.300236463546752930e-01 1.100269854068756104e-01 -7.956624776124954224e-02 1.303370893001556396e-01 1.178034991025924683e-01 -1.040683314204216003e-01 -1.561983227729797363e-01 1.588892489671707153e-01 1.208358928561210632e-01 7.647161930799484253e-02 2.934437990188598633e-01 2.105024605989456177e-01 2.938623428344726562e-01 2.348859906196594238e-01 -1.859492212533950806e-01 -2.609832882881164551e-01 -2.417509108781814575e-01 2.425563931465148926e-01 3.156585693359375000e-01 1.320240795612335205e-01 1.818649917840957642e-01 9.246449172496795654e-02 -1.365802139043807983e-01 -2.733341753482818604e-01 -2.562302052974700928e-01 -1.009651497006416321e-01 -2.410338968038558960e-01 2.120443433523178101e-01 2.850562632083892822e-01 2.179933041334152222e-01 2.877703011035919189e-01 -2.920715212821960449e-01 2.091542929410934448e-01 -3.101225197315216064e-02 -7.646955549716949463e-02 2.182253599166870117e-01 -3.664816021919250488e-01 -2.925752997398376465e-01 2.407103329896926880e-01 2.207717895507812500e-01 2.092552036046981812e-01 3.446192443370819092e-01 3.645570576190948486e-01 3.007402122020721436e-01 -3.935704231262207031e-01 3.068143427371978760e-01 2.180387824773788452e-01 -2.374099344015121460e-01 3.265203833580017090e-01 3.293122947216033936e-01 3.639621138572692871e-01 2.909818291664123535e-01 1.290528774261474609e-01 -4.281671047210693359e-01 -1.676881909370422363e-01 1.406964212656021118e-01 1.884999573230743408e-01 -3.739668130874633789e-01 1.615016311407089233e-01 3.317266404628753662e-01 3.684974014759063721e-01 3.323025703430175781e-01 -1.281741708517074585e-01 -1.820866167545318604e-01 3.157323002815246582e-01 1.190451309084892273e-01 2.429050952196121216e-01 4.026896059513092041e-01 1.366633623838424683e-01 2.675170600414276123e-01 -2.713877260684967041e-01 -3.649147450923919678e-01 4.234794974327087402e-01 1.907053440809249878e-01 2.337318956851959229e-01 -4.316490590572357178e-01 2.655595541000366211e-01 1.772213876247406006e-01 1.609040051698684692e-01 3.953788876533508301e-01 -3.932242989540100098e-01 4.142156243324279785e-01 -3.282762765884399414e-01 -3.316361606121063232e-01 -4.095273911952972412e-01 -3.146842718124389648e-01 -2.910833358764648438e-01 1.778078377246856689e-01 -2.713653147220611572e-01 -2.474682331085205078e-01 2.540788352489471436e-01 -1.411651074886322021e-01 -3.026226162910461426e-01 -1.901623159646987915e-01 2.582108974456787109e-01 1.963653117418289185e-01 3.839095234870910645e-01 4.105408191680908203e-01 -3.071337938308715820e-01 2.657041847705841064e-01 -4.099293351173400879e-01 3.595115244388580322e-01 -2.721046507358551025e-01 -3.153708279132843018e-01 3.287021517753601074e-01 -4.050794243812561035e-01 3.250636756420135498e-01 3.155820965766906738e-01 -2.366432994604110718e-01 3.838492631912231445e-01 -2.190501987934112549e-01 2.908718585968017578e-01 1.627331674098968506e-01 -4.283589124679565430e-01 -1.475295275449752808e-01 1.431960612535476685e-01 4.081462323665618896e-01 -2.467201650142669678e-01 2.277161777019500732e-01 -3.974393606185913086e-01 -1.949826925992965698e-01 3.497963547706604004e-01 3.530395328998565674e-01 3.607605695724487305e-01 -1.484950333833694458e-01 -1.611634492874145508e-01 -1.769079566001892090e-01 1.284271478652954102e-01 -3.190051019191741943e-01 1.706550568342208862e-01 -1.507246494293212891e-01 3.810116350650787354e-01 3.295587003231048584e-01 -3.047924935817718506e-01 -1.863557547330856323e-01 4.059878885746002197e-01 3.432486653327941895e-01 4.123441576957702637e-01 3.740117549896240234e-01 1.149290502071380615e-01 3.498765826225280762e-01 3.774499893188476562e-01 -1.345923244953155518e-01 -3.750165700912475586e-01 -2.744235396385192871e-01 2.477240562438964844e-01 3.245571851730346680e-01 3.568613529205322266e-01 1.571153700351715088e-01 2.057155668735504150e-01 -2.103230953216552734e-01 -3.825946152210235596e-01 -2.799028158187866211e-01 -3.664515614509582520e-01 -2.477656006813049316e-01 3.805559277534484863e-01 4.121180772781372070e-01 1.969987452030181885e-01 1.232927963137626648e-01 -3.837215006351470947e-01 4.054487347602844238e-01 -2.240756005048751831e-01 -1.680424511432647705e-01 -3.743404895067214966e-02 2.373717576265335083e-01 1.931513398885726929e-01 -5.401837080717086792e-02 -1.168069839477539062e-01 -2.184832990169525146e-01 -1.360621303319931030e-01 -1.710697710514068604e-01 -3.201434016227722168e-01 3.473735749721527100e-01 -3.566365316510200500e-02 -2.844420969486236572e-01 1.560015380382537842e-01 -1.794726103544235229e-01 -3.368504643440246582e-01 -2.788586914539337158e-01 -3.025707602500915527e-01 -1.789919883012771606e-01 1.891765296459197998e-01 3.202669024467468262e-01 -5.692798644304275513e-02 -1.910171508789062500e-01 3.374778032302856445e-01 -1.128547564148902893e-01 -1.931307613849639893e-01 -1.223477274179458618e-01 -2.852061092853546143e-01 1.348535567522048950e-01 3.480066657066345215e-01 -6.831219047307968140e-02 -1.805611699819564819e-01 -1.448521763086318970e-01 -2.190897911787033081e-01 -3.273472487926483154e-01 -3.321565985679626465e-01 4.811530187726020813e-02 1.224805489182472229e-01 -1.776490509510040283e-01 -1.168066784739494324e-01 -6.092756614089012146e-02 1.405127495527267456e-01 -2.113960981369018555e-01 -1.735160350799560547e-01 -2.941526472568511963e-01 -1.694621741771697998e-01 1.467999517917633057e-01 -1.834359019994735718e-01 1.368670314550399780e-01 1.349335610866546631e-01 2.765554189682006836e-01 1.945562511682510376e-01 2.308805435895919800e-01 -1.570912599563598633e-01 2.505123019218444824e-01 1.166369020938873291e-01 -3.152685165405273438e-01 9.739981591701507568e-02 5.027578398585319519e-02 3.104420304298400879e-01 -2.901520133018493652e-01 -4.907599091529846191e-02 -1.837966293096542358e-01 -3.300854861736297607e-01 2.186281234025955200e-01 -2.027234584093093872e-01 3.522574007511138916e-01 -5.552601441740989685e-02 2.393091022968292236e-01 2.225919663906097412e-01 -1.954332888126373291e-01 2.616164088249206543e-01 -2.753373086452484131e-01 -1.620781570672988892e-01 1.789925247430801392e-01 -2.794151008129119873e-01 1.876393705606460571e-01 -3.309220671653747559e-01 -2.125276029109954834e-01 3.301239013671875000e-01 1.972684115171432495e-01 -1.424870342016220093e-01 -1.194792389869689941e-01 2.986243069171905518e-01 -2.990196049213409424e-01 1.284661740064620972e-01 3.313120305538177490e-01 -3.264904022216796875e-01 -1.235446780920028687e-01 -6.295769661664962769e-02 7.241168618202209473e-02 1.533706635236740112e-01 6.890179216861724854e-02 -1.353471130132675171e-01 3.477498292922973633e-01 -2.951587438583374023e-01 1.288443058729171753e-01 -1.308136582374572754e-01 -3.655257076025009155e-02 2.240016162395477295e-01 3.359501361846923828e-01 -4.617409780621528625e-02 -2.633318305015563965e-01 -8.778892457485198975e-02 -2.077432125806808472e-01 -9.367319196462631226e-02 -1.725638210773468018e-01 -2.768683731555938721e-01 3.372594714164733887e-01 1.566944718360900879e-01 3.291890025138854980e-01 -6.818463653326034546e-02 -2.924769818782806396e-01 -2.092187702655792236e-01 -1.917385756969451904e-01 -2.481028586626052856e-01 2.600297033786773682e-01 2.135390788316726685e-01 2.312739640474319458e-01 1.379565298557281494e-01 1.252809613943099976e-01 -1.427976936101913452e-01 -1.721430271863937378e-01 -2.903315126895904541e-01 -2.468065470457077026e-01 2.949103713035583496e-01 -3.190723955631256104e-01 1.200288236141204834e-01 8.438965678215026855e-02 -3.870313763618469238e-01 4.972914159297943115e-01 4.709948301315307617e-01 -3.635884523391723633e-01 -5.462527275085449219e-01 -3.550581336021423340e-01 -4.861027300357818604e-01 -3.925962150096893311e-01 -4.840560555458068848e-01 5.060533881187438965e-01 -2.593757808208465576e-01 -3.357347846031188965e-01 3.858964741230010986e-01 -3.843430280685424805e-01 -2.752562463283538818e-01 -4.287356436252593994e-01 -3.079476654529571533e-01 -2.811402678489685059e-01 2.304014414548873901e-01 2.686523497104644775e-01 -2.997576892375946045e-01 -4.125295877456665039e-01 4.664021134376525879e-01 -4.635147452354431152e-01 -4.532528221607208252e-01 -5.497847199440002441e-01 -3.622437715530395508e-01 3.687200844287872314e-01 3.738626539707183838e-01 -3.095803260803222656e-01 -2.865317761898040771e-01 -3.804333209991455078e-01 -4.969004094600677490e-01 -3.274261653423309326e-01 -4.198884069919586182e-01 2.675136327743530273e-01 3.597933948040008545e-01 -4.101387262344360352e-01 -5.156080126762390137e-01 -3.741153776645660400e-01 5.209453701972961426e-01 -3.036139607429504395e-01 -2.793892025947570801e-01 -4.013153314590454102e-01 -3.208152949810028076e-01 2.953518331050872803e-01 -3.368198275566101074e-01 2.849751412868499756e-01 5.156132578849792480e-01 4.982923865318298340e-01 4.740594327449798584e-01 5.146019458770751953e-01 -3.518180251121520996e-01 3.698324263095855713e-01 3.088050782680511475e-01 -2.677478790283203125e-01 3.736030161380767822e-01 4.732478260993957520e-01 3.534137904644012451e-01 -3.322507441043853760e-01 -5.302930474281311035e-01 -3.038018643856048584e-01 -2.569274306297302246e-01 2.915951907634735107e-01 -3.496758937835693359e-01 2.913604974746704102e-01 -4.196895956993103027e-01 3.339545130729675293e-01 4.809671938419342041e-01 -4.259915351867675781e-01 4.031254947185516357e-01 -2.831457257270812988e-01 -4.455638527870178223e-01 4.520231187343597412e-01 -3.644752502441406250e-01 4.499738812446594238e-01 -4.455961287021636963e-01 -3.826571702957153320e-01 3.529312312602996826e-01 3.706084787845611572e-01 -2.479989081621170044e-01 -2.856172323226928711e-01 4.087147712707519531e-01 -5.320701599121093750e-01 3.748694658279418945e-01 3.047015964984893799e-01 -3.322096168994903564e-01 -4.229131937026977539e-01 -3.244860172271728516e-01 3.328700959682464600e-01 3.015070259571075439e-01 4.631046652793884277e-01 -3.265482485294342041e-01 4.685869514942169189e-01 -3.552455008029937744e-01 4.672102332115173340e-01 -3.864832818508148193e-01 -4.797747433185577393e-01 3.703378438949584961e-01 3.426654338836669922e-01 -3.281974494457244873e-01 -4.006434381008148193e-01 -2.575071454048156738e-01 -4.305465519428253174e-01 -4.906388521194458008e-01 -5.261621475219726562e-01 -4.098311066627502441e-01 3.983286321163177490e-01 4.400899112224578857e-01 5.326176881790161133e-01 -4.784579277038574219e-01 -4.773095846176147461e-01 -4.657519459724426270e-01 -3.495377004146575928e-01 -4.290883839130401611e-01 3.219901025295257568e-01 2.870934009552001953e-01 4.744987189769744873e-01 2.891013920307159424e-01 5.105819702148437500e-01 -4.222899675369262695e-01 -3.916138708591461182e-01 -3.045850992202758789e-01 -2.956588566303253174e-01 5.415276885032653809e-01 -3.171517848968505859e-01 4.917324185371398926e-01 3.866966962814331055e-01 -6.271433085203170776e-02 -1.593378186225891113e-01 -2.193152159452438354e-01 1.298149228096008301e-01 1.701351404190063477e-01 2.254543639719486237e-02 2.019076645374298096e-01 -5.181861575692892075e-03 1.131048575043678284e-01 -5.855648964643478394e-02 -4.304128140211105347e-02 -1.730887219309806824e-02 -6.956031918525695801e-02 6.669004261493682861e-02 -3.285111859440803528e-02 6.713381409645080566e-02 4.614974558353424072e-02 -2.722509205341339111e-02 -5.514088273048400879e-02 -1.148062720894813538e-01 -5.087032169103622437e-02 1.536639332771301270e-01 4.492250457406044006e-02 1.955244988203048706e-01 1.183522418141365051e-01 1.647883504629135132e-01 1.147468760609626770e-01 -6.799285858869552612e-02 -1.865491867065429688e-01 8.307608962059020996e-02 2.051357775926589966e-01 1.994457840919494629e-01 1.960535794496536255e-01 -5.967635195702314377e-03 1.510438695549964905e-02 -3.892168402671813965e-02 -1.813742518424987793e-01 1.115937158465385437e-01 1.701191514730453491e-01 -6.513438373804092407e-02 -2.064237445592880249e-01 -8.724620938301086426e-02 3.853002935647964478e-02 1.882283389568328857e-01 1.133947595953941345e-01 -3.996351733803749084e-02 1.332480907440185547e-01 -2.140658646821975708e-01 -1.900375783443450928e-01 -1.835373342037200928e-01 -1.765004396438598633e-01 -8.470186591148376465e-02 -3.996664285659790039e-02 -1.846185177564620972e-01 -1.526655256748199463e-01 4.490435123443603516e-02 5.909350886940956116e-02 -2.529687248170375824e-03 -7.761412858963012695e-02 1.602451950311660767e-01 1.090101078152656555e-01 -1.426577009260654449e-02 3.146211802959442139e-02 4.951976239681243896e-02 1.352069526910781860e-01 -6.275302916765213013e-02 1.344776060432195663e-02 -9.874136745929718018e-02 -2.004979699850082397e-01 -7.045307010412216187e-02 -1.611080318689346313e-01 8.838517218828201294e-02 8.724420517683029175e-02 -1.668264716863632202e-01 -4.031123965978622437e-02 -1.934451609849929810e-01 1.468785479664802551e-02 9.663275629281997681e-02 -1.303177773952484131e-01 -1.066498309373855591e-01 2.092262953519821167e-01 -7.340840250253677368e-02 -1.805278062820434570e-01 2.001114189624786377e-02 1.615799590945243835e-02 -1.838910132646560669e-01 8.645372092723846436e-02 1.722696051001548767e-02 1.539106369018554688e-01 -1.674267947673797607e-01 -1.223937198519706726e-01 -1.998516172170639038e-01 2.578785410150885582e-03 -5.017681512981653214e-03 5.796646699309349060e-02 -1.020664721727371216e-01 2.070039212703704834e-01 -6.115900352597236633e-02 -1.166473850607872009e-01 -1.646685153245925903e-01 1.418610811233520508e-01 8.782524615526199341e-02 -2.865984290838241577e-02 1.304222941398620605e-01 -1.731439121067523956e-02 -2.688324265182018280e-02 1.044412553310394287e-01 -1.559350937604904175e-01 3.455964103341102600e-02 1.091994065791368484e-02 8.795473724603652954e-02 1.358758509159088135e-01 5.792073789052665234e-04 1.210852265357971191e-01 2.381864376366138458e-02 -4.926961287856101990e-02 -9.925431758165359497e-02 -1.615359485149383545e-01 3.061029873788356781e-02 -6.744056195020675659e-02 4.504196345806121826e-02 2.038788348436355591e-01 2.115062922239303589e-01 8.331113308668136597e-02 -1.047851517796516418e-01 -3.501122444868087769e-02 -6.480988860130310059e-02 -4.873980302363634109e-03 1.311347782611846924e-01 -1.755809038877487183e-01 -9.779977053403854370e-02 1.171176284551620483e-01 2.511520385742187500e-01 1.030889227986335754e-01 2.523303590714931488e-02 6.150214001536369324e-03 1.979703158140182495e-01 -1.113970950245857239e-01 2.472921460866928101e-01 1.452274769544601440e-01 -5.812662467360496521e-02 1.751601099967956543e-01 1.249058544635772705e-01 5.940958485007286072e-02 2.082659751176834106e-01 2.612985968589782715e-01 -1.973017901182174683e-01 -1.344569176435470581e-01 1.020727753639221191e-01 2.246659994125366211e-01 -7.057201862335205078e-02 -1.276650093495845795e-02 1.702983677387237549e-01 1.984743028879165649e-01 5.130048841238021851e-02 -2.527190446853637695e-01 -4.922358319163322449e-02 1.325473785400390625e-01 2.125425636768341064e-01 7.299315929412841797e-02 2.600378394126892090e-01 1.787149310111999512e-01 2.412253916263580322e-01 -1.931125968694686890e-01 -4.110459238290786743e-03 9.815099090337753296e-02 5.579845234751701355e-02 -3.607027605175971985e-02 -2.470223903656005859e-01 1.943585574626922607e-01 2.508227527141571045e-01 4.669556394219398499e-02 -4.753760527819395065e-03 -5.440842732787132263e-02 3.603589162230491638e-02 -1.379627287387847900e-01 -6.595064699649810791e-02 -2.023994475603103638e-01 -2.159633785486221313e-01 -2.359334081411361694e-01 2.789786756038665771e-01 -8.093512058258056641e-02 -2.586089074611663818e-01 9.471635520458221436e-02 -9.672843664884567261e-02 2.493023127317428589e-02 -8.763816952705383301e-02 1.261678338050842285e-01 2.702902257442474365e-01 -3.373196348547935486e-02 3.858979418873786926e-02 -2.586070299148559570e-01 2.322698980569839478e-01 3.734103590250015259e-02 1.358721852302551270e-01 -1.684930622577667236e-01 -9.147067368030548096e-02 3.880155831575393677e-02 -2.514313161373138428e-02 2.495320439338684082e-01 2.089769691228866577e-01 -5.227696150541305542e-02 1.535428613424301147e-01 -9.382160007953643799e-02 2.007666230201721191e-01 9.654964506626129150e-02 -2.375229448080062866e-01 -2.756112813949584961e-01 1.567044481635093689e-02 1.549387872219085693e-01 -2.720690071582794189e-01 8.815496414899826050e-02 -1.789262518286705017e-02 -8.190570771694183350e-02 2.673475146293640137e-01 1.716429442167282104e-01 1.083102524280548096e-01 -1.229566261172294617e-01 -2.288753688335418701e-01 -2.456082701683044434e-01 1.546294391155242920e-01 -1.483731623739004135e-02 -2.375919371843338013e-02 -6.002865731716156006e-02 2.183737158775329590e-01 2.243781834840774536e-01 -1.825209707021713257e-01 -1.742307543754577637e-01 2.991100028157234192e-02 1.598411649465560913e-01 1.251140385866165161e-01 1.574091017246246338e-01 6.759386509656906128e-02 8.862556517124176025e-02 1.072672754526138306e-01 -2.133183479309082031e-01 2.153659984469413757e-02 -2.436773031949996948e-01 1.949325799942016602e-01 4.584954679012298584e-02 2.761572599411010742e-01 2.617017030715942383e-01 1.312772631645202637e-01 -2.066986709833145142e-01 6.624334491789340973e-03 -1.539782583713531494e-01 -1.725240051746368408e-01 -2.206590771675109863e-01 6.361624598503112793e-02 5.972602218389511108e-02 2.429207861423492432e-01 2.681865990161895752e-01 2.717485651373863220e-02 1.980298012495040894e-01 -1.949621886014938354e-01 -2.073729485273361206e-01 1.047981977462768555e-01 -4.550320561975240707e-03 -2.325791120529174805e-01 1.279408633708953857e-01 5.011781305074691772e-02 2.437628060579299927e-01 1.797431707382202148e-02 1.864361912012100220e-01 2.312332689762115479e-01 -1.155357807874679565e-01 1.117140427231788635e-02 9.865958243608474731e-02 -1.642760038375854492e-01 2.092341333627700806e-01 1.080693230032920837e-01 2.993193641304969788e-02 2.307112663984298706e-01 2.222120910882949829e-01 -1.947824656963348389e-01 -3.841209784150123596e-02 1.992083340883255005e-01 1.456139385700225830e-01 -2.476392984390258789e-01 5.084819346666336060e-02 1.219171062111854553e-01 -3.377823904156684875e-02 1.134025156497955322e-01 -3.275434300303459167e-02 -2.218023091554641724e-01 1.911607831716537476e-01 1.065476462244987488e-01 1.651368685998022556e-03 2.423082590103149414e-01 8.617127686738967896e-02 1.655207872390747070e-01 -1.764971390366554260e-02 -2.000637650489807129e-01 2.666963823139667511e-02 2.053490430116653442e-01 2.548719346523284912e-01 -1.481934636831283569e-01 2.015573680400848389e-01 1.076914817094802856e-01 6.208152696490287781e-02 2.096203565597534180e-01 -2.655948996543884277e-01 2.360395193099975586e-01 -2.264050096273422241e-01 -7.301017642021179199e-02 -5.071793124079704285e-02 -1.730112284421920776e-01 -1.753001958131790161e-01 1.720508188009262085e-01 -2.686882019042968750e-01 -1.963601857423782349e-01 9.690152853727340698e-02 5.308129824697971344e-03 -1.678703576326370239e-01 -1.261618137359619141e-01 7.416968792676925659e-02 2.676558792591094971e-01 7.993321120738983154e-02 1.713034063577651978e-01 -2.274477928876876831e-01 4.217012599110603333e-02 -1.817819289863109589e-02 1.380106210708618164e-01 3.561723046004772186e-03 -2.821096181869506836e-01 2.705906629562377930e-01 -1.539034303277730942e-02 2.394466251134872437e-01 6.124455481767654419e-02 -2.503956109285354614e-02 2.834185361862182617e-01 -6.713072210550308228e-02 1.162492036819458008e-01 2.582936882972717285e-01 -5.138233304023742676e-02 -3.210735321044921875e-02 4.528762400150299072e-02 -7.019651588052511215e-03 -8.477298170328140259e-02 1.248698905110359192e-01 -1.123978048563003540e-01 -2.474066913127899170e-01 1.429422348737716675e-01 1.889109909534454346e-01 6.223055534064769745e-03 -1.772771477699279785e-01 -1.570626497268676758e-01 -2.005486488342285156e-01 2.072893083095550537e-01 -2.494732588529586792e-01 2.118455171585083008e-01 -3.579825535416603088e-02 6.409749388694763184e-02 2.257755249738693237e-01 -1.781147867441177368e-01 -7.484968006610870361e-02 3.046468831598758698e-02 2.214384227991104126e-01 1.006415486335754395e-02 1.872594840824604034e-02 7.810627669095993042e-02 2.806799113750457764e-01 6.808933615684509277e-02 -2.026983052492141724e-01 -8.707547187805175781e-02 -2.433590888977050781e-01 1.854775249958038330e-01 1.348540335893630981e-01 1.004048287868499756e-01 4.677110537886619568e-02 1.175695732235908508e-01 1.695273071527481079e-02 -1.661196351051330566e-01 -2.084702700376510620e-01 -9.371136128902435303e-02 -8.298370242118835449e-02 2.168076932430267334e-01 -7.385828532278537750e-03 2.506020367145538330e-01 1.911966688930988312e-02 -1.965042501688003540e-01 8.651274442672729492e-02 -1.158208176493644714e-01 -2.455902844667434692e-01 -7.749500274658203125e-01 6.732832193374633789e-01 5.689772367477416992e-01 -4.931825697422027588e-01 -5.079497694969177246e-01 -6.887122392654418945e-01 -5.481595993041992188e-01 -6.404926776885986328e-01 -5.384860038757324219e-01 5.975459218025207520e-01 -5.213769674301147461e-01 -6.613060235977172852e-01 6.468821763992309570e-01 -5.923101902008056641e-01 -5.473147630691528320e-01 -6.446383595466613770e-01 -6.942231655120849609e-01 -6.603121757507324219e-01 5.719807744026184082e-01 6.611141562461853027e-01 -7.138127684593200684e-01 -7.255318164825439453e-01 7.834681272506713867e-01 -6.207489967346191406e-01 -6.410587430000305176e-01 -4.752585589885711670e-01 -5.489497184753417969e-01 5.637306571006774902e-01 4.931773841381072998e-01 -6.313839554786682129e-01 -6.583122611045837402e-01 -5.670688748359680176e-01 -5.827273726463317871e-01 -4.642161428928375244e-01 -6.448517441749572754e-01 7.272998094558715820e-01 5.390031933784484863e-01 -5.569025278091430664e-01 -6.692394018173217773e-01 -5.781641006469726562e-01 6.806393861770629883e-01 -6.642548441886901855e-01 -6.391693353652954102e-01 -6.852654814720153809e-01 -7.063266634941101074e-01 7.436360120773315430e-01 -6.522619724273681641e-01 5.729852914810180664e-01 5.028592944145202637e-01 6.378894448280334473e-01 5.968030691146850586e-01 7.207570075988769531e-01 -6.011753082275390625e-01 5.609007477760314941e-01 4.706246852874755859e-01 -6.315839886665344238e-01 6.537204384803771973e-01 5.971304774284362793e-01 6.606327295303344727e-01 -7.205496430397033691e-01 -6.085081696510314941e-01 -4.637009203433990479e-01 -5.967339873313903809e-01 5.450109839439392090e-01 -6.609678864479064941e-01 6.484887599945068359e-01 -6.308512091636657715e-01 5.426577329635620117e-01 7.621105909347534180e-01 -6.619029045104980469e-01 5.810904502868652344e-01 -5.082548856735229492e-01 -5.724247694015502930e-01 6.857445240020751953e-01 -7.749063372611999512e-01 7.259625792503356934e-01 -5.123562216758728027e-01 -5.822760462760925293e-01 7.472457885742187500e-01 6.713327765464782715e-01 -5.991802811622619629e-01 -6.965213418006896973e-01 5.493504405021667480e-01 -6.314262151718139648e-01 6.095244288444519043e-01 6.447188854217529297e-01 -7.345333099365234375e-01 -5.651671290397644043e-01 -4.902549982070922852e-01 5.676571130752563477e-01 6.979039907455444336e-01 7.943719029426574707e-01 -6.780532598495483398e-01 6.996376514434814453e-01 -5.040755271911621094e-01 6.267763972282409668e-01 -5.728958249092102051e-01 -6.635670661926269531e-01 7.161816954612731934e-01 6.336139440536499023e-01 -7.637892365455627441e-01 -5.625513195991516113e-01 -5.117292404174804688e-01 -7.374321222305297852e-01 -5.636605620384216309e-01 -6.991304159164428711e-01 -6.731829047203063965e-01 7.451910972595214844e-01 5.215770006179809570e-01 7.695891261100769043e-01 -6.556007266044616699e-01 -7.106025815010070801e-01 -7.029086351394653320e-01 -5.145145654678344727e-01 -7.028568387031555176e-01 6.345004439353942871e-01 5.820615887641906738e-01 6.427919268608093262e-01 6.823017001152038574e-01 7.077398896217346191e-01 -7.549778819084167480e-01 -6.276335120201110840e-01 -5.137670040130615234e-01 -7.660561203956604004e-01 5.545533895492553711e-01 -5.014793276786804199e-01 5.655924081802368164e-01 7.577194571495056152e-01 1.724181510508060455e-02 -5.365745350718498230e-02 -6.625887006521224976e-02 1.615337282419204712e-02 -6.776656210422515869e-02 2.587410807609558105e-02 -1.703409999608993530e-01 5.376087129116058350e-02 -3.151715919375419617e-02 1.205284595489501953e-01 3.323719277977943420e-02 -7.612900435924530029e-02 1.725754439830780029e-01 3.231083974242210388e-02 -1.602542027831077576e-02 -1.550449430942535400e-01 5.276580899953842163e-02 -7.195191085338592529e-02 1.517832130193710327e-01 1.166318263858556747e-02 -6.266064196825027466e-02 -3.619116498157382011e-03 8.874775469303131104e-02 -1.429314762353897095e-01 -2.195405364036560059e-01 -5.649671703577041626e-02 5.533206090331077576e-02 1.738642603158950806e-01 6.271193176507949829e-02 5.283793807029724121e-02 -2.023932039737701416e-01 -1.913635581731796265e-01 -2.220007777214050293e-01 -1.365587562322616577e-01 -1.128333061933517456e-01 1.649600714445114136e-01 1.127353906631469727e-01 -1.002048887312412262e-02 8.297631517052650452e-03 -1.063943728804588318e-01 4.767829179763793945e-02 1.565448939800262451e-02 -1.515504568815231323e-01 -7.685543596744537354e-02 1.180322468280792236e-02 3.141198679804801941e-02 -4.146247729659080505e-02 1.408212035894393921e-01 5.085390433669090271e-02 -1.063126977533102036e-02 2.646643901243805885e-03 1.282747238874435425e-01 2.076176367700099945e-02 1.468273699283599854e-01 5.643281713128089905e-02 -1.263101547956466675e-01 -9.258776158094406128e-02 1.693466603755950928e-01 -4.303331300616264343e-02 -1.564681529998779297e-01 -9.280514717102050781e-02 -2.168973833322525024e-01 -3.668754547834396362e-02 9.063889086246490479e-02 -8.175970613956451416e-02 1.910167336463928223e-01 -7.935094088315963745e-02 2.101797610521316528e-02 2.225054986774921417e-02 -1.435252428054809570e-01 1.175986677408218384e-01 -1.536805927753448486e-01 -1.989080756902694702e-01 6.795331835746765137e-02 -8.976466208696365356e-02 -8.112587034702301025e-02 -2.278815256431698799e-03 -1.008336171507835388e-01 4.002118017524480820e-03 4.176611080765724182e-02 4.236134514212608337e-02 3.201810643076896667e-02 -9.003716707229614258e-02 -5.692332610487937927e-02 -6.188735365867614746e-03 -3.870797529816627502e-02 -3.529887646436691284e-02 6.253117322921752930e-02 -3.214936237782239914e-03 -3.653856366872787476e-02 1.784353852272033691e-01 -5.956426635384559631e-02 -1.171411275863647461e-01 -7.779175415635108948e-03 -3.538068383932113647e-02 8.883627504110336304e-02 -7.679788768291473389e-02 -1.200563311576843262e-01 9.407528489828109741e-02 2.057252079248428345e-02 -2.496335282921791077e-02 -1.700572669506072998e-01 -2.883072709664702415e-03 -3.589677438139915466e-02 -1.192065402865409851e-01 -1.351397633552551270e-01 -1.239974498748779297e-01 6.475686281919479370e-02 4.111944511532783508e-02 1.074457243084907532e-01 -2.557640336453914642e-02 6.845264881849288940e-02 -1.396778225898742676e-01 -2.074927687644958496e-01 -1.787753105163574219e-01 3.563615307211875916e-02 1.178953722119331360e-01 9.711807966232299805e-02 -1.076897159218788147e-01 1.005422398447990417e-01 -1.194363236427307129e-01 -4.581115394830703735e-02 -1.937005072832107544e-01 -4.130286723375320435e-02 8.544807881116867065e-02 6.934206001460552216e-03 1.175122559070587158e-01 1.379392854869365692e-02 -4.508040249347686768e-01 1.840268373489379883e-01 2.525053322315216064e-01 -4.738439619541168213e-01 -4.170602560043334961e-01 -1.643422991037368774e-01 -4.137875139713287354e-01 -3.771695196628570557e-01 -3.558632731437683105e-01 4.518603980541229248e-01 -4.254527091979980469e-01 -3.990994691848754883e-01 4.246715903282165527e-01 -4.382682740688323975e-01 -3.085578978061676025e-01 -2.108820676803588867e-01 -3.502269089221954346e-01 -2.766460478305816650e-01 2.055940479040145874e-01 4.696860909461975098e-01 -4.062642753124237061e-01 -2.212237417697906494e-01 3.646630644798278809e-01 -4.768487811088562012e-01 -3.867457807064056396e-01 -4.676687419414520264e-01 -3.462123274803161621e-01 2.920640408992767334e-01 3.999653756618499756e-01 -3.827988505363464355e-01 -3.889921307563781738e-01 -2.760351002216339111e-01 -2.471887022256851196e-01 -4.453388750553131104e-01 -4.564625322818756104e-01 2.007476985454559326e-01 4.796001911163330078e-01 -3.554907143115997314e-01 -2.091350108385086060e-01 -2.790789306163787842e-01 3.622724711894989014e-01 -3.676912784576416016e-01 -2.555402517318725586e-01 -4.464327394962310791e-01 -2.024206072092056274e-01 3.703108429908752441e-01 -2.072502076625823975e-01 4.298081994056701660e-01 4.331941604614257812e-01 3.749434947967529297e-01 3.912874162197113037e-01 3.454559147357940674e-01 -3.864902257919311523e-01 2.852113246917724609e-01 4.468906819820404053e-01 -2.255358546972274780e-01 3.215216994285583496e-01 3.363870084285736084e-01 3.418069481849670410e-01 -3.140972554683685303e-01 -4.256093204021453857e-01 -1.960188895463943481e-01 -2.276546657085418701e-01 4.341887235641479492e-01 -3.564327359199523926e-01 3.527032136917114258e-01 -3.939194977283477783e-01 4.294229745864868164e-01 2.105507999658584595e-01 -4.657408297061920166e-01 2.953069210052490234e-01 -4.185971319675445557e-01 -4.715456366539001465e-01 2.749374806880950928e-01 -2.405770272016525269e-01 3.499780595302581787e-01 -4.143038988113403320e-01 -2.799328267574310303e-01 1.986167132854461670e-01 4.532204866409301758e-01 -2.307692021131515503e-01 -2.780497968196868896e-01 2.073386013507843018e-01 -2.797144651412963867e-01 2.540456652641296387e-01 3.335485756397247314e-01 -4.025176465511322021e-01 -2.108572423458099365e-01 -2.179657220840454102e-01 4.878124892711639404e-01 1.989819109439849854e-01 4.767490327358245850e-01 -2.142804265022277832e-01 4.114081263542175293e-01 -3.297454416751861572e-01 4.649901390075683594e-01 -3.856590986251831055e-01 -3.049536943435668945e-01 3.756121397018432617e-01 2.957765758037567139e-01 -3.097512125968933105e-01 -4.331506490707397461e-01 -3.298534154891967773e-01 -1.932589858770370483e-01 -3.464224636554718018e-01 -2.540308237075805664e-01 -3.584931790828704834e-01 4.543065130710601807e-01 1.873179823160171509e-01 2.074268758296966553e-01 -3.035159111022949219e-01 -1.926724165678024292e-01 -3.834860026836395264e-01 -2.167793512344360352e-01 -1.935688406229019165e-01 2.430791258811950684e-01 4.764235317707061768e-01 4.795091748237609863e-01 3.700686395168304443e-01 2.783477902412414551e-01 -2.563678026199340820e-01 -4.507869482040405273e-01 -3.845352232456207275e-01 -4.474360048770904541e-01 3.812287449836730957e-01 -4.481228291988372803e-01 3.983346521854400635e-01 4.142792820930480957e-01 -1.045275107026100159e-01 1.507787555456161499e-01 -3.738136589527130127e-02 -2.083188891410827637e-01 -1.558241397142410278e-01 -3.941870108246803284e-02 -6.549526005983352661e-02 -6.097216159105300903e-02 -2.067983448505401611e-01 1.938506960868835449e-01 -1.550268083810806274e-01 -2.094998955726623535e-01 7.648865878582000732e-02 -2.344961762428283691e-01 -3.003216907382011414e-02 -1.242912374436855316e-02 -3.590973094105720520e-02 -2.017181366682052612e-01 1.190864965319633484e-01 6.918561458587646484e-02 -1.263478696346282959e-01 -1.806425116956233978e-02 2.347610443830490112e-01 -1.511408537626266479e-01 -2.203067839145660400e-01 -1.375074088573455811e-01 -8.753193914890289307e-02 1.830073148012161255e-01 1.726513206958770752e-01 -2.204486727714538574e-01 -1.870421171188354492e-01 4.648981988430023193e-02 -1.149619147181510925e-01 -1.716730594635009766e-01 -2.255483716726303101e-01 3.495875000953674316e-02 4.053601250052452087e-02 1.521002501249313354e-02 -2.220317721366882324e-01 2.086657099425792694e-02 1.341126710176467896e-01 3.990005701780319214e-02 -6.264878809452056885e-02 -7.509676367044448853e-02 -2.181151062250137329e-01 5.804625898599624634e-02 -2.069257944822311401e-01 2.233680635690689087e-01 1.248831823468208313e-01 1.137086153030395508e-01 1.109991744160652161e-01 2.520775198936462402e-01 -9.318261593580245972e-02 2.376748993992805481e-02 1.079514548182487488e-01 -6.768539547920227051e-02 -1.847244985401630402e-02 2.299828529357910156e-01 1.301952004432678223e-01 1.038847956806421280e-03 -7.741306908428668976e-03 -2.238343060016632080e-01 -2.286435663700103760e-01 9.654904901981353760e-02 1.229357253760099411e-02 6.541910022497177124e-02 -3.376935794949531555e-02 2.588689029216766357e-01 1.985550522804260254e-01 7.682613795623183250e-04 7.626983523368835449e-02 -1.254447698593139648e-01 -6.637140363454818726e-02 9.521988779306411743e-02 -2.386622577905654907e-01 2.565524280071258545e-01 -2.490486949682235718e-01 -1.804486364126205444e-01 1.770130395889282227e-01 -3.133501857519149780e-02 3.519479557871818542e-02 -8.839005976915359497e-02 7.099831849336624146e-02 4.822371155023574829e-02 5.724215134978294373e-02 -3.116805665194988251e-02 3.311166167259216309e-02 -6.856316328048706055e-02 -2.535098232328891754e-02 1.191780641674995422e-01 1.544816885143518448e-02 2.082130014896392822e-01 -1.743805557489395142e-01 1.814040839672088623e-01 -2.043003290891647339e-01 -3.638128982856869698e-03 -9.891939908266067505e-02 -2.325431853532791138e-01 9.242186695337295532e-02 1.487094759941101074e-01 -2.819905057549476624e-02 -1.115682199597358704e-01 9.496575221419334412e-03 -8.701651543378829956e-02 -1.575586050748825073e-01 -1.586642414331436157e-01 -1.354865580797195435e-01 7.410495728254318237e-02 2.118370085954666138e-01 1.884262859821319580e-01 -2.435811311006546021e-01 3.105993010103702545e-02 -1.158915609121322632e-01 -2.466533035039901733e-01 -1.572446711361408234e-02 1.899359747767448425e-02 1.073317006230354309e-01 2.401845604181289673e-01 2.132666260004043579e-01 4.788727685809135437e-02 -9.677915275096893311e-02 -2.149709761142730713e-01 -8.333516120910644531e-02 -1.539788544178009033e-01 1.171551048755645752e-01 -3.655652701854705811e-02 2.503885924816131592e-01 2.444663792848587036e-01 -2.501855976879596710e-02 1.381353009492158890e-02 2.244556993246078491e-01 -2.505769431591033936e-01 -1.972914338111877441e-01 -1.824846267700195312e-01 -1.470348685979843140e-01 -1.710592806339263916e-01 -1.311499774456024170e-01 -3.381212428212165833e-02 -1.081843301653862000e-02 1.206023036502301693e-03 1.079366654157638550e-01 -2.176940143108367920e-01 3.395173326134681702e-02 -9.244330972433090210e-02 -1.147498935461044312e-01 -2.145608812570571899e-01 7.232628762722015381e-02 1.639072149991989136e-01 -1.920466572046279907e-01 -1.554089188575744629e-01 2.648380100727081299e-01 -2.881413698196411133e-02 -3.106655552983283997e-02 -1.654698401689529419e-01 -2.112380415201187134e-01 1.633634120225906372e-01 -4.071908444166183472e-02 -2.229727804660797119e-01 1.119066309183835983e-02 -1.882186345756053925e-02 4.857013374567031860e-02 -7.817428559064865112e-02 1.965654082596302032e-02 1.743401437997817993e-01 1.737418770790100098e-01 -4.735001176595687866e-02 -2.131886780261993408e-01 -1.361024081707000732e-01 5.665064975619316101e-02 -7.692259736359119415e-03 -1.695909649133682251e-01 -2.156683206558227539e-01 -2.991348691284656525e-02 1.653404086828231812e-01 -1.866252124309539795e-01 -1.752931857481598854e-03 1.323555596172809601e-02 2.502435445785522461e-01 7.893691211938858032e-02 3.343456983566284180e-02 -2.672080323100090027e-02 1.762810945510864258e-01 2.064782232046127319e-01 4.494104161858558655e-02 2.427600324153900146e-01 1.410857960581779480e-02 1.162693053483963013e-01 -1.894896626472473145e-01 -1.717973351478576660e-01 3.876201435923576355e-02 -1.104419827461242676e-01 7.651318330317735672e-03 -7.294685393571853638e-02 2.743229642510414124e-02 -2.118445485830307007e-01 -3.421430289745330811e-02 2.518378663808107376e-03 -1.379512995481491089e-01 9.545812010765075684e-02 -6.903956085443496704e-02 -9.405242651700973511e-02 2.319586724042892456e-01 -2.424085736274719238e-01 -5.187075212597846985e-02 -1.353473663330078125e-01 -6.244009360671043396e-02 2.164988964796066284e-01 9.641966223716735840e-02 -1.160436645150184631e-01 -1.117801964282989502e-01 1.419572681188583374e-01 -4.481535777449607849e-02 2.253865450620651245e-01 2.161180526018142700e-01 -2.232731580734252930e-01 -1.363069713115692139e-01 -1.270580589771270752e-01 3.995456919074058533e-02 1.835462749004364014e-01 -1.646891236305236816e-02 2.662343531847000122e-02 1.303946375846862793e-01 -9.473177790641784668e-02 -3.829944133758544922e-02 1.343964133411645889e-02 2.914864942431449890e-02 1.712875813245773315e-01 2.119350135326385498e-01 -2.362604998052120209e-02 3.816674277186393738e-02 -1.837592869997024536e-01 -5.012703686952590942e-02 -6.570602208375930786e-02 -5.780220497399568558e-03 -7.998312264680862427e-02 2.013297528028488159e-01 6.861247867345809937e-02 -2.346803434193134308e-02 -2.110721021890640259e-01 -5.135261267423629761e-02 -2.044186294078826904e-01 -8.305727690458297729e-02 -3.779888153076171875e-02 1.206163782626390457e-02 1.919947192072868347e-02 2.054235786199569702e-01 2.649497985839843750e-02 7.292395830154418945e-02 -2.301411032676696777e-01 -1.216958835721015930e-01 9.578335098922252655e-03 -1.088244542479515076e-01 1.025461927056312561e-01 -4.516913369297981262e-02 2.389603061601519585e-03 1.534659066237509251e-03 -1.839059144258499146e-01 3.237257599830627441e-01 1.545719951391220093e-01 -3.801383674144744873e-01 -4.367575049400329590e-01 -2.899282872676849365e-01 -3.586840331554412842e-01 -3.115896582603454590e-01 -3.140753805637359619e-01 3.046585023403167725e-01 -3.327598869800567627e-01 -4.091412127017974854e-01 4.391803741455078125e-01 -1.718217730522155762e-01 -3.366698324680328369e-01 -3.683887124061584473e-01 -4.070173501968383789e-01 -4.292225539684295654e-01 2.379618138074874878e-01 1.771706342697143555e-01 -1.719466149806976318e-01 -3.927849233150482178e-01 3.737820982933044434e-01 -2.139269560575485229e-01 -2.477182000875473022e-01 -3.907427787780761719e-01 -4.187283813953399658e-01 1.868615299463272095e-01 2.964067459106445312e-01 -4.297904372215270996e-01 -3.125322163105010986e-01 -3.051728606224060059e-01 -2.725905776023864746e-01 -3.409856855869293213e-01 -2.475504577159881592e-01 1.611744165420532227e-01 1.824288070201873779e-01 -4.418095648288726807e-01 -3.589825034141540527e-01 -3.703680336475372314e-01 4.632857739925384521e-01 -3.411528766155242920e-01 -3.405371606349945068e-01 -4.104067087173461914e-01 -2.199027985334396362e-01 4.338701665401458740e-01 -1.590950489044189453e-01 2.410477101802825928e-01 2.036518603563308716e-01 2.929950654506683350e-01 3.634979426860809326e-01 4.341336190700531006e-01 -2.242069244384765625e-01 2.509680390357971191e-01 2.360422611236572266e-01 -1.557567864656448364e-01 4.312855601310729980e-01 3.035931885242462158e-01 2.358618080615997314e-01 -1.592864245176315308e-01 -2.469147890806198120e-01 -2.811634242534637451e-01 -4.525778293609619141e-01 2.274871766567230225e-01 -1.479633003473281860e-01 2.860959470272064209e-01 -1.688432246446609497e-01 4.564461410045623779e-01 2.812789976596832275e-01 -1.361544430255889893e-01 2.701821625232696533e-01 -3.634886443614959717e-01 -2.908912897109985352e-01 2.858376502990722656e-01 -3.216558992862701416e-01 2.796913683414459229e-01 -2.009100615978240967e-01 -2.194877713918685913e-01 2.808023393154144287e-01 3.445092439651489258e-01 -3.789285719394683838e-01 -2.090181261301040649e-01 4.122788012027740479e-01 -2.021697461605072021e-01 1.846381723880767822e-01 2.614394128322601318e-01 -3.333823680877685547e-01 -2.770209610462188721e-01 -2.504303157329559326e-01 3.713978230953216553e-01 4.364808201789855957e-01 4.397569894790649414e-01 -3.684091567993164062e-01 2.677383124828338623e-01 -2.650063037872314453e-01 3.905053734779357910e-01 -1.573173403739929199e-01 -1.592595428228378296e-01 1.662331670522689819e-01 1.914596110582351685e-01 -1.917445212602615356e-01 -1.918810904026031494e-01 -3.300833404064178467e-01 -1.821811199188232422e-01 -1.183580160140991211e-01 -3.946652114391326904e-01 -2.873999178409576416e-01 1.597424298524856567e-01 4.464722871780395508e-01 3.818004131317138672e-01 -1.985154300928115845e-01 -3.001885414123535156e-01 -3.015405833721160889e-01 -3.324373960494995117e-01 -3.556488454341888428e-01 2.947312593460083008e-01 4.062927663326263428e-01 3.169531524181365967e-01 2.098791003227233887e-01 4.350439906120300293e-01 -4.192026853561401367e-01 -4.177998900413513184e-01 -2.552205920219421387e-01 -2.890910506248474121e-01 2.683002352714538574e-01 -2.051523625850677490e-01 4.627264440059661865e-01 4.183655977249145508e-01 -2.302263230085372925e-01 1.891061514616012573e-01 2.094075828790664673e-01 -2.477143853902816772e-01 -3.008115589618682861e-01 -2.931421101093292236e-01 -9.300839155912399292e-02 -1.300861835479736328e-01 -1.870263814926147461e-01 8.456798642873764038e-02 -2.298236638307571411e-01 -1.455321013927459717e-01 3.016775250434875488e-01 -1.057726815342903137e-01 -2.626683712005615234e-01 -2.969556450843811035e-01 -2.606600224971771240e-01 -2.417603582143783569e-01 2.103894203901290894e-01 2.205332666635513306e-01 -2.371581457555294037e-02 -1.212863326072692871e-01 3.465031981468200684e-01 -1.525037139654159546e-01 -3.914598003029823303e-02 -1.340211331844329834e-01 -5.550112575292587280e-02 1.385543961077928543e-02 3.055593073368072510e-01 -1.652618944644927979e-01 -2.804233729839324951e-01 -1.641262620687484741e-01 -2.667971253395080566e-01 -2.095109075307846069e-01 -2.226830571889877319e-01 3.236994743347167969e-01 2.338076531887054443e-01 -2.547543048858642578e-01 -5.415816232562065125e-02 -2.871816419064998627e-02 1.900180578231811523e-01 -3.055832386016845703e-01 -1.290632933378219604e-01 -1.770755350589752197e-01 -6.076784059405326843e-02 3.115202486515045166e-01 -8.066873997449874878e-02 1.735368669033050537e-01 1.443079859018325806e-01 1.598931252956390381e-01 3.187096118927001953e-01 1.289905756711959839e-01 -1.080422475934028625e-01 1.537340432405471802e-01 2.542134225368499756e-01 -1.558430641889572144e-01 1.372909545898437500e-01 2.941594123840332031e-01 1.527472287416458130e-01 -1.514371484518051147e-01 -1.373717784881591797e-01 -8.685176074504852295e-02 -1.730178147554397583e-01 9.928698837757110596e-02 -7.798810303211212158e-02 1.669205427169799805e-01 -2.202555835247039795e-01 8.228841423988342285e-02 2.360537946224212646e-01 -2.898312211036682129e-01 9.920662641525268555e-02 -2.159761786460876465e-01 -1.680011302232742310e-01 1.351116448640823364e-01 -7.834529131650924683e-02 6.875580549240112305e-02 -1.748432815074920654e-01 -2.993187606334686279e-01 1.363632977008819580e-01 2.346058338880538940e-01 -2.789717316627502441e-01 -1.905766874551773071e-01 2.042558640241622925e-01 -1.446594893932342529e-01 3.076989054679870605e-01 2.588771581649780273e-01 -1.817694008350372314e-01 -7.373472303152084351e-02 -2.302460074424743652e-01 1.075391694903373718e-01 1.588562279939651489e-01 2.656550407409667969e-01 -2.918438613414764404e-01 4.277651384472846985e-02 -1.744293719530105591e-01 2.464407980442047119e-01 -2.478819154202938080e-02 -2.671559154987335205e-01 2.314820289611816406e-01 1.369847506284713745e-01 -2.846888899803161621e-01 -1.745096296072006226e-01 -2.851163148880004883e-01 -1.973423808813095093e-01 -1.933518052101135254e-01 -4.190985858440399170e-02 -1.394087374210357666e-01 6.555154174566268921e-02 4.387054219841957092e-02 9.050238877534866333e-02 -1.220755204558372498e-01 -5.744698271155357361e-02 -1.576094329357147217e-01 -2.182841151952743530e-01 -2.381872534751892090e-01 3.208992481231689453e-01 3.198673129081726074e-01 3.184201121330261230e-01 1.934124976396560669e-01 6.771709769964218140e-02 -2.403885722160339355e-01 -2.093921750783920288e-01 -1.401144713163375854e-01 -2.729192078113555908e-01 1.357882171869277954e-01 -2.488639354705810547e-01 1.613599658012390137e-01 3.064214289188385010e-01 -3.784025833010673523e-02 1.520964782685041428e-02 -2.515458166599273682e-01 1.166437268257141113e-01 -1.290846988558769226e-02 4.310461133718490601e-02 3.954319655895233154e-02 1.962494403123855591e-01 -7.846520282328128815e-03 -1.474038138985633850e-02 2.302154749631881714e-01 1.979073286056518555e-01 -2.523282170295715332e-01 6.130731105804443359e-02 1.262317597866058350e-01 1.509523838758468628e-01 3.548417240381240845e-02 1.458178758621215820e-01 -1.998421177268028259e-02 -2.297676540911197662e-02 2.493770569562911987e-01 5.010062456130981445e-02 -2.244637757539749146e-01 7.577347755432128906e-02 1.941174119710922241e-01 -5.183848366141319275e-02 1.961306035518646240e-01 3.527335077524185181e-02 -1.669622063636779785e-01 1.325499415397644043e-01 2.187457978725433350e-01 3.577275946736335754e-02 1.989938467741012573e-01 7.220575213432312012e-02 -7.140253670513629913e-03 -1.401433795690536499e-01 -1.286231130361557007e-01 -1.993644051253795624e-02 1.420709211379289627e-02 6.233625859022140503e-02 4.304752498865127563e-02 1.088572517037391663e-01 8.545997738838195801e-02 7.094984501600265503e-02 1.148305833339691162e-01 -2.251534163951873779e-01 5.665123835206031799e-02 -6.756766885519027710e-02 -1.469334214925765991e-01 -7.949315756559371948e-02 -8.423738926649093628e-02 -8.836401998996734619e-02 8.326502889394760132e-02 -2.637224495410919189e-01 -5.506067350506782532e-02 2.184054106473922729e-01 -1.074680909514427185e-01 -2.297465354204177856e-01 -2.319817990064620972e-01 -5.318158492445945740e-02 -1.196334883570671082e-02 2.241534739732742310e-01 -3.224285691976547241e-02 -8.444931358098983765e-02 6.187340617179870605e-02 -2.372741252183914185e-01 -2.854819037020206451e-02 -1.702500581741333008e-01 -1.391464918851852417e-01 -1.973715407075360417e-04 -2.556614577770233154e-01 1.983005851507186890e-01 8.788642287254333496e-02 -1.193157061934471130e-01 7.047338783740997314e-02 -1.993889063596725464e-01 7.554202526807785034e-02 2.793807163834571838e-02 -2.516534924507141113e-01 -9.609383530914783478e-03 7.442551851272583008e-02 2.207932025194168091e-01 -2.199727743864059448e-01 3.910809382796287537e-02 -6.340990215539932251e-02 -1.131213903427124023e-01 1.964818537235260010e-01 7.274255156517028809e-03 2.386560440063476562e-01 -2.207808755338191986e-02 -1.564027816057205200e-01 -8.417944610118865967e-02 1.781471520662307739e-01 -2.172784060239791870e-01 -8.494932204484939575e-02 -2.291424274444580078e-01 1.095663830637931824e-01 2.588320150971412659e-02 -2.596961259841918945e-01 -5.074604228138923645e-02 1.065196096897125244e-01 1.972422301769256592e-01 1.804530918598175049e-01 -1.762466877698898315e-02 1.462483853101730347e-01 1.062880307435989380e-01 2.301811426877975464e-01 -1.591310799121856689e-01 -2.412245720624923706e-01 -2.557668387889862061e-01 -5.711901932954788208e-02 1.437154859304428101e-01 5.531588196754455566e-02 1.197410374879837036e-01 5.967520922422409058e-02 -2.293608486652374268e-01 -1.555277407169342041e-01 -2.358749210834503174e-01 -1.111150905489921570e-02 -1.954967081546783447e-01 2.003287672996520996e-01 1.199703477323055267e-02 1.475688964128494263e-01 7.427298277616500854e-02 -7.116179913282394409e-02 1.833965629339218140e-01 -8.509679883718490601e-02 -1.227597966790199280e-01 -1.525448709726333618e-01 1.842624135315418243e-02 1.623655706644058228e-01 3.693948499858379364e-03 -9.084412455558776855e-02 -8.581820875406265259e-02 -3.094648756086826324e-02 -2.005383074283599854e-01 -2.648877799510955811e-01 1.164719462394714355e-01 -2.395236194133758545e-01 -2.168790102005004883e-01 1.167357042431831360e-01 -1.128536015748977661e-01 -1.034950315952301025e-01 -1.284385379403829575e-02 -4.087832197546958923e-02 -2.592539787292480469e-01 1.349294334650039673e-01 2.902558445930480957e-01 -2.091237008571624756e-01 -9.581133723258972168e-02 3.077653050422668457e-02 -1.722408235073089600e-01 -2.597480118274688721e-01 -1.231828033924102783e-01 -1.754385419189929962e-02 3.851632028818130493e-02 1.625326722860336304e-01 -2.460301667451858521e-01 -1.876852810382843018e-01 -2.262548953294754028e-01 -1.078771874308586121e-01 -1.206614896655082703e-01 -2.179538011550903320e-01 -1.518234983086585999e-02 2.295488268136978149e-01 -1.812466830015182495e-01 -1.746399402618408203e-01 8.793479762971401215e-03 1.884354464709758759e-02 -1.428961306810379028e-01 -5.208062473684549332e-03 -1.132780387997627258e-01 -7.311739772558212280e-02 8.619232475757598877e-02 -5.420615430921316147e-03 1.569015085697174072e-01 1.275676041841506958e-01 1.462989896535873413e-01 1.409300714731216431e-01 -9.433781728148460388e-03 -2.048148512840270996e-01 1.205618679523468018e-01 4.140209406614303589e-02 -4.647425189614295959e-02 8.427995443344116211e-02 2.797705531120300293e-01 6.918330490589141846e-02 -1.759951114654541016e-01 -4.717492684721946716e-02 -1.130145639181137085e-01 -6.866780668497085571e-02 2.222648076713085175e-02 -5.081462487578392029e-02 1.854773312807083130e-01 -4.303047060966491699e-02 2.516621649265289307e-01 2.059852927923202515e-01 -1.616629213094711304e-01 2.450936585664749146e-01 -1.301892697811126709e-01 -2.780583500862121582e-01 2.561106979846954346e-01 -8.247334510087966919e-02 6.646405160427093506e-02 -2.309628725051879883e-01 -1.110333204269409180e-01 4.050498828291893005e-02 -2.382499724626541138e-02 -1.407673209905624390e-01 -1.587546765804290771e-01 -1.733377389609813690e-02 -5.837988853454589844e-02 2.613170444965362549e-01 2.340013235807418823e-01 -2.538312375545501709e-01 -2.181764394044876099e-01 -3.187225386500358582e-02 1.548981517553329468e-01 1.712896227836608887e-01 1.497091650962829590e-01 -2.256025671958923340e-01 1.833117157220840454e-01 -2.505616247653961182e-01 6.027948856353759766e-02 -1.920285373926162720e-01 -1.956729739904403687e-01 6.696471571922302246e-02 2.653853893280029297e-01 -1.168933883309364319e-01 -2.409998327493667603e-01 -6.601741537451744080e-03 -9.408193081617355347e-02 -2.171123474836349487e-01 -1.019372269511222839e-01 -3.402066975831985474e-02 2.048783302307128906e-01 3.094187565147876740e-02 1.091659218072891235e-01 -9.743975102901458740e-02 -2.201898097991943359e-01 -1.272331923246383667e-01 -2.400774955749511719e-01 -3.334904462099075317e-02 1.298613697290420532e-01 9.631521999835968018e-02 2.562389969825744629e-01 6.308237463235855103e-02 1.068834140896797180e-01 -2.667817771434783936e-01 -1.513045132160186768e-01 -2.331717312335968018e-01 -9.584898501634597778e-02 2.217544466257095337e-01 -2.594387829303741455e-01 1.860344260931015015e-01 1.915012113749980927e-02 -5.264991149306297302e-02 4.591331630945205688e-02 2.004255652427673340e-01 -1.525128334760665894e-01 -3.642611578106880188e-02 -1.428121775388717651e-01 -7.212643511593341827e-03 -9.757475554943084717e-02 -1.283196359872817993e-01 2.350499629974365234e-01 -4.761449992656707764e-02 -2.345149666070938110e-01 1.110008880496025085e-01 -1.545869261026382446e-01 -1.419798433780670166e-01 -1.277522444725036621e-01 -1.902388483285903931e-01 -2.085103392601013184e-01 1.249931007623672485e-01 -5.954554304480552673e-02 -2.248507738113403320e-01 1.084242481738328934e-02 3.976776730269193649e-03 -4.020849987864494324e-02 -8.371565490961074829e-02 4.393089935183525085e-02 -5.486784875392913818e-02 -6.313934177160263062e-02 5.662486329674720764e-02 -7.131585478782653809e-02 -1.081136837601661682e-01 -2.603956125676631927e-02 -7.383197546005249023e-02 2.755859307944774628e-02 -6.097755208611488342e-02 1.078016459941864014e-01 -5.196715891361236572e-02 -1.402061283588409424e-01 5.224132910370826721e-04 -2.193515300750732422e-01 -1.516854949295520782e-02 -1.806496530771255493e-01 -1.907859295606613159e-01 -1.415731459856033325e-01 -1.408627778291702271e-01 -3.714267909526824951e-02 -1.710075885057449341e-01 1.692339032888412476e-01 1.034774817526340485e-02 -4.701052326709032059e-03 3.196497634053230286e-02 3.683314844965934753e-02 -1.670928113162517548e-02 1.536621302366256714e-01 6.066554412245750427e-02 -1.495047211647033691e-01 1.014692112803459167e-01 1.711712181568145752e-01 2.408230006694793701e-01 -1.966071873903274536e-01 -2.174355089664459229e-01 -1.820397973060607910e-01 -1.103459596633911133e-01 9.038007259368896484e-02 -1.695133000612258911e-01 9.005518257617950439e-02 -2.073021680116653442e-01 -3.841482847929000854e-02 1.569526940584182739e-01 -1.378710567951202393e-01 -4.258734732866287231e-02 -1.879868954420089722e-01 -2.127160131931304932e-01 1.181956231594085693e-01 -5.927699431777000427e-02 2.705900371074676514e-02 -7.580139487981796265e-02 -6.816640496253967285e-02 1.378238499164581299e-01 2.050582319498062134e-01 