6.735498458147048950e-02 -3.594134747982025146e-02 -2.104103332385420799e-03 -1.612466275691986084e-01 2.563431300222873688e-02 8.057907968759536743e-02 -3.689110511913895607e-03 -1.638296842575073242e-01 -1.056095510721206665e-01 -1.326750665903091431e-01 -1.573298275470733643e-01 7.981763035058975220e-02 8.966315537691116333e-03 1.143753901124000549e-01 -1.132939569652080536e-02 3.743522614240646362e-02 1.090395599603652954e-01 1.785605698823928833e-01 -9.339042007923126221e-02 -5.796422436833381653e-02 6.344394385814666748e-02 8.818838000297546387e-02 7.910773903131484985e-02 -2.040307968854904175e-01 -3.494717180728912354e-02 9.958503395318984985e-02 -1.327948272228240967e-01 5.539932474493980408e-02 6.476848572492599487e-02 -6.139194965362548828e-02 -9.442573040723800659e-02 -6.503311544656753540e-02 9.467333555221557617e-03 -5.099855363368988037e-02 -1.391801238059997559e-01 -1.511475294828414917e-01 5.870752036571502686e-02 -1.341727972030639648e-01 -5.063074454665184021e-02 1.556637883186340332e-01 -1.585596650838851929e-01 -1.502573937177658081e-01 2.554370835423469543e-02 1.469426043331623077e-02 -1.961818337440490723e-01 1.554812043905258179e-01 2.797697186470031738e-01 -6.730071455240249634e-02 1.338215470314025879e-01 1.889533251523971558e-01 -1.285558193922042847e-01 -1.406281348317861557e-02 -6.840432435274124146e-02 4.916794970631599426e-02 -5.010353028774261475e-02 -8.394709229469299316e-02 7.802692800760269165e-02 3.252297267317771912e-02 9.619209170341491699e-02 3.737086802721023560e-02 1.979544200003147125e-02 -4.905420541763305664e-02 6.753798574209213257e-02 2.987372130155563354e-02 7.578642666339874268e-02 1.514603942632675171e-01 -1.403055787086486816e-01 9.144222363829612732e-03 -2.066996991634368896e-01 1.327367424964904785e-01 5.666859447956085205e-02 -2.067966200411319733e-02 7.496131956577301025e-02 -6.141300126910209656e-02 -5.842357128858566284e-02 8.626694977283477783e-02 -1.080147475004196167e-01 -5.556305125355720520e-02 -1.311798244714736938e-01 -7.548090815544128418e-02 -2.290477603673934937e-02 -1.987997889518737793e-01 -2.036308310925960541e-02 -9.510488249361515045e-03 2.011794149875640869e-01 8.812319487333297729e-02 -2.624260634183883667e-02 4.935061186552047729e-02 3.218680992722511292e-02 -5.082764104008674622e-02 -1.576009690761566162e-01 -1.735906004905700684e-01 -1.855666190385818481e-01 -1.906226426362991333e-01 3.249541670083999634e-02 6.619280576705932617e-02 8.855382353067398071e-02 -5.039575695991516113e-02 -1.860237680375576019e-02 -4.123263433575630188e-02 1.610000580549240112e-01 5.927535519003868103e-02 -9.206815622746944427e-03 -1.786717772483825684e-01 1.395660042762756348e-01 7.569538895040750504e-03 2.512563206255435944e-02 -7.863347232341766357e-02 9.364935010671615601e-02 6.621771305799484253e-02 8.285527676343917847e-02 4.620737396180629730e-03 -1.238564550876617432e-01 1.748036779463291168e-02 8.458922803401947021e-02 -1.289240568876266479e-01 -1.325758695602416992e-01 -1.391906477510929108e-02 -3.826290369033813477e-02 6.397012621164321899e-02 -4.450534656643867493e-02 3.517699614167213440e-02 -1.746140718460083008e-01 -2.516395784914493561e-02 -2.147692255675792694e-02 -1.542537361383438110e-01 -1.248413324356079102e-01 -1.379778236150741577e-01 -2.621748484671115875e-02 -1.424235105514526367e-01 1.768986694514751434e-02 -1.243299245834350586e-02 -9.227759391069412231e-02 2.412880510091781616e-01 -5.814468022435903549e-04 -1.592751741409301758e-01 7.954120635986328125e-02 2.292070910334587097e-02 -2.415804937481880188e-02 3.103919140994548798e-02 -1.242130100727081299e-01 -3.537706658244132996e-02 -5.154725164175033569e-02 -8.333510160446166992e-02 8.501119166612625122e-02 5.352833867073059082e-02 -1.153325848281383514e-02 -1.415640264749526978e-01 -5.070761218667030334e-02 -2.137403003871440887e-02 2.339426130056381226e-01 -9.425535798072814941e-02 -1.607724092900753021e-02 4.653260856866836548e-02 -7.270159572362899780e-02 1.584200263023376465e-01 8.924241364002227783e-02 -8.409294299781322479e-03 1.373773906379938126e-02 -1.298570334911346436e-01 -2.443011999130249023e-01 -1.050826460123062134e-01 -3.777060657739639282e-02 1.832093112170696259e-02 1.571979969739913940e-01 -6.410796195268630981e-02 8.970796130597591400e-03 1.681709140539169312e-01 -1.867318451404571533e-01 -1.206322461366653442e-01 -1.549433767795562744e-01 1.236463561654090881e-01 -9.255370497703552246e-02 7.760229706764221191e-02 2.046724557876586914e-01 7.449978590011596680e-02 1.928111016750335693e-01 1.229111254215240479e-01 -1.849145069718360901e-02 -4.157192632555961609e-02 -8.104602992534637451e-02 1.800325065851211548e-01 1.098692342638969421e-01 -4.936509579420089722e-02 6.114003807306289673e-02 1.303543597459793091e-01 1.912306696176528931e-01 1.542177647352218628e-01 1.811941503547132015e-03 -7.421324402093887329e-02 3.272531181573867798e-02 8.837558329105377197e-02 -5.140588060021400452e-02 2.111339941620826721e-02 -6.834739819169044495e-03 1.320497542619705200e-01 -1.725327223539352417e-01 2.390278503298759460e-02 -1.149329170584678650e-01 -1.797964610159397125e-02 3.807398257777094841e-03 4.055659845471382141e-02 6.220810487866401672e-02 8.386443555355072021e-02 -2.072108238935470581e-01 -1.207115352153778076e-01 -1.456743031740188599e-01 6.635200977325439453e-02 6.655589491128921509e-02 -1.559045761823654175e-01 -1.452271938323974609e-01 2.204705588519573212e-02 2.371657192707061768e-01 1.598314791917800903e-01 -6.156487017869949341e-02 -7.038228958845138550e-02 6.968896836042404175e-02 -1.319745928049087524e-01 -1.856224834918975830e-01 -1.044875532388687134e-01 -3.881085664033889771e-02 -1.559376120567321777e-01 7.040899246931076050e-02 -6.326717883348464966e-02 -7.093492895364761353e-02 -1.062671765685081482e-01 4.891736432909965515e-02 4.827972874045372009e-02 8.582589030265808105e-02 -2.251961641013622284e-02 1.369629427790641785e-02 -3.930649533867835999e-02 1.471662521362304688e-01 -8.114771544933319092e-02 -1.010454967617988586e-01 -1.398682594299316406e-01 -1.150175696238875389e-03 -7.714214920997619629e-02 -7.483851909637451172e-02 2.041530609130859375e-02 -2.370793521404266357e-01 -1.155318021774291992e-01 1.112199872732162476e-01 -7.154566049575805664e-02 -1.343135833740234375e-01 -7.043283432722091675e-02 2.366716042160987854e-02 6.041368842124938965e-02 -1.042600646615028381e-01 -1.234265640377998352e-01 -9.180546551942825317e-02 -1.113342270255088806e-01 1.098010838031768799e-01 1.195933856070041656e-02 -2.435629442334175110e-02 -2.429354935884475708e-03 6.609416101127862930e-03 -7.884525507688522339e-02 1.990386247634887695e-01 -1.700402945280075073e-01 6.421761587262153625e-03 -6.084299832582473755e-02 -1.043469607830047607e-01 5.092144943773746490e-03 -6.789907813072204590e-03 -2.490053512156009674e-02 -1.027887128293514252e-02 7.238937169313430786e-02 -7.181631773710250854e-02 8.957931399345397949e-02 -1.195812895894050598e-01 7.522974163293838501e-02 3.451648354530334473e-02 1.640016436576843262e-01 -4.857049882411956787e-02 2.247457765042781830e-02 -8.474252372980117798e-02 5.093170329928398132e-03 -5.597548093646764755e-03 -7.700528949499130249e-02 -6.561848521232604980e-02 1.166379600763320923e-01 -2.204915881156921387e-01 -1.022277306765317917e-02 -1.028280481696128845e-01 -8.855073153972625732e-02 4.250470921397209167e-02 2.096238313242793083e-03 -1.374033000320196152e-02 1.104790624231100082e-02 -5.391177907586097717e-02 -1.388923525810241699e-01 2.112708389759063721e-01 1.600217260420322418e-02 -8.311696350574493408e-02 5.339149385690689087e-02 -8.905830234289169312e-02 7.831392437219619751e-02 -3.474159538745880127e-02 7.887830585241317749e-02 -2.804926969110965729e-02 -7.125025987625122070e-02 3.613853082060813904e-02 7.917766273021697998e-02 -8.767648786306381226e-02 5.547208711504936218e-02 -8.379722386598587036e-02 -8.398319780826568604e-02 -5.309673957526683807e-03 -4.726597666740417480e-02 2.543099597096443176e-02 2.578589506447315216e-02 -1.028199270367622375e-01 5.987191945314407349e-02 6.878248602151870728e-02 8.783365041017532349e-02 -7.871352136135101318e-02 1.425449550151824951e-01 -1.524936128407716751e-02 -9.822472184896469116e-02 5.925245955586433411e-02 -4.219907522201538086e-02 7.725391536951065063e-02 -1.088821589946746826e-01 -1.646525785326957703e-02 -7.046320289373397827e-02 -1.182210966944694519e-01 -9.444178640842437744e-02 4.912669584155082703e-02 -1.446206122636795044e-01 -3.008777461946010590e-02 -4.569962620735168457e-02 -3.293822333216667175e-02 -4.140020813792943954e-03 8.538956195116043091e-02 -4.934247955679893494e-02 -5.086994916200637817e-02 -6.185154616832733154e-02 -2.221365831792354584e-02 3.818129003047943115e-02 5.685301497578620911e-02 7.614927738904953003e-02 -8.958457410335540771e-02 -1.218365579843521118e-01 5.663523823022842407e-02 -7.881078869104385376e-02 7.826486974954605103e-02 6.783715635538101196e-02 -3.513305634260177612e-02 6.435261666774749756e-02 2.292225509881973267e-02 9.092063456773757935e-02 -7.754892110824584961e-02 1.118429526686668396e-01 7.547836750745773315e-02 -2.992503158748149872e-02 5.690917372703552246e-02 -4.287074506282806396e-02 3.997489437460899353e-02 -7.119286805391311646e-02 2.496301084756851196e-01 1.041628643870353699e-01 -1.401716619729995728e-01 -1.082719713449478149e-01 4.313243925571441650e-02 -6.624491885304450989e-03 -1.296966075897216797e-01 2.716751396656036377e-02 -6.592854857444763184e-02 8.351372927427291870e-02 2.406946849077939987e-03 3.364757448434829712e-02 -2.122748643159866333e-02 1.095773503184318542e-01 -2.210904285311698914e-02 2.069679833948612213e-02 -6.540946662425994873e-02 -3.547911345958709717e-02 2.901483699679374695e-02 -6.355582177639007568e-02 -7.023289799690246582e-03 -4.848990216851234436e-02 -1.065509840846061707e-01 -1.399183869361877441e-01 -1.069913655519485474e-01 -1.065997593104839325e-02 1.087148264050483704e-01 -4.636749997735023499e-02 -1.232930943369865417e-01 2.741114422678947449e-02 6.817747652530670166e-02 2.932233363389968872e-02 9.637026488780975342e-02 1.006120145320892334e-01 9.956296533346176147e-02 -1.406270116567611694e-01 1.706855744123458862e-02 1.249215006828308105e-02 -2.903909794986248016e-02 6.315730512142181396e-02 -9.722886234521865845e-02 3.756424039602279663e-02 6.531979143619537354e-02 -4.535561054944992065e-02 8.187496662139892578e-02 -1.884009572677314281e-03 -1.300443857908248901e-01 -2.053456455469131470e-01 -1.951943337917327881e-01 -1.685108095407485962e-01 -2.535645365715026855e-01 -3.840320976451039314e-03 6.314212083816528320e-02 -1.789122819900512695e-01 -1.265066415071487427e-01 1.491660624742507935e-01 -7.619158178567886353e-02 6.566558033227920532e-02 2.548453584313392639e-02 -1.748251020908355713e-01 1.474087834358215332e-01 9.760986268520355225e-02 1.491915341466665268e-02 2.694527208805084229e-01 6.853087246417999268e-02 -2.776757581159472466e-03 -8.190013468265533447e-02 -1.704049259424209595e-01 -2.766553498804569244e-02 -1.297640204429626465e-01 1.653822958469390869e-01 -1.585549488663673401e-02 -5.055332183837890625e-02 7.588192075490951538e-02 -3.174706175923347473e-02 -8.770967274904251099e-02 8.182027190923690796e-02 -3.627672046422958374e-02 -4.013380035758018494e-02 8.925283700227737427e-02 1.198624595999717712e-01 1.073760315775871277e-01 5.356658622622489929e-02 -8.871765434741973877e-02 1.332423090934753418e-01 1.776930391788482666e-01 3.469112142920494080e-02 -1.939480938017368317e-02 1.391614377498626709e-01 -9.119301289319992065e-02 7.807371020317077637e-02 -7.982365041971206665e-02 -3.571849316358566284e-02 -1.454771310091018677e-01 -2.023990452289581299e-02 -9.205740690231323242e-02 5.893891677260398865e-02 -2.370333522558212280e-01 1.062244251370429993e-01 -1.212914064526557922e-01 4.766380414366722107e-02 9.133522957563400269e-02 5.623482912778854370e-02 -6.839538365602493286e-02 1.312694251537322998e-01 -1.717269420623779297e-01 -6.380140781402587891e-02 4.586913064122200012e-02 -1.180052235722541809e-01 -4.209182038903236389e-02 -1.150994524359703064e-01 1.391400843858718872e-01 -7.732394337654113770e-02 4.498269036412239075e-02 -3.701746463775634766e-02 -6.219559535384178162e-02 -3.650723025202751160e-02 6.698392331600189209e-02 -1.161816641688346863e-01 3.646468371152877808e-02 -7.269859313964843750e-02 -8.131872862577438354e-02 1.223041210323572159e-02 7.093293964862823486e-02 -3.391078859567642212e-02 -4.392996430397033691e-02 -3.895775601267814636e-02 1.337925940752029419e-01 1.399701535701751709e-01 -7.884991914033889771e-02 -9.672927856445312500e-02 1.477684229612350464e-01 1.560258306562900543e-02 1.170652359724044800e-01 -9.857329726219177246e-02 -4.397320002317428589e-02 -2.507453784346580505e-02 -4.423329234123229980e-02 6.050289422273635864e-02 -5.195276811718940735e-02 3.769205510616302490e-02 1.437355875968933105e-01 1.260927319526672363e-01 9.362449496984481812e-02 -7.080817967653274536e-02 2.466907165944576263e-02 -1.205180119723081589e-02 1.186962872743606567e-01 -6.583666801452636719e-02 1.647329479455947876e-01 1.299347877502441406e-01 -1.383545547723770142e-01 8.737420290708541870e-02 -5.090519413352012634e-02 7.334208488464355469e-02 -6.314870715141296387e-02 -7.206670939922332764e-02 -7.924318313598632812e-02 1.731816120445728302e-02 -7.005144655704498291e-02 -5.668264999985694885e-02 -5.469267442822456360e-02 -9.474825859069824219e-02 -7.238235324621200562e-02 -5.768870562314987183e-02 1.061431691050529480e-01 -1.172805130481719971e-01 -9.172638528980314732e-04 -1.307657808065414429e-01 -3.889222443103790283e-02 7.577056437730789185e-02 2.393535152077674866e-02 5.294963717460632324e-02 1.932454761117696762e-03 -7.011945545673370361e-02 -1.347143650054931641e-01 -3.208816284313797951e-03 9.286261349916458130e-02 -1.383512616157531738e-01 8.221342414617538452e-02 -1.116139292716979980e-01 -2.607254497706890106e-02 -8.555877953767776489e-02 -6.897919345647096634e-03 -1.771088317036628723e-02 1.181311979889869690e-01 -1.233273670077323914e-01 -1.595614552497863770e-01 1.547730434685945511e-02 -1.022203713655471802e-01 -2.722181007266044617e-02 4.965288937091827393e-02 -3.731594607234001160e-02 -9.024041146039962769e-02 -1.315080672502517700e-01 -4.040819779038429260e-02 1.168900430202484131e-01 3.770235925912857056e-03 1.397266238927841187e-01 1.041750833392143250e-01 -7.328542321920394897e-02 -5.745790898799896240e-02 -7.075992226600646973e-02 -2.602114975452423096e-01 2.203334681689739227e-02 -5.131161212921142578e-02 -3.201692178845405579e-02 -1.164330244064331055e-01 7.483075559139251709e-02 -3.801182901952415705e-04 -3.800226002931594849e-02 9.752724319696426392e-02 7.355242967605590820e-02 1.861831098794937134e-01 1.667784340679645538e-02 -8.219321817159652710e-02 1.065036505460739136e-01 -6.289888173341751099e-02 3.350898995995521545e-02 -4.698109254240989685e-02 -1.210681572556495667e-01 -5.315087363123893738e-02 -4.210396856069564819e-02 9.535079449415206909e-02 4.463701322674751282e-02 -1.740341633558273315e-01 -5.330386757850646973e-02 -4.895922169089317322e-02 -5.846013873815536499e-02 -1.156751140952110291e-01 1.130240857601165771e-01 -7.768843788653612137e-03 6.911998242139816284e-02 -1.065930202603340149e-01 3.683445602655410767e-02 3.639512881636619568e-02 -8.435294963419437408e-03 -1.212601438164710999e-01 4.884988814592361450e-02 8.424854278564453125e-02 -7.931901514530181885e-02 -1.692040823400020599e-02 -1.056769415736198425e-01 9.644977748394012451e-02 -6.659904867410659790e-02 -1.662756665609776974e-03 5.369628965854644775e-02 1.071620509028434753e-01 -2.516478486359119415e-02 8.358146995306015015e-02 9.314274415373802185e-03 -1.308566480875015259e-01 -3.050554916262626648e-02 7.248160988092422485e-02 5.782017111778259277e-02 3.421549871563911438e-02 1.014499738812446594e-01 4.530448094010353088e-02 1.279854401946067810e-02 -1.788312010467052460e-02 -9.696277976036071777e-02 1.000931411981582642e-01 -4.815926402807235718e-02 2.295849472284317017e-02 7.019670307636260986e-02 -4.418420419096946716e-02 -5.556240305304527283e-02 -9.955567866563796997e-02 8.365541696548461914e-02 6.195981428027153015e-02 7.696536183357238770e-02 -9.998913109302520752e-02 -6.887061893939971924e-02 -1.007895078510046005e-02 4.951304197311401367e-02 3.897932823747396469e-03 -1.991674005985260010e-01 -1.165121272206306458e-01 7.068253308534622192e-02 -1.503484398126602173e-01 8.029111474752426147e-02 -1.145675331354141235e-01 1.116047650575637817e-01 5.616218969225883484e-02 5.433651059865951538e-02 1.076184362173080444e-01 -1.296409964561462402e-01 -6.302003562450408936e-02 2.871103771030902863e-02 3.467677161097526550e-02 7.568857818841934204e-02 3.843160718679428101e-02 -2.011313475668430328e-02 8.930316567420959473e-02 -1.200184151530265808e-01 -1.169067844748497009e-01 -8.600582182407379150e-02 1.105827512219548225e-03 -2.685150876641273499e-02 -7.337465882301330566e-02 7.665110379457473755e-02 5.221826955676078796e-03 -8.327996730804443359e-02 -1.898047924041748047e-01 2.309981361031532288e-02 -3.533007949590682983e-02 -5.969898030161857605e-02 6.496395170688629150e-02 -1.002279147505760193e-01 7.479928433895111084e-02 5.510985385626554489e-03 3.175633773207664490e-02 -6.096826121211051941e-02 8.839593082666397095e-02 -5.517606437206268311e-02 -1.864853054285049438e-01 6.392748653888702393e-02 2.196704372181557119e-05 -6.379061937332153320e-02 1.190337687730789185e-01 -7.887730002403259277e-02 4.947305843234062195e-02 -2.260185778141021729e-03 8.005148917436599731e-02 3.635938465595245361e-02 -8.772291243076324463e-02 4.777242988348007202e-02 -8.377952873706817627e-02 -2.797224791720509529e-03 3.090636804699897766e-03 -3.985256701707839966e-02 -1.657181829214096069e-01 1.667551323771476746e-02 -1.712342947721481323e-01 -1.357462629675865173e-02 4.984932392835617065e-02 6.160432472825050354e-02 -4.488961026072502136e-02 1.115862876176834106e-01 1.316565275192260742e-01 7.090686261653900146e-02 9.545323252677917480e-02 4.711017757654190063e-02 -3.796492889523506165e-02 3.052242100238800049e-02 7.305674254894256592e-02 -2.498079277575016022e-02 -5.244060233235359192e-02 -1.133711487054824829e-01 -5.215696617960929871e-02 7.517707347869873047e-02 2.530753798782825470e-02 -3.762539103627204895e-02 -4.968934506177902222e-02 4.597128182649612427e-02 -8.175205439329147339e-02 -7.060744613409042358e-02 1.031700707972049713e-02 9.105967730283737183e-02 2.522629126906394958e-02 -5.981361120939254761e-02 2.786140702664852142e-02 -9.187842905521392822e-02 9.725514799356460571e-02 -1.104983091354370117e-01 -9.540674090385437012e-02 -3.795087803155183792e-03 6.164451129734516144e-03 -1.080798730254173279e-01 -2.022358961403369904e-02 -7.910630851984024048e-02 6.836044136434793472e-03 -3.829263523221015930e-02 -1.783740520477294922e-02 -1.675195060670375824e-03 3.506915643811225891e-02 1.521706860512495041e-02 -5.608530342578887939e-02 -1.721094362437725067e-02 -1.418886631727218628e-01 1.027018353343009949e-01 2.980381622910499573e-02 -5.577003955841064453e-02 -3.890665993094444275e-02 1.400540918111801147e-01 -2.275722287595272064e-02 3.391018509864807129e-02 7.815061137080192566e-03 -5.655415728688240051e-02 -4.119364917278289795e-02 -2.082504099234938622e-03 5.156934633851051331e-02 -8.077926002442836761e-03 6.824811547994613647e-02 3.794630244374275208e-02 2.684670500457286835e-02 2.423326671123504639e-02 -4.769972059875726700e-03 -6.047449074685573578e-03 7.606169581413269043e-02 2.700782939791679382e-02 8.214896917343139648e-02 -9.087521582841873169e-02 -1.933027245104312897e-02 -6.245489045977592468e-02 3.200561180710792542e-02 -4.715983197093009949e-02 6.396277993917465210e-02 -1.045023202896118164e-01 -9.049382805824279785e-02 1.140506342053413391e-01 -9.827874600887298584e-03 3.588568419218063354e-02 7.826517522335052490e-02 -2.255572937428951263e-02 -1.260128803551197052e-02 -2.321228198707103729e-02 8.914386481046676636e-02 -8.141273260116577148e-02 -8.751779049634933472e-02 -1.496189683675765991e-01 -2.295264042913913727e-02 -1.056451499462127686e-01 -7.303084433078765869e-02 -3.070334717631340027e-02 -5.007770657539367676e-02 5.039105564355850220e-02 5.764788761734962463e-02 -9.270073845982551575e-03 4.972823709249496460e-02 -3.346003964543342590e-02 -3.098805062472820282e-02 -2.176532894372940063e-02 -1.316028535366058350e-01 -8.789889514446258545e-02 8.228668570518493652e-02 8.396165817975997925e-02 6.026303395628929138e-02 -2.797468751668930054e-02 8.932968229055404663e-02 -1.098105087876319885e-01 1.245861873030662537e-02 9.717741608619689941e-02 -2.851918339729309082e-03 9.718257933855056763e-02 7.562637794762849808e-03 4.038704559206962585e-02 9.456559270620346069e-02 5.036368593573570251e-02 3.546493500471115112e-02 6.506090611219406128e-02 9.668832272291183472e-02 -1.798807084560394287e-02 1.430776063352823257e-02 -2.148356987163424492e-03 6.091399863362312317e-02 -1.639343053102493286e-01 -3.023448586463928223e-02 1.743662729859352112e-02 -1.601904183626174927e-01 6.326485425233840942e-02 -4.001508653163909912e-02 -4.064412042498588562e-02 -5.954489484429359436e-02 -4.452621191740036011e-02 -5.554612353444099426e-02 -8.706763386726379395e-03 1.275583356618881226e-01 1.014356166124343872e-01 1.720541715621948242e-01 5.391568318009376526e-02 6.828317046165466309e-02 -7.829371839761734009e-02 -7.829757034778594971e-02 -1.938488706946372986e-02 -3.010963648557662964e-02 -2.203759923577308655e-02 8.563572168350219727e-02 1.018852889537811279e-01 -5.403196811676025391e-02 2.568519860506057739e-02 -1.907583028078079224e-01 -7.513061910867691040e-02 -9.139451384544372559e-02 -4.308527335524559021e-02 5.342040210962295532e-02 -7.401914894580841064e-02 -1.138555407524108887e-01 5.336226150393486023e-02 -1.250086873769760132e-01 6.806784868240356445e-02 9.764441847801208496e-02 5.567488074302673340e-02 -7.604145258665084839e-02 -6.893448531627655029e-02 8.092381060123443604e-02 -4.190349951386451721e-02 2.737298980355262756e-02 -1.170826107263565063e-01 7.063627243041992188e-02 5.475102365016937256e-02 -2.156074857339262962e-03 2.493252791464328766e-02 5.486558005213737488e-02 -5.276843532919883728e-02 5.141095444560050964e-02 9.635660052299499512e-02 8.634447306394577026e-02 4.348447173833847046e-02 -3.372921794652938843e-02 -1.205748170614242554e-01 -5.898531526327133179e-02 -3.700770065188407898e-02 1.229238882660865784e-01 1.697823405265808105e-02 1.083419844508171082e-01 -9.203325957059860229e-02 1.268952712416648865e-02 -2.106269448995590210e-02 -1.237550601363182068e-01 -6.438619643449783325e-02 3.146510198712348938e-02 -4.069397598505020142e-02 -3.556521609425544739e-02 2.878086874261498451e-03 1.349017117172479630e-02 -1.673668250441551208e-02 1.320527791976928711e-01 8.004175126552581787e-02 -5.585838109254837036e-02 -3.228813037276268005e-02 9.233234077692031860e-02 -4.096724092960357666e-02 5.824322998523712158e-02 -3.043917007744312286e-02 1.427077651023864746e-01 -9.134517610073089600e-02 -7.087481766939163208e-02 1.782665997743606567e-01 4.948426410555839539e-02 7.896675914525985718e-02 -5.391186103224754333e-02 -5.086497589945793152e-02 -5.915412306785583496e-02 -5.495390295982360840e-02 -5.114621482789516449e-03 6.481014192104339600e-02 6.216913834214210510e-02 1.426000520586967468e-02 -1.625717617571353912e-02 5.756869912147521973e-02 6.289927661418914795e-02 1.128868944942951202e-02 7.849132269620895386e-02 -7.829881459474563599e-02 -4.141854867339134216e-02 -5.880790576338768005e-02 1.222635060548782349e-01 -6.146856769919395447e-02 -1.443756371736526489e-01 3.843314573168754578e-02 -6.391173601150512695e-02 -1.137504801154136658e-01 -1.780428178608417511e-02 -9.815410524606704712e-02 8.353346586227416992e-02 1.047929301857948303e-01 -1.000399738550186157e-01 -1.552408337593078613e-01 -1.487481687217950821e-02 -7.475996762514114380e-02 -8.436642587184906006e-02 1.114275455474853516e-01 -1.211229041218757629e-01 -1.531345844268798828e-01 9.221028536558151245e-02 -5.602163821458816528e-02 -6.846757978200912476e-02 -7.632169127464294434e-02 5.257957428693771362e-02 7.657075673341751099e-02 5.369433015584945679e-02 -6.051378790289163589e-03 -9.313177317380905151e-02 -1.037040650844573975e-01 7.514961808919906616e-02 -8.617988228797912598e-02 -1.989996433258056641e-01 -3.299095109105110168e-02 -1.388229876756668091e-01 8.613862842321395874e-02 -5.926675349473953247e-02 5.742138624191284180e-02 -4.187634214758872986e-02 2.456126175820827484e-02 -2.344307303428649902e-02 4.667210578918457031e-02 1.492550820112228394e-01 1.051649972796440125e-01 -5.960553884506225586e-03 -1.109874099493026733e-01 -3.476927429437637329e-02 6.687939167022705078e-02 -2.276839222759008408e-03 4.165919497609138489e-02 -3.063992783427238464e-02 -2.291588485240936279e-02 9.979565441608428955e-02 2.374693192541599274e-02 -1.535349339246749878e-01 8.633761852979660034e-02 8.626426011323928833e-02 -6.942732632160186768e-02 7.905323803424835205e-02 6.316795200109481812e-02 6.009089574217796326e-02 -8.126710355281829834e-02 -1.584124118089675903e-01 -1.265650540590286255e-01 6.788475811481475830e-02 8.111318200826644897e-02 1.476101577281951904e-02 2.472008811309933662e-03 2.993263304233551025e-02 3.503103274852037430e-03 1.573215425014495850e-02 5.445216782391071320e-03 -4.129524156451225281e-02 3.888393566012382507e-02 3.397975116968154907e-02 1.074189990758895874e-01 5.749893188476562500e-02 -2.790827490389347076e-02 1.054481789469718933e-01 5.145831033587455750e-02 3.350434824824333191e-02 -9.473547339439392090e-02 4.684400931000709534e-02 4.351609572768211365e-02 -1.093639284372329712e-01 -9.324111975729465485e-03 4.668023809790611267e-02 1.372139714658260345e-02 -3.198001533746719360e-02 6.734674423933029175e-02 -6.219740957021713257e-02 -7.882136851549148560e-02 -1.298008412122726440e-01 4.119940847158432007e-02 -8.690929040312767029e-03 1.184581145644187927e-01 -1.764833331108093262e-01 -7.300724089145660400e-02 1.049825176596641541e-01 -5.871497094631195068e-02 8.569046854972839355e-02 1.096216291189193726e-01 -3.532379120588302612e-02 2.550706500187516212e-03 -1.168752461671829224e-01 2.663719095289707184e-02 4.366949945688247681e-02 9.045826643705368042e-02 1.391213238239288330e-01 1.040562428534030914e-02 -9.549018740653991699e-02 1.225096806883811951e-01 7.748430222272872925e-02 2.910215407609939575e-02 2.288912795484066010e-02 -6.666256114840507507e-03 1.115112453699111938e-01 -2.731882035732269287e-02 -5.140305683016777039e-02 -1.745227165520191193e-02 -1.168541610240936279e-01 9.952820092439651489e-02 -4.703940078616142273e-02 -3.096394799649715424e-02 1.212754845619201660e-01 -5.772808194160461426e-02 2.729855477809906006e-02 -2.455354668200016022e-02 -1.962816342711448669e-02 1.213128790259361267e-01 -1.717841327190399170e-01 9.627342224121093750e-02 2.656542323529720306e-02 4.494035243988037109e-02 -1.778331585228443146e-03 -1.755558997392654419e-01 -9.013064205646514893e-02 1.795749068260192871e-01 -3.758642449975013733e-02 7.212748378515243530e-02 -2.511183544993400574e-02 -5.206425115466117859e-02 4.153094813227653503e-02 2.340806880965828896e-03 -1.847453564405441284e-01 1.377389729022979736e-01 4.423485137522220612e-03 5.669299140572547913e-02 1.961576044559478760e-01 1.465325802564620972e-01 5.200802162289619446e-02 1.200598031282424927e-01 -1.208913698792457581e-01 1.617631763219833374e-01 -5.225719138979911804e-02 2.016261592507362366e-02 3.941966965794563293e-02 -3.841798007488250732e-02 -4.911449924111366272e-02 -8.921926468610763550e-02 -2.661610543727874756e-01 -8.049947768449783325e-02 -6.520694494247436523e-02 3.066862933337688446e-02 6.441280245780944824e-02 6.388901174068450928e-02 5.356334149837493896e-02 -1.820513159036636353e-01 5.011245608329772949e-02 1.188196539878845215e-01 1.255568861961364746e-01 1.691239476203918457e-01 3.155068680644035339e-02 1.093067079782485962e-01 3.742635948583483696e-03 1.236645653843879700e-01 -6.210876256227493286e-02 -8.467735350131988525e-02 4.179686680436134338e-02 -2.427684143185615540e-02 1.485364697873592377e-02 -1.165081039071083069e-01 -1.201826408505439758e-01 1.371077448129653931e-01 -1.519264280796051025e-01 9.508224204182624817e-03 1.436046212911605835e-01 1.117817461490631104e-01 -1.176908612251281738e-02 9.404046088457107544e-02 -1.735520213842391968e-01 1.032829582691192627e-01 1.409381330013275146e-01 3.832814469933509827e-02 -1.854899823665618896e-01 -5.930607393383979797e-02 -3.783764317631721497e-02 2.422378025949001312e-02 -5.908317118883132935e-02 -1.034338176250457764e-01 -7.357997447252273560e-02 -8.160174638032913208e-02 -1.036644726991653442e-02 -1.292095333337783813e-01 3.370219841599464417e-02 1.013438799418509007e-03 3.600884974002838135e-02 -3.768782317638397217e-02 8.599795401096343994e-02 -1.260267645120620728e-01 -3.567482158541679382e-02 -3.203715011477470398e-02 7.899841666221618652e-02 6.439069658517837524e-02 -1.006492301821708679e-01 -9.619385749101638794e-02 1.174422502517700195e-01 -1.744507811963558197e-03 6.912782043218612671e-02 -1.519839167594909668e-01 -1.291466783732175827e-02 -3.309727460145950317e-02 2.066956833004951477e-02 -3.145154565572738647e-02 1.047752797603607178e-01 1.047151163220405579e-01 1.102943206205964088e-03 -1.492965687066316605e-02 5.234732851386070251e-02 -8.236476778984069824e-02 -3.145726770162582397e-02 -1.437576580792665482e-02 -7.912504673004150391e-02 -8.591750636696815491e-03 2.817440219223499298e-02 1.234018653631210327e-01 2.278625071048736572e-01 -1.082008257508277893e-01 -1.197419762611389160e-01 2.296352684497833252e-01 5.429451167583465576e-02 -7.516309618949890137e-02 -2.008356153964996338e-01 -4.857979947701096535e-04 4.606264457106590271e-02 -7.528311014175415039e-02 9.860001504421234131e-03 -7.863268256187438965e-02 -1.163987442851066589e-01 -7.818686962127685547e-02 -4.869130626320838928e-02 -5.893648788332939148e-02 3.677629679441452026e-02 -9.709659963846206665e-02 -7.933378964662551880e-02 -9.111373871564865112e-02 -1.533558070659637451e-01 5.246821790933609009e-02 -7.687090337276458740e-02 -4.932411760091781616e-02 5.596362426877021790e-02 6.402024626731872559e-02 -4.778178408741950989e-02 -1.351188272237777710e-01 -4.943943023681640625e-02 -1.206339802592992783e-02 4.018568247556686401e-02 -1.031939834356307983e-01 -1.353563815355300903e-01 -1.274065226316452026e-01 -3.668891265988349915e-02 -6.045879796147346497e-02 1.568201743066310883e-02 1.523453444242477417e-01 -1.546221524477005005e-01 -9.097880870103836060e-02 1.266133487224578857e-01 1.768703758716583252e-02 -7.503926008939743042e-02 5.816296115517616272e-02 8.742590248584747314e-02 -6.667995825409889221e-03 2.038107812404632568e-02 1.078029572963714600e-01 -1.071679592132568359e-01 -1.227616518735885620e-02 1.178963184356689453e-01 1.347267907112836838e-02 -7.809525728225708008e-02 -1.065562963485717773e-01 -9.509381651878356934e-02 -7.749125361442565918e-02 6.237547472119331360e-02 -6.365050375461578369e-02 1.417520176619291306e-02 -1.238827500492334366e-02 5.879655946046113968e-03 5.241138488054275513e-02 5.715138837695121765e-02 6.630652397871017456e-02 5.871303752064704895e-02 9.094439446926116943e-02 -8.111607283353805542e-02 5.935241281986236572e-02 5.832260474562644958e-02 -1.285157259553670883e-02 2.141744345426559448e-01 -5.738418921828269958e-02 -5.787624418735504150e-02 8.336000889539718628e-02 -1.055340170860290527e-01 -1.135711651295423508e-02 4.401507601141929626e-02 -1.438516080379486084e-01 5.418488383293151855e-02 -8.432928472757339478e-02 1.073440909385681152e-01 1.238096505403518677e-01 6.408885866403579712e-02 -1.064209360629320145e-02 1.247453838586807251e-01 -1.659508347511291504e-01 -1.524213608354330063e-02 -9.096810221672058105e-02 -1.323870420455932617e-01 -5.722672119736671448e-02 -5.555861815810203552e-02 3.642870485782623291e-02 -9.841013699769973755e-02 -1.518378704786300659e-01 -6.472686771303415298e-03 8.756332844495773315e-02 1.296703666448593140e-01 -1.638999208807945251e-02 1.428362156730145216e-04 -2.828326635062694550e-02 -1.353432983160018921e-01 -1.092989966273307800e-01 -9.104558080434799194e-02 -1.200310885906219482e-01 5.457089096307754517e-02 3.049058467149734497e-02 8.816105313599109650e-03 -7.045736908912658691e-02 7.547057420015335083e-02 1.121361404657363892e-01 -3.843848034739494324e-02 9.218316525220870972e-02 2.326824143528938293e-02 4.211341962218284607e-02 2.957691811025142670e-02 2.440869063138961792e-02 -5.355489626526832581e-02 7.922440767288208008e-02 9.690434485673904419e-02 2.683942764997482300e-02 -1.092663854360580444e-01 -1.626100018620491028e-02 7.751731574535369873e-02 -1.731354743242263794e-03 8.993011713027954102e-02 -2.001192569732666016e-01 -8.615918457508087158e-02 5.761242657899856567e-02 1.122247427701950073e-01 -4.267862439155578613e-02 1.040637642145156860e-01 2.574840188026428223e-01 -3.720009326934814453e-02 -4.109911620616912842e-02 -3.275919854640960693e-01 9.977188706398010254e-02 1.729922443628311157e-01 9.890063107013702393e-02 3.258323296904563904e-02 1.435758024454116821e-01 -2.729336917400360107e-01 3.802688047289848328e-02 -1.646480113267898560e-01 5.537484958767890930e-02 1.512562781572341919e-01 -1.197190806269645691e-01 -9.457870572805404663e-02 1.611402481794357300e-01 -3.062896803021430969e-02 7.673257589340209961e-02 4.477891698479652405e-02 -1.836088746786117554e-01 -6.749112624675035477e-03 -2.562862038612365723e-01 -9.126415103673934937e-02 -1.495084315538406372e-01 -2.118992805480957031e-01 -8.387450873851776123e-02 -8.954449743032455444e-02 3.345086425542831421e-02 3.123945556581020355e-03 1.661976575851440430e-01 8.036668598651885986e-02 -1.183138694614171982e-02 -2.814150750637054443e-01 1.490465998649597168e-01 1.251546740531921387e-01 -1.334187388420104980e-02 1.563103348016738892e-01 1.164967194199562073e-01 1.209189519286155701e-01 7.560805976390838623e-02 -9.491419792175292969e-02 1.534270942211151123e-01 -1.989877521991729736e-01 -2.744121290743350983e-02 3.705790638923645020e-02 -2.084013968706130981e-01 -1.607304066419601440e-01 1.518672704696655273e-01 -2.566492259502410889e-01 8.923400193452835083e-02 -2.521657049655914307e-01 -8.624910563230514526e-02 6.138892099261283875e-02 1.696984618902206421e-01 7.744785398244857788e-02 -2.162908017635345459e-01 -2.193882316350936890e-01 -5.005490034818649292e-02 2.405757308006286621e-01 2.092849612236022949e-01 4.912244528532028198e-02 -1.590996421873569489e-02 -3.582118749618530273e-01 2.754316898062825203e-03 -2.113122791051864624e-01 2.120577543973922729e-02 -2.355027198791503906e-02 4.172668233513832092e-02 -3.415932506322860718e-02 3.724275156855583191e-02 -3.574376404285430908e-01 5.279495194554328918e-02 -9.210908412933349609e-02 8.004040271043777466e-02 8.659067749977111816e-02 1.574497222900390625e-01 -1.137922406196594238e-01 7.552645355463027954e-02 2.295436896383762360e-02 3.066759370267391205e-02 9.784643352031707764e-02 -1.591729223728179932e-01 -3.451068699359893799e-01 -1.432457119226455688e-01 4.817597195506095886e-02 -2.281519025564193726e-02 8.671800792217254639e-02 7.040931284427642822e-02 2.022144496440887451e-01 1.862870007753372192e-01 1.167030856013298035e-01 2.851703949272632599e-02 1.422834694385528564e-01 8.760504424571990967e-02 1.075297966599464417e-02 1.371232718229293823e-01 -2.470022998750209808e-02 -1.708766967058181763e-01 -1.568651199340820312e-01 4.981480166316032410e-02 7.016149908304214478e-02 5.938117858022451401e-03 -1.451809145510196686e-02 5.153248552232980728e-03 1.065917387604713440e-01 -1.172361150383949280e-01 1.519362032413482666e-01 -2.050096690654754639e-01 -1.286736875772476196e-01 1.261175721883773804e-01 5.855732038617134094e-02 -2.069533914327621460e-01 7.245052605867385864e-02 1.755098998546600342e-01 4.964132234454154968e-02 1.821483373641967773e-01 1.166157051920890808e-01 -1.691008917987346649e-02 6.560921319760382175e-04 9.696938842535018921e-02 5.307408049702644348e-02 -2.353472560644149780e-01 2.044563926756381989e-02 1.474964171648025513e-01 1.005888208746910095e-01 3.673109458759427071e-03 -4.852034151554107666e-02 1.876265406608581543e-01 -1.408844888210296631e-01 -5.543157458305358887e-02 -1.117613017559051514e-01 -1.333044618368148804e-01 -1.472412198781967163e-01 -2.158384397625923157e-02 -5.281725525856018066e-02 -3.662240505218505859e-02 -1.194216385483741760e-01 -5.473356693983078003e-02 -2.277792803943157196e-02 -1.740218698978424072e-01 -5.495318770408630371e-02 -5.797194316983222961e-02 -1.003688499331474304e-01 -7.112806290388107300e-02 -3.073389828205108643e-02 -1.398322731256484985e-01 8.607372641563415527e-02 9.330245107412338257e-02 2.164629846811294556e-01 -8.641379326581954956e-02 1.121894717216491699e-01 1.858712285757064819e-01 -1.596384942531585693e-01 -1.775551773607730865e-02 2.221500733867287636e-03 -1.578336581587791443e-02 -1.035388633608818054e-01 7.678594440221786499e-02 -9.220446646213531494e-02 -2.667424082756042480e-02 -9.016322344541549683e-02 2.785067558288574219e-01 -1.149017550051212311e-02 -3.493224829435348511e-02 -8.700970560312271118e-02 -1.011417992413043976e-02 8.518751710653305054e-02 -1.679394580423831940e-02 1.294304281473159790e-01 1.815066188573837280e-01 -1.384389400482177734e-01 1.905288845300674438e-01 1.980353742837905884e-01 -1.886051893234252930e-01 6.613096594810485840e-02 -8.477845229208469391e-03 -1.170020848512649536e-01 -2.365407999604940414e-03 -1.275182366371154785e-01 7.828696072101593018e-02 -1.905417069792747498e-02 -5.693531408905982971e-02 2.408470660448074341e-01 -1.586647480726242065e-01 -9.994029998779296875e-02 6.619960069656372070e-03 8.094984292984008789e-02 -5.831281188875436783e-03 2.048397995531558990e-02 -1.398675888776779175e-01 -1.378815025091171265e-01 -3.111496008932590485e-02 -4.549218341708183289e-02 -5.715185776352882385e-02 5.626592040061950684e-02 1.289142295718193054e-02 1.240638270974159241e-01 2.123874239623546600e-02 -1.187992468476295471e-01 2.851285412907600403e-02 1.148262992501258850e-01 -3.874918678775429726e-03 -1.094292625784873962e-01 4.230377078056335449e-02 1.822195351123809814e-01 -4.138210788369178772e-02 1.790880113840103149e-01 -8.896152488887310028e-03 -1.471190601587295532e-01 -1.865075230598449707e-01 -9.715636819601058960e-02 1.383849978446960449e-01 4.406180605292320251e-02 1.199631392955780029e-02 6.728218495845794678e-02 3.964979201555252075e-02 4.505714029073715210e-02 -6.235445290803909302e-02 -1.168524250388145447e-01 7.395451888442039490e-03 4.710872471332550049e-02 5.399215035140514374e-03 -7.937719114124774933e-03 -4.956823214888572693e-02 -8.782476186752319336e-02 -8.340403437614440918e-02 6.935793906450271606e-02 -1.149202957749366760e-01 -1.532181054353713989e-01 -2.365287393331527710e-01 9.325940161943435669e-02 -4.190283641219139099e-02 -1.359792053699493408e-01 6.489115208387374878e-02 -9.893951565027236938e-02 1.472633183002471924e-01 1.019575223326683044e-01 -1.070969924330711365e-02 7.728603482246398926e-02 -2.218250185251235962e-01 -5.970629304647445679e-02 1.918378472328186035e-02 -3.769150003790855408e-02 -9.149901568889617920e-02 -3.882077336311340332e-02 5.945217562839388847e-04 5.069775134325027466e-02 3.709797188639640808e-02 -1.824311465024948120e-01 -1.829863637685775757e-01 -9.413111209869384766e-02 -7.875156402587890625e-02 1.006275936961174011e-01 1.872302778065204620e-02 -3.819091245532035828e-02 9.173599630594253540e-02 -6.461170315742492676e-02 1.325761377811431885e-01 2.132373861968517303e-02 -3.755525127053260803e-02 -1.535907238721847534e-01 -1.652310229837894440e-02 -1.177597604691982269e-02 -1.861984282732009888e-01 -1.369889732450246811e-02 -7.085665315389633179e-02 8.127707988023757935e-02 -2.851078100502490997e-02 1.554724876768887043e-03 8.701459318399429321e-02 3.163577243685722351e-02 -9.175547957420349121e-02 -8.766228705644607544e-02 -7.678377628326416016e-02 -1.749426871538162231e-01 7.344934344291687012e-02 1.618750393390655518e-01 1.310196816921234131e-01 5.756071582436561584e-02 1.874145269393920898e-01 -1.944388598203659058e-01 1.657340228557586670e-01 -6.354006379842758179e-02 1.465531885623931885e-01 -1.465266495943069458e-01 -7.996314018964767456e-02 -7.014080137014389038e-02 -1.899130642414093018e-02 -5.302105098962783813e-03 2.740619778633117676e-01 -1.979582011699676514e-01 2.809545490890741348e-03 -1.828343793749809265e-02 -5.828416720032691956e-02 -3.577296808362007141e-02 -1.544651389122009277e-01 1.432512700557708740e-01 1.246040463447570801e-01 -1.053891628980636597e-01 2.659316360950469971e-01 1.844080835580825806e-01 2.842678874731063843e-02 1.072240322828292847e-01 2.501991577446460724e-03 5.130847543478012085e-02 -1.527548534795641899e-03 -9.944981895387172699e-03 7.230975478887557983e-02 -1.517439484596252441e-01 -1.737306565046310425e-01 4.957502335309982300e-02 -6.856232136487960815e-02 -8.519141003489494324e-03 -1.962478458881378174e-01 6.574279069900512695e-02 -9.274318069219589233e-02 -7.470789551734924316e-02 -1.457393467426300049e-01 2.208816632628440857e-02 -1.861398220062255859e-01 -2.202788554131984711e-02 -1.832395344972610474e-01 2.337675839662551880e-01 -1.925473846495151520e-02 8.924226462841033936e-02 1.396206170320510864e-01 7.710476405918598175e-03 2.010505879297852516e-03 1.086997762322425842e-01 -4.860574007034301758e-02 3.442444652318954468e-02 -1.860160976648330688e-01 -3.449273481965065002e-02 -1.021734252572059631e-01 2.822178602218627930e-01 -1.840017437934875488e-01 6.872016936540603638e-02 1.463874895125627518e-02 2.824843861162662506e-02 8.962429314851760864e-02 -5.334880948066711426e-02 1.676657199859619141e-01 -7.305942475795745850e-02 -7.483170926570892334e-02 -1.061949282884597778e-01 -1.664086729288101196e-01 -1.531272977590560913e-01 3.287625312805175781e-02 2.098010927438735962e-01 -1.565276235342025757e-01 -3.761659190058708191e-02 -1.067759841680526733e-01 1.214131265878677368e-01 -5.294889211654663086e-03 7.007354497909545898e-02 -1.449831724166870117e-01 -1.923296749591827393e-01 -1.737357527017593384e-01 1.664609014987945557e-01 -1.058125421404838562e-01 -6.112196296453475952e-02 3.942511975765228271e-03 -7.168720662593841553e-02 1.020622923970222473e-01 6.071383133530616760e-02 -1.224048715084791183e-02 9.860470890998840332e-03 -1.033008769154548645e-01 -1.618344932794570923e-01 2.913003228604793549e-02 -3.016515821218490601e-02 -7.653447985649108887e-02 -8.420795202255249023e-02 8.798284828662872314e-02 -4.651399701833724976e-02 -4.310647770762443542e-02 -8.196993917226791382e-02 6.386939436197280884e-02 -1.149574965238571167e-01 -9.723069518804550171e-02 2.466086149215698242e-01 -1.082460805773735046e-01 -5.056888982653617859e-02 1.875747591257095337e-01 -1.111835464835166931e-01 -3.243513405323028564e-02 -2.512263953685760498e-01 3.829297795891761780e-02 -7.839434593915939331e-02 -2.564865536987781525e-02 5.379932001233100891e-02 2.554468624293804169e-02 -1.544171720743179321e-01 -4.186843708157539368e-02 2.575170435011386871e-02 2.520624548196792603e-02 5.078749358654022217e-02 5.852096900343894958e-02 -1.882012784481048584e-01 2.058592997491359711e-02 4.506008327007293701e-02 -7.260032743215560913e-02 -6.233098357915878296e-02 3.431791439652442932e-02 2.174362391233444214e-01 -1.126178875565528870e-01 -2.155890502035617828e-02 1.024506241083145142e-01 -2.778004109859466553e-01 4.200623556971549988e-02 7.008378207683563232e-02 2.695829374715685844e-03 5.742464959621429443e-02 -1.145054325461387634e-01 8.862360566854476929e-02 -7.775237318128347397e-03 -7.324947416782379150e-02 8.101592957973480225e-02 -7.742818444967269897e-02 -1.566047780215740204e-02 2.606899244710803032e-03 -5.056612938642501831e-02 -9.042371064424514771e-02 5.838021263480186462e-02 5.958374124020338058e-03 7.061146199703216553e-02 -1.430257260799407959e-01 9.572183340787887573e-02 -2.287953719496726990e-02 -7.912790775299072266e-02 -8.957024663686752319e-02 -6.507079303264617920e-02 -1.265396475791931152e-01 -4.092239588499069214e-02 -3.143220767378807068e-02 4.612598940730094910e-02 -8.464098908007144928e-03 7.329943031072616577e-02 -1.685260422527790070e-02 -2.514727413654327393e-01 -2.768969535827636719e-02 9.291165322065353394e-02 -3.379021212458610535e-02 3.967686370015144348e-02 -6.195540353655815125e-02 -2.413865178823471069e-02 -1.700025349855422974e-01 5.316442251205444336e-02 -1.102544814348220825e-01 -7.444288581609725952e-02 1.219766065478324890e-01 -1.129432767629623413e-01 -3.383413329720497131e-02 -7.363289594650268555e-02 -1.286263018846511841e-01 -4.915847629308700562e-02 -1.065865457057952881e-01 -1.294095665216445923e-01 8.479066938161849976e-02 -6.124347448348999023e-02 -1.099661458283662796e-02 -8.445472270250320435e-02 1.468819677829742432e-01 -7.902868837118148804e-02 1.394217312335968018e-01 -6.484728306531906128e-02 -1.769909411668777466e-01 -8.797420561313629150e-02 -9.168819524347782135e-03 -8.785783499479293823e-02 -1.256556436419487000e-02 5.020821467041969299e-02 1.440362185239791870e-01 4.728929325938224792e-02 4.529872909188270569e-02 -1.092961952090263367e-01 4.418267309665679932e-02 6.385337328538298607e-04 -9.046044200658798218e-02 -3.453102335333824158e-02 1.814144700765609741e-01 -1.247749179601669312e-01 4.471815004944801331e-02 -8.277531014755368233e-04 2.483608759939670563e-02 -1.554421931505203247e-01 3.634762018918991089e-02 -4.924419894814491272e-02 5.002646893262863159e-02 3.904956206679344177e-02 8.759300410747528076e-02 5.352562293410301208e-02 -9.337536990642547607e-02 -1.659618690609931946e-02 3.617801144719123840e-02 -2.481687813997268677e-01 -8.963254094123840332e-02 9.049952961504459381e-03 9.452170133590698242e-02 7.849505543708801270e-02 1.458408683538436890e-01 7.125316560268402100e-02 -3.207009285688400269e-02 -1.445982418954372406e-02 -1.143584996461868286e-01 -1.896390914916992188e-01 1.230431273579597473e-01 -4.411961138248443604e-02 1.287209391593933105e-01 -1.540116965770721436e-03 -5.504083260893821716e-02 1.623124331235885620e-01 -1.169661208987236023e-01 2.972448989748954773e-02 -1.707539409399032593e-01 4.409323632717132568e-02 -1.233572605997323990e-02 -9.910903126001358032e-02 -1.397553831338882446e-01 -1.147730462253093719e-02 -1.146603655070066452e-02 4.669928550720214844e-02 3.451279550790786743e-02 -1.359708905220031738e-01 3.365076333284378052e-02 -7.258951663970947266e-02 -9.483560174703598022e-02 -3.278060629963874817e-02 7.304000854492187500e-02 -2.774953842163085938e-02 -9.760084003210067749e-02 7.137528061866760254e-02 8.781876415014266968e-02 -1.187707297503948212e-03 -1.000472158193588257e-02 2.103937864303588867e-01 -9.452450275421142578e-02 1.627700626850128174e-01 -8.451371639966964722e-02 -5.764511972665786743e-02 -5.362083017826080322e-02 -7.295316457748413086e-02 -1.126198843121528625e-01 8.773399516940116882e-03 -9.953594207763671875e-02 3.170051425695419312e-02 -9.275605902075767517e-03 -8.252278715372085571e-02 -1.563864648342132568e-01 -3.383377566933631897e-02 -7.812108099460601807e-02 -3.806247189640998840e-02 1.316129714250564575e-01 1.686711795628070831e-02 4.589084070175886154e-03 1.363960355520248413e-01 1.044674892909824848e-03 2.169888094067573547e-02 -2.421069145202636719e-02 6.709340959787368774e-02 -1.912346333265304565e-01 7.266328483819961548e-02 -1.282662898302078247e-02 -2.224445715546607971e-02 -2.664473280310630798e-02 4.858865961432456970e-02 6.618689745664596558e-02 -7.802093029022216797e-02 -1.028068214654922485e-01 -1.531166285276412964e-01 7.847160845994949341e-02 -5.823841691017150879e-02 -1.127027068287134171e-02 8.321346342563629150e-02 -1.743954122066497803e-01 -3.971335291862487793e-02 2.685532532632350922e-02 -5.000675842165946960e-02 1.087612882256507874e-01 4.697354882955551147e-02 3.081708028912544250e-02 3.557370975613594055e-02 -5.610404070466756821e-03 4.459389299154281616e-02 8.305982500314712524e-02 2.251318888738751411e-03 -5.795321986079216003e-02 3.727654367685317993e-02 -1.497567538172006607e-02 -1.302827298641204834e-01 1.644850522279739380e-01 -1.211575418710708618e-01 1.043377593159675598e-01 -1.467876881361007690e-01 -1.899063438177108765e-01 -5.312271043658256531e-02 7.868031039834022522e-03 -4.727831482887268066e-02 -6.689270585775375366e-02 -8.862254768610000610e-02 3.172046318650245667e-02 1.827989891171455383e-02 -7.588218897581100464e-02 2.549680694937705994e-02 9.143161028623580933e-02 -1.227237880229949951e-01 1.012448668479919434e-01 -1.472303420305252075e-01 6.810446083545684814e-02 -6.992972642183303833e-02 -7.398117333650588989e-02 5.373476818203926086e-02 -1.419375985860824585e-01 -2.431399375200271606e-01 1.778793632984161377e-01 -3.691196069121360779e-02 -9.117244929075241089e-02 -5.693146958947181702e-02 -9.143936634063720703e-02 8.858211338520050049e-02 1.425720900297164917e-01 6.867154687643051147e-02 4.143307358026504517e-02 -4.457604512572288513e-02 -9.622837603092193604e-02 7.174219936132431030e-02 -9.352586232125759125e-03 1.026052888482809067e-02 -9.400752931833267212e-02 -2.133922465145587921e-02 8.939936757087707520e-02 5.827626585960388184e-02 -1.901759952306747437e-02 -2.061095535755157471e-01 -9.732984006404876709e-02 5.234559252858161926e-02 1.798254549503326416e-01 9.612228721380233765e-02 -5.228911992162466049e-03 8.927280455827713013e-02 4.743113368749618530e-02 -3.186830878257751465e-02 -2.830493450164794922e-02 -4.104469344019889832e-02 2.482247352600097656e-02 -4.714187234640121460e-02 2.157926186919212341e-02 4.789554700255393982e-02 -6.855089962482452393e-02 -2.657450549304485321e-02 1.086776852607727051e-01 -4.374166578054428101e-02 -4.316269606351852417e-02 -1.588596552610397339e-01 -6.638769060373306274e-02 7.656252384185791016e-02 -1.479268632829189301e-02 -1.189213618636131287e-01 -6.361608207225799561e-02 4.614099860191345215e-02 9.024377167224884033e-02 -4.858669638633728027e-02 1.215924695134162903e-01 7.659818977117538452e-02 -2.514647878706455231e-02 -1.627808623015880585e-02 -2.742749638855457306e-02 -2.410214953124523163e-02 -2.606336772441864014e-02 -3.167505189776420593e-02 -4.442857578396797180e-02 9.063825011253356934e-02 -7.950714975595474243e-02 1.527933329343795776e-01 -8.797128498554229736e-02 -1.118680611252784729e-01 7.023575901985168457e-02 -5.358188226819038391e-02 -3.583603724837303162e-02 -1.392563283443450928e-01 -1.064166054129600525e-01 3.045488335192203522e-02 -6.006905809044837952e-03 2.281669676303863525e-01 -8.357575535774230957e-02 -6.082970649003982544e-03 -2.222782224416732788e-01 1.351838093250989914e-02 -2.140498161315917969e-02 -5.094602704048156738e-02 -8.835988491773605347e-02 -1.129621756263077259e-03 4.183767363429069519e-03 7.950033992528915405e-02 1.169083490967750549e-01 3.930800035595893860e-02 -9.004112333059310913e-02 5.457365885376930237e-03 1.529095023870468140e-01 7.332973182201385498e-02 5.973828583955764771e-02 4.415158182382583618e-02 -1.150410473346710205e-01 -7.426779717206954956e-02 2.192235738039016724e-02 -1.477917470037937164e-02 1.688901484012603760e-01 -1.237627714872360229e-01 -5.156752467155456543e-02 1.095859929919242859e-01 -7.319658994674682617e-02 2.340656518936157227e-02 -9.739769622683525085e-03 2.966067194938659668e-02 -1.222899779677391052e-01 9.604025632143020630e-02 1.047301143407821655e-01 7.030975073575973511e-02 2.101136445999145508e-01 -6.381883472204208374e-02 4.192555323243141174e-02 -1.073523312807083130e-01 -3.233150020241737366e-02 -7.111688703298568726e-02 2.934216149151325226e-02 -1.101977303624153137e-01 -8.464329689741134644e-02 -9.239225834608078003e-02 5.217164382338523865e-02 -9.594617038965225220e-02 6.343322247266769409e-02 8.403995633125305176e-02 3.794842958450317383e-02 9.071668982505798340e-02 -2.029664069414138794e-02 -1.763877458870410919e-02 -5.029259622097015381e-02 -1.447888165712356567e-01 6.167110800743103027e-02 -1.344321817159652710e-01 -5.537435412406921387e-02 -1.612293869256973267e-01 3.606762737035751343e-02 -1.611591279506683350e-01 6.296483427286148071e-02 9.182659536600112915e-02 2.967697940766811371e-02 1.271246075630187988e-01 -4.038859624415636063e-03 -3.236170485615730286e-02 1.732501201331615448e-03 -1.849559098482131958e-01 -8.345667272806167603e-02 5.708612967282533646e-03 5.038335174322128296e-02 7.256641983985900879e-02 2.787220291793346405e-02 8.940203487873077393e-02 8.296108245849609375e-02 -1.257452070713043213e-01 -1.347054988145828247e-01 -5.696598067879676819e-02 4.111460596323013306e-02 -4.810700193047523499e-02 -2.684604190289974213e-02 2.694950066506862640e-02 -4.358986392617225647e-02 1.501595228910446167e-01 2.845912426710128784e-02 -7.875703275203704834e-02 -3.218226730823516846e-01 1.326789380982518196e-03 7.552893459796905518e-02 -7.981237024068832397e-02 -3.329992294311523438e-02 -5.229792557656764984e-03 -1.501399576663970947e-01 1.228221580386161804e-01 -1.281715929508209229e-01 -6.920836120843887329e-02 1.401064395904541016e-01 -1.144708469510078430e-01 -8.308700472116470337e-02 1.012120544910430908e-01 -6.650582700967788696e-02 -5.656949058175086975e-02 -2.254361100494861603e-02 4.386558011174201965e-02 8.254833519458770752e-02 -1.053083464503288269e-01 -1.314364373683929443e-01 -5.622228607535362244e-02 -1.717839837074279785e-01 4.314122349023818970e-02 -2.228231728076934814e-01 2.316703647375106812e-02 -1.763261854648590088e-03 -1.310297660529613495e-02 6.789080053567886353e-02 -3.178946301341056824e-02 -5.527525395154953003e-02 7.223418913781642914e-03 1.717612519860267639e-02 8.171740919351577759e-02 -2.413091436028480530e-02 1.220383495092391968e-01 8.894150704145431519e-02 -3.807943314313888550e-02 -9.587333351373672485e-02 1.933713853359222412e-01 -2.432316988706588745e-01 1.821955293416976929e-01 1.956018619239330292e-02 -6.494271010160446167e-02 -1.990896016359329224e-01 1.420333981513977051e-01 -2.734304368495941162e-01 9.483712166547775269e-02 -2.759873569011688232e-01 -6.822887063026428223e-02 4.317524284124374390e-02 -5.306366086006164551e-02 -6.422824226319789886e-03 -6.950473785400390625e-02 -2.520872354507446289e-01 8.527757972478866577e-02 1.880326122045516968e-01 1.146143078804016113e-01 6.034467369318008423e-02 8.671024814248085022e-03 -9.142361581325531006e-02 3.831759467720985413e-02 6.564965471625328064e-03 -3.663874045014381409e-02 -1.079188361763954163e-01 1.100812256336212158e-01 -4.611842706799507141e-02 2.832374162971973419e-02 -3.477343544363975525e-02 6.026921421289443970e-02 -9.420159040018916130e-04 -6.120856851339340210e-02 7.599283754825592041e-02 -2.872400172054767609e-02 4.377270117402076721e-02 9.176727384328842163e-02 3.784698247909545898e-02 6.861586123704910278e-02 -7.417701929807662964e-02 -2.508910298347473145e-01 -3.050154149532318115e-01 -9.378872811794281006e-03 2.997461147606372833e-02 -8.766113966703414917e-02 5.740568041801452637e-02 6.063612923026084900e-02 5.018881335854530334e-02 -6.724927574396133423e-02 -2.877061069011688232e-02 -7.770339399576187134e-02 7.680640555918216705e-04 -3.086766973137855530e-02 -2.878818660974502563e-02 -5.148861557245254517e-02 1.683304905891418457e-01 -2.641443312168121338e-01 -1.450993493199348450e-02 1.442195922136306763e-01 -2.209594240412116051e-03 -6.246332824230194092e-02 2.446649037301540375e-02 -1.888582855463027954e-02 -3.862535580992698669e-02 4.041456803679466248e-02 1.210641190409660339e-01 2.830761484801769257e-02 -8.365909010171890259e-02 1.150945108383893967e-02 1.597274690866470337e-01 -2.465437650680541992e-01 1.300446540117263794e-01 1.465221643447875977e-01 -5.110466107726097107e-02 6.632012128829956055e-02 1.137281283736228943e-01 5.310213193297386169e-03 5.678656697273254395e-02 9.324595332145690918e-02 -3.680084645748138428e-02 -2.461508363485336304e-01 1.129285097122192383e-01 9.228132665157318115e-03 1.496979892253875732e-01 1.373292952775955200e-01 -2.484151721000671387e-02 -1.660130731761455536e-02 6.345041096210479736e-02 -1.368368268013000488e-01 -1.625910103321075439e-01 -6.446938216686248779e-02 6.797336041927337646e-02 -1.243045702576637268e-01 -7.540909945964813232e-02 1.040067374706268311e-01 -9.496718645095825195e-02 7.681588828563690186e-02 1.228420212864875793e-01 4.839848726987838745e-02 -1.265314407646656036e-02 -2.519909441471099854e-01 -1.471323221921920776e-01 3.960045054554939270e-02 3.177967295050621033e-02 -1.400691736489534378e-02 -1.001982167363166809e-01 -6.676497310400009155e-02 9.055905044078826904e-02 1.845340803265571594e-02 3.745699673891067505e-02 9.072551876306533813e-02 -4.025702364742755890e-03 2.815614081919193268e-02 -2.143180370330810547e-01 -1.011050865054130554e-01 9.006053954362869263e-02 -1.851972565054893494e-02 -7.045821845531463623e-02 5.776926875114440918e-02 8.296589367091655731e-04 9.625568240880966187e-02 4.911020398139953613e-02 5.472773313522338867e-02 -1.253093034029006958e-01 -9.704292565584182739e-02 -3.769346699118614197e-02 -1.119738370180130005e-01 2.673958241939544678e-02 3.149725031107664108e-03 -1.157743632793426514e-01 2.783903777599334717e-01 8.784378878772258759e-03 -3.081975504755973816e-02 -2.202566117048263550e-01 -7.027497887611389160e-02 -6.367294490337371826e-02 5.268872529268264771e-02 -9.520104527473449707e-02 7.823439687490463257e-02 5.143984407186508179e-02 -4.700159281492233276e-02 7.483451068401336670e-02 -9.730549529194831848e-03 -1.848694384098052979e-01 3.364184498786926270e-02 1.189183909446001053e-02 5.362006649374961853e-02 -1.045401245355606079e-01 -1.062428951263427734e-01 -3.402834013104438782e-02 -1.157630458474159241e-01 5.309910327196121216e-02 -1.047536209225654602e-01 -5.680517479777336121e-02 8.471077680587768555e-02 -4.939019307494163513e-02 -7.970318198204040527e-02 3.373608365654945374e-02 -2.246262319386005402e-02 -2.457511611282825470e-02 -7.892005890607833862e-02 7.552212476730346680e-02 -6.227340921759605408e-02 -9.276315569877624512e-02 2.857642993330955505e-02 6.599203497171401978e-02 -1.482867747545242310e-01 2.330892346799373627e-02 -1.509691178798675537e-01 -8.199550956487655640e-02 -2.155752852559089661e-03 -9.119038283824920654e-02 6.637512147426605225e-02 1.526898443698883057e-01 -3.454564511775970459e-02 7.012584060430526733e-02 -4.489613324403762817e-02 -9.854426234960556030e-02 1.294806599617004395e-01 1.581034506671130657e-03 -8.479791134595870972e-02 -7.394315302371978760e-02 -7.235143333673477173e-03 1.144295036792755127e-01 -2.383498102426528931e-01 -1.426384449005126953e-01 4.304881393909454346e-02 -7.379628717899322510e-02 -1.930204927921295166e-01 1.592847853899002075e-01 -1.074514687061309814e-01 -2.729269117116928101e-02 3.247709944844245911e-02 1.366424411535263062e-01 1.350931078195571899e-01 -5.875786021351814270e-02 3.020642511546611786e-02 -2.850436978042125702e-02 -1.327270865440368652e-01 6.955532822757959366e-03 2.952403016388416290e-02 3.509996086359024048e-02 8.011318743228912354e-02 1.511363983154296875e-01 -5.360329523682594299e-02 -1.898428238928318024e-02 1.256259679794311523e-01 -1.147411838173866272e-01 -2.671687006950378418e-01 -3.780442848801612854e-02 1.301706302911043167e-02 1.406602263450622559e-01 3.772598132491111755e-02 -5.116816237568855286e-02 2.964066341519355774e-02 9.195704013109207153e-02 -1.337737143039703369e-01 -9.171476215124130249e-02 -7.112985849380493164e-02 1.429312378168106079e-01 -8.366899937391281128e-02 -1.216649040579795837e-01 -1.505211461335420609e-02 -1.361656486988067627e-01 3.255928307771682739e-02 -8.156991004943847656e-02 1.741755381226539612e-02 -4.501900821924209595e-02 -2.482620477676391602e-01 -9.204623848199844360e-02 -2.994865365326404572e-02 6.883694976568222046e-02 -1.659457758069038391e-02 2.644845284521579742e-02 4.892203211784362793e-02 1.421342194080352783e-01 8.678807318210601807e-02 -1.946950145065784454e-02 -4.901107028126716614e-02 -9.094892442226409912e-02 -7.475425302982330322e-02 -2.040199786424636841e-01 2.537560183554887772e-03 1.497574895620346069e-01 -2.022680453956127167e-02 4.141957685351371765e-02 -6.202881410717964172e-02 4.148623347282409668e-02 1.296623498201370239e-01 1.658682823181152344e-01 4.680711030960083008e-02 5.341891199350357056e-02 1.252485960721969604e-01 8.988291770219802856e-02 -3.442746819928288460e-03 -1.997436024248600006e-02 6.087983399629592896e-02 -1.039354056119918823e-01 2.337393611669540405e-01 8.642581105232238770e-02 -4.859656468033790588e-02 -2.459486275911331177e-01 1.306001991033554077e-01 -1.286479383707046509e-01 4.512029513716697693e-02 -2.159338593482971191e-01 -1.275222096592187881e-02 1.117952391505241394e-01 -4.855353012681007385e-02 7.659201323986053467e-02 2.391976071521639824e-03 -1.985184699296951294e-01 6.216222792863845825e-02 2.526644617319107056e-03 1.535148024559020996e-01 -3.446099162101745605e-02 7.587404549121856689e-02 -9.429951012134552002e-02 1.452552061527967453e-02 -1.153319850564002991e-01 -4.576101154088973999e-02 -1.186393871903419495e-01 7.642927765846252441e-02 -8.843490481376647949e-02 9.660173207521438599e-03 -8.500744402408599854e-02 1.282197516411542892e-02 6.440246105194091797e-02 3.943701460957527161e-02 1.355455964803695679e-01 1.425750181078910828e-02 1.114452034235000610e-01 -4.454516805708408356e-03 1.846063137054443359e-02 2.205130457878112793e-02 1.049050614237785339e-01 -2.218405306339263916e-01 -9.086578339338302612e-02 4.010367766022682190e-02 3.815796226263046265e-02 -3.778550028800964355e-02 9.218784421682357788e-02 7.812127470970153809e-02 7.260955870151519775e-02 1.174252182245254517e-01 -3.177178278565406799e-02 -8.101172000169754028e-02 -9.294851683080196381e-03 6.522475928068161011e-02 9.002671390771865845e-02 3.318164870142936707e-02 -3.692504018545150757e-02 -1.461994946002960205e-01 -7.452572137117385864e-02 2.388992905616760254e-02 6.140623986721038818e-02 5.640713870525360107e-02 4.365545138716697693e-02 -9.730178862810134888e-02 1.049011871218681335e-01 -1.648248583078384399e-01 1.341188997030258179e-01 2.777106501162052155e-02 6.063848733901977539e-03 -1.021628826856613159e-01 1.039689257740974426e-01 -2.660722136497497559e-01 7.196181267499923706e-02 -1.665985770523548126e-02 9.456893056631088257e-02 9.440758079290390015e-02 1.498110778629779816e-02 1.790978200733661652e-02 4.126079753041267395e-02 2.801324427127838135e-02 -7.840120792388916016e-02 -1.997377425432205200e-01 1.067641377449035645e-01 4.482051357626914978e-02 -1.280284859240055084e-02 1.446616202592849731e-01 4.360243678092956543e-02 3.203498199582099915e-02 3.641689568758010864e-02 4.661189392209053040e-02 8.492906391620635986e-02 4.309026058763265610e-03 -9.580351412296295166e-02 -1.414301991462707520e-01 -9.129371494054794312e-02 -3.617497906088829041e-02 1.034815534949302673e-01 -8.787409961223602295e-02 6.624798756092786789e-03 -1.994636505842208862e-01 -7.090069353580474854e-02 -7.129269186407327652e-03 -2.607625210657715797e-03 -2.306998893618583679e-02 -7.340998947620391846e-02 -7.330133765935897827e-02 -4.943577200174331665e-02 4.482615739107131958e-02 -1.758706383407115936e-02 1.018604114651679993e-01 -3.250111266970634460e-02 1.466946005821228027e-01 2.411335147917270660e-02 4.905188456177711487e-02 -4.350365698337554932e-02 4.621756449341773987e-02 3.283264115452766418e-02 2.134261466562747955e-02 -8.067529648542404175e-02 -2.142821252346038818e-02 2.186297625303268433e-02 2.621733248233795166e-01 9.544702619314193726e-02 -5.409414693713188171e-02 -6.532964762300252914e-03 1.161993946880102158e-02 -7.424597442150115967e-02 -1.786251068115234375e-01 9.593985229730606079e-02 5.033911764621734619e-02 -9.587320685386657715e-02 1.961994618177413940e-01 7.662419974803924561e-02 -4.136792197823524475e-02 -8.610697463154792786e-03 -3.754271939396858215e-02 4.502345994114875793e-02 5.662920698523521423e-02 2.057342417538166046e-02 4.003707319498062134e-02 2.749490365386009216e-02 -3.797615319490432739e-02 4.265173524618148804e-02 -1.446386519819498062e-02 -9.917922317981719971e-02 -5.744250491261482239e-02 1.400373410433530807e-02 -2.003640122711658478e-02 -1.835553795099258423e-01 -1.269824057817459106e-01 2.503169327974319458e-02 -1.190719306468963623e-01 9.811411052942276001e-02 -1.620283126831054688e-01 -1.024324148893356323e-01 -1.160737052559852600e-01 1.477828174829483032e-01 2.269046194851398468e-02 8.031130768358707428e-03 1.198327261954545975e-02 6.161176785826683044e-02 7.368482649326324463e-02 -1.158436313271522522e-01 1.255491282790899277e-02 -2.049814909696578979e-02 3.217605501413345337e-02 2.034565359354019165e-01 -1.067520156502723694e-01 -4.314315319061279297e-02 -1.460163146257400513e-01 3.871165588498115540e-02 2.455095574259757996e-02 -1.681017503142356873e-02 1.389751434326171875e-01 -3.764060139656066895e-02 5.302663519978523254e-02 1.226156428456306458e-01 4.218976572155952454e-02 5.573612824082374573e-02 6.042411178350448608e-02 5.858427658677101135e-02 -3.826201707124710083e-02 1.080623790621757507e-01 -1.866945475339889526e-01 -8.697990328073501587e-03 -3.711429983377456665e-02 1.106264665722846985e-01 3.312520682811737061e-02 -1.524577587842941284e-01 -5.413592979311943054e-02 7.671657949686050415e-02 -4.141909256577491760e-02 -1.427820026874542236e-01 -9.433756768703460693e-02 -9.018040448427200317e-02 1.003603115677833557e-01 -2.684297226369380951e-02 2.502072975039482117e-02 -7.475812733173370361e-02 -1.053408756852149963e-01 -1.488065868616104126e-01 -6.868004053831100464e-02 4.106452316045761108e-02 -1.340803205966949463e-01 -1.058226227760314941e-01 2.981727011501789093e-03 3.633093833923339844e-02 9.057136625051498413e-02 -4.293808341026306152e-02 -6.842989474534988403e-02 2.782514505088329315e-02 -1.938082277774810791e-02 -5.301493033766746521e-02 -2.198150753974914551e-02 2.137848362326622009e-02 -7.637538015842437744e-02 -9.435240924358367920e-02 -4.946278408169746399e-02 1.332258922047913074e-03 8.442309626843780279e-05 -2.154056355357170105e-02 -7.102835178375244141e-02 -4.881463944911956787e-03 -9.246812202036380768e-03 5.296957120299339294e-02 -1.671593263745307922e-02 6.568509340286254883e-02 7.508309930562973022e-02 6.860661506652832031e-02 1.512990146875381470e-01 6.240169168449938297e-04 -9.191001206636428833e-02 -1.451764404773712158e-01 -6.050377339124679565e-02 -6.940873712301254272e-02 8.770653605461120605e-02 -2.123951613903045654e-01 3.337625786662101746e-02 6.520088762044906616e-02 -1.579311937093734741e-01 8.531037718057632446e-02 1.175582557916641235e-01 1.331206224858760834e-02 6.152144074440002441e-02 4.779952391982078552e-02 -1.466722041368484497e-01 -1.261212825775146484e-01 -4.657598957419395447e-02 -1.997060030698776245e-01 1.846642941236495972e-01 -7.070726901292800903e-02 3.174119815230369568e-02 8.820828981697559357e-03 -1.106136962771415710e-01 -1.467568874359130859e-01 9.629275649785995483e-02 -1.017482131719589233e-01 -5.145114660263061523e-02 1.938606351613998413e-01 1.719762235879898071e-01 4.177213180810213089e-03 -6.146487966179847717e-02 4.043517634272575378e-02 5.884858965873718262e-02 -9.089533984661102295e-02 -5.218411237001419067e-02 1.253936141729354858e-01 -5.126326158642768860e-02 -2.532959170639514923e-02 -1.255190186202526093e-02 2.629857510328292847e-02 7.252130657434463501e-02 1.289477795362472534e-01 -1.032884567975997925e-01 -9.518622606992721558e-02 3.715638071298599243e-02 -3.013990446925163269e-02 2.411668561398983002e-02 1.187065392732620239e-01 -3.917113319039344788e-02 -1.833505742251873016e-02 -1.467768400907516479e-01 -1.490044146776199341e-01 3.771492838859558105e-02 -4.742042720317840576e-02 -6.052199751138687134e-02 -1.245500668883323669e-01 9.641497582197189331e-02 -3.312297165393829346e-02 2.708019502460956573e-02 -3.458162769675254822e-02 -1.214406117796897888e-01 -4.283595830202102661e-02 -3.936276957392692566e-02 -1.507082283496856689e-01 7.026870548725128174e-02 -9.925327450037002563e-02 1.833872348070144653e-01 1.192345321178436279e-01 -1.049405187368392944e-01 -9.703138470649719238e-02 4.993610829114913940e-02 2.385884709656238556e-02 3.074808977544307709e-02 -1.044726073741912842e-01 2.151105785742402077e-03 -1.390038430690765381e-01 -7.571503985673189163e-03 -7.336548715829849243e-02 -7.876289635896682739e-02 5.623164772987365723e-02 -6.509917322546243668e-03 6.443916261196136475e-02 1.460022330284118652e-01 5.711573362350463867e-02 -5.540407821536064148e-02 8.400026708841323853e-02 2.187644839286804199e-01 -1.273881196975708008e-01 -4.622369632124900818e-02 -5.341120436787605286e-02 -2.948779985308647156e-02 9.483111649751663208e-02 -4.349004942923784256e-03 -4.501000046730041504e-03 -4.581709951162338257e-02 -7.131613790988922119e-02 1.750087589025497437e-01 8.861331152729690075e-04 8.541665226221084595e-02 -5.015749111771583557e-02 9.136674553155899048e-02 -8.368775248527526855e-02 -1.339560449123382568e-01 7.599101215600967407e-02 -7.647877931594848633e-02 1.100393906235694885e-01 -6.887832283973693848e-02 -7.714115083217620850e-02 1.074573919177055359e-01 -2.123212665319442749e-01 -9.031577408313751221e-02 -1.539236605167388916e-01 5.710521340370178223e-02 6.718839518725872040e-03 9.878066182136535645e-02 1.486860215663909912e-01 -3.025174140930175781e-02 -1.300623267889022827e-01 8.222875744104385376e-02 -2.363587543368339539e-02 -1.422095894813537598e-01 2.920369617640972137e-02 -7.422673702239990234e-02 -5.158085003495216370e-02 -1.082911863923072815e-01 4.653355851769447327e-02 1.348384320735931396e-01 1.391635984182357788e-01 6.731519848108291626e-02 -1.369319409132003784e-01 -2.664450928568840027e-02 -2.111121267080307007e-01 1.737055778503417969e-01 -1.879103928804397583e-01 9.016723930835723877e-02 2.295646630227565765e-02 -1.537616252899169922e-01 2.034006863832473755e-01 1.374089568853378296e-01 7.294911891222000122e-02 -1.316513270139694214e-01 6.777700781822204590e-02 -1.714249700307846069e-01 6.247750669717788696e-02 -9.384917467832565308e-02 -2.971620857715606689e-02 8.894085884094238281e-02 -3.482410684227943420e-02 -1.434917747974395752e-01 1.943762451410293579e-01 2.165091224014759064e-03 4.625354334712028503e-02 7.091366499662399292e-02 -1.035009473562240601e-01 -1.728736162185668945e-01 9.802669286727905273e-02 6.543416529893875122e-02 -3.247836977243423462e-02 1.802719384431838989e-01 2.046231925487518311e-01 -1.036193147301673889e-01 -8.906608819961547852e-02 4.542014747858047485e-02 7.398263365030288696e-02 4.673514887690544128e-02 4.864105582237243652e-02 2.662057057023048401e-02 -8.256502449512481689e-03 1.237635090947151184e-01 8.491577208042144775e-02 -7.876183092594146729e-02 7.742789387702941895e-02 -4.426394030451774597e-02 6.572674959897994995e-02 8.602582663297653198e-02 5.979391280561685562e-03 2.570036426186561584e-02 1.114340797066688538e-01 -4.832666739821434021e-02 -1.316690593957901001e-01 -2.155913412570953369e-02 2.608922496438026428e-02 -1.993139833211898804e-02 -1.083527132868766785e-01 9.280410408973693848e-02 5.952958390116691589e-02 -1.637617498636245728e-01 -3.372685238718986511e-02 -2.888018637895584106e-02 2.663877792656421661e-02 1.201707422733306885e-01 -1.196524724364280701e-01 5.459505319595336914e-02 -9.240700304508209229e-02 1.548675298690795898e-01 1.579113304615020752e-01 7.050929125398397446e-03 -6.400061398744583130e-02 8.663848042488098145e-02 -1.077448111027479172e-02 4.207335785031318665e-02 -1.473205238580703735e-01 -1.580715328454971313e-01 -1.653789915144443512e-02 -1.265224069356918335e-01 -8.002764731645584106e-02 3.718424215912818909e-02 -3.334556147456169128e-02 6.360680609941482544e-02 -3.442745283246040344e-02 7.985285483300685883e-04 -7.627807557582855225e-02 -1.255752146244049072e-01 -2.992007415741682053e-03 1.664614081382751465e-01 -7.006177306175231934e-02 -1.102663055062294006e-01 6.482370942831039429e-02 -3.228107467293739319e-02 -7.523298263549804688e-02 -8.548624813556671143e-02 -1.253313273191452026e-01 -1.021797880530357361e-01 9.076581895351409912e-02 7.133028656244277954e-02 2.132249251008033752e-02 8.436390012502670288e-02 1.565826125442981720e-02 9.628579020500183105e-02 7.480579614639282227e-02 -1.111424416303634644e-01 8.498140424489974976e-02 8.839314430952072144e-02 -2.277290634810924530e-02 1.158536318689584732e-02 -4.860154166817665100e-02 3.706166148185729980e-02 -2.297732084989547729e-01 1.127990931272506714e-01 -3.435138240456581116e-02 1.410753130912780762e-01 -1.787745952606201172e-01 -5.997422337532043457e-02 -6.850963085889816284e-02 -8.875124156475067139e-02 -1.364854574203491211e-01 -8.810842782258987427e-02 4.645401611924171448e-02 -1.389937996864318848e-01 -1.559146940708160400e-01 -8.103389292955398560e-02 4.330405220389366150e-02 -1.093115005642175674e-02 -8.621919155120849609e-02 5.600610375404357910e-02 1.272075325250625610e-01 -7.424867246299982071e-03 1.661427505314350128e-02 -3.110574325546622276e-03 1.242155879735946655e-01 3.704142943024635315e-02 1.299393270164728165e-02 -3.350179269909858704e-02 1.354377251118421555e-02 -1.212717518210411072e-01 1.006692126393318176e-01 -7.931603491306304932e-02 -1.648598536849021912e-02 1.148295924067497253e-01 -1.405344903469085693e-01 -1.862387545406818390e-02 -1.298076212406158447e-01 -1.709173023700714111e-01 -2.113918066024780273e-01 1.528861969709396362e-01 -8.207456767559051514e-02 -1.628261357545852661e-01 8.399111032485961914e-02 -5.250420048832893372e-02 -1.635246425867080688e-01 -1.073431521654129028e-01 -2.270030789077281952e-02 1.532911602407693863e-02 9.646922349929809570e-02 1.985826641321182251e-01 1.039663478732109070e-01 4.268326610326766968e-02 1.086469516158103943e-01 -1.155735272914171219e-02 -2.431836724281311035e-01 -2.358362525701522827e-01 3.250014269724488258e-03 -6.063273549079895020e-02 3.802345320582389832e-02 -7.499465346336364746e-02 1.697622984647750854e-01 3.773081675171852112e-02 4.326121509075164795e-02 -6.444957852363586426e-02 3.279975429177284241e-02 -1.543478369712829590e-01 8.980163931846618652e-02 9.610031545162200928e-02 -9.008671343326568604e-02 -9.630697220563888550e-02 -8.463755995035171509e-02 -7.610516995191574097e-02 -4.160148557275533676e-03 -6.104959547519683838e-02 -7.516626268625259399e-02 8.203816413879394531e-02 -1.460439860820770264e-01 -7.738701999187469482e-02 -6.961511820554733276e-02 -1.267876476049423218e-01 4.575807973742485046e-02 -1.477077901363372803e-01 -3.415988013148307800e-02 -9.066525846719741821e-02 -7.296619564294815063e-02 -3.644300624728202820e-02 -4.315087199211120605e-02 -1.036148741841316223e-01 -1.015873253345489502e-01 1.295394897460937500e-01 -1.030171066522598267e-01 6.005683541297912598e-02 -1.127093285322189331e-01 9.193572402000427246e-02 -1.324047744274139404e-01 -5.259671434760093689e-02 -1.178914774209260941e-02 2.585528790950775146e-02 -1.265149563550949097e-02 6.290210783481597900e-02 -6.262502819299697876e-02 7.528539001941680908e-02 -2.191018611192703247e-01 -5.131751298904418945e-03 6.858682632446289062e-02 -2.990544401109218597e-02 -1.171968206763267517e-01 1.113572120666503906e-01 1.757651716470718384e-01 -1.138634458184242249e-01 3.673714399337768555e-02 3.035559318959712982e-02 5.076129734516143799e-02 -1.217469051480293274e-01 -3.131019324064254761e-02 -4.769106581807136536e-02 -5.266784690320491791e-03 -6.179985404014587402e-02 -1.818664520978927612e-01 1.008941908366978168e-03 -3.795732930302619934e-02 3.280726820230484009e-02 5.062402412295341492e-02 2.959903888404369354e-02 -3.123515285551548004e-02 -9.512484073638916016e-03 -8.194708079099655151e-02 3.064056299626827240e-02 -7.518626004457473755e-02 -2.704824879765510559e-02 -9.704155474901199341e-02 9.453175216913223267e-02 1.146724354475736618e-02 1.322059780359268188e-01 -9.751217067241668701e-02 -7.657802104949951172e-02 6.782985478639602661e-02 -1.415593922138214111e-01 -1.219645515084266663e-01 -1.126070395112037659e-01 9.743590652942657471e-02 -2.615362405776977539e-02 -1.029221042990684509e-01 -2.087684273719787598e-01 -2.888947911560535431e-02 -9.176611900329589844e-02 -1.082589775323867798e-01 4.007885605096817017e-02 1.422168165445327759e-01 2.466557361185550690e-02 -1.983739286661148071e-01 -8.857933431863784790e-02 6.248639896512031555e-03 5.891432240605354309e-02 1.182860974222421646e-02 -7.595544308423995972e-02 -2.574843820184469223e-03 -2.170326858758926392e-01 3.539963159710168839e-03 -8.620023727416992188e-02 1.266377121210098267e-01 4.890800267457962036e-02 -2.133353948593139648e-01 -9.416864812374114990e-02 -4.102784767746925354e-02 3.084255941212177277e-02 -1.866163462400436401e-01 9.523851424455642700e-02 -1.608531326055526733e-01 -2.089127339422702789e-02 4.841233417391777039e-02 -1.151880249381065369e-01 6.031195446848869324e-02 2.532784454524517059e-02 -1.018695458769798279e-01 8.029785007238388062e-02 -3.210296388715505600e-03 1.400180608034133911e-01 1.100861281156539917e-01 -1.449069380760192871e-01 1.743626743555068970e-01 1.069632079452276230e-02 -1.406937539577484131e-01 -1.083759684115648270e-02 -4.103947803378105164e-02 1.321234554052352905e-01 -1.260367035865783691e-01 -3.830845281481742859e-02 1.881866157054901123e-01 5.829578638076782227e-02 5.450446903705596924e-02 -1.015305072069168091e-01 1.123068407177925110e-01 2.236229740083217621e-02 5.582682788372039795e-02 -2.369727939367294312e-02 3.559251502156257629e-02 -1.668047308921813965e-01 1.416885852813720703e-01 -1.059135049581527710e-01 1.387350261211395264e-01 6.669093668460845947e-02 -7.419324666261672974e-02 6.007421016693115234e-02 -1.143748015165328979e-01 4.489079862833023071e-02 1.200413778424263000e-01 -1.452029943466186523e-01 -4.097282886505126953e-02 6.541196256875991821e-02 -1.499188132584095001e-02 -7.137569040060043335e-02 -8.077988028526306152e-02 -7.832168787717819214e-02 6.709644198417663574e-02 -1.374319847673177719e-02 7.648718357086181641e-02 -2.752465009689331055e-02 -4.096104949712753296e-02 4.813128337264060974e-02 -8.038032054901123047e-02 -8.604714646935462952e-03 -8.000235259532928467e-02 -9.665206819772720337e-02 -3.276243060827255249e-02 -8.431613445281982422e-02 2.034680396318435669e-01 -1.131468825042247772e-02 9.477183967828750610e-02 -1.076705977320671082e-01 -1.486319489777088165e-02 8.633750677108764648e-02 -9.543200582265853882e-02 2.257639728486537933e-02 -8.262396603822708130e-02 9.437128901481628418e-02 7.770542800426483154e-02 -1.666196584701538086e-01 -1.832765042781829834e-01 2.432554960250854492e-02 -8.550827205181121826e-02 -6.272407621145248413e-02 7.890740036964416504e-02 -1.579837799072265625e-01 -8.144022524356842041e-02 -1.340327598154544830e-02 -4.281000047922134399e-02 -1.482023000717163086e-01 -3.947606310248374939e-02 -3.264150768518447876e-02 3.416428342461585999e-02 1.697687953710556030e-01 -1.643907427787780762e-01 -5.315961688756942749e-02 -8.974589407444000244e-02 -1.344781219959259033e-01 -6.375100463628768921e-02 6.385894119739532471e-02 -1.032535582780838013e-01 -1.569775491952896118e-02 -1.217197179794311523e-01 1.409315019845962524e-01 -2.126575857400894165e-01 -1.618606597185134888e-01 -4.362638108432292938e-03 3.825873509049415588e-02 -2.161565423011779785e-01 -4.772889241576194763e-02 5.208807066082954407e-02 -1.491587013006210327e-01 7.481416314840316772e-02 -1.796324551105499268e-01 -5.259154364466667175e-02 2.545493468642234802e-02 -1.812897026538848877e-01 4.546298086643218994e-02 2.645958364009857178e-01 -1.736621856689453125e-01 -1.054448485374450684e-01 -7.679062336683273315e-02 2.497190982103347778e-01 8.163221180438995361e-03 -5.395807325839996338e-03 -1.232386827468872070e-01 1.205421686172485352e-01 -1.557514518499374390e-01 4.926260188221931458e-02 -2.338340282440185547e-01 9.308721870183944702e-02 1.179812997579574585e-01 -5.402765050530433655e-02 -5.117641016840934753e-02 -3.316353075206279755e-03 -7.743815332651138306e-02 -1.956962347030639648e-01 9.824434667825698853e-02 -7.231958955526351929e-02 -6.319104880094528198e-02 4.360472410917282104e-02 -1.365843415260314941e-01 -1.315554976463317871e-01 -1.717413365840911865e-01 -4.145275056362152100e-02 2.099466510117053986e-02 -5.293533578515052795e-02 -7.684196345508098602e-03 1.797819882631301880e-02 1.165616046637296677e-02 9.031584113836288452e-02 -1.036656126379966736e-01 -2.014402300119400024e-01 -1.269377470016479492e-01 -6.393566727638244629e-04 1.098461374640464783e-01 2.361346781253814697e-02 -5.374150350689888000e-03 3.498069941997528076e-02 -3.783088177442550659e-02 1.699520349502563477e-01 -9.300037473440170288e-02 9.015761315822601318e-02 3.759136795997619629e-02 -9.913036227226257324e-02 -1.531980037689208984e-01 -8.960699290037155151e-02 -1.591028720140457153e-01 3.672718629240989685e-02 -6.483988463878631592e-02 3.362777829170227051e-02 -1.307504773139953613e-01 -9.009294956922531128e-02 1.940184533596038818e-01 -8.211105316877365112e-02 -7.838391512632369995e-02 -5.564499646425247192e-02 -1.560538262128829956e-01 -4.465113207697868347e-02 1.039778348058462143e-02 -7.821088284254074097e-02 -1.229373514652252197e-01 -1.289208531379699707e-01 -1.856706589460372925e-01 2.274627797305583954e-02 3.857644647359848022e-02 -7.127764075994491577e-02 1.032182201743125916e-01 -2.142954245209693909e-02 5.282818526029586792e-02 -5.980164185166358948e-02 -1.032320857048034668e-01 1.132035814225673676e-02 3.666772041469812393e-03 -1.459878683090209961e-01 -1.297091320157051086e-02 1.288524717092514038e-01 -2.762311883270740509e-02 1.279141902923583984e-01 -4.638103395700454712e-02 -2.734009623527526855e-01 8.186304569244384766e-02 -8.816403150558471680e-02 -7.556711882352828979e-02 -1.327290385961532593e-01 -3.727532178163528442e-02 -3.349348530173301697e-02 -8.858412504196166992e-03 2.319984510540962219e-02 -9.807011112570762634e-03 -1.120255216956138611e-01 -8.715322613716125488e-02 2.968987450003623962e-02 -1.757840961217880249e-01 -1.124510541558265686e-01 6.820652633905410767e-02 -1.116623803973197937e-01 -1.298190206289291382e-01 8.771905303001403809e-02 -8.070180565118789673e-02 2.788846567273139954e-02 1.729982942342758179e-01 -1.590958684682846069e-01 -1.013724654912948608e-01 -1.274517625570297241e-01 2.967159450054168701e-02 -1.841440349817276001e-01 -6.685121357440948486e-02 -5.152418836951255798e-02 6.112849339842796326e-02 -2.366898506879806519e-01 1.190467998385429382e-01 -1.536116451025009155e-01 -1.130296066403388977e-01 -9.764781221747398376e-03 -1.287847012281417847e-01 -1.861210167407989502e-01 -1.673560738563537598e-01 -2.666689455509185791e-02 -8.469601720571517944e-02 3.500368818640708923e-02 -2.109596319496631622e-02 9.555567987263202667e-03 6.179526820778846741e-02 -1.772956550121307373e-01 1.212211400270462036e-01 1.348340362310409546e-01 -1.681725233793258667e-01 -1.384491324424743652e-01 -1.508910953998565674e-01 8.793707937002182007e-02 8.992408215999603271e-02 3.521881625056266785e-02 -8.819767087697982788e-02 7.559900730848312378e-02 4.154996201395988464e-02 1.441300213336944580e-01 -1.409680098295211792e-01 -1.754242461174726486e-03 3.915895521640777588e-02 -1.200480014085769653e-01 -5.071621760725975037e-02 -6.436214596033096313e-02 -1.241052895784378052e-01 2.501352131366729736e-02 9.365808963775634766e-02 -1.077482998371124268e-01 -9.965734928846359253e-02 9.421746432781219482e-02 -2.014322131872177124e-01 -4.398711025714874268e-03 1.481722202152013779e-02 -2.128198370337486267e-02 7.599770091474056244e-03 7.428345084190368652e-02 2.076683640480041504e-01 1.484391391277313232e-01 9.886598587036132812e-02 1.036550700664520264e-01 -4.363845661282539368e-02 -8.687718771398067474e-03 -1.737975776195526123e-01 1.970798522233963013e-01 4.692180827260017395e-02 -5.888537690043449402e-02 -1.489573568105697632e-01 1.924891620874404907e-01 1.819626837968826294e-01 1.486472040414810181e-01 3.064333088696002960e-02 6.144399568438529968e-02 -1.441408544778823853e-01 -1.482802443206310272e-02 4.160969331860542297e-02 1.740216910839080811e-01 -1.079695597290992737e-01 -2.536841854453086853e-02 -1.913753449916839600e-01 2.458197474479675293e-01 -1.196711808443069458e-01 -3.808459267020225525e-02 2.116981148719787598e-01 4.455824941396713257e-02 5.940186325460672379e-03 6.733319163322448730e-02 -2.612599730491638184e-01 -1.354940682649612427e-01 -6.538029015064239502e-02 7.203715294599533081e-02 4.731924459338188171e-02 -5.126494541764259338e-02 -1.909453235566616058e-02 1.234356034547090530e-02 9.955222159624099731e-02 3.915337473154067993e-02 1.283465474843978882e-01 -1.139970794320106506e-01 -1.782826520502567291e-02 -8.254264295101165771e-02 -1.620388925075531006e-01 -1.455049961805343628e-01 -1.268404275178909302e-01 -5.505739524960517883e-02 4.272413626313209534e-02 -1.006043632514774799e-03 -6.339084357023239136e-02 -3.791974112391471863e-02 3.355350345373153687e-03 -2.369993627071380615e-01 2.107857726514339447e-02 4.455678910017013550e-02 -1.750103384256362915e-01 -1.274495422840118408e-01 3.382012248039245605e-02 7.721591740846633911e-02 -9.311491250991821289e-02 3.139716386795043945e-02 8.733895421028137207e-02 -4.419759660959243774e-02 -2.056365832686424255e-02 -6.471475958824157715e-02 -1.339385956525802612e-01 2.178149530664086342e-03 1.349727064371109009e-01 -1.755654215812683105e-01 -1.357761472463607788e-01 2.027212874963879585e-03 -1.815771311521530151e-01 -1.281350255012512207e-01 1.844376325607299805e-01 -1.808188855648040771e-01 -1.546243727207183838e-01 2.285002171993255615e-02 1.510778069496154785e-01 -1.076562553644180298e-01 -4.381370916962623596e-02 -8.489558845758438110e-02 -1.414126716554164886e-02 -3.474366292357444763e-02 6.570985168218612671e-02 9.126503020524978638e-02 -6.226615235209465027e-02 7.476217579096555710e-03 5.998363345861434937e-02 1.557231415063142776e-02 5.755653232336044312e-02 -3.463352844119071960e-02 -4.661332815885543823e-02 -1.265322864055633545e-01 8.410588651895523071e-02 6.059495732188224792e-02 -3.163234144449234009e-02 -1.208814606070518494e-01 -8.531905710697174072e-03 -1.736889779567718506e-02 1.007326394319534302e-01 -1.382746398448944092e-01 -3.213139623403549194e-02 -6.690195295959711075e-03 3.600335866212844849e-02 -6.253509223461151123e-02 -8.521711081266403198e-02 -2.704645134508609772e-02 -1.087426990270614624e-01 -3.556654602289199829e-02 3.973679989576339722e-02 6.358967721462249756e-02 -1.119143515825271606e-01 1.654790714383125305e-02 8.718691021203994751e-02 9.707895666360855103e-02 9.892828762531280518e-02 -3.754395758733153343e-03 1.123475432395935059e-01 -1.096456199884414673e-01 9.108329564332962036e-02 1.461981236934661865e-01 -9.207584708929061890e-02 6.602422147989273071e-02 1.074912324547767639e-01 6.199172511696815491e-02 8.711734414100646973e-02 -6.746815890073776245e-02 9.782305359840393066e-02 -1.292413217015564442e-03 -5.477271229028701782e-02 8.357736468315124512e-02 -1.156157553195953369e-01 -2.232340276241302490e-01 -9.558711200952529907e-02 -8.076532185077667236e-02 1.748748123645782471e-02 8.446290343999862671e-02 -3.644902259111404419e-02 -3.023886494338512421e-02 6.868822127580642700e-02 1.603250950574874878e-02 -6.258736364543437958e-03 1.816559284925460815e-01 9.407759457826614380e-02 -6.330261379480361938e-02 3.305313736200332642e-02 -2.865416556596755981e-02 9.924583882093429565e-02 6.852170825004577637e-02 -1.379266753792762756e-02 1.136520057916641235e-01 -8.289346098899841309e-02 9.432963281869888306e-02 1.962534338235855103e-02 -5.010937526822090149e-02 4.536467790603637695e-02 -2.561760134994983673e-02 -8.645706623792648315e-02 9.311076253652572632e-02 1.383475901093333960e-04 -1.006191298365592957e-01 2.242744155228137970e-02 -6.978403031826019287e-02 6.288642436265945435e-02 -2.754263579845428467e-02 4.968606680631637573e-02 3.216357901692390442e-02 -7.821971923112869263e-02 -5.245401710271835327e-02 -2.518009580671787262e-02 4.388234764337539673e-02 -4.792000725865364075e-02 -8.846636116504669189e-02 3.790629282593727112e-02 -1.217413134872913361e-02 -5.423142574727535248e-03 4.030757583677768707e-03 1.157606672495603561e-02 3.532990813255310059e-02 1.230077743530273438e-01 -8.590581826865673065e-03 8.889513462781906128e-02 -9.230776131153106689e-02 1.103311032056808472e-01 -8.244212716817855835e-02 -8.287978917360305786e-02 8.617343753576278687e-02 1.732750236988067627e-02 5.160529166460037231e-02 5.846104025840759277e-02 8.107135444879531860e-02 4.666120931506156921e-02 -9.430052340030670166e-02 2.374328672885894775e-02 1.021618843078613281e-01 -7.122535258531570435e-02 3.260859847068786621e-02 2.133014053106307983e-02 -5.117737501859664917e-02 1.036851406097412109e-01 -2.753087133169174194e-02 1.500476449728012085e-01 -2.460184507071971893e-02 -4.983519762754440308e-02 8.296094834804534912e-02 1.101654302328824997e-02 1.164465919137001038e-01 1.031270399689674377e-01 -1.673925071954727173e-01 1.673327237367630005e-01 -9.818787127733230591e-02 4.344005510210990906e-02 -2.193220555782318115e-01 7.002741843461990356e-02 1.103209108114242554e-01 -1.284945104271173477e-02 -1.171930506825447083e-01 -1.674329042434692383e-01 -8.108299970626831055e-02 -1.549125611782073975e-01 -5.634811520576477051e-02 -8.789443224668502808e-02 5.163787305355072021e-02 -1.608767062425613403e-01 -1.965548247098922729e-01 5.608549341559410095e-03 2.207992225885391235e-01 5.164759978652000427e-02 -2.028610706329345703e-01 -1.053153276443481445e-01 1.163450777530670166e-01 1.734056472778320312e-01 1.421540677547454834e-01 -1.221238449215888977e-02 7.545624673366546631e-02 -7.444900274276733398e-02 -2.194016985595226288e-02 -3.705450519919395447e-02 2.157392501831054688e-01 1.639497727155685425e-01 -1.654077172279357910e-01 -1.133629381656646729e-01 -1.124181598424911499e-01 1.362609490752220154e-02 9.753904491662979126e-02 9.716919064521789551e-02 -1.581428796052932739e-01 -5.009688436985015869e-02 -1.318629086017608643e-01 1.968588121235370636e-02 -5.418719723820686340e-02 -8.807545155286788940e-02 2.440748177468776703e-02 5.478928796947002411e-03 1.419292837381362915e-01 9.801179170608520508e-02 -4.408864304423332214e-02 8.617222309112548828e-02 1.348785609006881714e-01 -1.725345849990844727e-01 5.949711427092552185e-02 -2.221583575010299683e-01 5.428857356309890747e-02 1.727359890937805176e-01 1.510297134518623352e-02 -3.413047641515731812e-03 1.185066327452659607e-01 1.081407591700553894e-01 1.359688043594360352e-01 -1.580973714590072632e-01 -6.941890716552734375e-02 -1.296907961368560791e-01 4.448976367712020874e-03 -9.233461320400238037e-02 1.861795485019683838e-01 -1.884912103414535522e-01 1.873762309551239014e-01 -1.462549418210983276e-01 2.592163532972335815e-02 -7.152099162340164185e-02 -1.956613175570964813e-02 1.253409832715988159e-01 -3.636265918612480164e-02 -6.294634938240051270e-02 8.734044432640075684e-02 -8.305247128009796143e-02 5.480604246258735657e-02 -8.160399645566940308e-02 1.369114220142364502e-01 3.066886914893984795e-03 -3.475837176665663719e-03 -1.188710331916809082e-02 -1.525616943836212158e-01 3.358218818902969360e-02 -3.602699935436248779e-02 7.509246934205293655e-03 -1.244444847106933594e-01 6.069937720894813538e-02 -1.833459138870239258e-01 -6.621025502681732178e-02 -1.488218307495117188e-01 -1.462989747524261475e-01 -2.349744550883769989e-02 1.700311303138732910e-01 3.255855664610862732e-02 -1.756144165992736816e-01 -1.014096755534410477e-02 3.846905753016471863e-02 -4.614116623997688293e-02 1.862331330776214600e-01 1.091406792402267456e-01 -1.287801712751388550e-01 -3.234279155731201172e-02 -9.692269563674926758e-02 1.565014123916625977e-01 -2.161646448075771332e-02 5.553344637155532837e-02 1.509559005498886108e-01 4.571366310119628906e-02 -2.664951607584953308e-02 2.493366226553916931e-02 -1.050563082098960876e-01 -1.258001476526260376e-01 1.150678843259811401e-01 -1.692591607570648193e-01 -1.336517035961151123e-01 -8.533634990453720093e-02 -6.561204046010971069e-02 -1.242273300886154175e-01 1.919296681880950928e-01 -6.701163947582244873e-02 -2.685690112411975861e-02 -1.783000826835632324e-01 -3.089333185926079750e-03 -6.605609506368637085e-02 -8.545445650815963745e-02 -4.751907289028167725e-02 -1.785173267126083374e-01 3.664413839578628540e-02 4.934338852763175964e-02 6.077845767140388489e-02 -1.016629580408334732e-02 -2.235258370637893677e-01 4.789154231548309326e-02 -9.405469894409179688e-02 5.757230520248413086e-02 -1.173705328255891800e-02 1.324039651080965996e-03 -1.414021253585815430e-01 -1.343877799808979034e-02 -1.245690789073705673e-02 1.034480333328247070e-01 2.422762103378772736e-02 -6.388802826404571533e-02 -2.219072282314300537e-01 5.544948577880859375e-02 4.478824511170387268e-02 2.033748924732208252e-01 -7.241929322481155396e-02 -3.345414251089096069e-02 2.453243359923362732e-02 -2.059324681758880615e-01 -5.997630581259727478e-02 -6.809916347265243530e-02 -2.156103849411010742e-01 9.146889299154281616e-02 2.593253366649150848e-02 7.604381069540977478e-03 1.273557543754577637e-01 9.956974536180496216e-02 -2.251331694424152374e-02 7.285101711750030518e-02 -1.063843965530395508e-01 8.401734381914138794e-02 -6.142460554838180542e-02 -2.503654360771179199e-02 1.003725305199623108e-01 3.426495939493179321e-02 1.293553709983825684e-01 -2.839245833456516266e-02 -6.940619647502899170e-02 5.581307783722877502e-02 -1.633352786302566528e-01 2.979990653693675995e-02 2.791070379316806793e-02 -2.212103009223937988e-01 -3.829928860068321228e-02 1.316870301961898804e-01 -9.888448566198348999e-02 9.806217253208160400e-02 -6.535049527883529663e-02 4.588957503437995911e-02 8.058618009090423584e-02 1.703875958919525146e-01 4.110803455114364624e-02 -7.908171415328979492e-02 -9.941145777702331543e-02 -2.778619341552257538e-02 9.132119268178939819e-02 9.008784592151641846e-02 1.666060239076614380e-01 1.932597011327743530e-01 -7.823698967695236206e-02 1.519187688827514648e-01 -8.303108811378479004e-02 1.609980873763561249e-02 3.252927958965301514e-02 4.861315712332725525e-02 6.106770038604736328e-02 -1.604425907135009766e-01 -2.598100006580352783e-01 1.021150872111320496e-01 -6.175444647669792175e-02 1.311767846345901489e-01 1.633101701736450195e-01 2.237625047564506531e-02 -8.162397146224975586e-02 7.842487841844558716e-02 -2.254462242126464844e-02 -4.591216519474983215e-02 6.629934161901473999e-02 2.440437674522399902e-02 -1.846316009759902954e-01 -3.209159150719642639e-02 -4.304203204810619354e-03 -1.197686195373535156e-01 -9.731600992381572723e-03 -4.844652861356735229e-02 5.516572855412960052e-03 7.704414427280426025e-02 1.617431081831455231e-02 -1.612653881311416626e-01 -7.310406863689422607e-02 1.872786879539489746e-01 -9.304672479629516602e-02 1.855046153068542480e-01 1.746284663677215576e-01 -9.633968770503997803e-02 -1.764165163040161133e-01 1.375108659267425537e-01 5.826204270124435425e-02 1.480645239353179932e-01 -1.733086705207824707e-01 -3.636379539966583252e-02 1.421075910329818726e-01 -1.092639714479446411e-01 1.762532442808151245e-01 -1.598316133022308350e-01 -9.307092428207397461e-02 6.402882188558578491e-02 1.649263799190521240e-01 -4.189256951212882996e-02 9.175556898117065430e-02 1.819070428609848022e-01 6.664667278528213501e-03 7.862962782382965088e-03 1.778257936239242554e-01 -1.319928318262100220e-01 -2.073797956109046936e-02 -4.583684355020523071e-02 -5.095884576439857483e-02 -6.719722598791122437e-02 -4.539757966995239258e-02 7.860262691974639893e-02 8.562828600406646729e-02 8.232819847762584686e-03 9.382289648056030273e-02 4.002493992447853088e-02 -1.177039518952369690e-01 -5.569257587194442749e-02 -4.127741977572441101e-02 -8.056100457906723022e-02 -8.354476094245910645e-02 3.475565090775489807e-02 -4.221420735120773315e-02 -2.985407225787639618e-02 -1.504267305135726929e-01 9.950783848762512207e-02 -1.385372728109359741e-01 -1.077884510159492493e-01 -7.483389973640441895e-02 5.115759558975696564e-03 7.934854179620742798e-02 5.199091136455535889e-02 -6.846496462821960449e-02 -8.165302127599716187e-02 -2.694205008447170258e-02 -4.488918557763099670e-02 -9.079944342374801636e-02 -1.634034365415573120e-01 -4.046181589365005493e-02 -9.820993989706039429e-02 -1.246810182929039001e-01 4.068690910935401917e-02 3.123973123729228973e-02 8.971275389194488525e-02 7.515372335910797119e-02 -2.518474310636520386e-02 4.372399672865867615e-02 6.516142934560775757e-02 -1.559255719184875488e-01 1.878196299076080322e-01 -1.105510890483856201e-01 -8.966646157205104828e-03 1.884745061397552490e-01 5.825847387313842773e-02 1.030106022953987122e-01 -1.827764511108398438e-02 8.695371448993682861e-02 8.781535178422927856e-02 -4.973134770989418030e-02 8.062990009784698486e-02 -7.643657736480236053e-03 -2.229989171028137207e-01 -1.090887784957885742e-01 4.173529800027608871e-03 -1.121193021535873413e-01 -9.907305240631103516e-02 -2.375255227088928223e-01 -1.566191315650939941e-01 -1.122884228825569153e-01 5.230373516678810120e-02 1.999018639326095581e-01 -1.940940171480178833e-01 -1.893679946660995483e-01 4.584309831261634827e-02 7.564156502485275269e-02 1.391859352588653564e-01 -2.115890569984912872e-02 -1.132118850946426392e-01 -9.746105060912668705e-04 -1.014836225658655167e-02 -5.917724221944808960e-02 1.050413623452186584e-01 9.946386516094207764e-02 6.250455975532531738e-02 -4.579178616404533386e-02 -5.086417496204376221e-02 -1.791821122169494629e-01 8.727336674928665161e-02 -1.907812245190143585e-02 -2.804282121360301971e-03 7.067043334245681763e-02 -6.722681224346160889e-02 3.698042593896389008e-03 8.271553553640842438e-03 -4.150750860571861267e-02 7.912687212228775024e-02 1.003268081694841385e-02 -9.667129814624786377e-02 1.854139612987637520e-03 -8.511936664581298828e-02 5.197570659220218658e-03 -5.366415134631097317e-04 6.943634897470474243e-02 -1.185003761202096939e-02 3.150071948766708374e-02 1.236147060990333557e-01 5.965622887015342712e-02 7.802058011293411255e-02 -3.977228328585624695e-02 -5.785512737929821014e-03 -5.250031501054763794e-02 -2.664001472294330597e-02 6.485782563686370850e-02 -9.095343202352523804e-02 -9.367451071739196777e-02 1.217590272426605225e-01 6.054424121975898743e-02 -5.265751108527183533e-02 7.725850492715835571e-02 -5.968360230326652527e-02 -9.994204342365264893e-02 -7.772382348775863647e-02 1.552769839763641357e-01 -3.337422013282775879e-02 4.144329577684402466e-02 -1.331011354923248291e-01 1.142418235540390015e-01 -4.456042870879173279e-02 4.531499743461608887e-02 -2.045482862740755081e-03 1.273783594369888306e-01 8.523499220609664917e-02 1.010744348168373108e-01 9.261974692344665527e-02 6.600770354270935059e-02 -2.609206829220056534e-03 -1.484643574804067612e-02 -1.262014061212539673e-01 2.380911074578762054e-02 1.669974997639656067e-02 5.144614726305007935e-02 6.450933218002319336e-02 -6.898663006722927094e-03 1.589110046625137329e-01 -1.634352803230285645e-01 1.068339683115482330e-02 -7.677668333053588867e-02 3.954452276229858398e-02 -1.609632372856140137e-01 -9.410616010427474976e-02 -1.202750131487846375e-01 -1.880809850990772247e-02 8.993341028690338135e-02 -1.740036308765411377e-01 8.522932976484298706e-02 -1.950891572050750256e-03 -1.193418279290199280e-01 -6.832931190729141235e-02 5.827649310231208801e-02 1.830714382231235504e-02 -1.648876368999481201e-01 -2.357791736721992493e-02 -5.340415984392166138e-02 1.712400764226913452e-01 2.384681552648544312e-01 -4.083698242902755737e-02 6.908625364303588867e-02 1.246947944164276123e-01 4.709812346845865250e-03 -1.094063222408294678e-01 1.047972962260246277e-01 -2.834493480622768402e-02 -1.979058980941772461e-02 -4.166417941451072693e-02 -1.023217290639877319e-01 -3.696053847670555115e-02 1.050308495759963989e-01 3.514239192008972168e-02 -1.774675846099853516e-01 1.925365813076496124e-02 -9.348985552787780762e-02 -1.786510497331619263e-01 -8.409410715103149414e-02 -5.261010676622390747e-02 1.328748092055320740e-02 7.858891040086746216e-03 -4.024671018123626709e-02 1.500324010848999023e-01 6.944631040096282959e-02 -8.787720650434494019e-02 2.650943025946617126e-02 -4.222795367240905762e-02 -1.081129759550094604e-01 -7.599315792322158813e-02 -8.681456744670867920e-02 3.975216671824455261e-02 -7.459658384323120117e-02 -1.676464676856994629e-01 8.881612867116928101e-02 8.162022382020950317e-02 7.728257775306701660e-02 -1.802167668938636780e-02 3.514383733272552490e-02 2.843915857374668121e-02 -1.052154898643493652e-01 -1.097193956375122070e-01 8.631207048892974854e-02 -1.403931248933076859e-02 1.519867181777954102e-01 -8.298647403717041016e-02 1.256718337535858154e-01 -1.000167578458786011e-01 5.091055110096931458e-02 1.833453774452209473e-01 -9.453584998846054077e-02 5.864898860454559326e-02 