-2.280960977077484131e-01
2.467224597930908203e-01
-1.026656851172447205e-01
2.932499162852764130e-02
-1.599285751581192017e-01
-3.282744809985160828e-02
-1.142816059291362762e-02
6.481091678142547607e-02
1.605932712554931641e-01
3.013055026531219482e-02
-2.486412227153778076e-02
-1.580457240343093872e-01
8.403994888067245483e-02
-4.186506569385528564e-02
1.303755678236484528e-02
7.883839309215545654e-02
1.555103957653045654e-01
1.196234896779060364e-01
-2.344926148653030396e-01
-2.377133816480636597e-03
-1.722823381423950195e-01
-1.973602920770645142e-01
-6.970708817243576050e-02
-1.212213411927223206e-01
2.530931495130062103e-02
-1.863791495561599731e-01
-1.420269161462783813e-01
7.305758446455001831e-02
-9.439525753259658813e-02
-1.180492565035820007e-01
7.955671846866607666e-02
1.368605764582753181e-03
-2.041435390710830688e-01
-1.412916779518127441e-01
-1.254667192697525024e-01
2.033168971538543701e-01
6.631209701299667358e-02
-5.350860208272933960e-02
9.679866582155227661e-02
-3.476373106241226196e-02
2.099412530660629272e-01
-1.430299729108810425e-01
-2.032201290130615234e-01
-1.112321466207504272e-01
-2.066393569111824036e-02
6.770046055316925049e-02
9.973347932100296021e-02
-9.083694219589233398e-02
-1.053860783576965332e-01
-2.441093176603317261e-01
-1.691297888755798340e-01
-3.235236927866935730e-02
-4.120684415102005005e-02
4.411552101373672485e-02
-7.562036067247390747e-02
8.537080138921737671e-02
-4.729869216680526733e-02
1.182474046945571899e-01
9.247655980288982391e-03
3.498705476522445679e-02
3.217631578445434570e-02
2.635309658944606781e-02
-8.026058226823806763e-02
1.887019425630569458e-01
-1.561238616704940796e-01
2.024984061717987061e-01
1.744937449693679810e-01
1.052223443984985352e-01
1.220917329192161560e-01
4.169705137610435486e-02
-2.214193344116210938e-01
1.027277112007141113e-01
-1.580676734447479248e-01
1.858575046062469482e-01
1.963108628988265991e-01
5.648191645741462708e-02
-1.416571736335754395e-01
-9.638903290033340454e-02
-9.623996913433074951e-03
1.302122026681900024e-01
-3.396873921155929565e-02
-9.860066324472427368e-02
-1.266061514616012573e-01
3.287745406851172447e-03
7.911597937345504761e-02
4.919780418276786804e-02
-1.213016510009765625e-01
1.692089140415191650e-01
1.864644140005111694e-01
-1.993263699114322662e-02
6.011172756552696228e-02
-6.134627759456634521e-02
-1.178015992045402527e-01
1.681748777627944946e-01
-6.051036715507507324e-02
2.412737719714641571e-02
1.770329326391220093e-01
-9.432461857795715332e-02
1.937920302152633667e-01
1.730041205883026123e-01
3.672776743769645691e-02
-1.374891400337219238e-01
1.935056895017623901e-01
4.868027940392494202e-02
-1.089895665645599365e-01
1.735575497150421143e-04
-6.476847827434539795e-02
-3.098036721348762512e-02
-3.382904827594757080e-02
3.324659541249275208e-02
-8.366030640900135040e-03
4.473506286740303040e-02
1.958537101745605469e-01
-5.285579711198806763e-02
-1.259190589189529419e-01
1.964333653450012207e-01
-9.878882020711898804e-02
-1.949572414159774780e-01
6.659554690122604370e-02
4.073655977845191956e-02
6.345063447952270508e-02
4.516975954174995422e-02
-7.242049276828765869e-02
-1.605286300182342529e-01
1.155399829149246216e-01
4.270564764738082886e-02
-1.194634214043617249e-01
-1.195587441325187683e-01
-2.201356142759323120e-01
3.290612399578094482e-01
-3.668383955955505371e-01
1.469007581472396851e-01
-2.715838551521301270e-01
-2.316958904266357422e-01
-2.907628118991851807e-01
3.538247644901275635e-01
2.861482501029968262e-01
4.358169436454772949e-01
-1.954790353775024414e-01
-2.568358480930328369e-01
1.672742813825607300e-01
-2.161633670330047607e-01
3.335690498352050781e-01
-4.028038084506988525e-01
2.828749418258666992e-01
2.507807314395904541e-01
-4.487037360668182373e-01
2.019987255334854126e-01
-1.951613426208496094e-01
-3.796845972537994385e-01
-2.007003873586654663e-01
-2.802635133266448975e-01
-4.052429795265197754e-01
-2.408845424652099609e-01
-1.727600395679473877e-01
-1.879286617040634155e-01
-2.767086923122406006e-01
-2.076376527547836304e-01
2.744905054569244385e-01
1.922560334205627441e-01
-4.335005283355712891e-01
-2.477868497371673584e-01
-4.318923950195312500e-01
2.860200703144073486e-01
-2.488457262516021729e-01
-1.492183208465576172e-01
2.186252921819686890e-01
-3.482297062873840332e-01
4.503753781318664551e-01
-4.326173067092895508e-01
-2.050235122442245483e-01
-1.820063143968582153e-01
-3.084963262081146240e-01
1.928477585315704346e-01
2.443678230047225952e-01
-2.363890409469604492e-01
-1.619936972856521606e-01
-3.808757960796356201e-01
-4.129651784896850586e-01
1.674007177352905273e-01
-2.796159386634826660e-01
2.114024609327316284e-01
-1.377986967563629150e-01
-1.917620152235031128e-01
-2.073370814323425293e-01
1.572942584753036499e-01
-4.011231660842895508e-01
-3.891755938529968262e-01
1.768508851528167725e-01
-3.511226475238800049e-01
-1.451465785503387451e-01
3.306701779365539551e-01
-1.515125930309295654e-01
4.178192615509033203e-01
3.049993813037872314e-01
2.091428935527801514e-01
3.756393790245056152e-01
-4.174596667289733887e-01
-3.633999228477478027e-01
3.708446919918060303e-01
-1.328129172325134277e-01
3.888868689537048340e-01
2.210687100887298584e-01
3.602029979228973389e-01
-3.761059641838073730e-01
-1.158411502838134766e-01
1.798343807458877563e-01
3.343180119991302490e-01
3.893529474735260010e-01
-2.359309494495391846e-01
-4.516323208808898926e-01
-1.334126144647598267e-01
4.151334762573242188e-01
3.412091434001922607e-01
-3.250570893287658691e-01
4.149059355258941650e-01
3.069480359554290771e-01
4.354575872421264648e-01
3.814010322093963623e-01
-3.861872255802154541e-01
-3.220972716808319092e-01
4.073860347270965576e-01
-2.766948044300079346e-01
-3.954775929450988770e-01
2.351050972938537598e-01
-2.054555416107177734e-01
3.723169267177581787e-01
4.485929906368255615e-01
3.616007864475250244e-01
-3.732153773307800293e-01
2.449655383825302124e-01
2.795999050140380859e-01
-2.796121835708618164e-01
-1.466910839080810547e-01
1.534202098846435547e-01
-4.214858710765838623e-01
3.460600674152374268e-01
1.813313663005828857e-01
-4.085180461406707764e-01
-4.197211265563964844e-01
3.621268570423126221e-01
3.683518171310424805e-01
-1.942523419857025146e-01
3.803969025611877441e-01
-2.956108748912811279e-01
-4.397384524345397949e-01
-4.012729525566101074e-01
2.594186365604400635e-01
4.662216305732727051e-01
1.951854526996612549e-01
2.708198130130767822e-01
-2.977271676063537598e-01
2.202350199222564697e-01
4.503707587718963623e-01
-3.163748383522033691e-01
-1.982533931732177734e-01
-3.243237733840942383e-01
7.671029120683670044e-02
-3.273586034774780273e-01
1.394257992506027222e-01
-2.933181822299957275e-01
-2.980079650878906250e-01
-9.963111579418182373e-02
2.405834943056106567e-01
2.210350781679153442e-01
2.900142073631286621e-01
-1.817884743213653564e-01
-3.299140632152557373e-01
8.462333679199218750e-02
-3.040399849414825439e-01
2.423729449510574341e-01
-1.957702636718750000e-01
1.423776894807815552e-01
7.778477668762207031e-02
-9.538170695304870605e-02
1.996649801731109619e-01
-3.602433204650878906e-01
-1.593229174613952637e-01
-2.010387629270553589e-01
-1.666220873594284058e-01
-1.863215714693069458e-01
-3.385781347751617432e-01
-1.426907330751419067e-01
-1.927873045206069946e-01
-1.082218587398529053e-01
-1.270860880613327026e-01
2.743477523326873779e-01
1.698467135429382324e-01
-1.443221420049667358e-01
-2.548500597476959229e-01
-3.170506656169891357e-01
1.438786089420318604e-01
-2.173167318105697632e-01
-1.834495067596435547e-01
3.114863038063049316e-01
-1.346484869718551636e-01
2.008404880762100220e-01
-9.883224219083786011e-02
-2.866292297840118408e-01
-1.051083803176879883e-01
-8.999247103929519653e-02
2.974307537078857422e-01
2.134474813938140869e-01
-1.893744915723800659e-01
-1.239730566740036011e-01
-1.088126897811889648e-01
-1.317103207111358643e-01
1.501821130514144897e-01
-1.780596524477005005e-01
1.023068651556968689e-01
-2.575904428958892822e-01
-3.161020576953887939e-01
-9.073039889335632324e-02
2.340700775384902954e-01
-2.771254181861877441e-01
-2.429689764976501465e-01
8.894956111907958984e-02
-3.367058336734771729e-01
-3.031725585460662842e-01
3.212730586528778076e-01
-3.070725202560424805e-01
1.140376999974250793e-01
3.013322949409484863e-01
1.021982431411743164e-01
8.407215029001235962e-02
-2.235343009233474731e-01
-5.705854669213294983e-02
2.900436818599700928e-01
-7.430822402238845825e-02
3.255879580974578857e-01
1.564911007881164551e-01
8.810927718877792358e-02
-2.925325930118560791e-01
-1.381424814462661743e-01
1.200594231486320496e-01
3.492715358734130859e-01
3.180216252803802490e-01
-2.315081357955932617e-01
-1.376307457685470581e-01
-2.687112390995025635e-01
1.901889592409133911e-01
9.787086397409439087e-02
-3.314938545227050781e-01
3.517356812953948975e-01
1.261516660451889038e-01
3.472202718257904053e-01
2.336434721946716309e-01
-2.887246012687683105e-01
-1.083007380366325378e-01
2.880019545555114746e-01
-3.178837001323699951e-01
-8.788333088159561157e-02
1.297996789216995239e-01
-1.511138528585433960e-01
1.914192438125610352e-01
1.892637014389038086e-01
5.756458640098571777e-02
-2.890085577964782715e-01
7.647528499364852905e-02
1.464839279651641846e-01
-3.342252671718597412e-01
-3.308924734592437744e-01
1.129824146628379822e-01
-2.325942218303680420e-01
3.008342981338500977e-01
2.975966334342956543e-01
-3.401444852352142334e-01
-1.581539064645767212e-01
3.290686607360839844e-01
2.097663283348083496e-01
-1.820717453956604004e-01
3.219435513019561768e-01
-2.208483070135116577e-01
-3.726009130477905273e-01
-3.462261557579040527e-01
2.106453105807304382e-02
1.237174421548843384e-01
3.302284479141235352e-01
2.116172611713409424e-01
-1.595753431320190430e-01
2.567415833473205566e-01
1.021832451224327087e-01
-3.010734617710113525e-01
-1.133600473403930664e-01
1.754785180091857910e-01
5.675083026289939880e-02
5.932138115167617798e-02
-8.539536595344543457e-02
-2.652038075029850006e-02
4.053087905049324036e-02
2.839518152177333832e-02
2.594183385372161865e-02
1.013492345809936523e-01
6.048868410289287567e-03
7.337289303541183472e-02
8.087873458862304688e-02
5.875137820839881897e-02
2.245678007602691650e-02
4.143698513507843018e-02
-5.406161397695541382e-02
-1.246187165379524231e-01
-4.764293506741523743e-02
2.718344703316688538e-02
-6.255286931991577148e-02
1.929350644350051880e-01
8.528123050928115845e-02
-2.346171997487545013e-02
6.784260738641023636e-03
-1.475776545703411102e-02
1.146265938878059387e-01
-6.462585180997848511e-02
9.271001070737838745e-02
5.162192508578300476e-02
-2.303106943145394325e-03
-1.259858161211013794e-01
-1.482188515365123749e-02
9.078016877174377441e-02
3.325709700584411621e-02
9.325015358626842499e-03
5.260511487722396851e-02
1.051183417439460754e-01
1.941645592451095581e-01
-1.263299584388732910e-01
-1.172143593430519104e-02
-1.646335981786251068e-02
-5.212333798408508301e-02
-8.757625520229339600e-02
-8.635275810956954956e-02
1.288667321205139160e-01
-3.585034608840942383e-02
7.666123658418655396e-02
2.530635520815849304e-02
-1.226578839123249054e-02
-1.015134006738662720e-01
2.142598107457160950e-02
-1.574906408786773682e-01
-1.290316134691238403e-02
-4.375384002923965454e-02
1.672684848308563232e-01
1.575728207826614380e-01
2.624169178307056427e-02
-1.680609434843063354e-01
-9.004626423120498657e-02
1.629239618778228760e-01
-9.486802667379379272e-02
2.862824313342571259e-02
5.875177681446075439e-03
6.708703190088272095e-02
1.563578285276889801e-02
-1.518291328102350235e-02
8.649694174528121948e-02
-7.768105715513229370e-02
-6.662310659885406494e-02
-3.125666826963424683e-02
5.399085953831672668e-02
-1.022296845912933350e-01
6.485789548605680466e-03
-1.362683158367872238e-02
-4.034425318241119385e-02
-1.897044777870178223e-01
1.407032012939453125e-01
1.450174450874328613e-01
5.774042755365371704e-02
-8.985293097794055939e-03
-1.444563567638397217e-01
1.739047467708587646e-02
8.886935561895370483e-02
-9.721117466688156128e-02
-5.345339700579643250e-02
-6.157306209206581116e-02
1.241158321499824524e-01
-6.807867437601089478e-02
-7.963687181472778320e-02
1.072805225849151611e-01
-2.572635747492313385e-02
-3.354192152619361877e-02
1.793081909418106079e-01
-7.003247272223234177e-03
-1.083498448133468628e-01
1.076732575893402100e-02
-1.047804355621337891e-01
8.874844759702682495e-02
-1.512107700109481812e-01
-6.296245381236076355e-03
-1.753843277692794800e-01
6.121030449867248535e-02
2.170276828110218048e-02
-1.063237786293029785e-01
-8.045878261327743530e-02
-4.353186488151550293e-02
-8.154536038637161255e-02
6.085663661360740662e-02
-1.453400552272796631e-01
1.144305393099784851e-01
6.907324492931365967e-02
6.685084849596023560e-02
-7.877916097640991211e-02
8.742458373308181763e-02
-7.727738469839096069e-02
-9.529426693916320801e-02
4.195200651884078979e-02
-6.385448575019836426e-02
-9.309626370668411255e-02
-1.399922668933868408e-01
-1.678165942430496216e-01
-6.175373122096061707e-02
-9.474312514066696167e-02
-3.906625509262084961e-02
7.728559523820877075e-02
-1.096330955624580383e-01
-7.413160055875778198e-02
1.531256288290023804e-01
2.846563234925270081e-02
-2.399055957794189453e-01
2.451960444450378418e-01
-1.724149882793426514e-01
4.749241098761558533e-02
2.126511782407760620e-01
-3.614962473511695862e-02
-1.067053079605102539e-01
1.612451113760471344e-02
-2.776921093463897705e-01
6.799848750233650208e-03
1.040640696883201599e-01
-2.913002669811248779e-01
2.396826893091201782e-01
1.033931504935026169e-02
1.724161654710769653e-01
-1.139446869492530823e-01
1.729900017380714417e-02
2.151285558938980103e-01
-1.144793927669525146e-01
1.171428784728050232e-01
5.952359363436698914e-02
1.639229357242584229e-01
2.510787844657897949e-01
1.223904117941856384e-01
6.767321377992630005e-02
7.710587233304977417e-02
2.576121091842651367e-01
1.723102331161499023e-01
2.381378598511219025e-02
-4.027142003178596497e-02
-2.417161017656326294e-01
1.369765549898147583e-01
1.712937504053115845e-01
4.746422171592712402e-02
-2.172096818685531616e-01
7.380225509405136108e-02
8.116494119167327881e-02
-8.333892561495304108e-03
6.292212754487991333e-02
-4.005490615963935852e-02
3.583390265703201294e-02
2.127515673637390137e-01
2.744055390357971191e-01
1.351125836372375488e-01
-1.260324567556381226e-01
-3.871383517980575562e-02
1.419433951377868652e-01
1.801559031009674072e-01
1.099317967891693115e-01
-1.027088984847068787e-02
-6.339089572429656982e-02
8.394151180982589722e-02
1.018377300351858139e-02
9.208493679761886597e-02
5.060067400336265564e-02
7.093007117509841919e-02
-1.340834945440292358e-01
4.987752437591552734e-02
1.912444271147251129e-02
-1.494138780981302261e-02
1.383494734764099121e-01
8.463103324174880981e-02
-2.283733338117599487e-01
2.540689110755920410e-01
-2.100691795349121094e-01
-9.576328843832015991e-02
-9.975749254226684570e-02
-2.486201077699661255e-01
2.377567440271377563e-01
1.032488271594047546e-01
-1.428490281105041504e-01
1.264543980360031128e-01
-1.156295686960220337e-01
-2.684268355369567871e-01
-1.735718399286270142e-01
1.330810338258743286e-01
1.039913594722747803e-01
-2.836409807205200195e-01
-1.592421717941761017e-02
-2.401571869850158691e-01
2.191196084022521973e-01
5.130888894200325012e-02
2.416484057903289795e-01
-2.320593893527984619e-01
6.696525379084050655e-04
1.004340648651123047e-01
-7.174828089773654938e-03
-1.125253215432167053e-01
-2.273575514554977417e-01
-1.849420964717864990e-01
1.480132639408111572e-01
1.936709880828857422e-02
-3.593059256672859192e-02
8.065159618854522705e-02
1.750039756298065186e-01
-2.308481000363826752e-02
-4.541113507002592087e-03
-2.033888399600982666e-01
-2.275193482637405396e-01
-1.962189823389053345e-01
2.324207872152328491e-01
-2.613631486892700195e-01
-2.238552868366241455e-01
2.437183558940887451e-01
1.979810595512390137e-01
-1.123017147183418274e-01
-2.616180479526519775e-02
-1.320877075195312500e-01
-6.658820807933807373e-02
9.278352372348308563e-03
8.737039566040039062e-02
-1.818638890981674194e-01
-1.216619089245796204e-01
2.345394194126129150e-01
-2.715722620487213135e-01
-2.484572306275367737e-02
6.070262566208839417e-02
1.658959239721298218e-01
-1.608797013759613037e-01
-5.003362149000167847e-02
-2.128809839487075806e-01
-5.628033727407455444e-02
1.744861751794815063e-01
-8.813712000846862793e-02
-5.334958434104919434e-03
2.554773390293121338e-01
-1.459238957613706589e-02
-2.222068607807159424e-02
5.554958060383796692e-02
1.141565293073654175e-01
-2.005082964897155762e-01
6.533223204314708710e-03
7.437627017498016357e-02
1.526026874780654907e-01
-9.167750179767608643e-02
-6.795057654380798340e-02
-1.024370640516281128e-01
1.827364712953567505e-01
1.619022786617279053e-01
-1.915308386087417603e-01
-3.917432390153408051e-03
-1.404367536306381226e-01
1.018374413251876831e-01
-2.058006227016448975e-01
-2.269078642129898071e-01
-2.664198633283376694e-03
2.415715344250202179e-02
1.935813575983047485e-01
-1.512096822261810303e-02
1.896582245826721191e-01
1.881909519433975220e-01
2.715894952416419983e-02
-3.352546691894531250e-02
1.464288979768753052e-01
1.116154715418815613e-01
1.639474332332611084e-01
1.441792994737625122e-01
-1.485809832811355591e-01
-5.484208464622497559e-02
2.138234227895736694e-01
1.786576360464096069e-01
7.311192154884338379e-02
-1.633237004280090332e-01
3.091115970164537430e-03
1.760699152946472168e-01
-2.820818126201629639e-01
2.431462258100509644e-01
-1.459229439496994019e-01
1.858764290809631348e-01
8.928257226943969727e-02
1.122801452875137329e-01
7.233149558305740356e-02
-2.021443694829940796e-01
-2.371597439050674438e-01
1.291606854647397995e-02
2.164104282855987549e-01
3.673006221652030945e-02
-1.076630316674709320e-02
-3.554151952266693115e-02
2.601297199726104736e-01
-1.581520587205886841e-01
3.085179440677165985e-02
2.721724510192871094e-01
4.325617104768753052e-02
-3.831625729799270630e-02
2.042873501777648926e-01
2.110516279935836792e-02
-2.383513748645782471e-01
1.278551369905471802e-01
1.632466763257980347e-01
-2.579248845577239990e-01
9.597770124673843384e-02
-4.001966863870620728e-02
-2.225558310747146606e-01
2.015538886189460754e-02
-5.998276546597480774e-02
3.400769829750061035e-02
1.432260125875473022e-01
6.664829794317483902e-03
7.465268671512603760e-02
1.020443439483642578e-02
-1.295598298311233521e-01
-3.699871897697448730e-02
1.384626328945159912e-01
2.071876376867294312e-01
-5.832583829760551453e-02
-1.744395792484283447e-01
-1.529101282358169556e-01
1.114462763071060181e-01
9.932660311460494995e-02
2.028938531875610352e-01
-2.212968915700912476e-01
-1.716670542955398560e-01
1.286794543266296387e-01
-1.435166150331497192e-01
-4.754230380058288574e-02
6.569658871740102768e-03
-1.609480567276477814e-02
2.096808105707168579e-01
1.453180909156799316e-01
-1.397756487131118774e-01
2.337763607501983643e-01
2.181657403707504272e-01
-2.607556581497192383e-01
1.970847994089126587e-01
-2.427510917186737061e-01
-1.368978768587112427e-01
-2.422353774309158325e-01
-7.921648211777210236e-03
-2.457990497350692749e-01
-1.964571774005889893e-01
5.976727977395057678e-02
1.698563992977142334e-01
-5.300803855061531067e-02
2.359172552824020386e-01
-1.021392419934272766e-01
1.996722817420959473e-02
9.337786585092544556e-02
1.025647148489952087e-01
-5.025259032845497131e-02
-8.764392137527465820e-02
1.258971393108367920e-01
-6.808848679065704346e-02
7.386944442987442017e-02
4.603900387883186340e-02
3.511177201289683580e-04
-2.028267681598663330e-01
-7.252546399831771851e-02
-4.099001362919807434e-02
-1.161949709057807922e-01
1.908132582902908325e-01
-9.194274991750717163e-02
-2.712091058492660522e-02
1.479584574699401855e-01
2.231237739324569702e-01
4.041437804698944092e-01
-2.537791430950164795e-01
3.602484166622161865e-01
-3.835417926311492920e-01
1.834126859903335571e-01
3.560963571071624756e-01
1.404447853565216064e-01
-1.587613970041275024e-01
-1.544739007949829102e-01
-1.826312839984893799e-01
3.287347257137298584e-01
1.682312339544296265e-01
-3.323990404605865479e-01
1.291012912988662720e-01
-2.910908460617065430e-01
3.489141166210174561e-01
-2.811613678932189941e-01
-2.281928211450576782e-01
3.241286575794219971e-01
-2.813090980052947998e-01
2.154368013143539429e-01
1.774590611457824707e-01
2.978687286376953125e-01
2.613948881626129150e-01
3.061947822570800781e-01
3.277461230754852295e-01
1.693397313356399536e-01
4.014633595943450928e-01
1.637227833271026611e-01
4.379045367240905762e-01
-1.309340298175811768e-01
-3.682560920715332031e-01
2.668119370937347412e-01
2.046962827444076538e-01
3.971894979476928711e-01
-1.444734036922454834e-01
1.649420559406280518e-01
1.484512090682983398e-01
-2.423944175243377686e-01
1.240011975169181824e-01
-2.325817048549652100e-01
2.677137553691864014e-01
2.328725457191467285e-01
2.258632779121398926e-01
4.266389012336730957e-01
-3.117798566818237305e-01
-2.380327284336090088e-01
1.326753497123718262e-01
3.033754229545593262e-01
1.417919844388961792e-01
1.676261574029922485e-01
-1.537579298019409180e-01
2.383048832416534424e-01
-2.966728508472442627e-01
3.631057441234588623e-01
2.175465673208236694e-01
3.745229542255401611e-01
-3.318925499916076660e-01
2.272011339664459229e-01
3.171943724155426025e-01
-2.241717278957366943e-01
2.455280423164367676e-01
1.868857294321060181e-01
-1.566268801689147949e-01
4.415455162525177002e-01
-3.194357752799987793e-01
-1.870124638080596924e-01
-3.444155752658843994e-01
-1.677545607089996338e-01
2.184037417173385620e-01
2.298748493194580078e-01
-2.359209805727005005e-01
2.342902123928070068e-01
-2.558517456054687500e-01
-2.378570288419723511e-01
-3.928346037864685059e-01
1.467879861593246460e-01
2.966364324092864990e-01
-1.737538576126098633e-01
-3.096868395805358887e-01
-2.732304632663726807e-01
3.935367166996002197e-01
3.452205359935760498e-01
2.745278179645538330e-01
-3.372887372970581055e-01
-2.694113850593566895e-01
2.011014223098754883e-01
-4.077309668064117432e-01
-3.000445067882537842e-01
-1.459836512804031372e-01
-1.782575845718383789e-01
3.977146148681640625e-01
3.884097039699554443e-01
-3.328165113925933838e-01
4.167703390121459961e-01
1.828685849905014038e-01
-2.922095060348510742e-01
3.397904634475708008e-01
-3.765271306037902832e-01
-3.844797611236572266e-01
-1.757265627384185791e-01
2.041665762662887573e-01
-3.609352409839630127e-01
-2.361209839582443237e-01
2.948522567749023438e-01
2.047348469495773315e-01
-2.806324660778045654e-01
2.846621870994567871e-01
-3.467651009559631348e-01
-1.574005335569381714e-01
1.936408579349517822e-01
2.332496196031570435e-01
-1.953165531158447266e-01
-3.936051428318023682e-01
3.721416592597961426e-01
-3.504090309143066406e-01
3.589051961898803711e-01
3.428674936294555664e-01
3.607140481472015381e-01
-1.657358855009078979e-01
-2.068691700696945190e-01
-3.646131455898284912e-01
-2.019023448228836060e-01
4.352870285511016846e-01
-1.717522293329238892e-01
-1.738809198141098022e-01
2.051667124032974243e-01
3.990710079669952393e-01
4.405888170003890991e-02
5.130534619092941284e-02
-5.713463202118873596e-02
1.626476347446441650e-01
5.307717248797416687e-02
-1.422992795705795288e-01
-5.964840948581695557e-02
-5.926369503140449524e-02
-7.897695153951644897e-02
7.714860141277313232e-02
9.036087244749069214e-02
-1.787880510091781616e-01
1.413851082324981689e-01
-1.467787623405456543e-01
1.297915875911712646e-01
3.418835252523422241e-02
1.558503955602645874e-01
-3.468072041869163513e-02
-1.263768970966339111e-01
4.638176411390304565e-03
-1.685604900121688843e-01
-1.448396146297454834e-01
2.585475891828536987e-02
5.707452446222305298e-02
3.053672797977924347e-02
-5.456519126892089844e-02
-1.130481958389282227e-01
6.538103520870208740e-02
6.698403507471084595e-02
-1.997952312231063843e-01
1.289678215980529785e-01
1.746608614921569824e-01
3.889614343643188477e-02
-1.152012646198272705e-01
4.441484808921813965e-02
-5.601584416581317782e-05
-8.710947632789611816e-02
2.355708181858062744e-02
-4.643701761960983276e-02
-1.689509451389312744e-01
1.279211491346359253e-01
-1.284430921077728271e-01
5.531847476959228516e-02
-7.489102333784103394e-02
-9.981691092252731323e-02
5.011179298162460327e-02
-2.165882103145122528e-02
-2.065652906894683838e-01
-1.325243562459945679e-01
7.121237926185131073e-03
7.951094768941402435e-03
9.665390849113464355e-02
-2.067458480596542358e-01
4.810807853937149048e-02
-7.058621197938919067e-02
-1.680305898189544678e-01
3.622219339013099670e-02
-3.631942346692085266e-02
-1.607246994972229004e-01
-1.171577498316764832e-01
1.221054270863533020e-01
-8.987529575824737549e-02
-8.214846998453140259e-02
6.921081244945526123e-02
2.990875206887722015e-02
1.897447705268859863e-01
1.153231114149093628e-01
1.230860576033592224e-01
1.227907743304967880e-02
-4.514082148671150208e-02
-6.701749563217163086e-02
6.622947007417678833e-02
-3.065159544348716736e-02
1.297790408134460449e-01
1.381676495075225830e-01
1.803856641054153442e-01
2.053672261536121368e-02
-1.859237998723983765e-01
1.353002190589904785e-01
4.778011888265609741e-02
-5.473443865776062012e-02
-3.555665910243988037e-02
-1.360052525997161865e-01
-1.721101850271224976e-01
-4.689251631498336792e-02
-9.643485769629478455e-03
-2.199378423392772675e-02
1.669040620326995850e-01
1.573199182748794556e-01
-4.964295774698257446e-02
1.360775977373123169e-01
-8.291395008563995361e-02
-1.973794102668762207e-01
9.704323858022689819e-02
-1.807653531432151794e-02
-1.732728928327560425e-01
-2.889517322182655334e-02
-5.377248674631118774e-02
7.583513110876083374e-02
1.544559746980667114e-01
1.215511113405227661e-01
6.178392097353935242e-02
1.851038485765457153e-01
1.883915215730667114e-01
-3.588370606303215027e-02
-9.126307070255279541e-02
1.479212641716003418e-01
-1.484129279851913452e-01
9.374004602432250977e-02
1.133992671966552734e-01
3.466622158885002136e-02
-1.465450972318649292e-01
2.014155387878417969e-01
6.654538959264755249e-02
-1.711235791444778442e-01
2.070479691028594971e-01
-6.000579521059989929e-02
-9.706196933984756470e-02
-1.401863694190979004e-01
1.543810069561004639e-01
8.606029301881790161e-02
-5.087843537330627441e-02
1.796259582042694092e-01
-2.601599134504795074e-02
-1.261344365775585175e-02
1.302856802940368652e-01
3.951477631926536560e-02
-5.438165366649627686e-02
3.630848228931427002e-01
-2.168442457914352417e-01
4.192093014717102051e-01
-4.661131501197814941e-01
4.046309590339660645e-01
3.076198995113372803e-01
4.072071909904479980e-01
-3.250780701637268066e-01
-2.158321291208267212e-01
-3.365272879600524902e-01
3.565646111965179443e-01
2.637045681476593018e-01
-2.329600900411605835e-01
3.841445744037628174e-01
-3.181784451007843018e-01
4.328901469707489014e-01
-2.653846740722656250e-01
-2.420550286769866943e-01
3.070298433303833008e-01
-3.032448589801788330e-01
3.375692069530487061e-01
2.903384268283843994e-01
2.671144306659698486e-01
3.011182844638824463e-01
3.028553426265716553e-01
2.441588193178176880e-01
3.269197642803192139e-01
2.745055854320526123e-01
2.288722842931747437e-01
3.179660141468048096e-01
-2.835250496864318848e-01
-2.587704956531524658e-01
7.324996590614318848e-02
2.623927295207977295e-01
2.265122681856155396e-01
-4.116035401821136475e-01
3.191889226436614990e-01
3.560645580291748047e-01
-3.336923420429229736e-01
2.533147931098937988e-01
-2.456669062376022339e-01
4.386300742626190186e-01
2.065843194723129272e-01
3.945654630661010742e-01
2.750294506549835205e-01
-4.194185435771942139e-01
-2.888265848159790039e-01
4.376513957977294922e-01
3.359588384628295898e-01
3.330744802951812744e-01
4.293451309204101562e-01
-4.330971539020538330e-01
3.734609782695770264e-01
-2.424441576004028320e-01
3.313175141811370850e-01
4.346233308315277100e-01
5.184120535850524902e-01
-2.475751787424087524e-01
3.643579483032226562e-01
4.251019954681396484e-01
-3.294737040996551514e-01
2.027643471956253052e-01
3.318778574466705322e-01
-4.258555769920349121e-01
4.693419039249420166e-01
-2.244701534509658813e-01
-2.076792269945144653e-01
-4.847386479377746582e-01
-4.753987193107604980e-01
4.323199987411499023e-01
2.620124220848083496e-01
-2.594592869281768799e-01
4.938113689422607422e-01
-2.777478396892547607e-01
-2.482161074876785278e-01
-3.383156955242156982e-01
3.757789731025695801e-01
3.392072618007659912e-01
-3.523963987827301025e-01
-2.263677716255187988e-01
-2.027944773435592651e-01
4.716365635395050049e-01
2.178344279527664185e-01
4.365777671337127686e-01
-3.298605680465698242e-01
-3.688968420028686523e-01
4.376468360424041748e-01
-3.116019368171691895e-01
-3.695258200168609619e-01
-2.190829962491989136e-01
-2.453626841306686401e-01
3.870721757411956787e-01
2.439335435628890991e-01
-4.594168961048126221e-01
3.605345189571380615e-01
3.159884512424468994e-01
-3.528544008731842041e-01
4.639667868614196777e-01
-4.163277745246887207e-01
-3.885078728199005127e-01
-4.949527680873870850e-01
4.283661842346191406e-01
-5.046316981315612793e-01
-4.194360673427581787e-01
3.273172676563262939e-01
2.567221224308013916e-01
-3.200336992740631104e-01
2.861276566982269287e-01
-3.253076374530792236e-01
-3.899486064910888672e-01
4.701788723468780518e-01
4.099290966987609863e-01
-4.375117421150207520e-01
-4.918282628059387207e-01
4.646298289299011230e-01
-1.976853460073471069e-01
2.682459354400634766e-01
4.584729075431823730e-01
1.915294677019119263e-01
-2.608144283294677734e-01
-2.464045882225036621e-01
-4.533907473087310791e-01
-4.006633758544921875e-01
3.363244831562042236e-01
-4.715064764022827148e-01
-4.039954841136932373e-01
2.453629076480865479e-01
2.345335930585861206e-01
-2.836785316467285156e-01
1.808926463127136230e-01
-2.282423973083496094e-01
7.902102172374725342e-02
-1.578617244958877563e-01
-2.427628785371780396e-01
-2.267737090587615967e-01
1.061718687415122986e-01
1.782374829053878784e-01
1.199239194393157959e-01
-3.969073761254549026e-03
-2.031875848770141602e-01
2.542615830898284912e-01
-1.549036502838134766e-01
1.812470704317092896e-02
-1.981549561023712158e-01
1.997558772563934326e-02
8.592028915882110596e-02
-1.708908081054687500e-01
2.367378771305084229e-01
-2.396816313266754150e-01
-2.926434576511383057e-01
-1.789236813783645630e-01
-5.357871949672698975e-02
-1.783957928419113159e-01
-2.360840141773223877e-01
-6.923772860318422318e-03
-3.098668754100799561e-01
-2.604227960109710693e-01
-1.236118450760841370e-01
2.656903862953186035e-01
6.442044861614704132e-03
-4.368564113974571228e-03
-1.133275777101516724e-01
-2.497626096010208130e-01
1.912634223699569702e-01
-2.027430832386016846e-01
-2.886751890182495117e-01
2.404230982065200806e-01
-1.842847466468811035e-01
2.514592707157135010e-01
-1.205212846398353577e-01
-1.330943703651428223e-01
-2.558431029319763184e-01
-8.981421589851379395e-02
2.665632404386997223e-02
2.093350291252136230e-01
-6.711205933243036270e-03
-9.256452322006225586e-02
-2.941434383392333984e-01
-2.337446957826614380e-01
9.122819453477859497e-02
-1.741681843996047974e-01
2.746302783489227295e-01
6.162879988551139832e-03
-2.306303083896636963e-01
-7.717311847954988480e-03
1.609033793210983276e-01
-6.089805811643600464e-02
-1.106191575527191162e-01
-6.886069662868976593e-03
-1.525522470474243164e-01
-2.016294300556182861e-01
1.277116537094116211e-01
-7.859950512647628784e-02
8.993073552846908569e-02
1.199703756719827652e-02
2.701155245304107666e-01
1.216266155242919922e-01
-4.703497886657714844e-02
-2.372533679008483887e-01
1.305737048387527466e-01
-3.908245638012886047e-02
1.669001430273056030e-01
2.786748409271240234e-01
2.383032441139221191e-02
-2.225384861230850220e-01
-4.187466576695442200e-02
1.054987683892250061e-02
6.312439590692520142e-02
2.544541060924530029e-01
-9.298776835203170776e-02
-2.407753467559814453e-01
-1.317958384752273560e-01
9.969204664230346680e-02
6.279664486646652222e-02
-1.685896813869476318e-01
2.370784133672714233e-01
1.103371977806091309e-01
4.932092875242233276e-02
1.981419026851654053e-01
-5.852356925606727600e-02
-2.861123383045196533e-01
2.129827141761779785e-01
-2.840510010719299316e-01
-1.410515159368515015e-01
1.728702634572982788e-01
-6.470842752605676651e-03
1.549290418624877930e-01
1.600706279277801514e-01
1.652058064937591553e-01
-2.977594360709190369e-02
1.432487219572067261e-01
2.169535160064697266e-01
-2.887063026428222656e-01
-1.598757654428482056e-01
2.130704969167709351e-01
-2.194083482027053833e-01
9.442192316055297852e-02
1.440620273351669312e-01
-6.970679853111505508e-03
-1.202516853809356689e-01
1.280313283205032349e-01
1.928791850805282593e-01
-2.470584660768508911e-01
1.288305670022964478e-01
-6.354499608278274536e-02
-1.599390208721160889e-01
-2.732523381710052490e-01
7.633463293313980103e-02
2.101755142211914062e-01
1.952845901250839233e-01
1.459629684686660767e-01
-1.241760253906250000e-01
2.093645371496677399e-02
2.211995571851730347e-01
-1.980543434619903564e-01
-2.424676120281219482e-01
-6.776057928800582886e-02
1.592940241098403931e-01
-1.571591198444366455e-01
2.282488346099853516e-01
-1.173196732997894287e-01
-4.665740206837654114e-02
-1.240095421671867371e-01
2.255198061466217041e-01
1.958847641944885254e-01
1.842496544122695923e-01
-2.025882601737976074e-01
-1.329584270715713501e-01
2.718682773411273956e-02
-9.164714068174362183e-02
2.346332967281341553e-01
7.983934134244918823e-02
1.703094244003295898e-01
-2.401451021432876587e-02
4.885978624224662781e-02
2.847997657954692841e-02
-3.785115480422973633e-02
2.595573104918003082e-02
7.347039133310317993e-02
6.393832713365554810e-02
-3.694211598485708237e-03
-6.470940262079238892e-02
4.176769405603408813e-02
-1.522982865571975708e-01
6.445834878832101822e-03
-7.481011748313903809e-02
-1.797122880816459656e-02
1.210569664835929871e-01
-2.206282019615173340e-01
-1.744230240583419800e-01
-1.678349971771240234e-01
2.019353955984115601e-01
-1.291235685348510742e-01
-6.779223680496215820e-02
1.751267164945602417e-01
-1.637396514415740967e-01
-1.288837566971778870e-02
-2.223560512065887451e-01
-2.106358706951141357e-01
4.938492923974990845e-02
-8.371365815401077271e-02
-2.057355828583240509e-02
-3.164813667535781860e-02
5.151682347059249878e-02
-1.452477723360061646e-01
-3.933696448802947998e-02
-1.492494344711303711e-01
-3.634168207645416260e-02
-6.345436722040176392e-02
-1.586366444826126099e-02
-1.597503721714019775e-01
8.616429753601551056e-03
5.676214024424552917e-02
1.428568661212921143e-01
3.729416802525520325e-02
-4.162951838225126266e-03
1.031992807984352112e-01
-8.910839445888996124e-03
-4.165191575884819031e-02
1.190740093588829041e-01
-1.893259137868881226e-01
1.802739053964614868e-01
1.982677131891250610e-01
-7.768270373344421387e-02
7.971303164958953857e-02
-7.504386454820632935e-02
-1.448979377746582031e-01
3.727059438824653625e-02
-2.015074789524078369e-01
1.735547557473182678e-02
-2.673859521746635437e-02
1.112869940698146820e-02
-2.274107486009597778e-01
-1.565032005310058594e-01
-2.473082952201366425e-02
-4.030703753232955933e-02
8.039426058530807495e-02
-1.698826104402542114e-01
-2.285291403532028198e-01
-1.790576726198196411e-01
1.866573244333267212e-01
1.829166710376739502e-01
-3.422697307541966438e-03
3.709562495350837708e-02
1.671607196331024170e-01
-1.250296365469694138e-02
-3.720152191817760468e-03
-1.690533161163330078e-01
-1.065103039145469666e-01
2.053239643573760986e-01
-7.503616064786911011e-02
-9.410578757524490356e-02
1.573069095611572266e-01
-6.403753161430358887e-02
1.064173057675361633e-01
2.037661224603652954e-01
7.221315801143646240e-02
-1.067628860473632812e-01
-8.669999241828918457e-02
-2.581115986686199903e-04
-1.464764494448900223e-02
-5.358566716313362122e-02
1.277461498975753784e-01
4.380234982818365097e-03
-3.567683324217796326e-02
4.359027370810508728e-02
-3.741826489567756653e-02
-1.847090125083923340e-01
-7.261329446919262409e-04
1.830978244543075562e-01
-1.851913034915924072e-01
2.345537543296813965e-01
5.935239046812057495e-02
-4.827439785003662109e-02
-3.512235358357429504e-02
1.256599873304367065e-01
1.052660793066024780e-01
1.546090692281723022e-01
1.350139975547790527e-01
-1.622516214847564697e-01
2.614559419453144073e-02
2.186268270015716553e-01
6.257946044206619263e-02
-1.328154504299163818e-01
7.152345776557922363e-02
1.469853706657886505e-02
4.433200135827064514e-02
-2.161084860563278198e-01
5.334015935659408569e-02
-5.192831903696060181e-02
2.091776430606842041e-01
-3.288571909070014954e-02
-1.740549504756927490e-01
-2.420180141925811768e-01
2.111622840166091919e-01
-3.506787121295928955e-02
-2.285016328096389771e-01
2.355685085058212280e-02
2.810072619467973709e-03
-1.116319373250007629e-02
-5.102009326219558716e-02
-1.134892851114273071e-01
1.030830070376396179e-01
-5.586055293679237366e-02
-3.624131157994270325e-02
1.344967931509017944e-01
9.910578280687332153e-02
1.814444363117218018e-01
1.429720669984817505e-01
1.219885051250457764e-02
1.694243252277374268e-01
1.129452064633369446e-01
1.880782544612884521e-01
-3.944149985909461975e-02
-7.614964852109551430e-04
-5.447921901941299438e-02
2.235780954360961914e-01
-7.492902874946594238e-02
6.399545818567276001e-02
-2.012242823839187622e-01
1.694972515106201172e-01
7.045958191156387329e-02
-2.708898857235908508e-03
1.109666824340820312e-01
-1.088697835803031921e-01
1.106743142008781433e-01
1.913438588380813599e-01
1.515683084726333618e-01
-1.374095445498824120e-03
9.046935010701417923e-04
-6.765977293252944946e-02
4.073192551732063293e-02
1.841670870780944824e-01
-5.439196527004241943e-02
6.498213112354278564e-02
-2.488434314727783203e-02
2.161247134208679199e-01
-8.069684356451034546e-02
-3.142042085528373718e-02
6.457467377185821533e-02
-5.220197886228561401e-02
1.143219694495201111e-02
-1.622923091053962708e-02
1.684336550533771515e-02
2.423385903239250183e-02
4.920409992337226868e-02
8.759883791208267212e-02
-1.224352717399597168e-01
1.742281615734100342e-01
-4.786317050457000732e-02
-5.757631361484527588e-02
-1.879587620496749878e-01
-1.076298430562019348e-01
5.866241082549095154e-02
1.208732351660728455e-01
-1.700581610202789307e-01
-6.561386585235595703e-02
-2.135274559259414673e-01
-2.304765731096267700e-01
-1.184026896953582764e-01
1.716633439064025879e-01
2.922145277261734009e-02
-1.917127817869186401e-01
-2.082094997167587280e-01
-2.377580553293228149e-01
1.064236909151077271e-01
1.857235580682754517e-01
-9.287845343351364136e-03
-2.181593477725982666e-01
-6.394515931606292725e-02
2.038771957159042358e-01
-4.754804447293281555e-02
-2.324861586093902588e-01
-9.219471365213394165e-02
-1.628555804491043091e-01
1.658891439437866211e-01
2.038977146148681641e-01
-9.051375091075897217e-02
1.881374232470989227e-02
1.528181731700897217e-01
-4.048020020127296448e-02
1.726526170969009399e-01
-1.967623829841613770e-01
-2.174216657876968384e-01
-8.314442634582519531e-02
-5.380115937441587448e-03
-1.654572039842605591e-01
-4.119441285729408264e-02
2.283555865287780762e-01
2.078207731246948242e-01
-5.779855325818061829e-02
-1.373059861361980438e-02
6.980174034833908081e-02
-1.323830187320709229e-01
1.038358882069587708e-01
1.804196275770664215e-02
-2.263761311769485474e-02
2.780453860759735107e-02
1.009066328406333923e-01
-2.075419425964355469e-01
1.980913132429122925e-01
2.011017799377441406e-01
2.199161201715469360e-01
-2.336651682853698730e-01
-1.378345638513565063e-01
-5.227312073111534119e-02
-4.761091619729995728e-02
1.639191508293151855e-01
-1.035751998424530029e-01
-1.044579669833183289e-01
3.397303819656372070e-02
8.843207359313964844e-02
-5.548517405986785889e-02
3.188525885343551636e-02
8.766824752092361450e-02
-4.259293153882026672e-02
1.372107565402984619e-01
1.516177970916032791e-02
1.624140292406082153e-01
-6.673593819141387939e-02
-2.030337303876876831e-01
-6.887273490428924561e-02
2.126756757497787476e-01
1.156449690461158752e-01
2.886496717110276222e-03
7.833283394575119019e-02
-3.792117163538932800e-02
1.204716265201568604e-01
3.437322378158569336e-02
-1.444327682256698608e-01
1.033659502863883972e-01
-2.260330915451049805e-01
6.576550006866455078e-02
3.990410268306732178e-02
8.596768975257873535e-02
-4.304323717951774597e-02
1.317607462406158447e-01
1.371904164552688599e-01
6.867388729006052017e-03
-2.378152124583721161e-02
4.195201210677623749e-03
1.536101400852203369e-01
-4.118954017758369446e-02
-3.506528213620185852e-02
8.302626758813858032e-02
5.499433353543281555e-02
1.770512610673904419e-01
2.600341290235519409e-02
4.468484595417976379e-02
9.125541150569915771e-02
-1.941678300499916077e-02
1.614880412817001343e-01
-3.071384504437446594e-02
1.948211938142776489e-01
6.645414233207702637e-02
5.851025693118572235e-03
1.727116107940673828e-01
-1.798000484704971313e-01
-6.382855772972106934e-02
1.598796099424362183e-01
-5.423043295741081238e-02
2.015061676502227783e-01
-5.298792198300361633e-02
-1.804814487695693970e-01
1.425570398569107056e-01
-3.668074309825897217e-02
2.093181163072586060e-01
-3.733622282743453979e-02
6.258846074342727661e-02
-2.953580394387245178e-02
9.155131131410598755e-02
6.156038865447044373e-02
-1.116722300648689270e-01
-2.441902644932270050e-02
1.778049767017364502e-01
-1.687672287225723267e-01
7.315623015165328979e-02
-1.004136633127927780e-02
-8.589865267276763916e-02
5.693834275007247925e-02
2.025879919528961182e-02
1.918811723589897156e-02
1.332508474588394165e-01
9.167132899165153503e-03
5.548828467726707458e-02
2.905729413032531738e-02
-4.896038025617599487e-02
-9.469339251518249512e-02
1.629903614521026611e-01
2.054990828037261963e-02
-2.075681388378143311e-01
-1.835410892963409424e-01
-9.061869978904724121e-02
1.850527077913284302e-01
4.982607439160346985e-02
-5.368483066558837891e-02
-1.934701204299926758e-01
1.923005655407905579e-02
-5.923326313495635986e-02
-1.776461452245712280e-01
6.057338789105415344e-03
1.511754654347896576e-02
-1.736972332000732422e-01
-3.543185442686080933e-02
2.274631708860397339e-01
-1.915608197450637817e-01
2.062040418386459351e-01
1.417106091976165771e-01
4.609635099768638611e-02
7.463207095861434937e-02
4.240985587239265442e-02
8.638057112693786621e-02
9.682895615696907043e-03
1.579987555742263794e-01
-1.340358555316925049e-01
9.944901801645755768e-03
1.860704720020294189e-01
1.937594413757324219e-01
-2.739315852522850037e-02
-2.247406227979809046e-04
-1.367682665586471558e-01
1.040599402040243149e-02
1.009689942002296448e-01
2.282650470733642578e-01
3.460051864385604858e-02
-1.658809930086135864e-01
-6.459316611289978027e-02
-8.794347196817398071e-02
-2.779347263276576996e-02
9.573219716548919678e-02
2.166198641061782837e-01
-2.064265012741088867e-01
4.145923256874084473e-02
4.110208153724670410e-02
-1.637566387653350830e-01
5.085797980427742004e-02
-6.122434046119451523e-03
-1.709935516119003296e-01
3.850388899445533752e-02
8.606250397861003876e-03
-2.088548839092254639e-01
1.184820458292961121e-01
-2.288861423730850220e-01
4.286868125200271606e-02
-2.749322652816772461e-01
-1.284590363502502441e-01
-1.503968089818954468e-01
3.132828474044799805e-01
3.271366655826568604e-01
2.299217581748962402e-01
-3.773543611168861389e-02
-1.397379767149686813e-02
1.312760114669799805e-01
-2.569711804389953613e-01
9.797874093055725098e-02
-1.094671860337257385e-01
1.099757775664329529e-01
1.658384650945663452e-01
-3.234666883945465088e-01
3.245604336261749268e-01
-1.072577461600303650e-01
-1.333175450563430786e-01
-1.545446515083312988e-01
-1.213897988200187683e-01
-1.902205497026443481e-01
-2.272847145795822144e-01
-1.435864567756652832e-01
-1.555156111717224121e-01
-3.326518088579177856e-02
-3.155046328902244568e-02
3.009089529514312744e-01
3.126674890518188477e-01
-2.951548695564270020e-01
-1.818481236696243286e-01
-8.991530537605285645e-02
1.320343017578125000e-01
-4.912279918789863586e-02
-4.184842854738235474e-02
1.925548166036605835e-01
-1.364208459854125977e-01
1.982775628566741943e-01
-2.973507344722747803e-01
-3.227025866508483887e-01
-6.425756216049194336e-02
-1.308025270700454712e-01
1.511802375316619873e-01
1.724034547805786133e-01
-3.479981049895286560e-02
-1.938385814428329468e-01
-2.447143197059631348e-01
-1.221976727247238159e-01
3.300656676292419434e-01
-1.406820118427276611e-01
2.982064187526702881e-01
-3.456513211131095886e-02
-2.156960815191268921e-01
-2.663531303405761719e-01
3.730036690831184387e-02
-1.089937761425971985e-01
-2.396215349435806274e-01
1.601784527301788330e-01
-3.031553328037261963e-01
-2.515825927257537842e-01
9.812800586223602295e-02
-6.847226619720458984e-02
1.239745020866394043e-01
2.860349714756011963e-01
9.656786173582077026e-02
1.621116399765014648e-01
-2.300263196229934692e-01
-1.904560327529907227e-01
5.324911698698997498e-02
-1.787553168833255768e-02
3.035975396633148193e-01
2.152071744203567505e-01
2.846151590347290039e-01
-1.887431740760803223e-01
-2.621545493602752686e-01
3.538416698575019836e-02
2.968550324440002441e-01
3.196999132633209229e-01
-2.795904576778411865e-01
-2.895967066287994385e-01
-1.830082237720489502e-01
1.040051132440567017e-01
9.760211408138275146e-02
-2.346666306257247925e-01
8.349301293492317200e-03
2.290399074554443359e-01
3.084621131420135498e-01
2.138057202100753784e-01
-9.087395668029785156e-02
-2.836399078369140625e-01
3.552090004086494446e-02
-8.462529629468917847e-02
-2.399735450744628906e-01
2.915309965610504150e-01
-2.912967205047607422e-01
2.069453448057174683e-01
3.099834322929382324e-01
1.713011711835861206e-01
-2.109020203351974487e-01
9.276973083615303040e-03
2.498991638422012329e-01
-2.818759679794311523e-01
-1.516589224338531494e-01
1.693339347839355469e-01
-3.121069073677062988e-01
1.446963250637054443e-01
2.192060351371765137e-01
-3.702474758028984070e-02
-2.860220968723297119e-01
1.919977962970733643e-01
8.290508389472961426e-02
-6.735953688621520996e-02
1.565756499767303467e-01
-7.561075687408447266e-02
-1.668052226305007935e-01
-1.987295597791671753e-01
5.644008889794349670e-02
2.665798664093017578e-01
2.693815827369689941e-01
8.301697671413421631e-02
-1.434717178344726562e-01
1.718531250953674316e-01
2.145625203847885132e-01
-1.505846828222274780e-01
-2.008835971355438232e-01
-1.439567208290100098e-01
2.025107890367507935e-01
-6.270083039999008179e-02
1.323570758104324341e-01
-1.018283665180206299e-01
-1.415156871080398560e-01
-2.540651261806488037e-01
1.453985422849655151e-01
2.148504108190536499e-01
3.143014907836914062e-01
-2.225210517644882202e-01
-1.660172790288925171e-01
3.104968667030334473e-01
-1.157554909586906433e-01
3.249115049839019775e-01
-2.122885286808013916e-01
3.198729157447814941e-01
5.662080273032188416e-02
-1.622573435306549072e-01
1.037718281149864197e-01
-3.110550045967102051e-01
-2.134085297584533691e-01
-3.504881858825683594e-01
-3.295823335647583008e-01
-3.511615991592407227e-01
-2.572603821754455566e-01
-2.558568716049194336e-01
-2.659499943256378174e-01
-2.374433875083923340e-01
-2.519482076168060303e-01
2.074986249208450317e-01
1.931274086236953735e-01
-1.236753612756729126e-01
-1.031867191195487976e-01
-3.062034845352172852e-01
5.994037538766860962e-02
-2.619259357452392578e-01
-1.146529540419578552e-01
3.365373313426971436e-01
-9.570744633674621582e-02
2.273216247558593750e-01
-2.953550517559051514e-01
-2.743316888809204102e-01
-8.733531087636947632e-02
-3.168975710868835449e-01
3.181662857532501221e-01
1.872805953025817871e-01
-1.089155077934265137e-01
-8.364699035882949829e-02
-2.334105819463729858e-01
-3.549799919128417969e-01
9.989227354526519775e-02
-9.730955213308334351e-02
2.148237079381942749e-01
-1.169572472572326660e-01
-1.163749173283576965e-01
-2.464247792959213257e-01
3.130636513233184814e-01
-2.606620788574218750e-01
-3.733112514019012451e-01
2.069720625877380371e-01
-3.137167394161224365e-01
-3.262673616409301758e-01
1.842673867940902710e-01
-3.238912820816040039e-01
3.385850191116333008e-01
3.090788722038269043e-01
2.395698875188827515e-01
2.651506960391998291e-01
-1.067197322845458984e-01
-2.676606178283691406e-01
1.641446501016616821e-01
-6.651882082223892212e-02
2.585550844669342041e-01
1.466257721185684204e-01
3.395604193210601807e-01
-2.113614380359649658e-01
-2.220601588487625122e-01
2.811627984046936035e-01
1.153631210327148438e-01
1.547023653984069824e-01
-2.439354211091995239e-01
-1.200470477342605591e-01
-1.335961371660232544e-01
3.292758166790008545e-01
2.244522869586944580e-01
-1.432683020830154419e-01
1.801085621118545532e-01
1.284058690071105957e-01
2.541517019271850586e-01
1.256530731916427612e-01
-9.921677410602569580e-02
-3.122403621673583984e-01
8.041705191135406494e-02
-2.127850502729415894e-01
-3.522667288780212402e-01
1.520529389381408691e-01
-5.705673992633819580e-02
2.594880759716033936e-01
8.410306274890899658e-02
1.436048299074172974e-01
-1.516417264938354492e-01
2.833859622478485107e-01
2.757133543491363525e-01
-3.604547083377838135e-01
-1.679855734109878540e-01
2.794412970542907715e-01
-2.729068100452423096e-01
2.361557930707931519e-01
8.091323822736740112e-02
-1.332990229129791260e-01
-1.871180534362792969e-01
2.894573211669921875e-01
2.689834237098693848e-01
-3.403393030166625977e-01
1.784875690937042236e-01
-1.474305987358093262e-01
-1.369753628969192505e-01
-1.774293184280395508e-01
1.204229444265365601e-01
1.598032265901565552e-01
1.913938671350479126e-01
2.854565978050231934e-01
-1.202393099665641785e-01
1.251923888921737671e-01
1.091070547699928284e-01
-3.276519477367401123e-01
-3.056766688823699951e-01
-1.796710491180419922e-01
-3.673147037625312805e-02
4.652859643101692200e-02
4.328024759888648987e-02
-3.283526748418807983e-02
-1.149503514170646667e-01
-1.863116025924682617e-01
3.868376463651657104e-02
-5.962630361318588257e-02
2.527287416160106659e-02
-1.585036963224411011e-01
-8.134116977453231812e-02
1.833705306053161621e-01
-2.613984979689121246e-02
4.422385990619659424e-02
-1.095110401511192322e-01
-2.885662019252777100e-02
8.479352295398712158e-02
1.530310232192277908e-02
1.608683466911315918e-01
4.852596297860145569e-02
-1.883636564016342163e-01
-1.232905089855194092e-01
-1.033804118633270264e-01
-5.835054069757461548e-02
-5.129496380686759949e-02
-1.886224448680877686e-01
2.676584944128990173e-02
-1.516021788120269775e-01
1.925401203334331512e-02
1.803115010261535645e-01
1.560394614934921265e-01
-2.550402879714965820e-01
-1.011917740106582642e-01
-7.071730494499206543e-02
1.045732274651527405e-01
2.822195552289485931e-02
-4.884401336312294006e-02
9.238162636756896973e-02
-1.583865731954574585e-01
2.743492275476455688e-02
-3.889722377061843872e-02
-1.845939829945564270e-02
-1.814004331827163696e-01
-4.214605316519737244e-02
1.757772266864776611e-01
1.089941114187240601e-01
-1.593691855669021606e-01
-1.374283730983734131e-01
-2.104087769985198975e-01
1.966010779142379761e-02
-2.155594527721405029e-02
-1.015093848109245300e-01
8.958834409713745117e-02
-2.150453180074691772e-01
-1.761054098606109619e-01
-1.557417511940002441e-01
5.977191776037216187e-02
-1.006385535001754761e-01
-1.260959804058074951e-01
2.581634372472763062e-02
-8.975949883460998535e-02
-6.826981902122497559e-02
1.719445548951625824e-02
-6.726106163114309311e-03
2.010187692940235138e-02
4.680099710822105408e-02
3.244943171739578247e-02
1.865338683128356934e-01
2.158903889358043671e-02
4.120896756649017334e-02
2.257906645536422729e-02
3.620627522468566895e-02
2.052758336067199707e-01
1.078024320304393768e-02
1.330230236053466797e-01
-5.687035992741584778e-02
-1.660302132368087769e-01
7.338091731071472168e-02
1.651489734649658203e-01
5.335592478513717651e-02
-7.907181233167648315e-02
3.530554100871086121e-02
-6.055749207735061646e-02
1.288669258356094360e-01
8.792030811309814453e-02
-1.523535847663879395e-01
-8.975845575332641602e-02
-8.611968159675598145e-02
6.513773649930953979e-02
1.965028494596481323e-01
-1.789473146200180054e-01
5.521997343748807907e-03
4.471450671553611755e-02
-5.874393880367279053e-02
-2.640963345766067505e-02
4.220258817076683044e-02
-1.404358446598052979e-01
1.079575419425964355e-01
5.924971029162406921e-02
-5.353436339646577835e-03
-1.801868826150894165e-01
3.974759951233863831e-02
1.306952834129333496e-01
-3.291136771440505981e-02
-2.051791250705718994e-01
7.973594963550567627e-02
-2.791903167963027954e-02
-6.559366732835769653e-02
9.389834851026535034e-02
-1.344773620367050171e-01
-1.758037135004997253e-02
1.589962244033813477e-01
1.215616911649703979e-01
-3.023216873407363892e-02
1.201502159237861633e-01
-1.701076328754425049e-02
-7.725331187248229980e-02
-1.806935817003250122e-01
7.286827266216278076e-02
1.848241388797760010e-01
-6.729720532894134521e-02
1.869198051281273365e-03
-1.909268051385879517e-01
1.833875477313995361e-01
1.210966855287551880e-01
-1.795907020568847656e-01
-1.409155428409576416e-01
7.938387244939804077e-02
-1.511238217353820801e-01
2.485042959451675415e-01
-1.507993191480636597e-01
4.844059795141220093e-02
2.427283227443695068e-01
1.111104935407638550e-01
-1.816160976886749268e-01
-1.199740767478942871e-01
-2.517608404159545898e-01
1.625493019819259644e-01
3.004949092864990234e-01
-5.870459601283073425e-02
1.483837962150573730e-01
4.636241588741540909e-03
1.416796731064096093e-04
-1.028650477528572083e-01
-7.262743264436721802e-02
2.481990754604339600e-01
-2.007989212870597839e-02
7.509808987379074097e-02
7.944202423095703125e-02
1.516202092170715332e-01
1.431812793016433716e-01
6.059522554278373718e-02
8.762086182832717896e-02
1.705032438039779663e-01
9.262138605117797852e-02
3.088879287242889404e-01
2.641792893409729004e-01
-1.869162619113922119e-01
-2.309775352478027344e-01
2.889805138111114502e-01
3.914017975330352783e-02
1.242107897996902466e-01
-2.438169270753860474e-01
2.870307862758636475e-01
1.599936373531818390e-02
-2.981643676757812500e-01
3.005756735801696777e-01
-8.608204126358032227e-02
2.859834432601928711e-01
2.461948990821838379e-02
1.815258115530014038e-01
2.087014168500900269e-01
-1.362009942531585693e-01
-2.563400268554687500e-01
2.598253190517425537e-01
1.643919795751571655e-01
7.808066159486770630e-02
1.884363144636154175e-01
-2.002335041761398315e-01
1.442157179117202759e-01
-1.469240635633468628e-01
1.608511954545974731e-01
2.989313602447509766e-01
3.023196458816528320e-01
-5.621856451034545898e-02
4.049931094050407410e-02
1.372825205326080322e-01
-9.756167978048324585e-02
1.318240016698837280e-01
2.213095277547836304e-01
-2.359067052602767944e-01
2.959021329879760742e-01
-2.059252187609672546e-02
-8.114234358072280884e-02
-1.574181318283081055e-01
-1.665390580892562866e-01
1.501071453094482422e-01
2.189513146877288818e-01
-6.218615546822547913e-02
2.252025306224822998e-01
-1.695278100669384003e-02
-2.389648854732513428e-01
-2.924011051654815674e-01
1.327551156282424927e-01
5.549262836575508118e-02
-2.075159251689910889e-01
-1.702421754598617554e-01
-9.864231944084167480e-02
1.521485745906829834e-01
1.380311250686645508e-01
1.229229792952537537e-01
-2.392199188470840454e-01
-2.006315290927886963e-01
8.202098309993743896e-02
-1.206901445984840393e-01
-1.604192703962326050e-01
-2.460159659385681152e-01
-2.174826562404632568e-01
9.201093018054962158e-02
1.332244575023651123e-01
-2.542884647846221924e-01
3.743920475244522095e-02
2.507745623588562012e-01
-2.436692118644714355e-01
1.961710900068283081e-01
-1.158893257379531860e-01
-2.792606353759765625e-01
-1.025414317846298218e-01
2.195986211299896240e-01
-2.601716816425323486e-01
-1.213006675243377686e-01
1.769372820854187012e-01
6.788162142038345337e-02
-2.646465897560119629e-01
4.277571290731430054e-02
2.939223870635032654e-02
-2.294539362192153931e-01
1.213405653834342957e-02
1.495227217674255371e-01
-8.458480238914489746e-03
-9.620002470910549164e-03
2.892054915428161621e-01
-3.216356039047241211e-02
2.110626250505447388e-01
2.273319661617279053e-01
1.150689274072647095e-02
-4.641905799508094788e-02
1.162015553563833237e-02
-2.850403785705566406e-01
-3.161594644188880920e-02
3.159317970275878906e-01
-1.241579302586615086e-03
-1.942532956600189209e-01
8.626335114240646362e-02
1.798272281885147095e-01
-3.859016001224517822e-01
3.200066685676574707e-01
-4.769801795482635498e-01
4.578400552272796631e-01
-3.810921013355255127e-01
-1.733828634023666382e-01
-3.660513758659362793e-01
3.686202764511108398e-01
2.272196710109710693e-01
3.369742631912231445e-01
-2.630749642848968506e-01
-2.032304257154464722e-01
3.106443285942077637e-01
-4.491066932678222656e-01
5.348194837570190430e-01
-3.150739371776580811e-01
4.273051917552947998e-01
2.758240699768066406e-01
-3.872720599174499512e-01
3.364616632461547852e-01
-1.231009215116500854e-01
-2.896249592304229736e-01
-2.360490262508392334e-01
-1.317895054817199707e-01
-4.417062997817993164e-01
-3.864613771438598633e-01
-2.405083030462265015e-01
-3.287223577499389648e-01
-1.688959747552871704e-01
-3.047004044055938721e-01
4.576818346977233887e-01
2.468068748712539673e-01
-3.487725853919982910e-01
-3.861058056354522705e-01
-4.028449654579162598e-01
3.603276610374450684e-01
-3.766652345657348633e-01
-1.346576511859893799e-01
2.132036387920379639e-01
-2.340555936098098755e-01
2.703121304512023926e-01
-1.984256058931350708e-01
-1.972310990095138550e-01
-2.792887389659881592e-01
-3.685058951377868652e-01
3.052965700626373291e-01
3.696051239967346191e-01
-3.522122502326965332e-01
-4.217041432857513428e-01
-1.808470338582992554e-01
-3.197609186172485352e-01
2.649821043014526367e-01
-4.264922440052032471e-01
2.585910260677337646e-01
-2.952763438224792480e-01
-1.834421008825302124e-01
-1.914017945528030396e-01
3.029774725437164307e-01
-3.870681226253509521e-01
-3.567804694175720215e-01
2.495979070663452148e-01
-2.316768467426300049e-01
-4.063854813575744629e-01
2.496581822633743286e-01
-1.663017421960830688e-01
2.951300740242004395e-01
3.590394854545593262e-01
3.044745922088623047e-01
3.639993369579315186e-01
-3.524673581123352051e-01
-2.835869789123535156e-01
2.523130476474761963e-01
-4.205571115016937256e-01
2.613853216171264648e-01
4.664614200592041016e-01
1.881357878446578979e-01
-3.593445420265197754e-01
-3.307728469371795654e-01
3.237411677837371826e-01
3.219979703426361084e-01
3.898324370384216309e-01
-4.250769019126892090e-01
-3.041299283504486084e-01
-3.643142879009246826e-01
2.018824219703674316e-01
2.383101880550384521e-01
-1.952802538871765137e-01
3.571674525737762451e-01
3.209793865680694580e-01
1.831469386816024780e-01
2.983098030090332031e-01
-2.707858085632324219e-01
-1.771873980760574341e-01
3.486137390136718750e-01
-3.238884210586547852e-01
-3.620282411575317383e-01
1.604302972555160522e-01
-2.699246108531951904e-01
2.762729823589324951e-01
2.324572354555130005e-01
3.214854896068572998e-01
-3.951547741889953613e-01
2.880904376506805420e-01
3.425008952617645264e-01
-3.191853463649749756e-01
-2.011593729257583618e-01
2.587283849716186523e-01
-4.569915831089019775e-01
3.813520669937133789e-01
3.564103543758392334e-01
-3.936192095279693604e-01
-1.490250825881958008e-01
3.710429668426513672e-01
2.597709894180297852e-01
-4.379056096076965332e-01
3.648625910282135010e-01
-2.928434610366821289e-01
-2.104577422142028809e-01
-3.309593796730041504e-01
3.678121864795684814e-01
3.853674232959747314e-01
2.586148679256439209e-01
2.880639731884002686e-01
-1.192586272954940796e-01
3.983710110187530518e-01
3.354879021644592285e-01
-4.214596152305603027e-01
-2.079727500677108765e-01
-1.906396448612213135e-01
1.260437071323394775e-01
-1.798177957534790039e-01
7.277461886405944824e-02
-3.606711030006408691e-01
-3.701241910457611084e-01
-2.189265787601470947e-01
1.482372581958770752e-01
8.863686025142669678e-02
1.729162931442260742e-01
-2.263244241476058960e-01
-2.958846092224121094e-01
3.015807569026947021e-01
-1.246235966682434082e-01
1.474128365516662598e-01
-7.337410002946853638e-02
5.738924816250801086e-02
1.474860012531280518e-01
-1.042453423142433167e-01
1.575368940830230713e-01
-9.359563142061233521e-02
-3.815486431121826172e-01
-1.394764184951782227e-01
-2.676062583923339844e-01
-3.887616097927093506e-01
-3.841090798377990723e-01
-2.954595386981964111e-01
-9.507989883422851562e-02
-8.616105467081069946e-02
-2.280490547418594360e-01
2.256803065538406372e-01
3.535743951797485352e-01
-3.360520899295806885e-01
-2.930955588817596436e-01
-1.490087509155273438e-01
9.394103288650512695e-02
-3.289753496646881104e-01
-7.117612659931182861e-02
2.902708649635314941e-01
-3.159589469432830811e-01
2.433500736951828003e-01
-4.080847799777984619e-01
-2.698101997375488281e-01
-8.992602676153182983e-02
-9.937734156847000122e-02
2.421139478683471680e-01
2.637932598590850830e-01
-3.152394890785217285e-01
-1.631600111722946167e-01
-3.497737646102905273e-01
-2.979161739349365234e-01
3.345247805118560791e-01
-2.812199294567108154e-01
2.186497747898101807e-01
-3.784475922584533691e-01
-1.158080250024795532e-01
-3.678230345249176025e-01
3.483757376670837402e-01
-2.188554704189300537e-01
-3.481891155242919922e-01
1.499195098876953125e-01
-2.244490832090377808e-01
-3.082213997840881348e-01
9.216133505105972290e-02
-2.637282609939575195e-01
2.956295907497406006e-01
1.624345630407333374e-01
1.762129217386245728e-01
3.544342517852783203e-01
-2.500844299793243408e-01
-3.867205679416656494e-01
3.845935165882110596e-01
-7.249446958303451538e-02
6.226225569844245911e-02
3.057881891727447510e-01
1.202663555741310120e-01
-1.168135553598403931e-01
-1.941595822572708130e-01
3.266734182834625244e-01
1.941695511341094971e-01
1.509478390216827393e-01
-3.719202280044555664e-01
-1.192247495055198669e-01
-2.327901422977447510e-01
3.038108646869659424e-01
1.167167052626609802e-01
-1.062761545181274414e-01
2.383434772491455078e-01
2.441208660602569580e-01
2.817248106002807617e-01
3.082539141178131104e-01
-2.328771352767944336e-01
-3.536963760852813721e-01
1.870589703321456909e-01
-2.688488364219665527e-01
-1.231755316257476807e-01
3.484799563884735107e-01
-3.230481147766113281e-01
2.258046865463256836e-01
2.134246677160263062e-01
8.290643244981765747e-02
-3.825248181819915771e-01
1.782300621271133423e-01
3.560910224914550781e-01
-1.757034957408905029e-01
-3.398042023181915283e-01
2.424381673336029053e-01
-2.068226337432861328e-01
1.998160481452941895e-01
2.320902794599533081e-01
-1.757217347621917725e-01
-3.173275291919708252e-01
3.827514350414276123e-01
2.998101711273193359e-01
-8.997465670108795166e-02
1.052785292267799377e-01
-3.195294141769409180e-01
-1.712423115968704224e-01
-2.234340310096740723e-01
2.326373755931854248e-01
1.165515482425689697e-01
2.895690798759460449e-01
1.542658507823944092e-01
-1.096554920077323914e-01
1.861324757337570190e-01
4.021188318729400635e-01
-1.002950295805931091e-01
-1.047082319855690002e-01
2.538861036300659180e-01
-2.443528771400451660e-01
2.102700322866439819e-01
-1.686349660158157349e-01
3.947687149047851562e-02
1.700778156518936157e-01
2.113695889711380005e-01
-1.581641286611557007e-01
-2.225803434848785400e-01
-1.673296093940734863e-01
9.222740679979324341e-02
3.178025186061859131e-01
-2.332356274127960205e-01
1.600684970617294312e-01
-2.275474369525909424e-02
1.120341792702674866e-01
-1.708862334489822388e-01
-3.141728639602661133e-01
2.904243469238281250e-01
-9.231632202863693237e-02
2.923414111137390137e-01
1.372201293706893921e-01
2.008630484342575073e-01
2.053553164005279541e-01
1.518781036138534546e-01
1.133116185665130615e-01
3.116721212863922119e-01
6.498545408248901367e-02
1.524340808391571045e-01
3.383580148220062256e-01
-3.251979351043701172e-01
-7.774204760789871216e-02
2.093833982944488525e-01
1.508414000272750854e-01
2.794380187988281250e-01
-1.811681240797042847e-01
1.066898256540298462e-01
5.897689610719680786e-02
-2.883237004280090332e-01
1.538234204053878784e-01
-1.537999212741851807e-01
6.027658656239509583e-02
1.620699018239974976e-01
9.517793357372283936e-02
1.166732162237167358e-01
-1.837767660617828369e-01
-4.418433830142021179e-02
3.125620186328887939e-01
6.564503163099288940e-02
8.329725265502929688e-02
3.138318061828613281e-01
-2.392402738332748413e-01
1.318520903587341309e-01
-4.723778367042541504e-02
2.949866056442260742e-01
9.876256436109542847e-02
1.890671104192733765e-01
-2.041271477937698364e-01
2.358542382717132568e-01
2.998738884925842285e-01
-6.976028531789779663e-02
3.312301635742187500e-01
1.829090416431427002e-01
-2.582577466964721680e-01
1.000122129917144775e-01
-7.666288316249847412e-02
-2.734531164169311523e-01
-1.215853989124298096e-01
-8.678544312715530396e-02
2.348102629184722900e-01
2.657889425754547119e-01
-2.870298922061920166e-01
2.830358147621154785e-01
-2.046395689249038696e-01
-9.721218794584274292e-02
-1.949991285800933838e-01
2.281880527734756470e-01
2.801220118999481201e-01
-1.572077274322509766e-01
-6.214195862412452698e-02
-1.362715512514114380e-01
1.090797185897827148e-01
1.806495785713195801e-01
1.298408508300781250e-01
-3.292196691036224365e-01
-5.528558790683746338e-02
3.107098937034606934e-01
-2.078473418951034546e-01
-2.408077269792556763e-01
-3.116506040096282959e-01
-2.476710975170135498e-01
1.581447422504425049e-01
2.917474508285522461e-01
-1.020746901631355286e-01
8.685062080621719360e-02
2.951807379722595215e-01
-5.804666504263877869e-02
8.450157195329666138e-02
-2.503839135169982910e-01
-1.890260577201843262e-01
-2.073978185653686523e-01
2.235094010829925537e-01
-5.228506401181221008e-02
-2.616930007934570312e-01
1.631581187248229980e-01
4.096376150846481323e-02
-7.738301903009414673e-02
2.787545621395111084e-01
-1.501710265874862671e-01
-2.857792973518371582e-01
8.205153048038482666e-02
5.874350294470787048e-02
-2.995415925979614258e-01
-3.706764429807662964e-02
3.091001808643341064e-01
-1.131886020302772522e-01
3.108999729156494141e-01
2.471199929714202881e-01
2.781844437122344971e-01
-8.459822088479995728e-02
-5.032491683959960938e-02
-1.895148009061813354e-01
-2.259455919265747070e-01
2.216302752494812012e-01
-2.248839139938354492e-01
-3.024759292602539062e-01
7.189033925533294678e-02
3.131713867187500000e-01
-1.467669457197189331e-01
3.110871911048889160e-01
-1.786511987447738647e-01
2.344665825366973877e-01
-1.635901033878326416e-01
-1.660118550062179565e-01
-1.021474674344062805e-01
2.145046144723892212e-01
2.022534906864166260e-01
2.366145104169845581e-01
-1.752223819494247437e-01
-2.635739743709564209e-01
9.140989184379577637e-02
-3.250632882118225098e-01
2.421779930591583252e-01
-3.173780739307403564e-01
1.204727366566658020e-01
2.409885525703430176e-01
-2.449812889099121094e-01
2.447287887334823608e-01
-2.714747190475463867e-01
-2.066159844398498535e-01
-1.008289381861686707e-01
-3.900280594825744629e-02
-2.445552796125411987e-01
-2.167329639196395874e-01
-2.173948138952255249e-01
-3.496117293834686279e-01
-1.355468928813934326e-01
-2.719179093837738037e-01
2.080927640199661255e-01
2.985805869102478027e-01
-3.065240681171417236e-01
-1.365378797054290771e-01
-2.182457298040390015e-01
3.212609887123107910e-01
-3.336924910545349121e-01
-3.155912160873413086e-01
1.355544775724411011e-01
-2.150155007839202881e-01
9.345479309558868408e-02
-3.169147372245788574e-01
-2.032488286495208740e-01
-2.037620544433593750e-01
-3.552312254905700684e-01
3.160710334777832031e-01
3.305212557315826416e-01
-1.780894696712493896e-01
-2.209215015172958374e-01
-3.335924744606018066e-01
-3.121159672737121582e-01
1.980488002300262451e-01
-3.260155022144317627e-01
6.143879145383834839e-02
-3.275966346263885498e-01
-6.827758997678756714e-02
-1.512336730957031250e-01
2.394872903823852539e-01
-1.735843122005462646e-01
-2.142445147037506104e-01
9.406021237373352051e-02
-1.977086961269378662e-01
-2.557427287101745605e-01
1.202766224741935730e-01
-2.578049302101135254e-01
2.961160838603973389e-01
1.877270191907882690e-01
2.048661112785339355e-01
2.388695031404495239e-01
-2.216641455888748169e-01
-2.368231862783432007e-01
1.400070786476135254e-01
-2.488032281398773193e-01
2.475919723510742188e-01
2.694791257381439209e-01
2.145199924707412720e-01
-1.697753667831420898e-01
-1.763818562030792236e-01
1.419685781002044678e-01
1.376250833272933960e-01
2.786308228969573975e-01
-2.267850488424301147e-01
-2.996777892112731934e-01
-3.078240454196929932e-01
3.558293282985687256e-01
2.225320041179656982e-01
-8.890137076377868652e-02
2.383017688989639282e-01
8.336220681667327881e-02
1.613378971815109253e-01
3.265560567378997803e-01
-2.581526637077331543e-01
-2.863340377807617188e-01
3.191907703876495361e-01
-5.665409564971923828e-02
-1.219186708331108093e-01
2.702474594116210938e-01
-7.233411818742752075e-02
3.531059250235557556e-02
3.626908957958221436e-01
1.360362321138381958e-01
-1.308836042881011963e-01
2.463569790124893188e-01
1.377908289432525635e-01
-1.620875746011734009e-01
-3.338737487792968750e-01
1.888112574815750122e-01
-2.069179862737655640e-01
2.809822857379913330e-01
1.937722414731979370e-01
-3.807330131530761719e-01
-1.396976113319396973e-01
1.302619278430938721e-01
3.235841393470764160e-01
-2.894181311130523682e-01
2.695128917694091797e-01
-3.405592441558837891e-01
-3.436952233314514160e-01
-3.399071693420410156e-01
1.805967837572097778e-01
1.037625372409820557e-01
2.050491571426391602e-01
2.810221016407012939e-01
-1.934626102447509766e-01
2.805788218975067139e-01
2.711689770221710205e-01
-6.695205718278884888e-02
-3.037703037261962891e-01
-2.019699811935424805e-01
8.395931869745254517e-02
-1.261917054653167725e-01
1.408683061599731445e-01
-2.006705552339553833e-01
-1.374201178550720215e-01
-2.194975763559341431e-01
-5.006566643714904785e-03
1.232088953256607056e-01
-1.476162578910589218e-02
4.868175834417343140e-02
-2.127573192119598389e-01
2.233479321002960205e-01
-9.250319004058837891e-02
1.831128746271133423e-01
-8.326250314712524414e-02
9.595619142055511475e-02
-5.016346648335456848e-02
-2.515323162078857422e-01
1.471248716115951538e-01
-1.213379278779029846e-01
-9.557235240936279297e-02
-1.244675219058990479e-01
-2.505216896533966064e-01
-1.931628137826919556e-01
-1.315941754728555679e-02
3.761613368988037109e-02
-1.689376235008239746e-01
-4.596219956874847412e-02
-1.689204126596450806e-01
1.459899125620722771e-03
2.949055284261703491e-02
-8.736232668161392212e-02
-4.512865841388702393e-02
-1.348348557949066162e-01
1.830291450023651123e-01
-1.184171810746192932e-01
-8.312302827835083008e-02
8.428303152322769165e-02
-4.755993187427520752e-02
-9.415429085493087769e-03
-9.766025096178054810e-02
-2.056455314159393311e-01
-1.745679080486297607e-01
-7.901202142238616943e-02
4.452026635408401489e-02
2.146443538367748260e-02
-1.280028373003005981e-01
-1.414936631917953491e-01
-1.413096338510513306e-01
-2.258455902338027954e-01
1.954436898231506348e-01
-3.465587645769119263e-02
-2.229419164359569550e-02
-2.378282845020294189e-01
-2.004891932010650635e-01
-2.503548264503479004e-01
1.776236742734909058e-01
-1.862913072109222412e-01
3.601822629570960999e-02
1.306402981281280518e-01
-2.378571964800357819e-02
-2.530367672443389893e-01
8.629924058914184570e-02
-2.229195982217788696e-01
1.709740310907363892e-01
5.279680714011192322e-02
2.346387803554534912e-01
8.911721408367156982e-02
-2.564370259642601013e-02
-1.143696233630180359e-01
1.094093695282936096e-01
-3.250272199511528015e-02
1.916943490505218506e-01
1.364133059978485107e-01
1.420136243104934692e-01
-1.700043082237243652e-01
-1.569473892450332642e-01
-3.144855424761772156e-02
1.738047748804092407e-01
2.398184835910797119e-01
-1.048597544431686401e-01
-1.492974907159805298e-01
8.910364471375942230e-03
1.968390941619873047e-01
2.323412895202636719e-01
-2.002700865268707275e-01
2.622024621814489365e-04
-5.935338512063026428e-02
1.089227125048637390e-01
5.602579563856124878e-02
-7.428383082151412964e-02
-3.506673267111182213e-03
2.296778857707977295e-01
-1.296239197254180908e-01
-1.422662138938903809e-01
1.109209880232810974e-01
-1.993698924779891968e-01
1.808913238346576691e-02
2.157972455024719238e-01
2.299082428216934204e-01
1.797267049551010132e-02
1.034322232007980347e-01
2.190384566783905029e-01
-2.452454417943954468e-01
-2.006708681583404541e-01
1.321687549352645874e-01
2.941784076392650604e-02
2.411856204271316528e-01
2.145871147513389587e-02
-1.287045627832412720e-01
-2.071898579597473145e-01
-7.479357998818159103e-03
5.309260636568069458e-02
-6.978145334869623184e-03
8.263586461544036865e-02
-7.997454702854156494e-02
-1.632297039031982422e-01
-9.640882723033428192e-03
5.683996900916099548e-02
3.540901839733123779e-02
2.352051734924316406e-01
1.840083003044128418e-01
-7.191541045904159546e-02
1.437197625637054443e-01
-9.518247097730636597e-03
-1.912798583507537842e-01
-2.241871058940887451e-01
-3.000036478042602539e-01
1.711116731166839600e-01
-2.548485696315765381e-01
1.986170709133148193e-01
-4.199463129043579102e-02
-1.015188843011856079e-01
-1.239805445075035095e-01
1.857153773307800293e-01
1.376251280307769775e-01
1.311225891113281250e-01
-2.506552636623382568e-01
-1.509111374616622925e-01
2.182289212942123413e-01
-2.450322806835174561e-01
1.350207626819610596e-01
-2.104872316122055054e-01
1.746937185525894165e-01
2.563093006610870361e-01
-1.315584629774093628e-01
2.926318049430847168e-01
-6.473717838525772095e-02
-2.458744496107101440e-01
-1.014956608414649963e-01
-2.379276901483535767e-01
-1.492274701595306396e-01
-1.336985975503921509e-01
-1.530320942401885986e-01
-6.281927973031997681e-02
-9.865300357341766357e-02
-2.654156088829040527e-01
6.087207421660423279e-02
2.078457623720169067e-01
-1.126481443643569946e-01
-9.668929129838943481e-02
-2.437327802181243896e-02
1.981326639652252197e-01
-1.280476301908493042e-01
-1.934525370597839355e-01
7.969897985458374023e-02
-3.059004247188568115e-02
2.538195252418518066e-01
-2.357284873723983765e-01
-2.822261154651641846e-01
-1.576393544673919678e-01
-2.728373110294342041e-01
1.577450484037399292e-01
1.500931233167648315e-01
-4.449778422713279724e-02
-6.831970810890197754e-02
-3.023400306701660156e-01
-1.011715456843376160e-01
3.379307687282562256e-01
-1.949729919433593750e-01
2.613886296749114990e-01
-2.647188603878021240e-01
-1.358771920204162598e-01
-2.350921332836151123e-01
2.322869189083576202e-02
-3.391605243086814880e-02
-2.396775484085083008e-01
1.967049539089202881e-01
-1.888796091079711914e-01
-2.132272273302078247e-01
7.938344776630401611e-02
-1.692373156547546387e-01
2.007049918174743652e-01
2.637956142425537109e-01
1.894580423831939697e-01
2.312672287225723267e-01
-2.384823709726333618e-01
-1.518985927104949951e-01
7.301651686429977417e-02
-1.012504026293754578e-01
2.636740915477275848e-02
1.618596762418746948e-01
2.736023813486099243e-02
-2.401451319456100464e-01
-2.413955330848693848e-01
1.082819402217864990e-01
2.712065875530242920e-01
2.179945707321166992e-01
-6.634241342544555664e-02
-1.034338399767875671e-01
7.441177032887935638e-03
1.643596738576889038e-01
2.585719712078571320e-02
-2.012025564908981323e-01
6.781606376171112061e-02
6.362991407513618469e-03
1.287455409765243530e-01
2.524638175964355469e-01
-4.591625183820724487e-02
-2.736994624137878418e-01
1.565897911787033081e-01
-3.031333982944488525e-01
-1.019637212157249451e-01
1.889859437942504883e-01
-2.526745796203613281e-01
1.792739182710647583e-01
2.549446523189544678e-01
1.994921714067459106e-01
-1.766848862171173096e-01
1.363833397626876831e-01
3.266653418540954590e-01
-3.598918765783309937e-02
-1.306020617485046387e-01
1.217496320605278015e-01
-2.702458500862121582e-01
1.809603869915008545e-01
2.762841284275054932e-01
-3.034102618694305420e-01
-8.049688488245010376e-02
6.248981878161430359e-02
2.317157834768295288e-01
-2.499476373195648193e-01
1.433328390121459961e-01
-7.074769586324691772e-02
-2.794478833675384521e-01
-1.685999780893325806e-01
3.241688013076782227e-02
2.079734802246093750e-01
1.505732387304306030e-01
1.243367046117782593e-01
-1.959085166454315186e-01
2.345508933067321777e-01
1.091785579919815063e-01
-2.557222545146942139e-01
-9.910663962364196777e-02
-2.046603560447692871e-01
1.731058955192565918e-01
-3.694472312927246094e-01
4.204954802989959717e-01
-1.970042437314987183e-01
-3.477200567722320557e-01
-1.488959193229675293e-01
2.934796214103698730e-01
3.419219553470611572e-01
1.962212771177291870e-01
-3.639467954635620117e-01
-3.261821866035461426e-01
3.886455297470092773e-01
-2.344066053628921509e-01
3.166048228740692139e-01
-3.519714474678039551e-01
3.543699383735656738e-01
2.859987318515777588e-01
-3.813159167766571045e-01
3.775415718555450439e-01
-1.816065460443496704e-01
-1.759930849075317383e-01
-2.529571950435638428e-01
-1.386853158473968506e-01
-3.897619843482971191e-01
-3.668680787086486816e-01
-4.044787287712097168e-01
-2.015857994556427002e-01
-2.217717617750167847e-01
-2.858001887798309326e-01
1.326678842306137085e-01
1.960000097751617432e-01
-3.791834414005279541e-01
-2.075606733560562134e-01
-4.020655751228332520e-01
2.724246978759765625e-01
-3.538841009140014648e-01
-3.122440278530120850e-01
2.305417954921722412e-01
-3.992077112197875977e-01
3.654739260673522949e-01
-3.918818533420562744e-01
-2.234839498996734619e-01
-2.228837162256240845e-01
-1.341488808393478394e-01
3.458882272243499756e-01
3.045809566974639893e-01
-3.801892101764678955e-01
-3.259442746639251709e-01
-3.593034744262695312e-01
-2.424629479646682739e-01
2.397148609161376953e-01
-2.754492461681365967e-01
3.763558864593505859e-01
-1.209603995084762573e-01
-2.129590511322021484e-01
-2.166950553655624390e-01
2.938287258148193359e-01
-3.390349745750427246e-01
-3.440221548080444336e-01
1.770185381174087524e-01
-2.274983525276184082e-01
-2.720281481742858887e-01
2.577344179153442383e-01
-3.475993871688842773e-01
2.764227688312530518e-01
2.345643788576126099e-01
2.382411211729049683e-01
3.543757200241088867e-01
-3.625096380710601807e-01
-3.502789437770843506e-01
3.641830086708068848e-01
-1.130502969026565552e-01
2.847793996334075928e-01
1.323339641094207764e-01
3.353238701820373535e-01
-3.034609556198120117e-01
-2.853690981864929199e-01
4.127332270145416260e-01
4.183412492275238037e-01
3.681159913539886475e-01
-3.674771487712860107e-01
-4.288312792778015137e-01
-9.747953712940216064e-02
2.825186252593994141e-01
2.249059677124023438e-01
-3.136647045612335205e-01
1.755877286195755005e-01
1.985656023025512695e-01
3.567888438701629639e-01
1.866334676742553711e-01
-3.451036214828491211e-01
-1.464273184537887573e-01
3.395827710628509521e-01
-1.309906542301177979e-01
-2.970030009746551514e-01
3.731060326099395752e-01
-3.091973662376403809e-01
1.261819601058959961e-01
3.888064026832580566e-01
2.985520064830780029e-01
-3.157127499580383301e-01
2.415718734264373779e-01
2.230332940816879272e-01
-3.655128777027130127e-01
-3.764359354972839355e-01
4.198709130287170410e-01
-3.134291768074035645e-01
1.305734217166900635e-01
1.396949291229248047e-01
-1.479574739933013916e-01
-2.682756185531616211e-01
2.166731059551239014e-01
3.897684812545776367e-01
-2.252646535634994507e-01
1.702803224325180054e-01
-4.206862747669219971e-01
-4.029977917671203613e-01
-1.434146314859390259e-01
3.609653115272521973e-01
2.609456479549407959e-01
2.875370681285858154e-01
2.851114869117736816e-01
-1.577991843223571777e-01
4.019705951213836670e-01
2.991008460521697998e-01
-2.354779392480850220e-01
-3.090284466743469238e-01
2.339857667684555054e-01
3.886837884783744812e-02
5.533776804804801941e-02
-2.523898780345916748e-01
2.709627151489257812e-01
1.065597087144851685e-01
2.165520787239074707e-01
6.260620057582855225e-02
-2.324352264404296875e-01
-1.168484613299369812e-01
7.752817869186401367e-02
1.633873581886291504e-01
-8.042811602354049683e-02
1.800106465816497803e-01
-5.058433115482330322e-02
-6.227345019578933716e-02
-1.088116019964218140e-01
-3.719533607363700867e-02
-2.169048413634300232e-02
-1.238660141825675964e-01
2.120005488395690918e-01
2.242660522460937500e-01
-1.964708790183067322e-02
1.915344893932342529e-01
4.431617632508277893e-02
2.066291123628616333e-01
2.532380521297454834e-01
2.006952911615371704e-01
4.640729352831840515e-02
1.387429423630237579e-02
-1.790295392274856567e-01
-4.918900132179260254e-02
1.617634594440460205e-01
2.175313532352447510e-01
-8.791752159595489502e-03
-1.800606995820999146e-01
3.918943926692008972e-02
2.334846556186676025e-02
-2.348763942718505859e-01
3.891242668032646179e-02
5.269193276762962341e-02
1.145904697477817535e-02
1.462775468826293945e-01
6.313034333288669586e-03
7.603090256452560425e-03
-1.144906505942344666e-01
2.599111571907997131e-02
-4.042373597621917725e-02
1.879752427339553833e-01
1.202996671199798584e-01
1.714918464422225952e-01
7.212619483470916748e-02
2.202715724706649780e-01
-1.896501481533050537e-01
3.852694481611251831e-02
1.374551951885223389e-01
4.354539141058921814e-02
-2.373396903276443481e-01
1.920788884162902832e-01
1.334026455879211426e-01
-1.327141281217336655e-02
1.047497838735580444e-01
1.027975380420684814e-01
-9.050514549016952515e-02
2.352586984634399414e-01
1.253614574670791626e-02
-2.026378363370895386e-01
-1.608429700136184692e-01
-4.642979800701141357e-02
1.660772264003753662e-01
2.976069459691643715e-03
-1.860101073980331421e-01
2.328449934720993042e-01
-1.201361417770385742e-01
-2.295607328414916992e-01
2.719782479107379913e-02
1.839718520641326904e-01
1.766095012426376343e-01
6.025676429271697998e-02
-1.586225777864456177e-01
-9.009900689125061035e-02
-3.881635144352912903e-02
-3.980199992656707764e-02
1.114937588572502136e-01
-1.333605200052261353e-01
1.332697365432977676e-02
2.512492239475250244e-01
-2.615530192852020264e-01
-6.370613723993301392e-02
-2.886285260319709778e-02
-3.024097532033920288e-02
1.833101063966751099e-01
5.785078927874565125e-02
-3.712473437190055847e-02
2.439861297607421875e-01
-1.865374296903610229e-02
-1.892555058002471924e-01
1.265763789415359497e-01
-1.984686553478240967e-01
-3.828914463520050049e-02
-2.357388287782669067e-01
2.881558611989021301e-02
1.157625298947095871e-02
-1.403826754540205002e-02
1.631521880626678467e-01
9.949709475040435791e-02
-6.051728129386901855e-02
2.058804780244827271e-01
5.792358424514532089e-03
-1.004479825496673584e-01
1.680552512407302856e-01
1.214833259582519531e-01
-1.403328627347946167e-01
4.176709055900573730e-02
1.377154588699340820e-01
-2.319798320531845093e-01
9.681193530559539795e-02
2.144724279642105103e-01
7.671687006950378418e-02
1.710017397999763489e-02
-1.619185903109610081e-03
-2.090644687414169312e-01
-1.367680728435516357e-01
8.512702584266662598e-02
-2.422699481248855591e-01
-6.912217289209365845e-02
1.296425312757492065e-01
3.958690166473388672e-02
-1.086753606796264648e-01
2.292530834674835205e-01
-8.259798586368560791e-02
3.271900489926338196e-02
-2.284631580114364624e-01
-1.520483493804931641e-01
-1.494112461805343628e-01
1.525639742612838745e-01
2.932414114475250244e-01
1.344108730554580688e-01
-1.739376187324523926e-01
-8.287976682186126709e-02
2.001883238554000854e-01
-1.144052818417549133e-01
2.959247827529907227e-01
5.623275879770517349e-03
3.002798557281494141e-01
2.351812869310379028e-01
-2.255973666906356812e-01
2.723397016525268555e-01
-9.370493888854980469e-02
-1.536163091659545898e-01
-3.060393333435058594e-01
-1.808400303125381470e-01
-1.274311095476150513e-01
-2.182869762182235718e-01
-1.039795130491256714e-01
-8.098510652780532837e-02
-1.238113045692443848e-01
-1.911800168454647064e-02
8.755215257406234741e-02
2.814545035362243652e-01
-1.058472171425819397e-01
-2.382398396730422974e-01
-2.649603188037872314e-01
1.010490357875823975e-01
-2.751140892505645752e-01
-1.545561105012893677e-01
1.110721379518508911e-01
-1.482877135276794434e-01
1.143322438001632690e-01
-2.064520865678787231e-01
-1.843096464872360229e-01
-2.173717468976974487e-01
-3.053545355796813965e-01
2.400817126035690308e-01
2.468615621328353882e-01
-1.139255687594413757e-01
-2.120905071496963501e-01
-3.974343091249465942e-02
-1.418835967779159546e-01
2.602500617504119873e-01
-1.344976872205734253e-01
2.998871169984340668e-02
-5.981681868433952332e-02
-1.805496364831924438e-01
-6.265811622142791748e-02
7.947840541601181030e-02
-1.874839216470718384e-01
-1.709537357091903687e-01
6.285757571458816528e-02
-2.943663001060485840e-01
-1.633625477552413940e-01
2.974845170974731445e-01
-6.112441048026084900e-02
1.319325566291809082e-01
2.820599973201751709e-01
1.737481951713562012e-01
2.627506852149963379e-01
-2.004648372530937195e-02
-7.536296546459197998e-02
1.424790620803833008e-01
-1.738177239894866943e-01
2.118755728006362915e-01
1.227821633219718933e-01
-4.146954510360956192e-03
-7.677579671144485474e-02
-2.473082840442657471e-01
6.559413671493530273e-02
2.554498314857482910e-01
3.028492033481597900e-01
-1.779180914163589478e-01
-9.561477601528167725e-02
-2.439843267202377319e-01
2.095471620559692383e-01
1.513361036777496338e-01
-3.497958183288574219e-02
2.349981218576431274e-01
3.153826668858528137e-02
2.526181340217590332e-01
1.021123602986335754e-01
-1.216953098773956299e-01
-2.838608026504516602e-01
4.610401764512062073e-02
-2.264756262302398682e-01
-2.661068141460418701e-01
1.711729466915130615e-01
-1.647745221853256226e-01
2.355988025665283203e-01
1.495695859193801880e-01
8.737345039844512939e-02
-1.674334108829498291e-01
5.242250859737396240e-02
7.696453481912612915e-02
-1.389918178319931030e-01
-2.347353100776672363e-01
8.652804791927337646e-02
-2.727955877780914307e-01
2.410740852355957031e-01
3.095710873603820801e-01
-1.753833293914794922e-01
-1.674780547618865967e-01
1.917952448129653931e-01
1.385623961687088013e-01
-1.642127148807048798e-02
1.885318905115127563e-01
-1.766030639410018921e-01
-2.373552620410919189e-01
-2.993083596229553223e-01
2.671943902969360352e-01
1.308219432830810547e-01
4.535176604986190796e-02
2.604271769523620605e-01
-2.195930331945419312e-01
1.932532638311386108e-01
2.037124931812286377e-01
-9.601064771413803101e-02
-3.383978083729743958e-02
-3.078642487525939941e-01
3.575707674026489258e-01
-4.139135777950286865e-01
3.023982644081115723e-01
-1.830242276191711426e-01
-3.456791639328002930e-01
-4.041590690612792969e-01
5.103991627693176270e-01
3.751224875450134277e-01
3.876586258411407471e-01
-2.782535552978515625e-01
-3.083314597606658936e-01
2.468595951795578003e-01
-3.692516386508941650e-01
3.582901954650878906e-01
-3.574758768081665039e-01
2.317646145820617676e-01
3.393666148185729980e-01
-4.323914945125579834e-01
3.793830573558807373e-01
-5.007535815238952637e-01
-4.786269962787628174e-01
-1.993161886930465698e-01
-2.875224947929382324e-01
-3.591136336326599121e-01
-4.075129330158233643e-01
-2.179680019617080688e-01
-4.340539276599884033e-01
-2.736313939094543457e-01
-4.860853254795074463e-01
3.060547411441802979e-01
2.992812097072601318e-01
-3.565476834774017334e-01
-4.857196807861328125e-01
-3.841525018215179443e-01
4.328892230987548828e-01
-2.586336731910705566e-01
-3.016844093799591064e-01
4.789170026779174805e-01
-2.495993077754974365e-01
2.652536630630493164e-01
-5.029218196868896484e-01
-5.212060809135437012e-01
-3.056016564369201660e-01
-2.736425697803497314e-01
4.218594431877136230e-01
3.239363431930541992e-01
-3.080226778984069824e-01
-3.622927963733673096e-01
-4.164680540561676025e-01
-4.346823096275329590e-01
3.518899679183959961e-01
-3.603338003158569336e-01
2.701661586761474609e-01
-4.586531519889831543e-01
-2.776401340961456299e-01
-3.700506091117858887e-01
4.449266195297241211e-01
-2.052917778491973877e-01
-2.406462728977203369e-01
3.374702036380767822e-01
-2.327257990837097168e-01
-2.480289191007614136e-01
5.332564115524291992e-01
-3.404042720794677734e-01
4.703081250190734863e-01
3.787937164306640625e-01
2.879208922386169434e-01
3.243199288845062256e-01
-2.056870907545089722e-01
-2.403161525726318359e-01
2.944279015064239502e-01
-2.192616313695907593e-01
4.691495299339294434e-01
4.464340806007385254e-01
4.953157007694244385e-01
-2.576512396335601807e-01
-4.922539293766021729e-01
3.949873447418212891e-01
2.608123719692230225e-01
4.003922641277313232e-01
-2.727344632148742676e-01
-3.702413737773895264e-01
-4.252511262893676758e-01
3.471666276454925537e-01
3.921982347965240479e-01
-3.240346312522888184e-01
3.826784491539001465e-01
2.224377989768981934e-01
5.292160511016845703e-01
4.999482333660125732e-01
-4.720672965049743652e-01
-3.602788746356964111e-01
4.155296683311462402e-01
-3.476803898811340332e-01
-2.827764153480529785e-01
2.408537268638610840e-01
-2.888979315757751465e-01
2.525630295276641846e-01
5.073945522308349609e-01
4.053429663181304932e-01
-2.905452251434326172e-01
3.724059760570526123e-01
2.985823154449462891e-01
-5.039961338043212891e-01
-4.222326874732971191e-01
3.935531377792358398e-01
-4.163326025009155273e-01
3.883667886257171631e-01
3.388610780239105225e-01
-4.295459389686584473e-01
-2.705330848693847656e-01
4.522988200187683105e-01
3.942825794219970703e-01
-5.135655999183654785e-01
3.949178755283355713e-01
-3.606672883033752441e-01
-3.910318613052368164e-01
-2.009877860546112061e-01
4.888957440853118896e-01
3.898745477199554443e-01
2.792469859123229980e-01
4.325174987316131592e-01
-3.733330368995666504e-01
5.168655514717102051e-01
2.497529238462448120e-01
-4.209061563014984131e-01
-3.888405561447143555e-01
2.273604720830917358e-01
3.492812439799308777e-02
1.383479535579681396e-01
-2.200549244880676270e-01
1.432398557662963867e-01
2.046972513198852539e-01
2.333323806524276733e-01
-1.387359499931335449e-01
-2.405562102794647217e-01
-7.577145099639892578e-02
2.036377638578414917e-01
1.541104763746261597e-01
-2.022782266139984131e-01
2.350240498781204224e-01
-1.853746473789215088e-01
-3.560216724872589111e-02
-1.669712960720062256e-01
-2.249369770288467407e-01
2.668239474296569824e-01
-2.526346445083618164e-01
8.098333328962326050e-02
2.417663335800170898e-01
6.671842932701110840e-02
3.044573664665222168e-01
8.902972191572189331e-02
1.481284797191619873e-01
1.814437359571456909e-01
1.694023609161376953e-01
1.970785856246948242e-01
7.459240406751632690e-02
-1.173099279403686523e-01
-1.891411989927291870e-01
3.621045947074890137e-01
2.662987112998962402e-01
6.956034898757934570e-02
-9.424558281898498535e-02
4.570873454213142395e-02
9.850568138062953949e-03
-2.823711335659027100e-01
8.322879672050476074e-02
-1.816383004188537598e-01
1.375354230403900146e-01
2.736864984035491943e-01
2.268233150243759155e-01
2.722588777542114258e-01
-1.027507632970809937e-01
-1.363717764616012573e-01
8.472526818513870239e-02
2.548085451126098633e-01
4.630745574831962585e-02
2.194964736700057983e-01
-2.601734399795532227e-01
1.379018574953079224e-01
-2.769454419612884521e-01
1.479954225942492485e-03
2.926008775830268860e-02
9.757692366838455200e-02
-5.138102546334266663e-02
2.398510128259658813e-01
2.792219817638397217e-01
-1.526315808296203613e-01
2.755460701882839203e-02
2.216327376663684845e-02
-1.461743563413619995e-01
2.338972240686416626e-01
-1.842511147260665894e-01
-2.351064532995223999e-01
-4.810957610607147217e-02
1.889588311314582825e-02
2.226458787918090820e-01
1.216105744242668152e-01
-1.918964236974716187e-01
4.216616228222846985e-02
-1.028897389769554138e-01
9.060123935341835022e-03
-2.260884344577789307e-01
2.616675794124603271e-01
1.651989966630935669e-01
-2.371702194213867188e-01
-2.928191795945167542e-03
-2.628960013389587402e-01
7.568375766277313232e-02
1.344624161720275879e-01
1.101440936326980591e-02
-1.439276523888111115e-02
-6.458612531423568726e-02
2.675472795963287354e-01
-2.740857601165771484e-01
-1.202962547540664673e-01
-1.883593201637268066e-01
-1.992436647415161133e-01
2.282570451498031616e-01
2.031948417425155640e-03
-7.159987837076187134e-02
-2.533964870963245630e-04
4.442327097058296204e-02
-2.288318723440170288e-01
3.327233716845512390e-02
-2.292701154947280884e-01
-1.345192939043045044e-01
-2.312989085912704468e-01
6.130937114357948303e-02
-1.604080051183700562e-01
-6.306040287017822266e-02
1.967060714960098267e-01
1.259097754955291748e-01
-1.857542246580123901e-01
5.331557989120483398e-02
1.329283416271209717e-02
-9.302721917629241943e-02
1.914094090461730957e-01
1.708179414272308350e-01
-1.862771064043045044e-01
-1.777852922677993774e-01
1.277007609605789185e-01
-1.337614841759204865e-02
2.743338346481323242e-01
7.103117555379867554e-02
1.411440074443817139e-01
-1.527846511453390121e-02
-4.187350720167160034e-02
-1.764099895954132080e-01
-2.493455410003662109e-01
2.675574123859405518e-01
-1.728741675615310669e-01
-1.651965230703353882e-01
7.677602022886276245e-02
1.430228203535079956e-01
-1.371290534734725952e-01
3.558002114295959473e-01
-1.683047711849212646e-01
3.479830324649810791e-01
-2.013176679611206055e-01
-2.708362936973571777e-01
-8.396358042955398560e-02
2.630173563957214355e-01
2.040232867002487183e-01
2.546387612819671631e-01
-2.165084928274154663e-01
-2.224485278129577637e-01
2.184740304946899414e-01
-2.364224046468734741e-01
2.844996750354766846e-01
-8.155372738838195801e-02
2.142378389835357666e-01
7.367660105228424072e-02
-2.905270457267761230e-01
2.338254898786544800e-01
-1.581989824771881104e-01
-2.023746818304061890e-01
-1.158903241157531738e-01
-1.024674549698829651e-01
-1.595685631036758423e-01
-8.455190807580947876e-02
-3.019851744174957275e-01
-1.688677966594696045e-01
-2.067988812923431396e-01
-1.431988924741744995e-01
3.442074656486511230e-01
9.068294614553451538e-02
-9.816553443670272827e-02
-1.784875392913818359e-01
-5.254587531089782715e-02
2.517183721065521240e-01
-1.358365863561630249e-01
-1.643674224615097046e-01
3.332878649234771729e-01
-2.748997509479522705e-01
6.448496878147125244e-02
-1.242191120982170105e-01
-1.334176361560821533e-01
-3.196505904197692871e-01
-1.214542686939239502e-01
1.830892115831375122e-01
2.981617450714111328e-01
-1.952414214611053467e-01
-1.383796781301498413e-01
-1.494641005992889404e-01
-1.290196031332015991e-01
6.430399417877197266e-02
-1.373527050018310547e-01
2.357660681009292603e-01
-1.653925329446792603e-01
-3.183476328849792480e-01
-2.508178651332855225e-01
2.378805279731750488e-01
-2.616415619850158691e-01
-2.026993036270141602e-01
3.373597860336303711e-01
-2.727715969085693359e-01
-2.691456973552703857e-01
2.295123338699340820e-01
-3.845747187733650208e-02
3.465974032878875732e-01
7.516981661319732666e-02
7.623106241226196289e-02
1.270231902599334717e-01
-8.361520618200302124e-02
-3.409907519817352295e-01
2.102887779474258423e-01
-2.565739452838897705e-01
2.564903795719146729e-01
5.569264665246009827e-02
1.845684498548507690e-01
-2.364620566368103027e-01
-3.245843052864074707e-01
3.364990353584289551e-01
1.572670191526412964e-01
7.461164146661758423e-02
-1.479349434375762939e-01
-2.328496426343917847e-01
-7.724489271640777588e-02
2.286011129617691040e-01
7.154206186532974243e-02
-8.440764248371124268e-02
1.749704927206039429e-01
3.309821784496307373e-01
7.551194727420806885e-02
2.980169355869293213e-01
-2.476470023393630981e-01
-1.112141609191894531e-01
3.479345440864562988e-01
-6.223561242222785950e-02
-4.598916321992874146e-02
2.787283062934875488e-01
-2.639936804771423340e-01
2.487442344427108765e-01
3.516732752323150635e-01
2.391905784606933594e-01
-3.229463398456573486e-01
3.169672787189483643e-01
2.050935924053192139e-01
-2.546920776367187500e-01
-3.817108273506164551e-01
1.425132602453231812e-01
-3.213017284870147705e-01
1.976268589496612549e-01
2.603032588958740234e-01
-1.111916080117225647e-01
-1.527206301689147949e-01
8.647541701793670654e-02
3.253203928470611572e-01
-3.491550385951995850e-01
1.890787780284881592e-01
-9.920109808444976807e-02
-2.450516521930694580e-01
-2.263531386852264404e-01
1.148616448044776917e-01
1.265529692173004150e-01
2.065619528293609619e-01
1.967490315437316895e-01
-1.578058600425720215e-01
3.304171264171600342e-01
1.534211784601211548e-01
-2.470976561307907104e-01
-1.146641001105308533e-01
1.622840464115142822e-01
3.443872090429067612e-03
-6.058625131845474243e-02
-8.109857141971588135e-02
1.867375671863555908e-01
1.194645240902900696e-01
-1.070458143949508667e-01
2.672368474304676056e-02
2.224931120872497559e-02
1.394124794751405716e-02
-1.034728214144706726e-01
1.894416511058807373e-01
-1.406806707382202148e-01
-3.088553808629512787e-02
-9.470552951097488403e-02
-1.111946627497673035e-01
-1.831027567386627197e-01
4.568171873688697815e-02
-1.252472773194313049e-02
-7.100530713796615601e-02
-4.454877972602844238e-02
-1.724539697170257568e-02
1.140963658690452576e-01
1.786243915557861328e-01
1.678402274847030640e-01
-5.337594449520111084e-02
1.979468166828155518e-01
1.490961164236068726e-01
1.026369780302047729e-01
-1.108541805297136307e-02
-2.028647661209106445e-01
-1.240920275449752808e-01
1.859830021858215332e-01
1.700023710727691650e-01
-1.634148322045803070e-02
-2.185363471508026123e-01
1.143546402454376221e-01
-8.734001219272613525e-02
-1.041806414723396301e-01
-5.231995880603790283e-02
4.490615427494049072e-02
-7.922584190964698792e-03
6.316579133272171021e-02
2.010309100151062012e-01
1.649278700351715088e-01
-1.423572897911071777e-01
-1.537424623966217041e-01
1.898210495710372925e-01
-2.447930537164211273e-02
9.729766100645065308e-02
8.023311942815780640e-02
-6.233274191617965698e-02
1.790265738964080811e-01
1.415934786200523376e-02
5.862225219607353210e-02
-7.296210527420043945e-02
9.616841375827789307e-02
-1.311874091625213623e-01
1.283994130790233612e-02
-7.576061040163040161e-02
5.030554905533790588e-02
4.325162246823310852e-02
1.325814574956893921e-01
-1.934292763471603394e-01
2.143029123544692993e-01
-9.139982610940933228e-02
-8.876225352287292480e-02
7.040470093488693237e-02
5.436965823173522949e-02
-2.497398853302001953e-02
-6.839241087436676025e-02
8.152827620506286621e-02
-4.281311854720115662e-02
4.067710041999816895e-02
7.103122770786285400e-02
1.311000622808933258e-02
1.816591024398803711e-01
-3.888792172074317932e-02
-1.935792267322540283e-01
-5.409170314669609070e-02
-2.613368071615695953e-02
-1.836393028497695923e-02
8.665468543767929077e-02
-5.457791686058044434e-02
-4.844979941844940186e-02
8.202893286943435669e-02
-6.193039473146200180e-03
2.531630173325538635e-02
-2.078008651733398438e-01
-2.197759225964546204e-03
8.503158390522003174e-02
-9.659484028816223145e-02
1.973452419042587280e-01
5.373043939471244812e-02
4.274936020374298096e-02
1.727131456136703491e-01
-7.923148572444915771e-02
7.795007526874542236e-02
-2.503148838877677917e-02
-1.335444003343582153e-01
-1.428726166486740112e-01
-1.030077110044658184e-03
8.613499253988265991e-02
-9.031927585601806641e-02
7.649111002683639526e-02
1.499966979026794434e-01
-1.872112751007080078e-01
1.427565515041351318e-01
-3.098652139306068420e-02
8.333633095026016235e-02
1.095596551895141602e-01
-4.521816223859786987e-02
4.297445714473724365e-02
-1.478360742330551147e-01
1.314066350460052490e-01
4.120367579162120819e-03
1.772462278604507446e-01
1.071169003844261169e-01
-6.177004054188728333e-02
6.224201247096061707e-02
1.441868580877780914e-02
-6.831654906272888184e-02
5.771753191947937012e-02
5.158420279622077942e-02
-1.891752518713474274e-02
-8.519213646650314331e-02
1.830683031585067511e-04
1.982796490192413330e-01
7.305655162781476974e-03
-9.628669917583465576e-02
1.670040003955364227e-02
-2.244216948747634888e-01
7.786513864994049072e-02
5.170745030045509338e-02
2.490615099668502808e-01
-2.972699329257011414e-02
-1.696713864803314209e-01
-2.541214525699615479e-01
2.054254263639450073e-01
1.335761100053787231e-01
-4.160672053694725037e-02
2.589970231056213379e-01
-4.256893321871757507e-02
-1.282457541674375534e-02
-2.085263431072235107e-01
-1.166445314884185791e-01
2.845740616321563721e-01
-1.261927634477615356e-01
2.879260182380676270e-01
1.072258315980434418e-02
1.987957209348678589e-01
2.202244699001312256e-01
2.341013848781585693e-01
1.635880172252655029e-01
3.952741995453834534e-02
2.427120357751846313e-01
1.060889735817909241e-01
2.676118612289428711e-01
-2.399147003889083862e-01
-2.871319651603698730e-01
2.148609459400177002e-01
1.582220643758773804e-01
1.570095717906951904e-01
-4.788099974393844604e-02
7.719568163156509399e-02
1.444031763821840286e-02
-8.723197132349014282e-02
2.636515796184539795e-01
-1.060927957296371460e-01
2.455047816038131714e-01
1.050540432333946228e-01
2.356117218732833862e-01
3.547458723187446594e-02
-2.840507328510284424e-01
-2.057055570185184479e-02
7.662076503038406372e-02
2.005222067236900330e-02
2.866332232952117920e-01
2.049830108880996704e-01
-2.624284327030181885e-01
1.371702700853347778e-01
2.043340122327208519e-03
1.885033585131168365e-02
1.102625504136085510e-01
1.989145278930664062e-01
-5.087339878082275391e-02
1.062223762273788452e-01
2.696433961391448975e-01
-2.545833885669708252e-01
2.398591786623001099e-01
2.076166719198226929e-01
-9.249542653560638428e-02
2.210992276668548584e-01
-1.784835308790206909e-01
-2.189414054155349731e-01
-8.673170208930969238e-02
-2.282313555479049683e-01
1.240881830453872681e-01
2.262108772993087769e-01
-2.647642493247985840e-01
1.949403434991836548e-02
-1.302603632211685181e-01
-2.313142716884613037e-01
-1.765249073505401611e-01
2.817999720573425293e-01
2.441256195306777954e-01
-2.575930356979370117e-01
-1.632137000560760498e-01
