1.788958907127380371e-01
2.510612010955810547e-01
-1.949743926525115967e-01
-5.341067910194396973e-02
1.596768200397491455e-01
3.068741858005523682e-01
-2.538721859455108643e-01
1.044428050518035889e-01
2.744779288768768311e-01
-2.162221372127532959e-01
1.439770031720399857e-02
2.528777718544006348e-01
1.025311052799224854e-01
-3.159196376800537109e-01
2.973994016647338867e-01
-2.615475654602050781e-01
-6.912430375814437866e-02
2.789130806922912598e-01
-7.605922967195510864e-02
3.276738524436950684e-01
-3.060321509838104248e-01
4.419140517711639404e-02
-5.172468349337577820e-02
-6.734676659107208252e-02
3.480799123644828796e-02
-1.700747609138488770e-01
5.108815059065818787e-02
-7.025607675313949585e-02
2.180574238300323486e-01
4.005759209394454956e-02
9.372793883085250854e-02
1.057571172714233398e-01
-2.988627254962921143e-01
-1.332018375396728516e-01
-3.087587356567382812e-01
-1.984732598066329956e-01
2.569960355758666992e-01
-1.565869301557540894e-01
6.057493388652801514e-02
1.899938583374023438e-01
-4.856783151626586914e-02
-1.252529919147491455e-01
8.753975480794906616e-02
-8.217480778694152832e-02
1.953306794166564941e-01
1.969732344150543213e-01
-1.305685341358184814e-01
2.556019127368927002e-01
-1.375335156917572021e-01
-2.103718519210815430e-01
-3.106493353843688965e-01
2.670868933200836182e-01
-8.324763178825378418e-02
8.957145363092422485e-02
2.289508283138275146e-02
-1.211581006646156311e-01
3.088228404521942139e-01
-2.406377494335174561e-01
-2.410209178924560547e-01
3.279860019683837891e-01
3.132201135158538818e-01
-1.599474251270294189e-01
1.572012454271316528e-01
7.077041268348693848e-02
-2.497330307960510254e-01
-3.018605113029479980e-01
-2.632941305637359619e-01
-1.710479706525802612e-01
-1.431342214345932007e-01
-3.027778863906860352e-01
-2.722667455673217773e-01
2.989041805267333984e-01
2.535484172403812408e-02
-1.138606444001197815e-01
1.131556481122970581e-01
1.314676254987716675e-01
-4.040094465017318726e-02
-4.262803122401237488e-02
-1.264331340789794922e-01
3.208117187023162842e-02
-3.212206661701202393e-01
3.116489350795745850e-01
-2.716867029666900635e-01
-1.931050717830657959e-01
1.528597772121429443e-01
-1.364362984895706177e-01
-2.887719273567199707e-01
2.871855795383453369e-01
8.739139139652252197e-02
-3.005643784999847412e-01
3.205389082431793213e-01
2.735928297042846680e-01
3.512427583336830139e-02
6.672403216361999512e-02
-1.892949044704437256e-01
2.501309216022491455e-01
2.848608419299125671e-02
-9.963168948888778687e-02
-1.984801441431045532e-01
1.327014118432998657e-01
-2.387778609991073608e-01
8.902994543313980103e-02
2.081542909145355225e-01
-1.939247399568557739e-01
-4.082978889346122742e-02
-2.547810375690460205e-01
-2.151777744293212891e-01
8.695349842309951782e-02
-1.637024730443954468e-01
-1.762474924325942993e-01
2.274305373430252075e-01
-6.181067600846290588e-02
-1.242863833904266357e-01
7.880687713623046875e-02
-1.343529522418975830e-01
1.593160033226013184e-01
1.931071430444717407e-01
-1.651620566844940186e-01
-3.128667771816253662e-01
-1.881283670663833618e-01
1.956160217523574829e-01
-8.970365673303604126e-02
2.756492495536804199e-01
-2.281725406646728516e-01
2.798588573932647705e-01
-2.049092650413513184e-01
2.772379517555236816e-01
1.732577942311763763e-02
-2.068386673927307129e-01
-5.032985657453536987e-02
6.081709265708923340e-02
1.407102644443511963e-01
-2.149908691644668579e-01
-3.139206171035766602e-01
1.006664335727691650e-01
-5.871331691741943359e-01
-1.975668519735336304e-01
2.750018239021301270e-01
-1.970513463020324707e-01
-3.032543063163757324e-01
-3.149335086345672607e-01
2.713990509510040283e-01
-3.313394486904144287e-01
2.964855432510375977e-01
1.213900223374366760e-01
-3.351554870605468750e-01
2.855716943740844727e-01
-4.953530728816986084e-01
8.509132266044616699e-02
-9.618707746267318726e-02
2.702931761741638184e-01
1.933548450469970703e-01
-2.910625338554382324e-01
4.437199234962463379e-02
-1.612545400857925415e-01
2.221445739269256592e-01
-2.868044674396514893e-01
-1.708617955446243286e-01
-2.873054444789886475e-01
-1.408643126487731934e-01
2.918666303157806396e-01
8.244248479604721069e-02
2.209846675395965576e-01
3.036640882492065430e-01
-1.342076957225799561e-01
1.374550014734268188e-01
-9.514176100492477417e-02
-1.884837448596954346e-01
3.355424404144287109e-01
3.389317095279693604e-01
-1.258117109537124634e-01
-7.714987546205520630e-02
-3.182804584503173828e-01
-2.518081665039062500e-01
2.729096412658691406e-01
-8.566368371248245239e-02
1.830287724733352661e-01
3.229343593120574951e-01
1.104864329099655151e-01
-1.168829277157783508e-01
2.293013036251068115e-01
-2.911862730979919434e-01
-6.524573266506195068e-02
1.400265097618103027e-01
-2.348216921091079712e-01
9.567514806985855103e-02
3.775342926383018494e-02
-2.148649990558624268e-01
2.013481780886650085e-02
2.498084455728530884e-01
-2.443375736474990845e-01
-2.050731629133224487e-01
2.057677358388900757e-01
-2.727793902158737183e-02
4.984867945313453674e-02
3.027382791042327881e-01
2.755843400955200195e-01
2.797435820102691650e-01
1.999182701110839844e-01
-3.645534217357635498e-01
-1.546354442834854126e-01
6.997764110565185547e-02
-3.228737115859985352e-01
-2.976063489913940430e-01
1.971180140972137451e-01
1.067751422524452209e-01
9.092797338962554932e-02
-3.022651076316833496e-01
2.397559583187103271e-02
-9.907077252864837646e-02
2.341857105493545532e-01
3.214506506919860840e-01
-1.900397539138793945e-01
3.184781372547149658e-01
1.878233402967453003e-01
-4.296787083148956299e-01
-4.436348676681518555e-01
3.241154849529266357e-01
-2.464181631803512573e-01
-2.773144841194152832e-01
-3.276578485965728760e-01
-3.209757506847381592e-01
1.425754725933074951e-01
-1.811805665493011475e-01
-1.623308062553405762e-01
1.436639428138732910e-01
3.129018545150756836e-01
-1.741627305746078491e-01
5.309559404850006104e-02
-1.393980383872985840e-01
-2.010249644517898560e-01
2.002632319927215576e-01
1.955432295799255371e-01
1.659382134675979614e-01
1.689595729112625122e-02
-2.712442874908447266e-01
1.458666622638702393e-01
2.172269970178604126e-01
-2.996924519538879395e-02
1.376999318599700928e-01
3.088877499103546143e-01
-2.430494129657745361e-01
1.462861746549606323e-01
-3.402214944362640381e-01
-2.948966324329376221e-01
3.226071596145629883e-01
2.818811237812042236e-01
3.146482110023498535e-01
-2.150353640317916870e-01
2.579391002655029297e-01
-1.819996833801269531e-01
7.300356775522232056e-02
-2.181721627712249756e-01
1.701409965753555298e-01
-2.429816573858261108e-01
-7.745049148797988892e-02
2.037280984222888947e-02
2.719431817531585693e-01
-1.503403782844543457e-01
-2.705974131822586060e-02
8.936832845211029053e-02
1.993512511253356934e-01
-2.944355607032775879e-01
3.543661534786224365e-01
5.740626901388168335e-02
-2.528512775897979736e-01
2.337465286254882812e-01
1.913650631904602051e-01
2.293170988559722900e-01
-6.041701138019561768e-02
2.423048019409179688e-01
-2.966381907463073730e-01
-4.322000592947006226e-02
3.026596903800964355e-01
-9.212868660688400269e-02
2.779028117656707764e-01
-2.466596662998199463e-01
1.041609868407249451e-01
-2.834884524345397949e-01
-2.882264554500579834e-01
2.653081715106964111e-01
-2.133876681327819824e-01
2.425473481416702271e-01
-1.846384704113006592e-01
2.057441473007202148e-01
1.628080755472183228e-01
1.358873397111892700e-01
1.624201536178588867e-01
-1.191606596112251282e-01
-2.728846967220306396e-01
-8.897876739501953125e-02
-2.885320484638214111e-01
2.281442433595657349e-01
-5.696091428399085999e-02
2.783524431288242340e-02
1.036837622523307800e-01
-2.962377369403839111e-01
-6.292291730642318726e-02
-1.185988038778305054e-01
8.925688266754150391e-02
2.599093131721019745e-02
1.571104526519775391e-01
-2.248903363943099976e-01
3.053036630153656006e-01
-1.202353388071060181e-01
-1.236560344696044922e-01
-4.207771643996238708e-02
2.242682725191116333e-01
-4.302435740828514099e-02
2.649382948875427246e-01
2.347875982522964478e-01
-1.509291678667068481e-02
2.869803309440612793e-01
-1.862858384847640991e-01
-7.471397519111633301e-02
2.066625207662582397e-01
1.622296124696731567e-01
-4.894671961665153503e-02
3.241708874702453613e-02
4.967852309346199036e-02
-1.555232554674148560e-01
-1.471845358610153198e-01
-1.864534057676792145e-02
-1.169820427894592285e-01
-1.324916034936904907e-01
-5.935221165418624878e-02
-2.690050303936004639e-01
1.460752785205841064e-01
3.157399222254753113e-02
-1.030047982931137085e-01
1.602012477815151215e-02
1.657433211803436279e-01
-5.529748648405075073e-02
-1.174105256795883179e-01
-3.060815632343292236e-01
7.370986044406890869e-02
-3.061793744564056396e-01
2.339190542697906494e-01
-2.284242808818817139e-01
-2.275414317846298218e-01
7.469543814659118652e-02
-3.002601861953735352e-01
-1.103937774896621704e-01
2.701631560921669006e-02
2.821436524391174316e-01
-1.502078324556350708e-01
2.496266961097717285e-01
1.948540061712265015e-01
2.603819966316223145e-01
9.388680756092071533e-02
-2.208396643400192261e-01
2.163362354040145874e-01
6.331078708171844482e-02
-3.176071941852569580e-01
-9.170031547546386719e-02
2.906411886215209961e-01
-2.084273844957351685e-01
2.116830945014953613e-01
2.987537086009979248e-01
-1.267700195312500000e-01
-1.887591630220413208e-01
-8.222217112779617310e-02
-2.107787579298019409e-01
2.835754156112670898e-01
-1.282695382833480835e-01
-4.614168405532836914e-02
1.324144005775451660e-01
-2.314086854457855225e-01
-3.862925246357917786e-02
2.912150919437408447e-01
-1.510598957538604736e-01
1.169250346720218658e-02
2.095963209867477417e-01
-7.968950271606445312e-02
-4.868477955460548401e-02
-2.352356761693954468e-01
1.894635707139968872e-01
-2.826107144355773926e-01
3.871935978531837463e-02
-2.578246295452117920e-01
4.857714474201202393e-02
-1.859224587678909302e-01
2.049138545989990234e-01
9.874732792377471924e-02
-1.233818307518959045e-01
-1.928850859403610229e-01
3.262409269809722900e-01
1.591249406337738037e-01
-8.338314294815063477e-02
-6.122431159019470215e-01
1.675145775079727173e-01
-5.540654659271240234e-01
-3.354656398296356201e-01
3.512897789478302002e-01
-6.251668184995651245e-02
-5.680319666862487793e-02
-2.649660408496856689e-01
3.577025234699249268e-01
-2.099751830101013184e-01
1.719104498624801636e-01
3.323602378368377686e-01
-3.183318972587585449e-01
2.697586417198181152e-01
-3.791083395481109619e-01
2.000317126512527466e-01
-1.868474334478378296e-01
1.064043715596199036e-01
1.645655333995819092e-01
-1.483747363090515137e-01
1.518896371126174927e-01
-1.078077778220176697e-01
9.841092675924301147e-02
-3.336531817913055420e-01
-3.101625740528106689e-01
-1.517200618982315063e-01
-1.453208625316619873e-01
8.263333886861801147e-02
3.684455994516611099e-03
6.710384041070938110e-02
8.373219519853591919e-02
-1.927746236324310303e-01
1.232271865010261536e-01
-2.182289659976959229e-01
-3.265360593795776367e-01
1.676844954490661621e-01
1.836564093828201294e-01
-1.418405026197433472e-01
-1.588041931390762329e-01
-3.546146452426910400e-01
-2.953496575355529785e-01
3.511165380477905273e-01
-3.248937129974365234e-01
2.810178101062774658e-01
2.396998107433319092e-01
2.126724570989608765e-01
-3.170290291309356689e-01
2.179183810949325562e-01
-2.069386541843414307e-01
-1.762642711400985718e-01
2.997413873672485352e-01
-1.980047821998596191e-01
1.605562418699264526e-01
1.703265905380249023e-01
-2.556594908237457275e-01
-2.377510815858840942e-01
3.135507926344871521e-02
-1.819140315055847168e-01
-1.103239804506301880e-01
2.056400626897811890e-01
1.577679663896560669e-01
8.795768767595291138e-02
2.097293436527252197e-01
2.756061553955078125e-01
2.872322797775268555e-01
3.012921810150146484e-01
-2.950352728366851807e-01
-2.846019864082336426e-01
4.053278639912605286e-02
-1.043078750371932983e-01
-1.042369604110717773e-01
1.409392803907394409e-01
2.108009755611419678e-01
7.804970443248748779e-02
-1.849975287914276123e-01
3.667671978473663330e-02
-2.837171852588653564e-01
5.049053207039833069e-02
2.404358834028244019e-01
-4.508930444717407227e-02
2.635317146778106689e-01
2.747357487678527832e-01
-5.074092149734497070e-01
-2.871654629707336426e-01
1.502370834350585938e-01
-3.218489587306976318e-01
-1.005166321992874146e-01
-1.122349202632904053e-01
-2.617228925228118896e-01
3.203498423099517822e-01
-3.462702035903930664e-01
-1.405034959316253662e-01
2.970377504825592041e-01
8.755968511104583740e-02
-2.310539633035659790e-01
7.655263692140579224e-02
-5.904848873615264893e-02
-1.319069713354110718e-01
1.268738806247711182e-01
2.556689381599426270e-01
2.136551290750503540e-01
2.329582720994949341e-01
-3.563008010387420654e-01
9.733238071203231812e-02
2.445002198219299316e-01
-2.347982376813888550e-01
3.200585246086120605e-01
2.586958706378936768e-01
-2.333883792161941528e-01
3.219598531723022461e-01
-9.416326880455017090e-02
-6.556915491819381714e-02
2.725745737552642822e-01
1.768503934144973755e-01
1.572778075933456421e-01
-2.327190339565277100e-01
1.769329458475112915e-01
-8.818192780017852783e-02
1.490082591772079468e-01
-3.349752426147460938e-01
2.220542728900909424e-01
-2.164465039968490601e-01
-2.014955431222915649e-01
1.159599423408508301e-01
2.153954058885574341e-01
-8.803535252809524536e-02
-5.228475108742713928e-02
2.818959355354309082e-01
2.201557308435440063e-01
-1.681788712739944458e-01
6.372223794460296631e-02
3.647546842694282532e-02
-8.309882134199142456e-02
2.891104817390441895e-01
1.899681687355041504e-01
2.345957905054092407e-01
-2.957961857318878174e-01
1.675431244075298309e-02
-2.527465522289276123e-01
-8.398754894733428955e-02
2.486363798379898071e-01
-1.773422509431838989e-01
1.231290549039840698e-01
-9.474126249551773071e-02
2.961406409740447998e-01
-2.705236971378326416e-01
-2.435682415962219238e-01
1.642991304397583008e-01
-6.002565100789070129e-02
1.705534011125564575e-01
-5.778557807207107544e-02
2.413129992783069611e-02
1.700077354907989502e-01
1.444016396999359131e-01
1.948942393064498901e-01
-2.343716621398925781e-01
-8.655371516942977905e-02
-9.150613844394683838e-02
-7.675605267286300659e-02
1.222796514630317688e-01
-1.903581917285919189e-01
5.734598636627197266e-02
1.109590083360671997e-01
-2.416584491729736328e-01
-3.026524484157562256e-01
-4.117388650774955750e-02
1.252653002738952637e-01
1.963488906621932983e-01
1.897415071725845337e-01
-1.828922331333160400e-01
1.709576100111007690e-01
-1.671230643987655640e-01
-3.756786510348320007e-02
-2.038315683603286743e-01
1.838035732507705688e-01
-2.589863538742065430e-01
1.758715957403182983e-01
1.790273934602737427e-01
-2.254617512226104736e-01
2.807221710681915283e-01
-1.434706449508666992e-01
-9.034772962331771851e-02
2.561540901660919189e-01
1.025549843907356262e-01
-1.298468708992004395e-01
1.389184743165969849e-01
3.028245568275451660e-01
-7.757546752691268921e-02
-1.820582002401351929e-01
7.900784257799386978e-04
-1.251806020736694336e-01
-3.092799708247184753e-02
-3.545712679624557495e-02
-1.173155605792999268e-01
1.755056828260421753e-01
1.993545293807983398e-01
-2.441192567348480225e-01
2.585591077804565430e-01
1.787384450435638428e-01
-3.263531252741813660e-02
-9.993053972721099854e-02
-3.703623265027999878e-02
1.714734435081481934e-01
-1.066658720374107361e-01
9.424024820327758789e-02
-2.812554240226745605e-01
-2.829958796501159668e-01
9.197030216455459595e-02
-3.545406274497509003e-03
-8.162021636962890625e-02
-4.463789984583854675e-03
1.229023784399032593e-01
-2.727406322956085205e-01
2.346690595149993896e-01
2.968868613243103027e-01
2.088733166456222534e-01
1.870508193969726562e-01
-1.349732130765914917e-01
1.621142178773880005e-01
2.609212696552276611e-01
-2.958990037441253662e-01
-1.164663657546043396e-01
2.866594493389129639e-01
-3.430755808949470520e-02
2.969412207603454590e-01
1.856473535299301147e-01
-1.666973382234573364e-01
-9.809950739145278931e-02
-1.939075738191604614e-01
-7.580302655696868896e-02
2.041738480329513550e-01
-6.091534718871116638e-02
-2.966644465923309326e-01
2.914901673793792725e-01
-1.556168049573898315e-01
-3.023229539394378662e-01
1.654911786317825317e-01
-5.052028596401214600e-02
2.992407083511352539e-01
3.033947944641113281e-01
-1.629830449819564819e-01
-2.323286980390548706e-01
-2.551248669624328613e-01
7.662788033485412598e-02
-1.713950634002685547e-01
1.504422575235366821e-01
-2.564856112003326416e-01
1.990346759557723999e-01
-1.297857761383056641e-01
2.384078651666641235e-01
1.364650577306747437e-02
2.637199163436889648e-01
3.022741675376892090e-01
-2.981956005096435547e-01
-2.316282838582992554e-01
9.375596418976783752e-03
3.238148242235183716e-02
-2.511518895626068115e-01
4.426628723740577698e-02
1.297473907470703125e-01
-2.095963954925537109e-01
9.882438182830810547e-02
1.153387650847434998e-01
5.036206170916557312e-02
-1.597329825162887573e-01
1.923088133335113525e-01
-1.810658723115921021e-01
-2.304581403732299805e-01
2.699784338474273682e-01
-9.542032331228256226e-02
2.085995227098464966e-01
-7.866795361042022705e-02
2.275777310132980347e-01
-1.408496797084808350e-01
-8.791328966617584229e-02
2.008475065231323242e-01
-2.210390865802764893e-01
2.447191439568996429e-02
-1.000872030854225159e-01
2.765953242778778076e-01
1.106984317302703857e-01
2.401372939348220825e-01
1.624525636434555054e-01
-2.391283065080642700e-01
-4.738314077258110046e-02
-2.972607314586639404e-01
-3.049298226833343506e-01
9.394875913858413696e-02
-2.439386993646621704e-01
1.401367336511611938e-01
8.244216442108154297e-02
-1.652969121932983398e-01
-3.642105311155319214e-02
3.090859204530715942e-02
-1.346124261617660522e-01
1.397451460361480713e-01
6.184679269790649414e-02
-1.938201785087585449e-01
2.859882414340972900e-01
-2.388145178556442261e-01
-4.783179238438606262e-02
-1.746037006378173828e-01
2.506852447986602783e-01
-3.170790970325469971e-01
2.912459671497344971e-01
2.536169886589050293e-01
-1.523961275815963745e-01
5.048501864075660706e-02
-1.084819287061691284e-01
-9.159339964389801025e-02
2.052855789661407471e-01
1.504717469215393066e-01
-7.639110088348388672e-02
1.620770245790481567e-01
2.193355858325958252e-01
-1.340628415346145630e-01
-1.929720491170883179e-01
-2.616457268595695496e-02
-2.531034946441650391e-01
-4.725886136293411255e-02
-1.102820783853530884e-01
-8.920790255069732666e-02
1.890736073255538940e-01
3.039034903049468994e-01
-3.002001643180847168e-01
2.521445751190185547e-01
3.202260136604309082e-01
-3.985666483640670776e-02
-1.530379801988601685e-01
-2.535485327243804932e-01
1.869314908981323242e-01
-1.989454030990600586e-01
1.768596321344375610e-01
-9.229701012372970581e-02
-2.199886143207550049e-01
2.405811846256256104e-01
-3.630488365888595581e-02
-1.117844656109809875e-01
1.135251969099044800e-01
3.226121515035629272e-02
-2.857558131217956543e-01
2.618719935417175293e-01
2.521718144416809082e-01
5.678930133581161499e-02
9.450145810842514038e-02
-2.431726306676864624e-01
2.100708186626434326e-01
2.673817574977874756e-01
-1.984198391437530518e-01
-2.847121357917785645e-01
4.483380913734436035e-02
-2.584934234619140625e-01
2.637215852737426758e-01
2.840530574321746826e-01
-2.906058132648468018e-01
-1.275573968887329102e-01
-2.982569336891174316e-01
-3.160708844661712646e-01
3.066256344318389893e-01
-2.049068212509155273e-01
-8.680503070354461670e-02
1.335203945636749268e-01
-2.291630059480667114e-01
-2.632803618907928467e-01
2.852128744125366211e-01
-1.172267869114875793e-01
1.863510012626647949e-01
2.377299666404724121e-01
-2.395862340927124023e-01
-1.583516001701354980e-01
-2.583248317241668701e-01
6.522865593433380127e-02
-5.153406038880348206e-02
3.316870704293251038e-02
-2.103126049041748047e-01
3.200709074735641479e-02
-9.209514409303665161e-02
2.169193774461746216e-01
1.049293763935565948e-02
2.227374166250228882e-01
3.417476639151573181e-02
-2.441736906766891479e-01
-1.741502285003662109e-01
1.354946047067642212e-01
8.904760330915451050e-02
-2.344881445169448853e-01
7.498008012771606445e-02
9.581973403692245483e-02
-1.594212502241134644e-01
6.833301857113838196e-03
1.048120409250259399e-01
1.005264744162559509e-01
-5.641572922468185425e-02
2.604708671569824219e-01
-3.064149022102355957e-01
-1.163756176829338074e-01
3.131136298179626465e-01
-1.279247701168060303e-01
2.331573665142059326e-01
-5.955437198281288147e-02
3.079598844051361084e-01
-3.015655279159545898e-02
-6.312529742717742920e-02
2.005032002925872803e-01
-2.932563126087188721e-01
1.051648929715156555e-01
-4.705467075109481812e-02
1.154149249196052551e-01
1.890360116958618164e-01
9.390775114297866821e-02
2.068085521459579468e-01
-1.547302156686782837e-01
-2.487562298774719238e-01
-2.961508035659790039e-01
-1.733725517988204956e-01
2.098468691110610962e-01
-3.197993934154510498e-01
1.602004170417785645e-01
1.510793119668960571e-01
-5.711944401264190674e-02
-2.297891117632389069e-02
-4.256718233227729797e-02
-4.201399162411689758e-02
3.208612501621246338e-01
2.666848599910736084e-01
-3.869221732020378113e-02
1.045593842864036560e-01
-2.530615031719207764e-01
-1.782012730836868286e-01
-1.765434890985488892e-01
1.538334786891937256e-01
-4.390984028577804565e-02
2.676280736923217773e-01
1.432862281799316406e-01
-2.941874861717224121e-01
3.045310080051422119e-01
-1.178653016686439514e-01
-1.465020421892404556e-02
2.996320128440856934e-01
1.157958880066871643e-01
-9.501227736473083496e-02
2.455564588308334351e-01
2.146979719400405884e-01
-2.552946209907531738e-01
-2.071923017501831055e-01
-1.426541954278945923e-01
-1.862297356128692627e-01
-2.396361976861953735e-01
-1.032561138272285461e-01
-2.630252540111541748e-01
2.071779668331146240e-01
1.646955758333206177e-01
-9.270117431879043579e-02
3.141515254974365234e-01
1.708779335021972656e-01
-1.723136194050312042e-02
-1.951224058866500854e-01
-2.892469801008701324e-02
5.564641952514648438e-02
-1.010022014379501343e-01
1.702894568443298340e-01
-2.560548484325408936e-01
-1.956667751073837280e-01
2.391436994075775146e-01
-7.368429750204086304e-02
-6.870681047439575195e-02
1.704173833131790161e-01
1.044378951191902161e-01
-7.292268425226211548e-02
1.526918262243270874e-01
9.449084848165512085e-02
1.539204567670822144e-01
1.037635058164596558e-01
-3.345654904842376709e-02
2.895361781120300293e-01
2.458545193076133728e-02
-2.284634411334991455e-01
-2.277561277151107788e-01
1.783190071582794189e-01
-2.562350332736968994e-01
2.366144210100173950e-01
1.362092494964599609e-01
-3.139608502388000488e-01
-7.356102019548416138e-02
-5.385823920369148254e-02
-1.693260520696640015e-01
3.141057193279266357e-01
-7.483022660017013550e-02
-1.622577756643295288e-01
1.496311128139495850e-01
-2.922624945640563965e-01
-4.373428225517272949e-02
9.523268789052963257e-02
-1.351240873336791992e-01
2.665688097476959229e-01
3.078649938106536865e-01
-2.043300271034240723e-01
-3.067383766174316406e-01
-1.031236797571182251e-01
2.951288819313049316e-01
-7.043907046318054199e-02
2.794964313507080078e-01
-5.675026401877403259e-02
1.740501821041107178e-01
-2.171258628368377686e-01
9.425693750381469727e-02
2.042430490255355835e-01
-7.604441605508327484e-03
-1.472444925457239151e-02
2.294644415378570557e-01
2.264315634965896606e-01
-2.918555736541748047e-01
-2.827484011650085449e-01
2.230793796479701996e-02
-4.487467110157012939e-01
-2.492014616727828979e-01
2.474857270717620850e-01
-7.786335796117782593e-02
-2.821379303932189941e-01
2.596546523272991180e-02
8.188451826572418213e-02
-3.081658482551574707e-01
3.107526004314422607e-01
2.461999356746673584e-01
-6.118176132440567017e-02
2.386798709630966187e-01
-4.680646061897277832e-01
-2.073401398956775665e-02
-8.277262747287750244e-02
5.172718688845634460e-02
3.213951885700225830e-01
-1.299436837434768677e-01
1.681679636240005493e-01
-1.916247010231018066e-01
1.966360509395599365e-01
-3.216401934623718262e-01
-2.665526270866394043e-01
-3.310084939002990723e-01
-2.036401815712451935e-02
2.771281301975250244e-01
8.273760974407196045e-02
1.501708924770355225e-01
2.526667118072509766e-01
-8.177470415830612183e-02
2.822819054126739502e-01
-3.065338432788848877e-01
-7.180967181921005249e-02
1.332169026136398315e-01
1.889888048171997070e-01
-1.123861074447631836e-01
2.841109037399291992e-02
-1.982001960277557373e-01
-2.738467454910278320e-01
1.233507469296455383e-01
-9.951736032962799072e-02
2.409001737833023071e-01
1.416931003332138062e-01
1.868772506713867188e-01
-2.240673452615737915e-01
1.549845188856124878e-02
-2.073675990104675293e-01
-1.396191418170928955e-01
2.454666048288345337e-02
-1.772693246603012085e-01
2.859558463096618652e-01
2.214754186570644379e-02
-1.009493544697761536e-01
-1.622939705848693848e-01
8.094785362482070923e-02
-2.191235721111297607e-01
-4.651684314012527466e-02
1.798541694879531860e-01
1.635344922542572021e-01
-2.636921033263206482e-02
2.689699828624725342e-01
2.428837567567825317e-01
3.425594791769981384e-02
-2.976753003895282745e-02
-6.623475998640060425e-02
-1.027151867747306824e-01
2.097938507795333862e-01
-1.154774576425552368e-01
-1.151296868920326233e-01
2.702478170394897461e-01
1.856807470321655273e-01
2.248793840408325195e-01
-9.121374785900115967e-02
2.055737525224685669e-01
-1.948141753673553467e-01
8.754464238882064819e-02
2.827580571174621582e-01
-7.405323907732963562e-03
5.411180108785629272e-02
4.813072457909584045e-02
-2.708546817302703857e-01
-2.351201623678207397e-01
9.410298615694046021e-02
-1.684739738702774048e-01
-1.166673898696899414e-01
2.134667010977864265e-03
-4.135853797197341919e-02
1.827485114336013794e-01
-2.325180321931838989e-01
-1.588309556245803833e-01
3.219926655292510986e-01
2.054558098316192627e-01
-2.449618279933929443e-01
5.690447613596916199e-02
-1.051943823695182800e-01
-3.040735423564910889e-01
2.052388042211532593e-01
2.002230882644653320e-01
2.502203583717346191e-01
8.263418823480606079e-02
-2.117190659046173096e-01
2.323076725006103516e-01
-9.057435090653598309e-04
-1.124732643365859985e-01
2.173428237438201904e-01
4.194973036646842957e-02
-1.533062011003494263e-01
1.499892771244049072e-01
-2.750303447246551514e-01
-1.536965835839509964e-02
2.355558127164840698e-01
7.424711436033248901e-02
3.857454657554626465e-02
-8.636504411697387695e-02
7.089301943778991699e-02
-1.719616055488586426e-01
9.577285498380661011e-02
-6.514761596918106079e-02
1.253438293933868408e-01
-9.725479781627655029e-02
-4.353975877165794373e-02
-9.980325400829315186e-02
-1.650666296482086182e-01
6.240857765078544617e-02
1.887022107839584351e-01
-4.408100992441177368e-02
-2.447302192449569702e-01
7.023386657238006592e-02
-2.600894570350646973e-01
-2.918345630168914795e-01
1.156631782650947571e-01
-6.107240915298461914e-02
-2.195515483617782593e-01
-2.647524476051330566e-01
1.160232573747634888e-01
-8.814730495214462280e-02
8.123274147510528564e-02
2.119855284690856934e-01
-3.345747292041778564e-01
1.228571310639381409e-01
-4.696674048900604248e-01
2.436471134424209595e-01
-1.819794327020645142e-01
1.916694790124893188e-01
2.721807360649108887e-01
-8.210832625627517700e-02
2.580439448356628418e-01
-9.311330504715442657e-04
2.948188483715057373e-01
-1.015744805335998535e-01
-1.228629648685455322e-01
-2.358683645725250244e-01
-2.176741063594818115e-01
2.772743701934814453e-01
5.709911137819290161e-02
5.293709784746170044e-02
1.303239911794662476e-01
-2.345953583717346191e-01
2.639396488666534424e-01
-3.075937926769256592e-01
-2.085246592760086060e-01
2.535240650177001953e-01
2.091394811868667603e-01
-1.139079555869102478e-01
9.454361163079738617e-03
-2.640498802065849304e-02
-6.865557283163070679e-02
9.990859031677246094e-02
-2.280115149915218353e-02
1.197273209691047668e-01
2.559283375740051270e-01
2.364317327737808228e-01
-1.763871461153030396e-01
9.301898628473281860e-02
-2.027789205312728882e-01
-1.406487971544265747e-01
4.154343530535697937e-02
-3.327801823616027832e-01
1.968915946781635284e-02
5.192054435610771179e-02
-2.526202499866485596e-01
-4.066231474280357361e-02
5.107730999588966370e-02
-1.034567058086395264e-01
-3.173899352550506592e-01
7.167464494705200195e-02
-2.903724322095513344e-03
2.068349272012710571e-01
2.776126265525817871e-01
1.796271055936813354e-01
2.306302785873413086e-01
3.160516545176506042e-02
-8.288149535655975342e-02
-1.686670929193496704e-01
1.994159370660781860e-01
-3.109722435474395752e-01
-2.180984169244766235e-01
4.762706533074378967e-02
-1.513537019491195679e-02
7.987863570451736450e-02
-2.055630832910537720e-02
1.696967035531997681e-01
-1.381139364093542099e-02
1.037956587970256805e-02
2.818152010440826416e-01
-1.656046211719512939e-01
1.802282631397247314e-01
2.388018667697906494e-01
-4.037993550300598145e-01
-2.313338965177536011e-01
3.496119081974029541e-01
-2.192203849554061890e-01
-9.801910072565078735e-02
-1.426057070493698120e-01
-8.689654618501663208e-02
1.341179907321929932e-01
-3.359501957893371582e-01
-1.105581820011138916e-01
1.118793860077857971e-01
1.776088029146194458e-01
-3.163070604205131531e-02
2.337613701820373535e-01
-2.638840675354003906e-01
-2.343918383121490479e-01
1.336275935173034668e-01
4.927461594343185425e-02
3.635070100426673889e-02
-3.750160336494445801e-02
-2.259025871753692627e-01
1.916573941707611084e-01
2.425845265388488770e-01
-2.123268395662307739e-01
2.403454110026359558e-02
3.023231625556945801e-01
-2.727392613887786865e-01
1.228465214371681213e-01
-3.052179217338562012e-01
-1.737112700939178467e-01
2.751627564430236816e-01
5.160729587078094482e-02
1.043045595288276672e-01
-1.290107071399688721e-01
1.805014610290527344e-01
-1.046814024448394775e-01
1.772614419460296631e-01
-2.056177556514739990e-01
2.308088541030883789e-01
-2.624242007732391357e-01
-9.442923963069915771e-02
-1.088993847370147705e-01
-1.312178373336791992e-01
2.419478148221969604e-01
7.424569875001907349e-02
-3.484447300434112549e-01
-4.823047518730163574e-01
2.844412624835968018e-01
-5.940676331520080566e-01
-1.744347065687179565e-01
2.134467214345932007e-01
-8.433806896209716797e-02
-3.820938989520072937e-02
-2.885881066322326660e-01
2.258304953575134277e-01
-1.136942580342292786e-01
3.430506587028503418e-01
2.852063179016113281e-01
-3.739830255508422852e-01
3.078185915946960449e-01
-5.676391124725341797e-01
6.837429851293563843e-02
-1.646414846181869507e-01
1.641702950000762939e-01
5.117760971188545227e-02
-1.300409436225891113e-01
2.338142096996307373e-01
-9.013717621564865112e-02
4.959838464856147766e-02
-9.772180765867233276e-02
-2.435658872127532959e-01
-3.132417201995849609e-01
-2.957299649715423584e-01
1.840455979108810425e-01
1.736766844987869263e-01
1.313599199056625366e-01
3.971232846379280090e-02
-2.841754853725433350e-01
1.547843217849731445e-01
-6.109167635440826416e-02
-3.454509675502777100e-01
2.796440720558166504e-01
7.720692455768585205e-02
-7.715208828449249268e-02
-1.524136960506439209e-01
-3.140955865383148193e-01
-1.846310682594776154e-02
1.470654010772705078e-01
-2.819204330444335938e-01
5.698360875248908997e-02
1.600363850593566895e-01
1.732794046401977539e-01
-3.177142739295959473e-01
2.791676223278045654e-01
-1.649096310138702393e-01
-2.266258597373962402e-01
2.263382971286773682e-01
-1.789454072713851929e-01
2.285445779561996460e-01
2.201400883495807648e-02
-2.785931527614593506e-01
-1.342251002788543701e-01
1.168609336018562317e-01
-2.639308273792266846e-01
-3.487830162048339844e-01
1.166630536317825317e-01
2.050010859966278076e-01
8.371607959270477295e-02
1.620683968067169189e-01
3.071635067462921143e-01
7.109928876161575317e-02
1.759630888700485229e-01
-1.085454523563385010e-01
-3.107073903083801270e-01
6.859345734119415283e-02
-3.041092753410339355e-01
-1.357070207595825195e-01
2.855366468429565430e-01
5.616984516382217407e-02
9.261438250541687012e-02
-6.228094547986984253e-02
2.608560211956501007e-02
-2.549630105495452881e-01
2.234720289707183838e-01
1.259571164846420288e-01
-3.013387322425842285e-01
1.123186424374580383e-01
2.896617539227008820e-02
-4.182055890560150146e-01
-2.294658124446868896e-01
9.066633880138397217e-02
-1.999505311250686646e-01
-3.263776898384094238e-01
-1.636357456445693970e-01
-3.250595629215240479e-01
1.121435239911079407e-01
-3.229291141033172607e-01
-8.082263171672821045e-02
1.119890734553337097e-01
2.153684943914413452e-01
-1.024084985256195068e-01
2.790988087654113770e-01
-1.840583831071853638e-01
-1.999669522047042847e-01
2.603380680084228516e-01
2.261686883866786957e-02
2.040885090827941895e-01
1.442004591226577759e-01
-3.098101019859313965e-01
8.148977905511856079e-02
2.472332268953323364e-01
-2.480260878801345825e-01
2.532337792217731476e-02
8.014634996652603149e-02
-3.433548510074615479e-01
1.071602851152420044e-01
-3.540416061878204346e-01
-8.077511191368103027e-02
1.478425115346908569e-01
1.559939831495285034e-01
8.669865876436233521e-02
-1.443777382373809814e-01
1.400377005338668823e-01
-4.446892067790031433e-02
1.764133572578430176e-01
-2.613668143749237061e-01
2.202510088682174683e-01
-1.152690351009368896e-01
-1.497816294431686401e-01
-3.840406239032745361e-02
1.263518035411834717e-01
3.399733826518058777e-02
1.122085750102996826e-02
2.466744482517242432e-01
2.592868506908416748e-01
-1.573280990123748779e-01
2.130809277296066284e-01
7.857183367013931274e-02
-1.534397006034851074e-01
1.215586555190384388e-03
1.608945429325103760e-01
-1.575610227882862091e-02
-1.824681907892227173e-01
1.859032809734344482e-01
-2.304497361183166504e-01
-1.209874972701072693e-01
1.533603072166442871e-01
-3.275795653462409973e-02
3.619418293237686157e-02
-1.955455541610717773e-01
6.769146770238876343e-02
-1.641372591257095337e-02
-1.364391744136810303e-01
2.911672927439212799e-02
-1.335915178060531616e-01
1.533326208591461182e-01
-2.449957877397537231e-01
1.228405237197875977e-01
2.139401882886886597e-01
-2.730928175151348114e-02
9.602695703506469727e-02
-1.039925515651702881e-01
3.557173907756805420e-02
-7.374471426010131836e-02
-2.605697512626647949e-01
2.379689663648605347e-01
-9.513139724731445312e-02
7.360769063234329224e-02
1.432393938302993774e-01
-9.651090949773788452e-03
-3.267361968755722046e-02
9.753875434398651123e-03
1.274507343769073486e-01
2.331511676311492920e-01
1.531381253153085709e-02
-2.493878453969955444e-01
-2.529556863009929657e-02
9.073589928448200226e-03
-3.629758581519126892e-02
-7.749622315168380737e-02
2.548832893371582031e-01
-1.139745190739631653e-01
1.369529310613870621e-02
7.112114131450653076e-02
-1.385344713926315308e-01
1.135175004601478577e-01
-1.413435488939285278e-01
-4.238406661897897720e-03
-2.869186177849769592e-02
6.244042888283729553e-02
-2.388145029544830322e-01
1.263424754142761230e-01
1.315556913614273071e-01
-8.087106794118881226e-02
-2.339798212051391602e-01
-2.391226887702941895e-01
-2.369205951690673828e-01
-1.853356659412384033e-01
-5.550175905227661133e-02
-4.503304511308670044e-02
-4.353822395205497742e-02
5.424603354185819626e-03
-7.738571614027023315e-03
3.759197890758514404e-02
2.314118146896362305e-01
-1.200250163674354553e-01
-6.609781086444854736e-02
-1.175067499279975891e-01
1.330914497375488281e-01
-1.336036920547485352e-01
-2.341307699680328369e-02
-2.941832132637500763e-02
-1.450516134500503540e-01
1.205200254917144775e-01
-1.733374893665313721e-01
-2.125418186187744141e-01
1.622640937566757202e-01
1.192105188965797424e-01
-1.971230953931808472e-01
1.389840245246887207e-01
1.928325146436691284e-01
1.756271123886108398e-01
8.751419372856616974e-03
-8.918128162622451782e-02
6.463268399238586426e-02
-4.190248250961303711e-02
-1.913950592279434204e-01
-1.756930798292160034e-01
2.491782456636428833e-01
-6.311196833848953247e-02
2.203926146030426025e-01
1.710751205682754517e-01
-1.566116213798522949e-01
-6.155621260404586792e-02
5.491840187460184097e-03
-2.192391157150268555e-01
1.415419206023216248e-02
-1.546057760715484619e-01
-1.440339833498001099e-01
2.189087122678756714e-01
-1.566864252090454102e-01
-1.189038902521133423e-01
8.131817728281021118e-02
-1.522140391170978546e-02
1.709844768047332764e-01
1.802847348153591156e-02
-1.241309717297554016e-01
-1.966955363750457764e-01
-2.225586920976638794e-01
2.281044125556945801e-01
-2.175956219434738159e-01
9.743940085172653198e-03
-8.821451663970947266e-02
1.762670576572418213e-01
-1.285140961408615112e-01
1.625953614711761475e-01
4.273427277803421021e-02
1.925090998411178589e-01
2.683640420436859131e-01
-3.195179104804992676e-01
-2.478774040937423706e-01
2.495252043008804321e-01
1.144334599375724792e-01
-1.022754237055778503e-01
2.192834317684173584e-01
2.601343095302581787e-01
-3.113338053226470947e-01
3.084178864955902100e-01
2.130736708641052246e-01
2.611806392669677734e-01
-1.035396531224250793e-01
9.966856241226196289e-02
-3.866410255432128906e-02
-2.202463895082473755e-01
2.817704975605010986e-01
-2.593287229537963867e-01
1.596361100673675537e-01
-3.038413822650909424e-01
1.422869414091110229e-01
-2.686676084995269775e-01
-2.523511946201324463e-01
2.406062930822372437e-01
-2.373048067092895508e-01
1.672906428575515747e-01
-2.439417988061904907e-01
2.368095517158508301e-01
2.285317331552505493e-01
3.046898543834686279e-01
1.768973171710968018e-01
-2.748268246650695801e-01
-1.221242025494575500e-01
-1.392020434141159058e-01
-2.873666584491729736e-01
3.207212686538696289e-01
-9.424240887165069580e-02
3.011112213134765625e-01
3.086078166961669922e-01
-1.744542717933654785e-01
-1.187734454870223999e-01
9.404744207859039307e-02
1.237151250243186951e-01
1.812813580036163330e-01
2.375703901052474976e-01
-3.100228607654571533e-01
8.890639245510101318e-02
-2.949188351631164551e-01
-2.393393218517303467e-01
-1.803223341703414917e-01
1.502712517976760864e-01
-1.223133280873298645e-01
2.215486764907836914e-01
2.632143795490264893e-01
-2.473526149988174438e-01
2.688543498516082764e-01
-2.488082647323608398e-01
-2.603527605533599854e-01
3.484247028827667236e-01
1.607444286346435547e-01
-1.660839319229125977e-01
2.427368760108947754e-01
2.398485392332077026e-01
-1.970160603523254395e-01
-1.630189716815948486e-01
-8.837033063173294067e-02
-7.924628257751464844e-02
-2.693484127521514893e-01
-1.820533275604248047e-01
-2.943320274353027344e-01
2.208990603685379028e-01
2.682832479476928711e-01
-1.434111148118972778e-01
7.309116423130035400e-02
2.627010047435760498e-01
-2.389491647481918335e-01
-2.964401543140411377e-01
-9.764299541711807251e-02
1.498209685087203979e-01
-2.904879152774810791e-01
3.427364230155944824e-01
-5.894175544381141663e-02
-9.717537462711334229e-02
1.285916715860366821e-01
-2.864598929882049561e-01
-3.170772790908813477e-01
1.434616595506668091e-01
5.298890173435211182e-02
-2.439880222082138062e-01
3.845732659101486206e-02
5.302936211228370667e-02
1.544453054666519165e-01
1.653512120246887207e-01
-2.712807059288024902e-01
6.140024587512016296e-02
5.443938821554183960e-02
-9.368535131216049194e-02
-5.775970593094825745e-02
2.126901447772979736e-01
-8.767748624086380005e-02
1.801308989524841309e-01
7.738458365201950073e-02
-2.503024041652679443e-01
-2.874884903430938721e-01
-2.678280472755432129e-01
-2.911208271980285645e-01
2.345704883337020874e-01
-3.314493000507354736e-01
-9.047802537679672241e-02
9.584216028451919556e-02
-1.684359014034271240e-01
-7.532604783773422241e-02
1.673626303672790527e-01
-9.629647433757781982e-02
2.148517370223999023e-01
3.110943138599395752e-01
-1.690451502799987793e-01
-1.034448519349098206e-01
-7.193568348884582520e-02
2.574501037597656250e-01
-2.393301576375961304e-01
1.077530086040496826e-01
-1.604848802089691162e-01
5.008735880255699158e-02
-2.104836851358413696e-01
2.984595000743865967e-01
1.201583743095397949e-01
-1.020735800266265869e-01
-1.588495224714279175e-01
2.064923197031021118e-01
2.375528216361999512e-01
-1.230657622218132019e-01
-4.311659634113311768e-01
3.199486434459686279e-01
-5.035697221755981445e-01
-1.431449204683303833e-01
2.902852296829223633e-01
-1.419141888618469238e-01
-2.564679682254791260e-01
-8.373718708753585815e-02
1.521336734294891357e-01
-2.601886987686157227e-01
3.540161848068237305e-01
1.810161620378494263e-01
-1.899646371603012085e-01
1.384355723857879639e-01
-4.485212862491607666e-01
1.642102003097534180e-01
-3.214357495307922363e-01
3.125233948230743408e-01
3.372143805027008057e-01
-1.527514457702636719e-01
3.385003507137298584e-01
-1.199784129858016968e-01
2.775227427482604980e-01
-3.691840767860412598e-01
-1.680678427219390869e-01
-1.872462183237075806e-01
-2.073099017143249512e-01
2.578789591789245605e-01
4.359198734164237976e-02
6.713823974132537842e-02
3.197207450866699219e-01
-1.110709533095359802e-01
2.058138549327850342e-01
-3.341435492038726807e-01
-3.138573169708251953e-01
1.871267855167388916e-01
3.323147594928741455e-01
-1.556402891874313354e-01
-1.756623536348342896e-01
-3.077493309974670410e-01
-1.554746180772781372e-01
1.490978896617889404e-01
-2.831194400787353516e-01
2.829443514347076416e-01
2.368284314870834351e-01
3.172909021377563477e-01
-2.506702840328216553e-01
1.851198971271514893e-01
-1.111917793750762939e-01
-3.573366627097129822e-02
2.262547314167022705e-01
-1.306396424770355225e-01
3.304974362254142761e-02
-5.569349974393844604e-03
-2.241953164339065552e-01
-1.012512966990470886e-01
-2.552656922489404678e-03
-1.831523329019546509e-01
-2.613099217414855957e-01
3.516719639301300049e-01
1.452602893114089966e-01
2.393691241741180420e-02
2.654992640018463135e-01
7.830397784709930420e-02
3.327275216579437256e-01
1.361790001392364502e-01
-3.190554678440093994e-01
-1.644331216812133789e-01
2.374861985445022583e-01
-3.237177059054374695e-02
-3.520148694515228271e-01
9.742492437362670898e-02
3.738513588905334473e-02
1.001712009310722351e-01
-2.238092720508575439e-01
1.210612803697586060e-01
-2.607600986957550049e-01
1.595770567655563354e-01
3.374427258968353271e-01
-1.254064887762069702e-01
1.473723351955413818e-01
2.679624855518341064e-01
-2.596194446086883545e-01
-3.581550419330596924e-01
2.031696140766143799e-01
-1.943801641464233398e-01
-1.779855489730834961e-01
-1.525490731000900269e-01
-3.015710785984992981e-02
1.507820338010787964e-01
-2.600457668304443359e-01
-1.306282132863998413e-01
9.433266520500183105e-02
1.007920131087303162e-01
-2.188496142625808716e-01
1.327575445175170898e-01
-2.452331334352493286e-01
-1.797776818275451660e-01
2.306909412145614624e-01
1.305775344371795654e-01
2.982660531997680664e-01
9.325643070042133331e-03
-1.910812705755233765e-01
3.204496204853057861e-02
1.707809120416641235e-01
-2.178660631179809570e-01
1.631182581186294556e-01
8.449048548936843872e-02
-2.463654130697250366e-01
6.119668483734130859e-02
-3.529733717441558838e-01
-3.002558648586273193e-01
2.398063391447067261e-01
2.730839848518371582e-01
2.433723360300064087e-01
-1.776752620935440063e-01
1.208347678184509277e-01
-2.087953239679336548e-01
5.343412607908248901e-02
-2.546394765377044678e-01
2.484723776578903198e-01
-3.447088003158569336e-01
-3.090404272079467773e-01
1.646129637956619263e-01
1.397817432880401611e-01
-1.098343171179294586e-02
-1.766732782125473022e-01
3.452242538332939148e-02
1.747030764818191528e-01
-1.988829225301742554e-01
4.296991601586341858e-02
2.029601484537124634e-01
-1.462539881467819214e-01
7.157572358846664429e-02
1.167702823877334595e-01
2.846052944660186768e-01
-3.077756166458129883e-01
2.369255572557449341e-01
-1.648797690868377686e-01
-7.570794969797134399e-02
1.148047372698783875e-01
-3.516815975308418274e-02
-7.832631468772888184e-03
-2.258681207895278931e-01
1.400161683559417725e-01
-9.139641374349594116e-02
-3.038064837455749512e-01
5.780429020524024963e-02
-3.119140267372131348e-01
1.869176626205444336e-01
-9.648586064577102661e-02
3.007696568965911865e-01
2.681603729724884033e-01
3.936666250228881836e-02
1.021184846758842468e-01
-2.429553307592868805e-02
-1.750172078609466553e-01
-1.403753459453582764e-01
-2.833784222602844238e-01
2.076710164546966553e-01
-1.184440478682518005e-01
2.176198661327362061e-01
2.380982600152492523e-02
-5.147229880094528198e-02
-2.881778776645660400e-01
-1.098962873220443726e-01
2.708619274199008942e-02
3.223938643932342529e-01
2.883020341396331787e-01
-2.654590643942356110e-02
2.585896253585815430e-01
-2.947948276996612549e-01
-2.605173289775848389e-01
-4.946647956967353821e-02
7.853492349386215210e-02
-2.538415789604187012e-01
2.090048640966415405e-01
2.158197164535522461e-01
-2.039201408624649048e-01
2.036169171333312988e-01
-8.455436676740646362e-02
-3.059867620468139648e-01
8.482871204614639282e-02
7.875291258096694946e-02
-1.655788123607635498e-01
1.394325196743011475e-01
2.501467168331146240e-01
-2.403388023376464844e-01
-4.682198166847229004e-02
-1.161868646740913391e-01
-1.888368278741836548e-01
-3.159929811954498291e-01
-1.098486110568046570e-01
-1.444129347801208496e-01
1.972285062074661255e-01
2.109385281801223755e-01
-1.179232448339462280e-01
2.739252150058746338e-01
1.950206160545349121e-01
-6.668788939714431763e-02
-1.150971651077270508e-01
-2.243032157421112061e-01
1.749611273407936096e-02
-9.683081507682800293e-02
5.506349727511405945e-02
-1.074066907167434692e-01
-2.244196236133575439e-01
5.914838612079620361e-02
-4.875192046165466309e-02
-2.158896774053573608e-01
-3.232934698462486267e-02
1.718903183937072754e-01
-6.398056447505950928e-02
3.916188329458236694e-02
9.480755776166915894e-02
3.252795711159706116e-02
3.264033794403076172e-01
-2.332065850496292114e-01
2.084974497556686401e-01
1.519776880741119385e-01
-9.018761664628982544e-02
-2.401777654886245728e-01
2.034736126661300659e-01
-2.274324893951416016e-01
7.912504486739635468e-03
3.010182082653045654e-01
-3.120131492614746094e-01
-2.656586095690727234e-02
-2.117432840168476105e-02
-1.655655056238174438e-01
1.823724359273910522e-01
-1.652638912200927734e-01
-6.751814484596252441e-02
1.009781062602996826e-01
-2.417039126157760620e-01
-1.740022152662277222e-01
7.580602169036865234e-02
-2.951859235763549805e-01
7.055331021547317505e-02
3.019379377365112305e-01
-1.154899075627326965e-01
-2.396123409271240234e-01
-1.891989819705486298e-02
1.709661036729812622e-01
-2.272796779870986938e-01
9.367951005697250366e-02
-1.075555756688117981e-01
2.280466407537460327e-01
-8.011377602815628052e-02
5.630315840244293213e-02
2.377836853265762329e-01
-4.610552266240119934e-02
-1.428746879100799561e-01
2.919051945209503174e-01
-4.951234906911849976e-02
-1.485979259014129639e-01
-4.721445143222808838e-01
1.757141202688217163e-01
-3.497766852378845215e-01
-9.176669269800186157e-02
2.555073499679565430e-01
-1.851919442415237427e-01
-4.560179263353347778e-02
-2.521647810935974121e-01
8.135759830474853516e-02
-1.486376672983169556e-01
2.291072160005569458e-01
3.087650835514068604e-01
-3.139999508857727051e-01
2.686128616333007812e-01
-4.600765705108642578e-01
6.975087523460388184e-02
-1.515317261219024658e-01
7.958903163671493530e-02
2.886227667331695557e-01
-1.370191276073455811e-01
3.161746561527252197e-01
-9.645262360572814941e-02
1.728936433792114258e-01
-6.967914849519729614e-02
-2.782048881053924561e-01
-8.428102731704711914e-02
-5.431109294295310974e-02
1.597453057765960693e-01
1.219454258680343628e-01
1.487175822257995605e-01
2.228182367980480194e-02
-3.232726156711578369e-01
2.761432528495788574e-01
-9.388251602649688721e-02
-2.669022977352142334e-01
2.904366254806518555e-01
2.656802535057067871e-01
-2.352526038885116577e-02
-3.153696283698081970e-02
-6.103691086173057556e-02
-7.295575737953186035e-02
3.050182946026325226e-02
-2.447209954261779785e-01
5.747139453887939453e-02
2.661189734935760498e-01
4.692597687244415283e-02
-5.970742180943489075e-02
2.537115849554538727e-02
-4.590242356061935425e-02
-1.029481887817382812e-01
9.208313375711441040e-02
-1.958575546741485596e-01
2.364382743835449219e-01
1.917883306741714478e-01
-1.881216764450073242e-01
-2.504313550889492035e-02
6.551364436745643616e-03
-3.251178264617919922e-01
-2.989711463451385498e-01
3.387348353862762451e-01
2.007135897874832153e-01
8.957304060459136963e-03
2.709099948406219482e-01
1.000297069549560547e-01
1.476319730281829834e-01
1.581382453441619873e-01
-2.183533459901809692e-01
-1.259140372276306152e-01
1.632406413555145264e-01
-7.831674069166183472e-02
-2.470289468765258789e-01
2.787838280200958252e-01
2.424633055925369263e-01
5.315621569752693176e-02
-1.604460328817367554e-01
2.349098175764083862e-01
-3.375866264104843140e-02
6.351993978023529053e-02
9.723174571990966797e-02
-2.175890654325485229e-02
2.373337000608444214e-01
6.820406019687652588e-02
-4.094935953617095947e-01
-1.674266755580902100e-01
3.303526341915130615e-01
-7.452350854873657227e-02
-5.553215742111206055e-02
-2.742790281772613525e-01
-9.344092756509780884e-02
3.204862177371978760e-01
-1.687025576829910278e-01
-3.054667115211486816e-01
1.830208003520965576e-01
8.669820427894592285e-02
-2.850373685359954834e-01
1.818443536758422852e-01
-3.103232756257057190e-02
-2.998796105384826660e-01
1.444132924079895020e-01
-1.129201147705316544e-02
6.640860438346862793e-02
3.744790330529212952e-02
-1.704193949699401855e-01
1.153100654482841492e-02
1.601546406745910645e-01
-2.829338014125823975e-01
8.370016515254974365e-02
5.040407180786132812e-02
-2.903196811676025391e-01
5.950673297047615051e-02
-3.182075321674346924e-01
-1.332930624485015869e-01
2.212354242801666260e-01
1.791660040616989136e-01
2.114889621734619141e-01
-2.898851335048675537e-01
1.446649730205535889e-01
-2.280171513557434082e-01
6.652984302490949631e-03
-1.144641265273094177e-01
3.244580700993537903e-02
-2.835632860660552979e-01
-1.964737027883529663e-01
2.388821244239807129e-01
6.116873398423194885e-02
-1.087380349636077881e-01
-6.933443248271942139e-02
9.168757498264312744e-02
2.041826397180557251e-01
-2.193903326988220215e-01
7.577247172594070435e-02
1.762367933988571167e-01
6.506557576358318329e-03
1.938349902629852295e-01
2.011406421661376953e-01
2.049808055162429810e-01
-2.667296826839447021e-01
6.074398290365934372e-03
-2.034370005130767822e-01
-3.190284967422485352e-02
1.517023444175720215e-01
-8.018954843282699585e-02
1.251932829618453979e-01
-2.813715487718582153e-02
1.791256852447986603e-02
-2.421634085476398468e-02
-2.432016432285308838e-01
2.337383776903152466e-01
-1.899948567152023315e-01
2.326194345951080322e-01
-1.106454730033874512e-01
2.342774271965026855e-01
1.552741974592208862e-01
-2.639010734856128693e-02
1.546849613077938557e-03
-2.081831544637680054e-01
-2.862501330673694611e-02
-4.445095360279083252e-02
-1.514507643878459930e-02
2.335680723190307617e-01
-6.144437938928604126e-02
1.488022208213806152e-01
1.939144879579544067e-01
4.185952246189117432e-03
-5.972388014197349548e-02
1.162126585841178894e-01
1.587653011083602905e-01
1.455495357513427734e-01
1.295532137155532837e-01
1.267242617905139923e-02
2.186308503150939941e-01
-5.241394415497779846e-02
-1.891939938068389893e-01
-1.926281402120366693e-04
2.718516588211059570e-01
-7.217368483543395996e-02
1.432468742132186890e-01
2.402084022760391235e-01
-2.370967902243137360e-02
1.582856774330139160e-01
-1.013850513845682144e-02
-2.809180319309234619e-01
2.259388715028762817e-01
1.216833665966987610e-01
-1.712909042835235596e-01
2.110853493213653564e-01
1.714135557413101196e-01
1.906419917941093445e-02
-3.721319139003753662e-02
-1.440524607896804810e-01
-1.665103137493133545e-01
-1.938776373863220215e-01
1.304448395967483521e-02
-4.986852779984474182e-02
5.846415832638740540e-02
1.132715791463851929e-01
-4.401918873190879822e-02
6.070220842957496643e-02
1.386413276195526123e-01
-1.009554490447044373e-01
-1.645838469266891479e-01
-5.656660068780183792e-03
1.675016134977340698e-01
-1.782624423503875732e-01
1.443495452404022217e-01
-6.632158160209655762e-02
-1.568212509155273438e-01
-2.228298969566822052e-02
-1.548438519239425659e-01
-9.570921771228313446e-03
1.273394655436277390e-02
1.400146037340164185e-01
-1.002445220947265625e-01
1.917375624179840088e-02
2.056948244571685791e-01
3.417896851897239685e-02
1.956872493028640747e-01
-1.933597773313522339e-01
-1.168774440884590149e-02
-1.983865723013877869e-02
-2.654753625392913818e-01
-2.996282093226909637e-02
1.687620431184768677e-01
-1.365277767181396484e-01
2.786446809768676758e-01
3.189398720860481262e-02
-1.089655607938766479e-02
-6.232357770204544067e-02
-7.361184805631637573e-02
-2.123843729496002197e-01
1.249692514538764954e-01
-1.601600646972656250e-01
-1.655516475439071655e-01
4.164245724678039551e-02
-2.452632635831832886e-01
-2.425396591424942017e-01
1.418694853782653809e-01
-1.065834164619445801e-01
-2.584153972566127777e-02
2.576274098828434944e-03
-2.544288933277130127e-01
-1.162155270576477051e-01
-2.203663624823093414e-02
2.092227786779403687e-01
-2.262542396783828735e-01
9.412574023008346558e-02
-2.316556572914123535e-01
2.607145607471466064e-01
-7.561191171407699585e-02
1.563527435064315796e-01
1.860907524824142456e-01
-6.307639181613922119e-02
-1.478758305311203003e-01
1.952962577342987061e-01
-1.452611386775970459e-02
-7.972735911607742310e-02
-2.827562689781188965e-01
6.816775351762771606e-02
-3.709469139575958252e-01
-1.936598569154739380e-01
2.118244618177413940e-01
-8.208632469177246094e-02
-2.376074939966201782e-01
-6.822454929351806641e-02
2.638660669326782227e-01
-1.258275657892227173e-01
2.129079252481460571e-01
2.968263924121856689e-01
-7.166318595409393311e-02
2.606183588504791260e-01
-5.091198086738586426e-01
1.563481986522674561e-02
-2.355792224407196045e-01
2.704861760139465332e-02
2.554708421230316162e-01
-4.803469404578208923e-02
1.951325684785842896e-01
-1.386952549219131470e-01
5.346180498600006104e-02
-3.387134075164794922e-01
-1.173117849975824356e-02
-5.109711736440658569e-02
-1.535161435604095459e-01
2.947205305099487305e-01
-4.132216796278953552e-02
2.774946987628936768e-01
1.210976615548133850e-01
-3.128357529640197754e-01
2.673093378543853760e-01
-6.808960437774658203e-02
-1.591281145811080933e-01
2.402306199073791504e-01
1.491285711526870728e-01
1.145115122199058533e-01
-2.125863730907440186e-02
-2.420291751623153687e-01
-2.224692255258560181e-01
1.222918927669525146e-01
-5.345697514712810516e-03
1.538295000791549683e-01
9.808428585529327393e-02
2.790146172046661377e-01
-2.015806734561920166e-01
2.667332291603088379e-01
-6.272492557764053345e-02
-1.406236141920089722e-01
1.934820562601089478e-01
-2.098790854215621948e-01
2.611631155014038086e-01
2.240565717220306396e-01
-2.763819694519042969e-01
-2.308200150728225708e-01
7.454338669776916504e-02
-2.471438497304916382e-01
-1.269511580467224121e-01
1.325934678316116333e-01
2.106530815362930298e-01
4.671884328126907349e-02
1.339764334261417389e-02
2.259177118539810181e-01
2.075721323490142822e-01
-1.370617933571338654e-02
-1.313247382640838623e-01
-2.067641317844390869e-01
2.190397866070270538e-02
-1.948306858539581299e-01
-3.038666844367980957e-01
2.039789855480194092e-01
9.662982821464538574e-02
2.330065518617630005e-01
-2.241122573614120483e-01
1.416820883750915527e-01
-1.312019824981689453e-01
1.878122240304946899e-01
3.264590501785278320e-01
-3.012158274650573730e-01
5.473744124174118042e-02
1.189833879470825195e-01
-4.096789360046386719e-01
-3.591756820678710938e-01
2.774276733398437500e-01
-6.911094486713409424e-02
-3.357371091842651367e-01
-8.730535954236984253e-02
-2.984835505485534668e-01
2.495840638875961304e-01
-3.033397197723388672e-01
-4.728706553578376770e-02
1.806515008211135864e-01
1.240871548652648926e-01
-1.904867589473724365e-02
2.463305145502090454e-01
-9.838675707578659058e-02
-3.066907525062561035e-01
2.968634366989135742e-01
2.213551104068756104e-01
6.960200518369674683e-02
1.690908521413803101e-01
-3.170849978923797607e-01
1.874644309282302856e-01
2.300586849451065063e-01
5.415835417807102203e-03
1.519654989242553711e-01
2.845540642738342285e-01
-1.236315518617630005e-01
1.417316049337387085e-01
-8.867439627647399902e-02
-3.820617124438285828e-02
3.024163544178009033e-01
2.178902328014373779e-01
1.167079340666532516e-02
-2.758506238460540771e-01
7.516836374998092651e-02
4.258919879794120789e-02
6.358297169208526611e-02
-2.486491352319717407e-01
1.344594061374664307e-01
-3.523790240287780762e-01
-2.504417002201080322e-01
-1.885627955198287964e-01
1.052297279238700867e-02
2.213146984577178955e-01
1.760689914226531982e-01
-2.437500357627868652e-01
-1.487936526536941528e-01
1.152354627847671509e-01
-2.521031200885772705e-01
-2.475757300853729248e-01
2.714398205280303955e-01
8.052470535039901733e-02
-1.483923494815826416e-01
-1.622431278228759766e-01
2.647897303104400635e-01
-1.688166111707687378e-01
2.939898073673248291e-01
2.632412593811750412e-03
-2.966630458831787109e-02
4.551178310066461563e-03
-1.520618647336959839e-01
5.531454831361770630e-02
-7.054638862609863281e-02
2.059884816408157349e-01
1.037232354283332825e-01
-1.373108476400375366e-01
1.439336389303207397e-01
5.007429048418998718e-02
2.609982192516326904e-01
-2.614354528486728668e-02
-1.795433610677719116e-01
-2.589537203311920166e-01
-1.759824156761169434e-01
1.958403438329696655e-01
-4.732404835522174835e-03
2.687439918518066406e-01
3.451012540608644485e-03
-1.180211529135704041e-01
4.252025485038757324e-02
-1.965876817703247070e-01
-2.757588028907775879e-01
1.808052211999893188e-01
1.379971057176589966e-01
1.761709572747349739e-03
9.097618609666824341e-02
-1.934644728899002075e-01
-8.117622137069702148e-02
2.435142919421195984e-02
-1.541108936071395874e-01
1.723619997501373291e-01
6.658898293972015381e-02
1.172596514225006104e-01
-1.452544331550598145e-01
1.954644173383712769e-01
-1.907813698053359985e-01
-2.428546845912933350e-01
1.676328331232070923e-01
-1.886780411005020142e-01
1.773917376995086670e-01
1.291578859090805054e-01
-2.530798316001892090e-01
-2.029001116752624512e-01
1.624479442834854126e-01
-3.921773657202720642e-02
-2.304406762123107910e-01
2.741879820823669434e-01
-1.037502288818359375e-01
5.534101650118827820e-02
1.363173872232437134e-01
6.285561621189117432e-02
1.010876074433326721e-01
1.692721992731094360e-01
-2.371218800544738770e-01
-7.092177122831344604e-02
2.155400812625885010e-02
1.532155741006135941e-02
-1.169120445847511292e-01
4.564138874411582947e-02
2.259194552898406982e-01
1.348809450864791870e-01
-1.304148286581039429e-01
5.931204557418823242e-02
-1.677245795726776123e-01
2.629435434937477112e-02
1.142482087016105652e-02
-3.316543623805046082e-02
-1.716933771967887878e-02
1.646228432655334473e-01
-1.502270400524139404e-01
-1.084917336702346802e-01
1.713917404413223267e-01
-1.366756260395050049e-01
-1.625574380159378052e-01
-1.808339506387710571e-01
-2.758159339427947998e-01
2.549058794975280762e-01
-2.710073590278625488e-01
-7.586849480867385864e-02
2.576313018798828125e-01
2.271914184093475342e-01
-2.241364568471908569e-01
2.144283987581729889e-02
-7.404617220163345337e-02
-3.190337717533111572e-01
1.470474153757095337e-01
2.141891717910766602e-01
1.323988586664199829e-01
3.367325756698846817e-03
-1.317650917917490005e-02
1.582856327295303345e-01
2.029613852500915527e-01
1.066912198439240456e-03
1.095649600028991699e-01
9.347361326217651367e-02
-6.953777372837066650e-02
7.730903569608926773e-03
-2.619045972824096680e-01
-1.443015635013580322e-01
1.681280732154846191e-01
5.728291347622871399e-02
-2.304856851696968079e-02
-1.294537335634231567e-01
1.341764070093631744e-02
-1.479754894971847534e-01
3.696610778570175171e-02
-2.842897772789001465e-01
2.542781829833984375e-01
-2.109512686729431152e-01
-1.666803956031799316e-01
1.436512917280197144e-01
2.952742576599121094e-01
-5.013370141386985779e-02
-1.286630630493164062e-01
1.455909460783004761e-01
1.912032067775726318e-01
-1.660849303007125854e-01
1.202852502465248108e-01
2.817895710468292236e-01
-5.334735289216041565e-02
1.931439042091369629e-01
2.416434735059738159e-01
1.364039033651351929e-01
-4.407698754221200943e-03
1.055539846420288086e-01
-1.229153499007225037e-01
-2.103934437036514282e-02
1.417310833930969238e-01
-1.068975999951362610e-01
7.002159953117370605e-02
-2.858703434467315674e-01
1.001327484846115112e-01
-1.082303896546363831e-01
-1.993275284767150879e-01
1.284304857254028320e-01
-5.925932526588439941e-02
2.476498037576675415e-01
-1.699698716402053833e-01
1.605576835572719574e-02
7.830445468425750732e-02
1.305406540632247925e-01
1.579468399286270142e-01
-1.302132010459899902e-01
-3.610888496041297913e-03
-2.646993398666381836e-01
-1.403273493051528931e-01
1.295803487300872803e-01
-1.520025730133056641e-01
1.716367006301879883e-01
1.750035881996154785e-01
-2.934773564338684082e-01
-2.529911994934082031e-01
1.219557002186775208e-01
9.404154866933822632e-02
1.023376360535621643e-01
8.672163821756839752e-03
-1.309462487697601318e-01
2.597301267087459564e-02
-2.925191521644592285e-01
-2.989125251770019531e-01
-2.033891677856445312e-01
6.264124810695648193e-02
-2.812647521495819092e-01
2.945533692836761475e-01
2.566442787647247314e-01
-4.955659806728363037e-02
2.622619867324829102e-01
-2.263897210359573364e-01
-1.516558527946472168e-01
2.373091578483581543e-01
6.295739859342575073e-02
-2.591383457183837891e-01
1.717132180929183960e-01
2.524022459983825684e-01
-2.918414473533630371e-01
-2.186837792396545410e-01
-1.029985025525093079e-01
6.288251839578151703e-03
-1.269362866878509521e-01
-1.149272471666336060e-01
-2.917167544364929199e-01
2.559642791748046875e-01
2.074389159679412842e-01
-4.901585727930068970e-02
6.219170987606048584e-02
7.932412624359130859e-02
-2.868073582649230957e-01
-1.358368247747421265e-01
-3.450579568743705750e-02
9.938410669565200806e-02
-1.158252432942390442e-01
3.251760080456733704e-02
-1.045952066779136658e-01
-1.968605518341064453e-01
2.200989872217178345e-01
-7.310788333415985107e-02
-4.850370343774557114e-03
5.320369452238082886e-02
2.138137817382812500e-01
-1.564694344997406006e-01
1.746880859136581421e-01
1.538189649581909180e-01
9.697543084621429443e-02
1.071073394268751144e-02
-2.353531122207641602e-01
2.539037466049194336e-01
1.781874746084213257e-01
-4.982815310359001160e-02
-1.575177758932113647e-01
1.264644116163253784e-01
-1.573926210403442383e-01
1.784647405147552490e-01
-3.870091866701841354e-03
-1.019551679491996765e-01
-1.158538833260536194e-01
-4.610193520784378052e-02
-1.420952230691909790e-01
2.016863822937011719e-01
-2.724359035491943359e-01
-1.647785454988479614e-01
1.957943290472030640e-01
-1.841377913951873779e-01
-1.799637228250503540e-01
1.355736553668975830e-01
-1.468560099601745605e-01
7.713988423347473145e-02
1.969758868217468262e-01
-2.929539680480957031e-01
-8.709759265184402466e-02
-6.990008801221847534e-02
1.071343347430229187e-01
-1.615092903375625610e-01
8.198402822017669678e-02
-1.724822372198104858e-01
1.614944823086261749e-02
-1.438823789358139038e-01
1.793064177036285400e-01
2.178303599357604980e-01
-1.750307381153106689e-01
-1.279534865170717239e-02
8.510100096464157104e-02
1.165865287184715271e-01
-7.342080771923065186e-02
-2.402604967355728149e-01
1.138430684804916382e-01
-5.231510400772094727e-01
-1.750769615173339844e-01
1.899826377630233765e-01
4.603153467178344727e-02
-1.093715876340866089e-01
-1.620222628116607666e-01
2.426620572805404663e-01
-1.278619170188903809e-01
1.108181998133659363e-01
1.588901132345199585e-01
-3.474999666213989258e-01
2.639409303665161133e-01
-2.363284528255462646e-01
1.762498766183853149e-01
-3.094345331192016602e-01
2.616932094097137451e-01
2.297604829072952271e-01
-8.341506868600845337e-02
2.962088286876678467e-01
-5.982097238302230835e-02
2.558893524110317230e-02
-2.587215900421142578e-01
-1.798113435506820679e-01
-3.527347445487976074e-01
-2.923354506492614746e-01
1.964436620473861694e-01
6.092512980103492737e-02
3.164030313491821289e-01
2.365842312574386597e-01
-3.208481967449188232e-01
1.267615258693695068e-01
-3.260879814624786377e-01
-1.004098355770111084e-01
3.328145742416381836e-01
2.659322917461395264e-01
1.016267947852611542e-02
-1.104651242494583130e-01
-5.750931054353713989e-02
-6.190026178956031799e-02
1.675429493188858032e-01
-1.041533611714839935e-02
2.442365288734436035e-01
1.156813874840736389e-01
7.814440131187438965e-02
-3.239859938621520996e-01
2.181775569915771484e-01
-1.085171699523925781e-01
-1.253048479557037354e-01
1.616361737251281738e-01
-2.242982983589172363e-01
2.738630473613739014e-01
2.375262528657913208e-01
-1.793985515832901001e-01
-1.597439125180244446e-02
1.593947857618331909e-01
-3.035081028938293457e-01
-1.995784491300582886e-01
9.700107574462890625e-02
1.960767060518264771e-01
2.218241989612579346e-01
5.283445864915847778e-02
2.377930432558059692e-01
2.943120598793029785e-01
9.069860726594924927e-02
-7.340791821479797363e-02
-1.645205616950988770e-01
6.332830339670181274e-02
-2.220379114151000977e-01
-6.987266242504119873e-02
2.501746714115142822e-01
2.457347363233566284e-01
9.550736844539642334e-02
-2.874164879322052002e-01
1.605981290340423584e-01
-9.099441766738891602e-02
3.083738870918750763e-02
1.678174138069152832e-01
-7.892720401287078857e-02
1.819778829813003540e-01
2.572058141231536865e-01
-2.001233249902725220e-01
-2.514843046665191650e-01
2.700327038764953613e-01
-2.421107739210128784e-01
-1.974983513355255127e-01
-1.307718604803085327e-01
-9.905392676591873169e-02
1.084237247705459595e-01
-2.929981946945190430e-01
-1.404353529214859009e-01
2.970233559608459473e-01
1.872049570083618164e-01
-9.190568327903747559e-02
1.463219076395034790e-01
-3.536062780767679214e-03
-1.183172166347503662e-01
7.412168383598327637e-02
2.862968146800994873e-01
2.795740216970443726e-02
1.598439365625381470e-01
-2.062608003616333008e-01
2.890834510326385498e-01
1.586509793996810913e-01
-1.947845146059989929e-02
2.442360222339630127e-01
9.019533544778823853e-02
-1.918101459741592407e-01
2.374208867549896240e-01
-2.081721276044845581e-01
-2.147056609392166138e-01
1.604773402214050293e-01
2.363244593143463135e-01
2.030634433031082153e-01
-1.895671635866165161e-01
8.933255821466445923e-02
1.661157049238681793e-02
1.027158200740814209e-01
-2.064861059188842773e-01
3.818652406334877014e-02
-1.710325032472610474e-01
-6.249711290001869202e-02
1.854033619165420532e-01
2.609932720661163330e-01
-1.880979984998703003e-01
-1.985520273447036743e-01
9.700355678796768188e-02
8.767741173505783081e-02
-2.650882899761199951e-01
2.446250170469284058e-01
3.010667562484741211e-01
-9.376664459705352783e-02
2.563493251800537109e-01
1.042195111513137817e-01
1.040451154112815857e-01
-1.084580421447753906e-01
2.381491214036941528e-01
-2.188754230737686157e-01
-2.401965856552124023e-01
1.658830046653747559e-01
-2.639267742633819580e-01
4.290286824107170105e-02
-1.592867821455001831e-01
6.114266812801361084e-02
-1.479233354330062866e-01
-1.955312043428421021e-01
2.081874459981918335e-01
-2.749806642532348633e-01
2.056614458560943604e-01
-2.305758744478225708e-01
4.006877914071083069e-02
1.867412924766540527e-01
1.425583064556121826e-01
8.520861715078353882e-02
-1.447374969720840454e-01
-2.267657518386840820e-01
-2.383406609296798706e-01
-2.018183022737503052e-01
3.008376359939575195e-01
-1.965796351432800293e-01
9.893897175788879395e-02
1.644648909568786621e-01
-2.161615937948226929e-01
-1.773882359266281128e-01
1.153803244233131409e-01
9.305454790592193604e-02
8.993355184793472290e-02
9.041950106620788574e-02
-2.144213169813156128e-01
2.636923827230930328e-02
-3.198675811290740967e-01
-2.631862461566925049e-01
-2.869501411914825439e-01
2.550866305828094482e-01
-2.392208725214004517e-01
2.612867653369903564e-01
2.133280634880065918e-01
-2.978427410125732422e-01
1.944797337055206299e-01
-2.424605786800384521e-01
-1.347210258245468140e-01
1.358815729618072510e-01
2.222668081521987915e-01
-3.004281520843505859e-01
1.327955722808837891e-01
1.875176578760147095e-01
-2.992805838584899902e-01
-1.559598743915557861e-01
-1.597247719764709473e-01
-1.211233809590339661e-01
-2.514124810695648193e-01
-1.498559713363647461e-01
-2.994359657168388367e-02
2.492673546075820923e-01
2.379499971866607666e-01
-7.778181135654449463e-02
2.018128931522369385e-01
7.761730998754501343e-02
-2.910182178020477295e-01
-3.189396262168884277e-01
-5.416601523756980896e-02
1.967029869556427002e-01
-2.452062070369720459e-01
4.249002411961555481e-02
-1.158798858523368835e-01
-2.653751671314239502e-01
4.884995520114898682e-02
-3.239530324935913086e-02
-1.522624194622039795e-01
6.368429213762283325e-02
1.200284585356712341e-01
-3.274718821048736572e-01
1.977483332157135010e-01
1.767817288637161255e-01
2.400139123201370239e-01
9.209641814231872559e-02
-1.981527954339981079e-01
8.062296360731124878e-02
6.766850501298904419e-02
-1.544840037822723389e-01
-2.190883271396160126e-02
2.358469218015670776e-01
-2.817263305187225342e-01
6.636119633913040161e-02
3.136923313140869141e-01
-6.303826719522476196e-02
-2.430302202701568604e-01
-2.056711763143539429e-01
-3.176630139350891113e-01
6.438359618186950684e-02
-1.626905053853988647e-01
-1.376338005065917969e-01
3.026985526084899902e-01
-8.034695684909820557e-02
-2.129003852605819702e-01
2.832050621509552002e-01
-5.396612361073493958e-02
3.079464435577392578e-01
4.402076452970504761e-02
-1.810132414102554321e-01
-3.395239710807800293e-01
-2.342712879180908203e-01
1.994901895523071289e-01
-5.846013873815536499e-02
1.023684740066528320e-01
-1.298638284206390381e-01
3.033601641654968262e-01
-3.102189004421234131e-01
1.090004369616508484e-01
3.180519938468933105e-01
1.833198219537734985e-01
6.874129176139831543e-02
-2.226261198520660400e-01
-1.686572730541229248e-01
1.079650148749351501e-01
2.191539555788040161e-01
-3.390724062919616699e-01
1.468568742275238037e-01
2.385102659463882446e-01
-2.394652813673019409e-01
1.453951299190521240e-01
2.370693981647491455e-01
5.171513557434082031e-02
-2.506998479366302490e-01
1.452435255050659180e-01
-4.197466745972633362e-02
-2.459690719842910767e-01
2.738296687602996826e-01
-8.921251446008682251e-02
2.643482089042663574e-01
-1.702468395233154297e-01
6.777609139680862427e-02
-1.995493173599243164e-01
-1.979517340660095215e-01
7.262387871742248535e-02
-2.935782372951507568e-01
1.751877963542938232e-01
-3.355513215065002441e-01
1.284301280975341797e-01
3.191139400005340576e-01
1.844564527273178101e-01
2.017876058816909790e-01
-2.360061705112457275e-01
-1.646155267953872681e-01
-2.515016794204711914e-01
-1.571293622255325317e-01
2.903205752372741699e-01
-8.296401053667068481e-02
2.212335765361785889e-01
2.775748074054718018e-01
-3.314962387084960938e-01
-2.459074556827545166e-01
8.799255639314651489e-02
1.163746342062950134e-01
1.614245474338531494e-01
9.643476456403732300e-02
-3.140790760517120361e-01
3.314262032508850098e-01
-2.304947674274444580e-01
-7.334808260202407837e-02
-3.419532179832458496e-01
9.165244549512863159e-02
-2.865683734416961670e-01
2.234863191843032837e-01
7.106986641883850098e-02
-3.317165970802307129e-01
2.728067934513092041e-01
-2.428438961505889893e-01
-1.429511606693267822e-01
2.717556953430175781e-01
2.477628588676452637e-01
-2.712452411651611328e-01
2.852507531642913818e-01
6.890048831701278687e-02
-2.233480811119079590e-01
-1.405939608812332153e-01
-2.718329727649688721e-01
-2.960162460803985596e-01
-1.489415019750595093e-01
-9.195166081190109253e-02
-3.069485723972320557e-01
2.902799844741821289e-01
2.344973236322402954e-01
-1.031167060136795044e-01
4.464343562722206116e-02
3.375214934349060059e-01
-2.203394174575805664e-01
-3.253088593482971191e-01
-2.811608314514160156e-01
1.671334505081176758e-01
-1.749155670404434204e-01
2.482974678277969360e-01
-1.402133703231811523e-01
-2.728840410709381104e-01
1.327636837959289551e-01
-1.911099702119827271e-01
-1.458284258842468262e-01
2.675884366035461426e-01
9.874340146780014038e-02
-2.029953747987747192e-01
3.205386102199554443e-01
5.252756178379058838e-02
1.354791969060897827e-01
3.451118767261505127e-01
-1.003020256757736206e-01
2.692180573940277100e-01
3.276175558567047119e-01
-1.792067140340805054e-01
-6.480300426483154297e-02
4.469742625951766968e-02
-3.389016687870025635e-01
1.567555218935012817e-01
3.298962116241455078e-01
-1.881259083747863770e-01
-8.962313085794448853e-02
-2.898644506931304932e-01
-2.680439054965972900e-01
1.099618747830390930e-01
-1.579468548297882080e-01
-3.099459111690521240e-01
1.774325072765350342e-01
-1.035592108964920044e-01
-9.199795126914978027e-02
2.767203748226165771e-01
-3.034736216068267822e-01
1.451243013143539429e-01
4.564130306243896484e-02
-2.777791321277618408e-01
-1.162392422556877136e-01
-4.845521226525306702e-02
3.543686121702194214e-02
-1.649727672338485718e-01
2.473265677690505981e-01
-1.378260701894760132e-01
1.786448657512664795e-01
-5.630125477910041809e-02
2.677484154701232910e-01
1.723235994577407837e-01
1.080195456743240356e-01
1.372095793485641479e-01
-1.584095358848571777e-01
-2.321572452783584595e-01
2.347996681928634644e-01
1.888866275548934937e-01
-1.724945455789566040e-01
4.695560783147811890e-02
-1.337765809148550034e-02
-2.478906959295272827e-01
1.631210446357727051e-01
1.617467589676380157e-02
3.281640261411666870e-02
-1.644772440195083618e-01
2.960242927074432373e-01
-2.543599605560302734e-01
-1.065618321299552917e-01
7.610823214054107666e-02
-5.590041726827621460e-02
4.436331987380981445e-02
-4.917549714446067810e-02
2.287530004978179932e-01
-2.407009005546569824e-01
-2.838818430900573730e-01
2.670358121395111084e-01
-2.958192527294158936e-01
2.431048899888992310e-01
-2.367577850818634033e-01
2.550094723701477051e-01
5.659934878349304199e-02
2.800990641117095947e-01
2.199774682521820068e-01
-1.705369502305984497e-01
-1.300195902585983276e-01
-1.565590202808380127e-01
-2.072321772575378418e-01
6.891646981239318848e-02
-1.903581321239471436e-01
2.111538946628570557e-01
1.079743504524230957e-01
-2.930926978588104248e-01
-2.140334695577621460e-01
-2.842941507697105408e-02
2.236412838101387024e-02
1.052426919341087341e-02
1.976410001516342163e-01
-2.957431077957153320e-01
2.071672976016998291e-01
-8.617556095123291016e-02
-1.767288297414779663e-01
-3.942904621362686157e-02
9.859681129455566406e-02
-4.756386578083038330e-02
8.692983537912368774e-02
2.027774900197982788e-01
-8.884652704000473022e-02
2.148241363465785980e-02
-4.006211087107658386e-02
-6.804173439741134644e-02
1.250853091478347778e-01
1.027605459094047546e-01
-1.550421118736267090e-01
1.115354746580123901e-01
2.877627611160278320e-01
-1.876559257507324219e-01
-1.351230293512344360e-01
-2.556414604187011719e-01
-1.469315439462661743e-01
-9.045504778623580933e-02
-1.308812294155359268e-03
-1.395005136728286743e-01
2.046799063682556152e-01
3.884213278070092201e-03
-2.178436517715454102e-01
9.338675439357757568e-02
2.650636136531829834e-01
-2.123974077403545380e-02
-1.973670907318592072e-02
-1.576805412769317627e-01
1.511202007532119751e-01
-3.218509256839752197e-02
1.055984571576118469e-01
-2.057636678218841553e-01
-1.330883055925369263e-01
2.643081843852996826e-01
-1.094454824924468994e-01
-1.678990572690963745e-01
4.567761346697807312e-02
8.547727763652801514e-02
-4.232473298907279968e-02
2.237130552530288696e-01
1.667389273643493652e-01
3.697328269481658936e-02
9.422688186168670654e-02
-1.071760132908821106e-01
2.391342520713806152e-01
4.199679568409919739e-02
-3.982063755393028259e-02
-2.350040376186370850e-01
1.913630068302154541e-01
-1.230214312672615051e-01
3.684219717979431152e-02
1.535466909408569336e-01
-6.114731356501579285e-02
-1.474358737468719482e-01
-4.381527379155158997e-02
-6.173573061823844910e-02
2.157502025365829468e-01
-1.507820188999176025e-02
1.753847580403089523e-03
2.797391414642333984e-01
-2.206814140081405640e-01
-2.642689645290374756e-01
8.796806447207927704e-03
-1.210508048534393311e-01
2.466580718755722046e-01
7.807627320289611816e-02
-1.198248267173767090e-01
-1.376293003559112549e-01
-5.818007141351699829e-02
-5.204288754612207413e-03
-3.293854743242263794e-02
1.659454852342605591e-01
-2.781302034854888916e-01
1.177089959383010864e-01
-6.571468710899353027e-02
2.435197681188583374e-01
2.870974838733673096e-01
1.257561147212982178e-01
3.515330702066421509e-02
-2.128171622753143311e-01
-1.573744267225265503e-01
2.641232013702392578e-01
1.016496419906616211e-01
-1.679792851209640503e-01
2.879223525524139404e-01
1.819490194320678711e-01
-1.270181089639663696e-01
5.098349228501319885e-02
2.529419958591461182e-01
9.385813772678375244e-02
-3.127460777759552002e-01
4.391825944185256958e-02
-7.086931169033050537e-02
-1.337577402591705322e-01
1.917603909969329834e-01
-2.194297611713409424e-01
1.142048463225364685e-01
-1.827744394540786743e-01
1.783038079738616943e-01
-1.296105086803436279e-01
-1.265277862548828125e-01
2.860232591629028320e-01
-2.369436770677566528e-01
2.204613387584686279e-01
-1.136238873004913330e-01
2.287108749151229858e-01
1.511003524065017700e-01
1.154544055461883545e-01
6.521303206682205200e-02
-2.308973222970962524e-01
-1.098955795168876648e-01
-1.205973401665687561e-01
-2.700102925300598145e-01
2.003728598356246948e-01
-2.180292159318923950e-01
2.796781957149505615e-01
5.386421456933021545e-02
-1.712440699338912964e-01
-2.808370590209960938e-01
1.093075722455978394e-01
1.735144406557083130e-01
1.623590290546417236e-01
2.977498173713684082e-01
-2.459452450275421143e-01
1.324119269847869873e-01
-3.184072077274322510e-01
-2.644356489181518555e-01
-2.342734932899475098e-01
3.261465430259704590e-01
-1.797284930944442749e-01
2.528095543384552002e-01
6.673464179039001465e-02
-1.401366889476776123e-01
2.087731063365936279e-01
-3.696228563785552979e-02
-2.160999774932861328e-01
1.390563249588012695e-01
8.725359290838241577e-02
-1.231844648718833923e-01
2.877454757690429688e-01
2.521312534809112549e-01
-9.479559212923049927e-02
-6.317792832851409912e-02
-2.563561797142028809e-01
-2.091124206781387329e-01
-2.219256907701492310e-01
-3.266705274581909180e-01
-1.471575945615768433e-01
1.803562641143798828e-01
2.255801111459732056e-01
-2.013876289129257202e-01
2.177981659770011902e-02
3.258205056190490723e-01
-2.406328916549682617e-01
-2.908253371715545654e-01
-1.701914519071578979e-01
5.493906140327453613e-02
-1.233259961009025574e-01
3.473497927188873291e-02
-7.134278863668441772e-02
-1.747417151927947998e-01
9.796921163797378540e-02
-2.204510569572448730e-01
-7.441114634275436401e-02
1.234052926301956177e-01
2.466170638799667358e-01
-2.286560833454132080e-01
1.888160556554794312e-01
6.043315306305885315e-02
3.133827745914459229e-01
2.567006051540374756e-01
-3.295658230781555176e-01
8.306630700826644897e-02
1.595191210508346558e-01
-2.905299067497253418e-01
-9.494361281394958496e-02
1.202777773141860962e-01
-2.258286625146865845e-01
2.806061208248138428e-01
3.019487857818603516e-01
-2.425602823495864868e-01
-2.331501245498657227e-01
-2.594851553440093994e-01
-1.969766914844512939e-01
1.272383034229278564e-01
-2.199517637491226196e-01
-1.354764103889465332e-01
1.440001130104064941e-01
-1.475184708833694458e-01
-2.960627377033233643e-01
3.938315063714981079e-02
-3.036117255687713623e-01
1.830645799636840820e-01
4.838795959949493408e-02
-8.715731650590896606e-02
-2.408928871154785156e-01
-1.795326620340347290e-01
2.936536967754364014e-01
-6.111004203557968140e-02
1.314578652381896973e-01
-2.023200243711471558e-01
2.432381808757781982e-01
-1.037748754024505615e-01
1.558241546154022217e-01
1.808700710535049438e-01
2.357095293700695038e-02
1.861310750246047974e-01
-3.040453493595123291e-01
-7.095719873905181885e-02
2.345181852579116821e-01
1.945696887560188770e-03
-7.899650931358337402e-02
6.222398579120635986e-02
2.352605611085891724e-01
-1.285003721714019775e-01
7.707577198743820190e-02
2.014989256858825684e-01
8.188586682081222534e-02
-2.734129428863525391e-01
1.466351598501205444e-01
-2.630788683891296387e-01
-1.332098841667175293e-01
2.406094670295715332e-01
-8.631727099418640137e-02
-1.346337608993053436e-02
-8.280608057975769043e-02
1.078695878386497498e-01
-5.086271464824676514e-02
-2.489860169589519501e-02
1.026531308889389038e-01
-3.187419176101684570e-01
2.375525087118148804e-01
-9.085050970315933228e-02
1.743933409452438354e-01
1.699571907520294189e-01
2.935188710689544678e-01
2.422887235879898071e-01
-2.274417430162429810e-01
-2.672572731971740723e-01
-1.953193098306655884e-01
-1.178010925650596619e-01
3.252017498016357422e-01
-6.967150419950485229e-02
1.891069561243057251e-01
1.919478774070739746e-01
-2.918940596282482147e-02
-1.958587020635604858e-01
7.709144148975610733e-03
-1.489402353763580322e-01
1.625943183898925781e-01
1.812563091516494751e-01
-3.177929818630218506e-01
2.120679914951324463e-01
-2.846257090568542480e-01
-2.894816696643829346e-01
-2.147235125303268433e-01
2.003844231367111206e-01
-3.168079853057861328e-01
2.497333586215972900e-01
4.985458031296730042e-02
-6.706112623214721680e-02
2.545638084411621094e-01
-4.102231934666633606e-02
-2.857810556888580322e-01
3.267373442649841309e-01
1.297669857740402222e-01
-8.064670115709304810e-02
2.761128246784210205e-01
1.117450818419456482e-01
-1.580148786306381226e-01
-1.669642776250839233e-01
-1.569780111312866211e-01
-3.757172450423240662e-02
-2.358496785163879395e-01
-3.207149803638458252e-01
-1.506693959236145020e-01
1.467562317848205566e-01
1.829782873392105103e-01
-8.225163817405700684e-02
2.890357077121734619e-01
2.359862327575683594e-01
-7.575833797454833984e-02
-2.949180454015731812e-02
-2.754968702793121338e-01
1.537050306797027588e-01
-3.172101974487304688e-01
8.605422079563140869e-02
-1.540797203779220581e-01
-2.884732484817504883e-01
2.483412176370620728e-01
-3.787527605891227722e-02
-2.577203810214996338e-01
1.974818557500839233e-01
9.058390557765960693e-02
-1.377603560686111450e-01
2.185075134038925171e-01
6.044413894414901733e-02
2.500436305999755859e-01
2.131126224994659424e-01
-5.391329526901245117e-02
3.070906102657318115e-01
3.117659389972686768e-01
-2.144677639007568359e-01
-1.840860545635223389e-01
2.243421822786331177e-01
-3.094955980777740479e-01
7.459421455860137939e-02
2.004166394472122192e-01
-3.041856586933135986e-01
-4.971224069595336914e-02
-2.410675883293151855e-01
-2.365675121545791626e-01
5.370109155774116516e-02
-1.450008600950241089e-01
-2.288563102483749390e-01
5.271657556295394897e-02
-2.655012309551239014e-01
-1.947990208864212036e-01
2.852599024772644043e-01
-2.786743044853210449e-01
8.413536846637725830e-02
2.623257637023925781e-01
-2.611561417579650879e-01
-1.669534742832183838e-01
-2.909154295921325684e-01
1.769821345806121826e-01
-2.063884437084197998e-01
1.701997816562652588e-01
-1.999687105417251587e-01
2.549443244934082031e-01
-2.314401119947433472e-01
1.346515566110610962e-01
1.853419244289398193e-01
2.106018513441085815e-01
3.024204969406127930e-01
-1.579955667257308960e-01
-4.560013860464096069e-02
1.314666122198104858e-01
6.882784515619277954e-02
-1.996263861656188965e-01
7.512382417917251587e-02
2.491870075464248657e-01
-2.429555654525756836e-01
2.368631213903427124e-01
3.123978376388549805e-01
2.067795246839523315e-01
-3.131568729877471924e-01
1.062927916646003723e-01
-1.231770887970924377e-01
-1.358655393123626709e-01
7.419068366289138794e-02
-2.670168131589889526e-02
2.011608779430389404e-01
-4.591970145702362061e-02
1.936831027269363403e-01
-1.014128699898719788e-01
-2.482855468988418579e-01
3.471280261874198914e-02
-1.036940738558769226e-01
1.952835470438003540e-01
-6.974660605192184448e-02
2.054813802242279053e-01
8.270426094532012939e-02
2.333764582872390747e-01
9.827074408531188965e-02
-2.195482105016708374e-01
-2.865044772624969482e-01
-3.067048490047454834e-01
-2.868776023387908936e-01
1.932118684053421021e-01
-2.308004721999168396e-02
1.625460535287857056e-01
2.201813906431198120e-01
-4.685824364423751831e-02
-3.105099126696586609e-02
1.034250557422637939e-01
-1.360566727817058563e-02
2.325906753540039062e-01
1.112538799643516541e-01
-2.555540502071380615e-01
1.662422418594360352e-01
-1.957219392061233521e-01
-2.351416833698749542e-02
-4.949331283569335938e-02
1.887181252241134644e-01
-1.600575894117355347e-01
2.236974984407424927e-01
2.243171036243438721e-01
-1.029569953680038452e-01
1.332209259271621704e-01
-2.622373104095458984e-01
-2.741563320159912109e-01
1.376716792583465576e-01
3.213876858353614807e-02
-1.113821491599082947e-01
1.298209428787231445e-01
2.725747227668762207e-01
-1.507531106472015381e-01
-2.547570466995239258e-01
-9.245879948139190674e-03
-9.469080716371536255e-02
-1.281079202890396118e-01
-2.760728895664215088e-01
-1.318257898092269897e-01
1.783130317926406860e-01
1.062183380126953125e-01
-7.567520439624786377e-02
1.363402307033538818e-01
2.607624232769012451e-01
-1.581014394760131836e-01
-1.293276548385620117e-01
-2.524569034576416016e-01
2.264432758092880249e-01
-2.226274013519287109e-01
1.168776005506515503e-01
-6.188788264989852905e-02
-1.252595782279968262e-01
2.757120430469512939e-01
-2.272163182497024536e-01
-9.723041951656341553e-02
1.728795021772384644e-01
7.403779774904251099e-02
-1.998496949672698975e-01
2.354254871606826782e-01
1.101696416735649109e-01
1.662973016500473022e-01
8.462822437286376953e-02
-5.792802572250366211e-02
2.179814130067825317e-01
1.212017461657524109e-01
-1.086943745613098145e-01
-2.773608565330505371e-01
1.072102263569831848e-01
-2.795361280441284180e-01
3.175520896911621094e-02
3.004771471023559570e-01
-1.344207227230072021e-01
-1.829082220792770386e-01
-3.685512021183967590e-02
-3.040109276771545410e-01
1.968249380588531494e-01
-3.303314000368118286e-02
-2.482967078685760498e-01
1.237329915165901184e-01
-2.880343496799468994e-01
-1.350609511137008667e-01
8.803024888038635254e-02
-7.183300703763961792e-02
1.418853402137756348e-01
2.816088199615478516e-01
-2.315745055675506592e-01
-1.514179855585098267e-01
-1.803334653377532959e-01
1.473298668861389160e-01
-1.822979301214218140e-01
1.344698220491409302e-01
-2.598288282752037048e-02
1.735844016075134277e-01
-2.345447838306427002e-01
1.356931328773498535e-01
7.832000404596328735e-02
1.075235009193420410e-01
1.855088472366333008e-01
-2.794270813465118408e-01
-2.125391662120819092e-01
2.900396287441253662e-01
1.544230282306671143e-01
-7.452719658613204956e-02
2.499022781848907471e-01
2.249709367752075195e-01
-1.861387044191360474e-01
4.709734767675399780e-02
7.063965499401092529e-02
1.866404861211776733e-01
-2.524613738059997559e-01
1.443575471639633179e-01
-1.238590553402900696e-01
-2.866323590278625488e-01
2.279881089925765991e-01
-7.062514126300811768e-02
1.330781131982803345e-01
-3.444636613130569458e-02
1.987060457468032837e-01
-2.095352299511432648e-02
-3.024224638938903809e-01
2.335135638713836670e-01
-8.067830651998519897e-02
2.280054390430450439e-01
-1.090181618928909302e-01
2.232122719287872314e-01
4.710953310132026672e-02
2.281251698732376099e-01
1.962275952100753784e-01
-1.923279762268066406e-01
-2.171982079744338989e-01
-2.200222313404083252e-01
-2.975663542747497559e-01
1.261569410562515259e-01
-1.233520284295082092e-01
1.977287083864212036e-01
5.186085402965545654e-02
-1.723028570413589478e-01
-9.005521982908248901e-02
2.611304819583892822e-02
-5.818848311901092529e-02
2.958709597587585449e-01
3.630586341023445129e-02
-2.095899730920791626e-01
1.646377891302108765e-01
-2.441975921392440796e-01
-1.624477952718734741e-01
-2.466760575771331787e-01
2.516410648822784424e-01
-2.080626226961612701e-02
2.421038746833801270e-01
2.367375195026397705e-01
-1.899220198392868042e-01
1.809844523668289185e-01
-2.042377926409244537e-02
3.641259158030152321e-03
8.443214744329452515e-02
1.699659228324890137e-01
-1.693526506423950195e-01
-2.229056553915143013e-03
1.897346042096614838e-02
-8.450201898813247681e-02
-4.653097689151763916e-02
-2.596137225627899170e-01
-1.326121836900711060e-01
-1.790413260459899902e-01
-1.693032532930374146e-01
-8.477697521448135376e-02
2.511861324310302734e-01
3.220976889133453369e-02
-1.100312843918800354e-01
2.903415262699127197e-01
3.064652979373931885e-01
-2.930452525615692139e-01
-2.315067499876022339e-02
-2.843640446662902832e-01
2.987833693623542786e-03
-1.173304617404937744e-01
1.579764336347579956e-01
-1.418195515871047974e-01
-1.242667436599731445e-01
1.519719045609235764e-02
-1.517128348350524902e-01
-2.405527532100677490e-01
6.024450436234474182e-02
1.370188146829605103e-01
-6.396044045686721802e-02
6.080932915210723877e-02
3.631716221570968628e-02
2.558260262012481689e-01
3.140624165534973145e-01
-2.511886656284332275e-01
1.225858256220817566e-01
2.572114169597625732e-01
-4.867773130536079407e-02
-1.693886518478393555e-01
1.167684644460678101e-01
-4.503616690635681152e-02
2.066549509763717651e-01
2.615754008293151855e-01
-4.722832143306732178e-02
-3.988049924373626709e-02
-2.222028672695159912e-01
-5.714289844036102295e-02
1.310697346925735474e-01
-2.243615090847015381e-01
-3.730589151382446289e-02
2.093083858489990234e-01
-2.239347063004970551e-02
-8.056066930294036865e-02
1.655924171209335327e-01
-1.421491652727127075e-01
2.506843507289886475e-01
1.749380826950073242e-01
-3.544735535979270935e-02
-2.905856072902679443e-01
-4.305463656783103943e-02
1.216581538319587708e-01
-2.162868976593017578e-01
3.972635045647621155e-02
-1.042942404747009277e-01
2.136209458112716675e-01
-1.451488882303237915e-01
2.762738764286041260e-01
2.481162995100021362e-01
3.222059309482574463e-01
1.775999963283538818e-01
-2.109162360429763794e-01
-2.448853552341461182e-01
3.780547156929969788e-02
7.124176621437072754e-02
-2.726745307445526123e-01
2.172935903072357178e-01
3.373220264911651611e-01
-1.903699189424514771e-01
2.205580472946166992e-01
2.949219048023223877e-01
2.089490890502929688e-01
-1.722825616598129272e-01
1.936060637235641479e-01
-2.419921308755874634e-01
-2.623972892761230469e-01
3.278965651988983154e-01
-1.030757650732994080e-01
9.089991450309753418e-02
-5.601436272263526917e-02
3.242354989051818848e-01
-7.292251288890838623e-02
-3.459566831588745117e-01
2.921635508537292480e-01
-1.492452472448348999e-01
2.243254482746124268e-01
-3.152890801429748535e-01
4.414009675383567810e-02
1.498868465423583984e-01
2.496216446161270142e-01
2.676776349544525146e-01
-2.197355329990386963e-01
-1.499060094356536865e-01
-1.177570745348930359e-01
-5.503239482641220093e-02
1.159049347043037415e-01
-2.623135149478912354e-01
3.157546222209930420e-01
2.357601672410964966e-01
-1.617749184370040894e-01
-2.840191125869750977e-01
-9.301719069480895996e-02
-2.457774989306926727e-02
1.264785975217819214e-01
1.663975417613983154e-01
-2.278263866901397705e-01
3.121004402637481689e-01
-3.211345076560974121e-01
-3.523235321044921875e-01
-2.375081479549407959e-01
1.274882256984710693e-01
-9.459710121154785156e-02
2.485999166965484619e-01
2.039411962032318115e-01
-1.949489861726760864e-01
2.295403927564620972e-01
-3.199826776981353760e-01
-3.288916051387786865e-01
2.430907487869262695e-01
8.019988238811492920e-02
-1.131386011838912964e-01
3.046941757202148438e-01
1.948055773973464966e-01
-1.068718060851097107e-01
-1.024571880698204041e-01
-9.572156518697738647e-02
-6.023106724023818970e-02
-2.355053275823593140e-01
-2.069900631904602051e-01
-2.933870255947113037e-01
7.702045887708663940e-02
2.980802357196807861e-01
-2.799830436706542969e-01
1.764577031135559082e-01
1.678206026554107666e-01
-5.912345275282859802e-02
-2.584455609321594238e-01
-3.415021002292633057e-01
1.278820782899856567e-01
-2.821389138698577881e-01
2.740640938282012939e-01
-1.606026142835617065e-01
-2.990731596946716309e-01
1.340497434139251709e-01
-2.842220067977905273e-01
-6.326200813055038452e-02
2.152561843395233154e-01
1.598066240549087524e-01
-2.730139195919036865e-01
1.210980713367462158e-01
3.032924234867095947e-01
1.868290752172470093e-01
1.507945954799652100e-01
-2.677745223045349121e-01
2.145573198795318604e-01
7.395002990961074829e-02
-1.942096054553985596e-01
-2.667433321475982666e-01
4.031045362353324890e-02
-2.641501724720001221e-01
3.245481252670288086e-01
2.256180047988891602e-01
-6.199831515550613403e-02
-3.140052556991577148e-01
-3.278922736644744873e-01
-1.884856224060058594e-01
1.299920678138732910e-01
-1.709305047988891602e-01
-1.895380467176437378e-01
5.382077768445014954e-02
-3.460726141929626465e-01
-1.051131561398506165e-01
2.540594935417175293e-01
-2.767607867717742920e-01
3.073260188102722168e-01
8.375564217567443848e-02
-2.217778563499450684e-01
-3.071905672550201416e-01
-6.839791685342788696e-02
2.474434971809387207e-01
-4.619723930954933167e-02
2.152991741895675659e-01
-3.479503393173217773e-01
1.992240399122238159e-01
-2.577707171440124512e-01
3.468553721904754639e-01
1.730536222457885742e-01
2.239588201045989990e-01
8.290134370326995850e-02
-1.884150803089141846e-01
-5.360591411590576172e-02
2.330835163593292236e-01
1.695678830146789551e-01
-2.222709208726882935e-01
3.080265223979949951e-01
2.118848860263824463e-01
-1.381448805332183838e-01
2.411038726568222046e-01
2.218699157238006592e-01
1.737568825483322144e-01
-2.170207537710666656e-02
1.680310815572738647e-01
-3.020995557308197021e-01
-1.385954022407531738e-01
2.847064472734928131e-02
-3.135545551776885986e-01
3.170858025550842285e-01
-8.882369846105575562e-02
2.555596232414245605e-01
-2.037425190210342407e-01
-1.700805686414241791e-02
2.101748287677764893e-01
-1.321872025728225708e-01
2.234552353620529175e-01
-2.844584584236145020e-01
2.863100469112396240e-01
2.709324955940246582e-01
2.525473237037658691e-01
5.703910812735557556e-02
-1.036185622215270996e-01
-6.773737072944641113e-02
-6.651290506124496460e-02
-2.352259606122970581e-01
2.302605807781219482e-01
-2.518440783023834229e-01
1.954088211059570312e-01
2.564937472343444824e-01
-9.213589131832122803e-02
-1.266974210739135742e-01
-4.268483817577362061e-02
-6.231024861335754395e-02
2.262165993452072144e-01
2.161664664745330811e-01
-1.800833046436309814e-01
6.494838744401931763e-02
-2.595745921134948730e-01
-2.012452632188796997e-01
-3.115080595016479492e-01
1.577221751213073730e-01
-1.558292061090469360e-01
1.787443310022354126e-01
7.601160556077957153e-02
-1.817065626382827759e-01
2.266870588064193726e-01
-2.297049760818481445e-01
-3.256984427571296692e-02
5.083185806870460510e-02
1.221871674060821533e-01
-1.610814630985260010e-01
3.643960505723953247e-02
1.487667858600616455e-01
-1.195405274629592896e-01
-7.608657702803611755e-03
-1.594128608703613281e-01
-1.915378272533416748e-01
-6.199876964092254639e-02
-8.432227373123168945e-02
-6.309594213962554932e-02
1.106034144759178162e-01
2.461684308946132660e-02
-1.789335757493972778e-01
2.301559895277023315e-01
2.136449217796325684e-01
-2.592667937278747559e-01
-4.555619880557060242e-02
-9.713758528232574463e-02
2.392460033297538757e-02
-2.330705672502517700e-01
2.803674638271331787e-01
-2.003320008516311646e-01
-2.054498642683029175e-01
1.781848520040512085e-01
-2.695608325302600861e-02
-8.360988646745681763e-02
1.038794368505477905e-01
1.521090567111968994e-01
-2.968498170375823975e-01
2.999396063387393951e-02
2.716187238693237305e-01
5.561510473489761353e-02
2.490000575780868530e-01
-3.197042346000671387e-01
3.033099472522735596e-01
9.641715139150619507e-02
-1.059033870697021484e-01
-6.247912719845771790e-02
1.653924435377120972e-01
-1.098821386694908142e-01
1.708694398403167725e-01
1.331077516078948975e-01
-1.045609638094902039e-02
-9.341360628604888916e-02
-2.471418678760528564e-01
-2.362336032092571259e-03
5.519067123532295227e-02
-1.975948661565780640e-01
-7.701141759753227234e-03
2.444440871477127075e-01
-2.337275445461273193e-01
-2.840022742748260498e-01
1.936528831720352173e-01
-2.515099346637725830e-01
2.653318643569946289e-01
2.239738106727600098e-01
-2.715792506933212280e-02
-1.850703656673431396e-01
-1.309951096773147583e-01
2.563533186912536621e-01
-2.435475289821624756e-01
1.556657552719116211e-01
-5.191499367356300354e-02
2.252152264118194580e-01
-1.429618746042251587e-01
2.849892377853393555e-01
2.726001739501953125e-01
-6.919512525200843811e-03
1.211273577064275742e-02
-2.359671592712402344e-01
-2.209674566984176636e-01
1.328453421592712402e-01
2.553580105304718018e-01
-2.494888305664062500e-01
2.573996782302856445e-01
1.503636240959167480e-01
-1.278125643730163574e-01
4.660565778613090515e-02
1.642097979784011841e-01
1.714805327355861664e-02
-1.081563383340835571e-01
5.420038010925054550e-03
-2.832598984241485596e-01
-2.258929461240768433e-01
3.099134266376495361e-01
-1.276365220546722412e-01
5.228755995631217957e-02
-1.608908474445343018e-01
1.508972048759460449e-01
-2.394249886274337769e-01
-2.602994143962860107e-01
1.199023798108100891e-01
-5.985159426927566528e-02
2.746801078319549561e-01
-2.337367236614227295e-01
9.496733546257019043e-02
2.287127263844013214e-02
2.566544711589813232e-01
1.072104349732398987e-01
-1.727753877639770508e-01
-1.806162148714065552e-01
-1.001781821250915527e-01
-2.095836028456687927e-02
4.960917681455612183e-02
-2.398433834314346313e-01
3.124752938747406006e-01
9.895222634077072144e-02
-2.137404382228851318e-01
-1.701096296310424805e-01
2.785568684339523315e-02
-1.255825757980346680e-01
2.317956537008285522e-01
1.061191633343696594e-01
-2.121068388223648071e-01
2.822816669940948486e-01
-6.258046627044677734e-02
-5.624093860387802124e-02
-5.826265737414360046e-02
6.968498975038528442e-02
-4.401997104287147522e-02
4.351473227143287659e-02
2.366870939731597900e-01
-2.051538974046707153e-01
1.615789085626602173e-01
-3.638224676251411438e-02
-1.821642816066741943e-01
1.601326763629913330e-01
1.910040527582168579e-01
-1.731733381748199463e-01
1.681762933731079102e-01
1.447520852088928223e-01
-1.692964732646942139e-01
-2.654033601284027100e-01
-5.048118159174919128e-02
-5.475581809878349304e-02
-2.121286839246749878e-01
-3.003246784210205078e-01
-7.152973115444183350e-02
4.709889367222785950e-02
1.607056707143783569e-01
-8.919496834278106689e-02
2.011118978261947632e-01
1.783243119716644287e-01
-2.232979387044906616e-01
-4.268137738108634949e-02
-2.623598277568817139e-01
2.125594168901443481e-01
-1.702527403831481934e-01
1.038734242320060730e-01
-1.714923828840255737e-01
-7.080876827239990234e-02
1.655737608671188354e-01
-1.112685427069664001e-01
-2.020623385906219482e-01
2.649094462394714355e-01
5.900633335113525391e-02
-2.147313207387924194e-02
2.847004532814025879e-01
2.887390255928039551e-01
1.293544918298721313e-01
1.814256012439727783e-01
-2.630589604377746582e-01
1.021573022007942200e-01
1.202766224741935730e-01
-2.603630907833576202e-02
-2.983356416225433350e-01
2.056757211685180664e-01
-1.186705194413661957e-02
3.976855427026748657e-02
2.366348206996917725e-01
-1.947893500328063965e-01
-1.920314431190490723e-01
-1.980683952569961548e-01
-1.506682187318801880e-01
2.229924649000167847e-01
-3.136249631643295288e-02
-1.851565018296241760e-02
2.772082388401031494e-01
-1.528456062078475952e-01
-2.816634476184844971e-01
4.441262409090995789e-02
-2.601391077041625977e-01
3.074810206890106201e-01
1.145050078630447388e-01
-1.353973895311355591e-01
-5.739895999431610107e-02
-1.104961261153221130e-01
1.311902422457933426e-02
-2.746735513210296631e-01
6.812336295843124390e-02
-2.008630484342575073e-01
1.113440990447998047e-01
-7.473433762788772583e-02
1.018678918480873108e-01
2.008945792913436890e-01
-6.590297073125839233e-02
-1.344798654317855835e-01
2.098399400711059570e-01
2.543200924992561340e-02
-2.237069606781005859e-01
-4.307794868946075439e-01
7.164361327886581421e-02
-3.088668286800384521e-01
-2.136110216379165649e-01
6.275855004787445068e-02
3.140602260828018188e-02
-2.755131423473358154e-01
-2.176645100116729736e-01
3.262459337711334229e-01
-1.269192546606063843e-01
2.405007481575012207e-01
2.945153117179870605e-01
-2.933667898178100586e-01
2.963249981403350830e-01
-2.265610247850418091e-01
9.236226975917816162e-02
-2.088944911956787109e-01
1.784478724002838135e-01
2.521945834159851074e-01
-5.293033272027969360e-02
1.155610084533691406e-01
-7.889026403427124023e-02
1.078057289123535156e-01
-3.197841048240661621e-01
-3.068118095397949219e-01
-9.417285025119781494e-02
-2.221259176731109619e-01
2.331363260746002197e-01
-1.340563967823982239e-02
6.950330734252929688e-02
1.424100250005722046e-01
-1.187633723020553589e-01
3.902399167418479919e-02
-9.012302756309509277e-02
-2.447849512100219727e-01
1.854952871799468994e-01
2.009932547807693481e-01
-6.723817437887191772e-02
1.409700512886047363e-01
-2.506428062915802002e-01
-2.835465371608734131e-01
1.078535765409469604e-01
-2.390811443328857422e-01
2.786738276481628418e-01
9.352141618728637695e-02
2.301951646804809570e-01
-2.968412339687347412e-01
2.756122350692749023e-01
-4.875963553786277771e-02
-3.055279552936553955e-01
2.496813088655471802e-01
-2.276777476072311401e-01
3.269832134246826172e-01
1.730884462594985962e-01
-1.962252408266067505e-01
-3.309325128793716431e-02
2.686901390552520752e-01
-3.691899180412292480e-01
-2.655228674411773682e-01
1.497657895088195801e-01
1.425121873617172241e-01
-2.137152943760156631e-03
2.986118793487548828e-01
5.640776455402374268e-02
3.071855008602142334e-01
9.528237581253051758e-02
-3.349644243717193604e-01
-2.844467461109161377e-01
6.652389653027057648e-03
-2.814818322658538818e-01
-3.212885856628417969e-01
1.029289737343788147e-01
5.668704211711883545e-02
7.087906450033187866e-02
-2.117565870285034180e-01
