-4.234636202454566956e-02
1.051911041140556335e-01
8.278592675924301147e-02
-1.288739442825317383e-01
-1.054909545928239822e-02
-6.312352418899536133e-02
1.035118922591209412e-01
-2.784764394164085388e-02
6.076074764132499695e-02
9.676361083984375000e-02
-4.343306273221969604e-02
-7.367456704378128052e-02
5.759201478213071823e-03
-1.025086082518100739e-02
8.358750492334365845e-02
-5.434458330273628235e-02
5.473357066512107849e-02
1.462000310420989990e-01
5.814661458134651184e-02
4.825167357921600342e-02
5.423379689455032349e-02
-6.526330113410949707e-02
3.639051318168640137e-02
1.346993297338485718e-01
5.956552550196647644e-02
-1.353008206933736801e-02
1.470319479703903198e-01
6.142639368772506714e-02
9.448587894439697266e-02
-1.380078792572021484e-01
6.299681216478347778e-02
9.200832992792129517e-02
1.284613907337188721e-01
1.250433474779129028e-01
-1.184478029608726501e-01
6.724836677312850952e-02
-1.746288985013961792e-01
1.994544118642807007e-01
-7.722989469766616821e-02
-1.662894636392593384e-01
-8.004933595657348633e-02
5.221975967288017273e-02
1.292055845260620117e-01
1.896231323480606079e-01
9.864212572574615479e-02
8.070941269397735596e-02
1.419836729764938354e-01
9.754330664873123169e-02
-1.347211748361587524e-01
5.244862288236618042e-02
1.311879456043243408e-01
1.246781796216964722e-01
4.764105379581451416e-02
9.214510768651962280e-02
8.176308125257492065e-02
-1.496858447790145874e-01
2.915809117257595062e-02
3.062960319221019745e-02
1.292571146041154861e-02
5.944558605551719666e-02
-9.934848546981811523e-02
1.680399328470230103e-01
8.105391263961791992e-02
5.337862670421600342e-02
3.162471577525138855e-02
2.789957635104656219e-02
1.804359406232833862e-01
5.001813545823097229e-02
-8.188121952116489410e-03
1.389564275741577148e-01
-7.989803701639175415e-02
-6.103211641311645508e-02
4.959942772984504700e-02
-3.906335309147834778e-02
3.174247592687606812e-02
-2.286425083875656128e-01
3.848850727081298828e-02
8.832167088985443115e-02
1.624865233898162842e-01
8.347716182470321655e-02
1.635716408491134644e-01
7.391801476478576660e-02
-5.463477224111557007e-02
-4.055298864841461182e-02
6.383971776813268661e-03
1.647804677486419678e-01
4.304322227835655212e-02
-1.133259609341621399e-01
9.325381368398666382e-02
5.555505305528640747e-02
-6.048508733510971069e-02
2.269271463155746460e-01
2.117565833032131195e-02
-1.058726236224174500e-01
1.190377920866012573e-01
1.153322868049144745e-02
1.646566540002822876e-01
7.615143805742263794e-02
1.966788023710250854e-01
-5.984504148364067078e-02
-1.078182011842727661e-01
6.273865699768066406e-02
4.231938719749450684e-02
-6.266903132200241089e-02
7.992964237928390503e-02
-5.351289361715316772e-02
1.458934545516967773e-01
3.507579490542411804e-02
6.822431832551956177e-02
2.304716408252716064e-02
-7.317326217889785767e-02
7.616057246923446655e-02
7.367034256458282471e-02
8.886841684579849243e-02
1.484212875366210938e-01
6.397619843482971191e-02
4.383360221982002258e-02
8.432222157716751099e-02
2.001364976167678833e-01
6.625992804765701294e-02
1.718686670064926147e-01
9.992950595915317535e-03
3.718401119112968445e-02
6.402938812971115112e-02
1.273210346698760986e-01
5.573016777634620667e-02
-1.622592061758041382e-01
1.414929628372192383e-01
