2.861667051911354065e-02
-5.140165239572525024e-02
5.677116289734840393e-02
-4.751329123973846436e-02
6.586574763059616089e-02
-2.039706707000732422e-02
4.835747182369232178e-02
-4.033416137099266052e-02
7.349886000156402588e-02
4.392533155623823404e-04
-3.737821057438850403e-02
-7.530530914664268494e-03
-9.545977413654327393e-02
-1.578822731971740723e-02
5.274138599634170532e-02
9.793567471206188202e-03
-1.061439216136932373e-01
-3.805436566472053528e-02
7.907424122095108032e-02
-7.489055395126342773e-02
1.143343523144721985e-01
4.948731884360313416e-02
1.265768408775329590e-01
-9.255430847406387329e-02
-1.589849218726158142e-02
2.174634113907814026e-02
-2.769768051803112030e-02
-2.026129513978958130e-02
-1.672696135938167572e-02
1.039082035422325134e-01
-4.575243219733238220e-02
8.723704144358634949e-03
2.163775637745857239e-02
6.413290649652481079e-02
-1.011020094156265259e-01
-2.185341529548168182e-02
1.434184610843658447e-01
-2.913887239992618561e-02
5.782078579068183899e-02
1.226212456822395325e-01
9.607466310262680054e-02
3.001863136887550354e-02
-3.833050653338432312e-02
1.008630692958831787e-01
-1.696482487022876740e-02
9.651323407888412476e-02
9.591934084892272949e-02
-4.180183261632919312e-02
-6.692419946193695068e-02
1.136513054370880127e-01
-3.405228257179260254e-02
-7.106623798608779907e-02
2.142633311450481415e-02
-8.403754234313964844e-02
1.802104897797107697e-02
-5.040864273905754089e-02
2.578843757510185242e-02
-2.811482362449169159e-02
2.688819542527198792e-02
1.478340709581971169e-03
-4.785639420151710510e-02
-4.701831564307212830e-02
7.709288597106933594e-02
8.731587976217269897e-02
7.121831923723220825e-02
7.281498052179813385e-03
5.289922002702951431e-03
3.094328753650188446e-02
5.941727757453918457e-02
-6.592634017579257488e-04
5.044469237327575684e-02
3.735039383172988892e-02
-7.999986410140991211e-02
-3.206785395741462708e-02
7.148312032222747803e-02
2.676986157894134521e-02
1.128074228763580322e-01
2.584869787096977234e-02
6.741576641798019409e-02
-1.125817373394966125e-01
-2.349808625876903534e-02
-3.082678653299808502e-03
4.938755556941032410e-02
-2.073052152991294861e-02
-9.039182960987091064e-02
-4.998750612139701843e-02
1.025221422314643860e-01
8.048125542700290680e-03
-1.332361400127410889e-01
-2.670891769230365753e-02
1.237656397279351950e-04
-6.360557675361633301e-02
-3.552262857556343079e-02
5.689372867345809937e-02
-9.653699398040771484e-02
1.006174832582473755e-01
-3.627471253275871277e-02
-7.582007348537445068e-02
1.417078450322151184e-02
-1.141837686300277710e-01
4.055697005242109299e-03
-1.615404337644577026e-01
5.670338869094848633e-02
-7.443656772375106812e-02
7.256160676479339600e-02
-1.469146227464079857e-03
1.105169579386711121e-01
1.341352015733718872e-01
1.235032230615615845e-01
7.833708077669143677e-02
1.533376872539520264e-01
-8.093992620706558228e-02
8.755543269217014313e-03
-1.214002072811126709e-01
-6.725027412176132202e-02
1.794702187180519104e-02
1.098019629716873169e-02
-5.376457422971725464e-02
-4.825817048549652100e-02
8.451221510767936707e-03
7.501926738768815994e-04
-3.412421047687530518e-02
2.259913645684719086e-02
2.854195609688758850e-02
7.762150466442108154e-02
3.893055021762847900e-02
-3.009234741330146790e-02
1.045970097184181213e-01
7.759074121713638306e-02
4.985201638191938400e-03
9.500669687986373901e-02
-1.064910925924777985e-02
8.239158242940902710e-02
-1.322181224822998047e-01
-2.093727514147758484e-02
-3.839595615863800049e-02
-3.385052829980850220e-02
-3.468387527391314507e-03
4.874226078391075134e-02
-7.041420787572860718e-02
-8.334478735923767090e-02
4.939115047454833984e-02
4.248674586415290833e-02
-3.250426799058914185e-02
-4.642010852694511414e-02
6.223594024777412415e-02
1.608436554670333862e-01
-9.919480234384536743e-02
1.249131411314010620e-01
2.067429199814796448e-02
1.200052127242088318e-01
-6.567596644163131714e-02
-3.461163118481636047e-02
-3.287200257182121277e-02
-1.455517252907156944e-03
-2.193542197346687317e-02
7.261221855878829956e-02
6.835361570119857788e-02
-6.205944344401359558e-02
-5.348914489150047302e-02
-3.000658005475997925e-02
2.225325070321559906e-02
-5.826910585165023804e-02
-1.716683991253376007e-02
9.885711595416069031e-03
-3.166569769382476807e-02
8.176381140947341919e-02
1.140827983617782593e-01
-1.799478195607662201e-02
7.376311719417572021e-02
-7.773124426603317261e-02
8.335536718368530273e-02
1.741521805524826050e-02
1.104809343814849854e-01
6.697874981909990311e-03
-7.760493457317352295e-02
-7.412935793399810791e-02
1.220928281545639038e-01
-1.666050637140870094e-03
-4.915302991867065430e-02
-3.362252609804272652e-03
-9.776159375905990601e-02
9.468357078731060028e-03
-5.256047099828720093e-02
-7.465729955583810806e-03
-9.086619317531585693e-02
1.358600407838821411e-01
-1.973252743482589722e-02
-9.842611104249954224e-02
7.054105866700410843e-03
-5.817336589097976685e-02
7.805170863866806030e-02
6.888518482446670532e-02
-3.987294435501098633e-02
6.513635162264108658e-03
4.262056946754455566e-02
2.804249152541160583e-02
-9.898387640714645386e-02
1.521959900856018066e-02
7.498928159475326538e-02
-6.848287582397460938e-02
2.154309302568435669e-02
-3.429499687626957893e-03
-2.407456189393997192e-02
5.363401770591735840e-02
-6.415879819542169571e-03
7.834567874670028687e-02
-6.386339664459228516e-02
-5.534370243549346924e-02
-6.145635247230529785e-02
1.196673512458801270e-01
7.289559394121170044e-02
-1.275087594985961914e-01
5.702213197946548462e-02
3.935172408819198608e-02
8.628451079130172729e-02
-7.445427030324935913e-02
-4.234085232019424438e-02
-6.121502257883548737e-03
-5.496220290660858154e-02
-4.000393301248550415e-02
6.513565778732299805e-02
2.436746843159198761e-02
7.002942264080047607e-02
2.098154649138450623e-02
-5.870837718248367310e-02
-3.242475911974906921e-02
-8.643709868192672729e-02
5.894319340586662292e-02
-5.840717628598213196e-02
-4.778888076543807983e-02
-2.203371003270149231e-02
8.434109389781951904e-02
7.049851864576339722e-02
5.242020264267921448e-02
2.972900308668613434e-02
1.580677926540374756e-01
6.135476008057594299e-02
3.604651242494583130e-02
-3.968768194317817688e-02
-1.391176413744688034e-02
-8.428612351417541504e-02
1.958231208845973015e-03
-2.189431712031364441e-02
-1.117785349488258362e-01
-3.415103256702423096e-02
-4.941442981362342834e-02
-2.423934452235698700e-02
-7.846565544605255127e-02
-8.349635452032089233e-02
7.447401434183120728e-02
8.128315955400466919e-02
6.074792146682739258e-02
-2.060200646519660950e-02
-1.265004426240921021e-01
1.308967918157577515e-02
6.028636544942855835e-02
2.665593661367893219e-02
1.279623359441757202e-01
1.495158858597278595e-02
-4.815098270773887634e-02
-3.730595111846923828e-03
1.678442582488059998e-02
4.842785373330116272e-02
-7.979954034090042114e-02
-3.191756829619407654e-02
-2.679159492254257202e-02
-4.290117323398590088e-02
-2.589998021721839905e-02
8.401799201965332031e-02
5.891603231430053711e-02
6.190969049930572510e-02
-8.368699997663497925e-02
2.444975450634956360e-02
1.190040931105613708e-01
-2.585652470588684082e-02
1.537081897258758545e-01
3.863447532057762146e-02
4.602703079581260681e-02
6.074136495590209961e-02
-3.361477702856063843e-02
1.050395295023918152e-01
-1.841064356267452240e-02
-1.044995896518230438e-02
1.172262337058782578e-02
1.841840520501136780e-02
-1.062770187854766846e-01
-1.555632799863815308e-02
6.685128901153802872e-03
1.034568175673484802e-01
-2.270674332976341248e-02
2.519874274730682373e-02
8.390216529369354248e-02
4.743023589253425598e-02
9.851432405412197113e-04
5.030122771859169006e-02
-3.462607786059379578e-02
6.684028357267379761e-02
-6.818769127130508423e-02
1.893532276153564453e-01
-6.317473948001861572e-02
1.755044162273406982e-01
1.128968447446823120e-01
-5.046173185110092163e-02
-8.972005546092987061e-02
8.634325116872787476e-02
-5.872523412108421326e-03
4.491463303565979004e-02
-4.782908782362937927e-02
-4.224075376987457275e-02
-1.931483042426407337e-03
-1.164697632193565369e-01
-4.159093834459781647e-03
-5.810078978538513184e-02
1.211612112820148468e-02
-8.272486925125122070e-02
-8.308091200888156891e-03
7.896821014583110809e-03
5.638307705521583557e-02
1.071638148277997971e-02
5.449820682406425476e-02
-5.474722478538751602e-03
-6.915671750903129578e-03
1.719951815903186798e-02
1.421706750988960266e-03
4.093676805496215820e-03
9.914790838956832886e-02
4.895427823066711426e-02
8.631732314825057983e-03
-3.461778536438941956e-02
-8.653767406940460205e-03
-5.642811208963394165e-02
-3.298527374863624573e-02
-4.714132100343704224e-02
8.718280494213104248e-02
-1.791996508836746216e-02
7.749709486961364746e-02
-9.967435151338577271e-02
1.166485548019409180e-01
9.967960417270660400e-02
-1.093155443668365479e-01
7.007446140050888062e-02
5.734818428754806519e-02
-2.349068177863955498e-03
-7.447680830955505371e-02
-7.973803207278251648e-03
5.881018936634063721e-03
-4.197662323713302612e-02
-3.185958787798881531e-02
-1.073470991104841232e-02
3.934366628527641296e-02
1.186671033501625061e-01
7.291767746210098267e-02
-7.180055137723684311e-03
-1.598195731639862061e-02
-1.438283622264862061e-01
2.783177234232425690e-02
2.290212549269199371e-03
-1.842763624154031277e-03
-2.984668500721454620e-02
3.381095081567764282e-02
-2.242451719939708710e-02
8.595607429742813110e-02
-4.999464005231857300e-02
5.586358159780502319e-02
1.613695872947573662e-03
7.407118380069732666e-02
-9.713282436132431030e-02
-3.318287804722785950e-02
-4.878281056880950928e-02
8.828834444284439087e-02
4.965412244200706482e-02
-7.865799963474273682e-02
-9.603919833898544312e-02
7.878034561872482300e-02
-7.872012257575988770e-02
-6.115480326116085052e-03
-6.503855437040328979e-02
8.795426040887832642e-02
6.910242140293121338e-03
9.878303110599517822e-02
-5.577467847615480423e-03
-1.283178180456161499e-01
1.136738806962966919e-01
6.446256302297115326e-03
2.017302811145782471e-02
4.454739391803741455e-02
2.762495540082454681e-02
1.255008578300476074e-01
-2.561815828084945679e-02
1.011679228395223618e-02
3.939698264002799988e-02
5.006973166018724442e-03
2.849148027598857880e-02
-6.909567862749099731e-02
-3.616059944033622742e-02
1.696942001581192017e-02
7.831064052879810333e-03
3.412401303648948669e-02
-2.564290352165699005e-02
-6.333636492490768433e-02
-5.120512098073959351e-03
1.056605502963066101e-01
1.156244799494743347e-02
3.695756942033767700e-02
-5.165240913629531860e-02
1.200484558939933777e-01
-9.882941842079162598e-02
-5.623017251491546631e-02
5.865559354424476624e-02
-2.745141275227069855e-03
-2.066725865006446838e-03
1.268041320145130157e-02
-3.724457463249564171e-03
-4.156940802931785583e-02
-9.439092129468917847e-02
-2.967647835612297058e-02
5.275569856166839600e-03
3.410376375541090965e-03
-2.916920557618141174e-02
2.849973738193511963e-02
-3.695973008871078491e-02
6.315344572067260742e-02
1.316448003053665161e-01
4.581925645470619202e-02
1.034030243754386902e-01
-7.441754639148712158e-02
9.022726118564605713e-02
-3.299494087696075439e-02
6.919424235820770264e-02
-1.048665121197700500e-02
-3.777693491429090500e-03
4.397989716380834579e-03
6.646072119474411011e-02
-1.136104837059974670e-01
-2.499939687550067902e-02
-5.986084695905447006e-03
-2.120388485491275787e-02
6.991824507713317871e-02
-2.755586057901382446e-02
-2.825822122395038605e-02
-1.019829660654067993e-01
2.373336628079414368e-02
1.699545420706272125e-02
-9.239842742681503296e-02
7.679560780525207520e-02
4.463169351220130920e-02
5.348384380340576172e-02
9.171109646558761597e-02
-6.312364339828491211e-02
-4.022033885121345520e-02
5.990715697407722473e-02
8.774672448635101318e-02
-7.559359073638916016e-02
4.446507897228002548e-03
1.691618748009204865e-02
-4.489360749721527100e-02
-5.010158568620681763e-02
-6.151020992547273636e-03
-5.860583856701850891e-02
-9.898337535560131073e-03
-5.858319997787475586e-02
4.659188166260719299e-02
-3.329299017786979675e-02
-1.127816736698150635e-02
-1.143317483365535736e-02
7.807905972003936768e-02
7.279931753873825073e-02
-6.493927538394927979e-02
2.099462319165468216e-03
4.412969574332237244e-02
5.323174223303794861e-02
-9.195412695407867432e-02
3.243135288357734680e-02
4.548813775181770325e-02
3.576873242855072021e-02
-1.184733305126428604e-02
-2.273418009281158447e-02
-1.000130772590637207e-01
-1.493872143328189850e-02
-1.043364778161048889e-01
-7.078781258314847946e-03
2.622732892632484436e-02
-4.418610781431198120e-02
5.703079700469970703e-02
-1.483454406261444092e-01
2.707192674279212952e-02
-5.872211232781410217e-02
6.388396769762039185e-02
-2.306080609560012817e-02
5.333246663212776184e-03
7.276181131601333618e-02
9.118055552244186401e-02
6.138937547802925110e-02
2.990030311048030853e-02
-5.744951590895652771e-02
2.515807747840881348e-02
-1.080520451068878174e-01
6.930248346179723740e-03
-5.458217114210128784e-02
-1.091501265764236450e-01
-4.766596015542745590e-03
-2.827060967683792114e-02
-1.015349477529525757e-01
4.050526767969131470e-02
-9.026074409484863281e-02
4.523902013897895813e-02
-3.007812425494194031e-02
1.145925819873809814e-01
8.261597901582717896e-02
-4.139957204461097717e-02
4.612085223197937012e-02
3.231799975037574768e-02
3.587741777300834656e-02
1.555313915014266968e-01
3.186836466193199158e-02
4.652692005038261414e-02
-5.603349953889846802e-02
-5.094088986515998840e-02
-5.200367304496467113e-04
-2.563125267624855042e-02
5.173096433281898499e-02
-3.118940629065036774e-02
-8.632470667362213135e-02
-9.929486364126205444e-02
1.093734130263328552e-01
1.006882861256599426e-01
-2.164802514016628265e-02
-6.892742216587066650e-02
1.336394716054201126e-02
1.496049463748931885e-01
1.252923067659139633e-02
1.362604796886444092e-01
3.603879734873771667e-02
1.199687421321868896e-01
2.879953570663928986e-02
-2.150748297572135925e-02
5.738282576203346252e-02
7.102339714765548706e-02
-4.359111934900283813e-02
2.384430915117263794e-02
3.522470593452453613e-02
-8.375656604766845703e-02
-7.212319225072860718e-02
4.734523594379425049e-02
1.045239269733428955e-01
-8.262947201728820801e-02
-7.404662668704986572e-02
-8.930644951760768890e-03
6.366898864507675171e-02
9.204971045255661011e-02
9.615224599838256836e-02
-5.503508076071739197e-02
-6.343964952975511551e-03
-8.476480096578598022e-02
1.062426939606666565e-01
-1.185438316315412521e-02
9.874501824378967285e-02
4.080419894307851791e-03
-1.480602845549583435e-02
-3.538028895854949951e-02
7.894802838563919067e-02
-7.254684716463088989e-02
7.586217671632766724e-02
-5.921500548720359802e-02
-1.232353225350379944e-01
-4.264693334698677063e-02
-4.597242176532745361e-02
-3.199539706110954285e-02
-1.069556623697280884e-01
1.064770445227622986e-01
-9.578454494476318359e-02
-5.267706885933876038e-02
-2.317374013364315033e-02
5.824354290962219238e-02
5.865445360541343689e-02
8.702018857002258301e-02
-4.611612483859062195e-02
4.982940852642059326e-02
-4.074390977621078491e-02
7.239408046007156372e-02
1.830752380192279816e-02
4.080197215080261230e-02
-1.765122264623641968e-02
1.683283969759941101e-02
-6.138768419623374939e-02
6.121507659554481506e-02
-5.209326371550559998e-02
6.166596710681915283e-02
-5.837756767868995667e-02
1.426572054624557495e-01
-4.469924420118331909e-02
-1.927353627979755402e-02
-6.713896244764328003e-02
5.406843870878219604e-02
1.530774869024753571e-02
-1.101396158337593079e-01
-2.931813709437847137e-03
2.873461507260799408e-02
4.458615183830261230e-02
-2.261229790747165680e-02
-7.977157086133956909e-02
-1.412665564566850662e-02
-1.670734211802482605e-02
-7.743943482637405396e-02
-1.840118877589702606e-02
-6.895466148853302002e-02
1.229797303676605225e-01
-4.988496378064155579e-02
-4.246153682470321655e-02
2.744686603546142578e-02
-6.710567325353622437e-02
5.245096981525421143e-02
-8.131472766399383545e-02
-2.653120085597038269e-02
2.548371814191341400e-02
3.472927212715148926e-02
4.470318183302879333e-02
5.477105826139450073e-02
4.914327058941125870e-03
5.603352934122085571e-02
-1.412365399301052094e-02
7.823039591312408447e-02
-2.870700880885124207e-02
-5.212632194161415100e-02
-6.104542687535285950e-02
8.840542286634445190e-02
-4.397164657711982727e-02
-9.606809355318546295e-03
-1.311484575271606445e-01
9.401259943842887878e-03
-3.189965710043907166e-02
-1.684840768575668335e-02
-8.595415204763412476e-02
1.214638575911521912e-01
-3.729905560612678528e-02
2.536050602793693542e-02
6.862392276525497437e-02
-6.100761517882347107e-02
1.179295331239700317e-01
5.891057476401329041e-02
-2.253978140652179718e-02
8.511938899755477905e-02
3.426719829440116882e-02
1.185371950268745422e-01
-8.169350028038024902e-02
1.661790418438613415e-03
3.670274466276168823e-02
1.585530862212181091e-02
-3.264759853482246399e-02
-1.396663114428520203e-02
-1.208862639032304287e-03
6.180410459637641907e-02
-1.909813657402992249e-02
-5.213976278901100159e-02
-4.531955346465110779e-02
-6.363656371831893921e-02
1.216655410826206207e-02
-1.424901839345693588e-02
2.129880711436271667e-02
-2.042763307690620422e-02
-1.290391664952039719e-02
-3.767200186848640442e-02
-1.788695901632308960e-02
3.020807728171348572e-02
3.568617254495620728e-02
-5.298446863889694214e-02
-1.388693880289793015e-02
1.937597617506980896e-02
1.266546845436096191e-01
-3.885832428932189941e-02
-6.581243127584457397e-02
-9.423493593931198120e-02
8.602423593401908875e-03
3.180161491036415100e-02
9.682642295956611633e-03
1.494365464895963669e-02
1.101527176797389984e-02
1.649528294801712036e-01
1.018034443259239197e-01
4.814242571592330933e-02
4.967785626649856567e-02
-5.104603990912437439e-02
1.395755559206008911e-01
-2.203874476253986359e-02
-8.881953544914722443e-03
-2.785244770348072052e-02
1.688993163406848907e-02
3.611784428358078003e-02
6.026743724942207336e-02
-3.012512624263763428e-02
-8.964865654706954956e-02
5.544119700789451599e-02
-1.127701178193092346e-01
1.151932626962661743e-01
-3.803287073969841003e-02
2.144380658864974976e-02
1.225835829973220825e-02
-4.428366944193840027e-02
6.384430825710296631e-02
-7.234718650579452515e-02
-5.706342309713363647e-02
1.056245565414428711e-01
4.165754094719886780e-02
1.863197609782218933e-02
4.841323196887969971e-02
1.930050551891326904e-02
4.726909846067428589e-02
-6.214694678783416748e-02
-3.873001039028167725e-02
-6.374951452016830444e-02
-1.211668364703655243e-02
5.051590502262115479e-02
-6.823030859231948853e-02
7.849682867527008057e-02
-3.683577477931976318e-02
1.689622923731803894e-02
9.836027771234512329e-02
7.058631628751754761e-02
4.597360268235206604e-02
-8.015636354684829712e-02
-3.347854688763618469e-02
-6.437207013368606567e-02
4.639957100152969360e-02
4.179791361093521118e-02
-4.337539151310920715e-02
1.341558992862701416e-01
1.166781783103942871e-01
-4.207369685173034668e-02
2.130112797021865845e-02
9.256894700229167938e-03
1.759124360978603363e-02
5.254891142249107361e-02
-7.811140269041061401e-02
-7.554609328508377075e-02
-1.772652147337794304e-03
-7.011666148900985718e-02
7.265009731054306030e-02
-5.470748990774154663e-02
-2.004391979426145554e-03
9.118532761931419373e-03
-1.344825476408004761e-01
6.441681087017059326e-02
-8.269192278385162354e-02
6.888210773468017578e-02
-9.983722865581512451e-02
-2.052442915737628937e-02
4.365248605608940125e-02
-3.172622248530387878e-02
6.024851277470588684e-02
1.228613480925559998e-01
-8.637741208076477051e-03
7.015882432460784912e-02
-5.646827071905136108e-02
2.076461911201477051e-02
9.494317322969436646e-02
-1.808323897421360016e-02
4.737132228910923004e-03
1.295228023082017899e-02
6.544069945812225342e-02
1.568699069321155548e-02
4.633181169629096985e-02
6.998248398303985596e-02
9.186948835849761963e-02
1.070356182754039764e-02
4.732470214366912842e-02
-2.738826535642147064e-02
7.225010544061660767e-02
4.024729505181312561e-02
-5.015383660793304443e-02
6.007999554276466370e-02
1.127899214625358582e-01
8.106493204832077026e-02
-9.150491654872894287e-02
2.733720839023590088e-02
-5.124467611312866211e-02
8.078303188085556030e-02
1.026336010545492172e-02
-2.222387678921222687e-02
-1.146249026060104370e-01
1.153954421170055866e-03
-9.963460266590118408e-02
4.448079038411378860e-03
-8.292026072740554810e-02
2.988857403397560120e-02
3.391589736565947533e-03
-3.029801324009895325e-02
3.884149342775344849e-02
2.419739589095115662e-02
-3.792522009462118149e-03
-2.823946252465248108e-02
-3.788828849792480469e-02
1.706752739846706390e-02
4.746969789266586304e-03
-3.011179901659488678e-02
9.373738616704940796e-02
6.430292967706918716e-03
1.389371007680892944e-01
9.029301255941390991e-02
-1.302664354443550110e-02
-4.817261174321174622e-02
-1.135813631117343903e-02
-4.950633645057678223e-02
1.066037714481353760e-01
2.920093573629856110e-02
-3.666239976882934570e-02
1.676166802644729614e-01
9.783439338207244873e-02
7.938925921916961670e-02
9.700176119804382324e-02
-2.127036452293395996e-03
1.384202688932418823e-01
8.525110036134719849e-02
1.495733205229043961e-02
7.282911986112594604e-02
-1.025400497019290924e-02
-1.547846756875514984e-02
-4.134670272469520569e-02
-5.130450055003166199e-02
-9.787654876708984375e-02
7.487597316503524780e-02
-1.836379170417785645e-01
5.486240610480308533e-02
-1.773022301495075226e-02
-7.393551059067249298e-03
1.767010055482387543e-02
1.110408734530210495e-02
1.000410988926887512e-01
-1.580084674060344696e-02
-3.623401746153831482e-02
1.117384135723114014e-01
7.265740633010864258e-02
-4.460784420371055603e-02
-1.132670044898986816e-02
3.986111655831336975e-02
3.157517686486244202e-02
8.731348440051078796e-03
-1.046718209981918335e-01
-2.958530792966485023e-03
-9.467317163944244385e-02
1.694801822304725647e-02
-8.165740966796875000e-02
1.166542619466781616e-02
-3.083180263638496399e-02
1.266406849026679993e-02
1.221372485160827637e-01
2.852155594155192375e-03
4.002692550420761108e-02
-3.469042107462882996e-02
-3.907046746462583542e-03
-7.654109597206115723e-02
2.558593265712261200e-02
-3.586365655064582825e-02
-1.020815595984458923e-01
1.339368522167205811e-01
7.730437070131301880e-02
7.136356085538864136e-02
-1.782295294106006622e-02
1.623101904988288879e-02
6.749037653207778931e-03
5.678745452314615250e-03
-1.075755059719085693e-01
-9.987029433250427246e-02
-3.446538373827934265e-02
-1.197888404130935669e-01
-2.030813321471214294e-02
-6.187959760427474976e-02
1.821471937000751495e-02
-2.292259223759174347e-02
-1.822300851345062256e-01
3.062661364674568176e-02
-2.324938029050827026e-02
7.709842175245285034e-02
9.555391967296600342e-03
-1.691448874771595001e-02
8.305825293064117432e-02
-2.562925964593887329e-02
9.475447237491607666e-02
6.800135970115661621e-02
8.807595004327595234e-04
8.566824346780776978e-02
1.822921633720397949e-02
1.453198119997978210e-02
-1.294762827455997467e-03
1.256549637764692307e-02
-2.968216687440872192e-02
-1.132606118917465210e-01
2.495472878217697144e-02
-8.277238160371780396e-02
-1.263571437448263168e-02
-2.116440236568450928e-02
-1.057531964033842087e-02
9.616439789533615112e-02
4.593930765986442566e-02
-2.266288548707962036e-02
-6.312230229377746582e-02
5.177626013755798340e-02
-6.431770324707031250e-02
4.526213183999061584e-02
5.232658237218856812e-02
1.132261976599693298e-01
-9.541115909814834595e-02
-3.692673146724700928e-02
-7.240553945302963257e-02
-2.487899735569953918e-02
-6.795557588338851929e-02
-6.047570705413818359e-02
-5.856101587414741516e-02
-8.541473187506198883e-03
-2.237008884549140930e-02
6.416413467377424240e-03
-4.026312008500099182e-02
-3.855454549193382263e-02
-3.104181960225105286e-02
8.573727309703826904e-02
4.344859346747398376e-02
-2.110906876623630524e-02
2.585211768746376038e-02
7.314660400152206421e-02
-1.060087457299232483e-01
-4.774831235408782959e-02
3.498508408665657043e-02
2.911862730979919434e-02
1.733464375138282776e-02
-1.617131941020488739e-02
7.939139753580093384e-02
-3.286875411868095398e-02
1.002541929483413696e-02
-5.108314380049705505e-02
7.121026515960693359e-02
-4.440876841545104980e-02
9.608139097690582275e-02
9.821093082427978516e-02
-4.702886566519737244e-02
7.976285368204116821e-02
2.868421562016010284e-02
9.388914704322814941e-02
2.901951968669891357e-02
-2.245360426604747772e-02
1.850125193595886230e-01
-1.800421439111232758e-02
1.128897890448570251e-01
-4.417370632290840149e-02
1.426947023719549179e-02
-1.877998816780745983e-03
2.003581635653972626e-02
-4.760774224996566772e-02
-6.483316421508789062e-02
1.411318033933639526e-02
-2.963889762759208679e-02
3.868981823325157166e-02
3.571305051445960999e-02
6.723636179231107235e-04
6.324634701013565063e-02
8.585868775844573975e-02
7.868802547454833984e-02
-2.831847965717315674e-02
2.377838455140590668e-02
9.290928393602371216e-02
5.539812520146369934e-02
2.673053368926048279e-02
3.973240498453378677e-03
-7.002871483564376831e-02
-1.302740257233381271e-02
8.416082710027694702e-03
-7.877162098884582520e-02
-5.347099527716636658e-02
7.713439874351024628e-03
1.315968297421932220e-02
-1.643373630940914154e-02
6.429912149906158447e-02
-5.799135938286781311e-02
1.195498555898666382e-02
7.826338708400726318e-02
-2.142310328781604767e-02
5.467336624860763550e-02
2.190550602972507477e-02
-5.260769650340080261e-02
2.821563277393579483e-03
-3.085586056113243103e-02
3.263219492509961128e-03
1.792658679187297821e-02
1.106384843587875366e-01
8.309839665889739990e-02
-5.952852964401245117e-02
9.197806357406079769e-04
4.025829210877418518e-02
-6.096618250012397766e-02
5.828880704939365387e-03
-2.274208143353462219e-02
-7.857522368431091309e-02
-2.868195809423923492e-02
-1.760422601364552975e-03
-2.799088321626186371e-02
-7.316789031028747559e-02
7.068315055221319199e-03
-4.613068327307701111e-02
-1.348672658205032349e-01
-5.500881467014551163e-03
2.475662343204021454e-02
1.125554814934730530e-01
-6.488212943077087402e-02
-2.787675894796848297e-02
1.590024493634700775e-02
4.190554842352867126e-02
-3.718491643667221069e-02
2.679744968190789223e-03
-5.555607005953788757e-02
-5.390294268727302551e-02
-2.011849544942378998e-02
6.026845425367355347e-02
5.543224141001701355e-02
-4.844248294830322266e-02
-4.659842699766159058e-02
4.277850687503814697e-02
-4.947645217180252075e-02
-4.191417992115020752e-02
4.418566823005676270e-02
7.938024587929248810e-03
8.525630086660385132e-02
-1.153597235679626465e-02
5.166960135102272034e-02
-4.010002012364566326e-04
-7.965717231854796410e-04
-3.969044238328933716e-02
2.274267561733722687e-02
-1.852524466812610626e-02
-2.764888480305671692e-02
4.420755058526992798e-02
-6.390293687582015991e-02
6.192981079220771790e-02
2.422605454921722412e-02
2.844864269718527794e-03
-9.998441487550735474e-02
-3.384239226579666138e-02
-5.707754194736480713e-02
-2.566916681826114655e-02
1.122780516743659973e-02
2.223628573119640350e-02
-4.065998271107673645e-02
8.036146871745586395e-03
-5.976931750774383545e-02
1.011177003383636475e-01
-6.452672183513641357e-02
-3.498794138431549072e-02
-2.735286764800548553e-02
8.225078880786895752e-02
-1.204859316349029541e-01
3.377232700586318970e-02
-1.820085104554891586e-03
-3.157597407698631287e-02
-2.406982146203517914e-02
6.065893173217773438e-02
8.493675850331783295e-03
-2.447667159140110016e-02
-6.214409694075584412e-02
-9.849990718066692352e-03
9.892237931489944458e-02
4.694986622780561447e-03
2.826650859788060188e-03
8.386786095798015594e-03
9.115734137594699860e-03
1.073593124747276306e-01
8.525594323873519897e-02
-2.675036899745464325e-02
5.700131133198738098e-02
2.205591183155775070e-03
1.812354922294616699e-01
-5.917438492178916931e-02
5.236978083848953247e-02
6.858973205089569092e-02
3.762651979923248291e-02
5.693594738841056824e-02
9.016031026840209961e-02
-1.009457558393478394e-01
-2.295126393437385559e-02
4.867539927363395691e-02
-1.460641473531723022e-01
-8.052749559283256531e-03
-9.116322733461856842e-03
6.133730988949537277e-03
-3.745700418949127197e-02
7.038991153240203857e-02
-3.691233322024345398e-02
-4.511766508221626282e-02
-4.533794894814491272e-02
5.341723561286926270e-02
3.705337271094322205e-02
5.355228483676910400e-02
1.907493360340595245e-02
4.330329102231189609e-05
1.200923789292573929e-02
2.419093623757362366e-02
2.283463254570960999e-02
1.737130805850028992e-04
4.025065805763006210e-03
-7.463385118171572685e-04
-3.173367679119110107e-02
-1.956748962402343750e-02
-4.211033508181571960e-02
7.587330788373947144e-02
-2.635112218558788300e-02
6.813349574804306030e-02
-3.404894098639488220e-02
-7.881855964660644531e-02
-4.475988447666168213e-02
-2.901416085660457611e-02
3.410108014941215515e-02
-7.052955776453018188e-02
-9.620072692632675171e-02
-6.547149270772933960e-03
8.314491063356399536e-02
4.679731652140617371e-02
-1.898358389735221863e-02
2.806990966200828552e-02
1.091342070139944553e-03
-9.313332289457321167e-02
5.860372260212898254e-02
-3.256623446941375732e-02
-2.886241860687732697e-02
-8.572136610746383667e-02
4.472364671528339386e-03
-6.206051446497440338e-03
-6.131342798471450806e-02
-6.040489301085472107e-02
-1.404253095388412476e-01
-4.403116763569414616e-04
1.309734676033258438e-02
7.711713202297687531e-03
-2.936044894158840179e-02
1.138251926749944687e-02
7.098577171564102173e-02
7.414896786212921143e-02
-4.709452763199806213e-02
2.804747084155678749e-03
-3.032795153558254242e-02
-3.045093454420566559e-02
3.258837759494781494e-02
-2.636527642607688904e-02
-4.116185754537582397e-02
-5.054076015949249268e-02
-6.068317964673042297e-02
-5.311726778745651245e-02
-7.393704354763031006e-02
2.356731100007891655e-03
3.584053367376327515e-02
-1.267717033624649048e-02
8.452663570642471313e-02
7.761984318494796753e-02
2.014438435435295105e-02
-5.149095132946968079e-02
3.296096622943878174e-02
-1.696878485381603241e-02
-1.217246875166893005e-01
7.744722813367843628e-02
5.773372575640678406e-02
9.933860599994659424e-02
-9.814856201410293579e-02
9.893364459276199341e-02
-3.283220808953046799e-03
4.303660988807678223e-02
2.843090519309043884e-02
-6.341220438480377197e-02
-5.123638734221458435e-02
2.338409423828125000e-03
-8.266742527484893799e-02
-5.551630258560180664e-02
1.842717081308364868e-02
3.718300163745880127e-02
-3.422486037015914917e-02
2.609883621335029602e-02
1.415706425905227661e-02
-3.576245158910751343e-02
-1.342098042368888855e-02
3.744135797023773193e-02
-9.164568036794662476e-02
4.136442020535469055e-02
-3.097750991582870483e-02
4.400639608502388000e-02
-2.905322983860969543e-02
5.265974625945091248e-02
3.795726597309112549e-02
-4.839828982949256897e-02
6.260633468627929688e-02
-4.542458057403564453e-02
9.066312015056610107e-02
-5.526861175894737244e-02
-1.037805341184139252e-02
-9.001067839562892914e-03
-4.882283508777618408e-02
1.217960268259048462e-01
5.178311467170715332e-02
9.106942266225814819e-02
1.089696511626243591e-01
2.960563264787197113e-02
6.371792405843734741e-02
1.099877133965492249e-01
-3.850017115473747253e-02
1.547946035861968994e-02
6.337636709213256836e-02
-2.241765521466732025e-02
2.163867466151714325e-02
-4.057064279913902283e-02
9.973814710974693298e-03
-1.672360859811306000e-02
-1.453809887170791626e-01
1.111419126391410828e-02
-8.596420288085937500e-02
6.919553969055414200e-03
-3.433915227651596069e-02
-5.042710900306701660e-02
8.052937337197363377e-04
2.722844108939170837e-02
-9.206523746252059937e-02
9.113385342061519623e-03
9.576252661645412445e-03
-6.656819581985473633e-02
-1.350083295255899429e-02
1.784923486411571503e-02
8.376307040452957153e-02
-8.025680482387542725e-02
-4.539142549037933350e-02
2.130044158548116684e-03
4.682639241218566895e-02
-8.642215281724929810e-03
-7.485515624284744263e-02
1.194703578948974609e-02
1.850615814328193665e-02
6.067118048667907715e-02
9.707903116941452026e-02
-2.501556649804115295e-02
-2.260168641805648804e-02
-1.105190664529800415e-01
8.560959249734878540e-03
5.812010169029235840e-02
2.717943117022514343e-02
-9.276976436376571655e-02
-1.944998465478420258e-02
-9.409031830728054047e-03
7.003431022167205811e-02
-5.919808521866798401e-02
1.566556654870510101e-02
-8.700598776340484619e-02
1.817652396857738495e-02
5.213070660829544067e-03
-2.773043885827064514e-02
-1.495560109615325928e-01
-2.984405122697353363e-02
-2.081799507141113281e-02
-1.390479411929845810e-02
-2.202019095420837402e-02
-2.096566557884216309e-02
-7.393792271614074707e-02
-8.805844187736511230e-02
3.431257605552673340e-02
-1.022729370743036270e-02
5.631836503744125366e-02
-6.761961430311203003e-02
1.566971279680728912e-02
1.150153204798698425e-01
3.098306991159915924e-02
3.345780819654464722e-02
4.997176676988601685e-02
3.155273199081420898e-02
5.220238119363784790e-03
-1.689112372696399689e-02
4.050474241375923157e-02
9.679311513900756836e-02
-3.333922103047370911e-02
-2.229752019047737122e-02
-3.793555870652198792e-02
-4.417662322521209717e-02
-4.266411438584327698e-02
-2.642457745969295502e-02
3.816694393754005432e-02
6.781910359859466553e-02
3.490110486745834351e-02
1.644487679004669189e-02
-1.046071872115135193e-01
2.020705491304397583e-02
7.954080402851104736e-02
-1.161937266588211060e-01
4.247370362281799316e-02
-4.763509333133697510e-02
1.383220702409744263e-01
-5.960057675838470459e-02
1.471758075058460236e-02
1.102008391171693802e-02
7.899160683155059814e-02
4.514858126640319824e-02
-3.018639609217643738e-02
-1.805970072746276855e-02
1.897700317203998566e-02
-4.875820502638816833e-02
-7.003476470708847046e-02
-8.300776034593582153e-02
1.471619028598070145e-02
-3.836587443947792053e-02
8.478982746601104736e-02
-2.178365737199783325e-02
-1.341681834310293198e-02
-1.517892442643642426e-02
-5.272335186600685120e-02
-1.585149392485618591e-02
-1.105113793164491653e-02
-5.738563835620880127e-03
7.349501550197601318e-02
4.751677066087722778e-02
-1.980915665626525879e-02
1.257115006446838379e-01
1.938449032604694366e-02
-4.643217846751213074e-02
-9.078226983547210693e-03
-1.847268640995025635e-02
1.034271344542503357e-02
3.084837459027767181e-02
8.619412779808044434e-02
-2.289424650371074677e-02
8.264269679784774780e-02
5.750275403261184692e-02
4.470590129494667053e-02
3.851310536265373230e-02
-9.243429638445377350e-03
9.170901030302047729e-02
-1.804336905479431152e-02
3.518123924732208252e-02
9.026915580034255981e-02
6.094628572463989258e-02
5.016758665442466736e-02
-2.178637310862541199e-02
5.382164567708969116e-02
-2.248751930892467499e-02
4.445404931902885437e-02
-1.825641989707946777e-01
8.026514947414398193e-02
-5.753577873110771179e-02
7.148285955190658569e-02
-4.318520054221153259e-02
-3.351848945021629333e-02
7.957880944013595581e-02
1.853891834616661072e-02
-2.759456448256969452e-02
2.683410979807376862e-02
1.062846109271049500e-01
-4.921993240714073181e-02
-2.606583945453166962e-02
-4.395627975463867188e-02
6.778042018413543701e-02
5.139495804905891418e-02
-6.583127379417419434e-02
-3.106735832989215851e-02
-4.761798307299613953e-02
-1.445177756249904633e-02
-7.458829134702682495e-02
1.037755534052848816e-01
-6.142118200659751892e-02
6.495469063520431519e-02
7.101707160472869873e-02
-9.124917909502983093e-03
-3.619110444560647011e-03
-9.123360365629196167e-02
-3.150653094053268433e-02
7.329765707254409790e-02
4.878148809075355530e-02
-4.352105408906936646e-02
-4.851179569959640503e-02
3.653020411729812622e-02
5.667366087436676025e-02
3.113275393843650818e-02
-4.885882139205932617e-02
-9.741152077913284302e-02
8.104152977466583252e-03
5.127096548676490784e-02
3.134433180093765259e-02
-6.362666189670562744e-02
2.223523706197738647e-02
-9.333818405866622925e-02
4.385840147733688354e-02
-4.930666834115982056e-02
-6.001467257738113403e-02
-7.309035956859588623e-02
-1.369402557611465454e-01
3.702109679579734802e-03
-5.418767407536506653e-02
4.311959072947502136e-02
-6.733084470033645630e-02
6.072468683123588562e-02
9.012079238891601562e-02
3.639117255806922913e-02
4.959527403116226196e-02
1.245615482330322266e-01
-3.843772038817405701e-02
5.943962186574935913e-02
-5.619264021515846252e-02
-1.873008720576763153e-02
4.184349626302719116e-02
3.395196050405502319e-02
-8.021070621907711029e-03
-4.149777814745903015e-02
6.114372983574867249e-02
-6.361230462789535522e-02
-4.550989251583814621e-03
-3.584889322519302368e-02
3.647647425532341003e-02
-7.812232710421085358e-03
6.828537583351135254e-02
-1.266711857169866562e-02
1.006605289876461029e-02
-4.263802617788314819e-02
-1.237475872039794922e-01
-2.615699358284473419e-02
4.827816784381866455e-02
9.454264491796493530e-02
-9.062906354665756226e-02
8.277663029730319977e-03
-1.564314030110836029e-02
6.297416985034942627e-02
-2.361423894762992859e-02
-7.068430632352828979e-02
-9.431917965412139893e-02
-4.427189379930496216e-02
-3.750830888748168945e-02
-6.245638802647590637e-02
-1.715831086039543152e-02
7.337772101163864136e-02
-7.417624443769454956e-02
-6.267597526311874390e-02
3.659944981336593628e-02
-7.024878263473510742e-02
-3.687620162963867188e-02
3.630130738019943237e-02
-4.869836568832397461e-02
6.442439556121826172e-02
2.758501283824443817e-02
-5.583846196532249451e-02
-3.855462884530425072e-03
-2.089467272162437439e-02
1.792021691799163818e-01
-7.050869986414909363e-03
5.091683939099311829e-02
-6.068574637174606323e-02
2.751585468649864197e-02
-7.646804302930831909e-02
9.558822959661483765e-02
4.237258434295654297e-02
-5.722911283373832703e-02
1.397441029548645020e-01
1.075348407030105591e-01
1.983276382088661194e-02
8.913711458444595337e-02
-5.050469562411308289e-02
1.611875891685485840e-01
1.082191318273544312e-01
-7.181040942668914795e-02
8.339884132146835327e-02
-8.767632767558097839e-03
5.512703792192041874e-04
-4.669669643044471741e-02
1.435345225036144257e-02
2.874203771352767944e-02
2.462582848966121674e-02
-1.529570072889328003e-01
2.401183731853961945e-02
4.598865751177072525e-03
9.088271111249923706e-02
3.690400347113609314e-02
-4.863100126385688782e-02
3.920093551278114319e-02
1.598940417170524597e-02
-7.857582718133926392e-02
8.733325637876987457e-03
7.087997347116470337e-02
-1.603090018033981323e-02
8.529137820005416870e-02
-1.263132225722074509e-02
6.875453144311904907e-02
-5.215310305356979370e-02
1.609540544450283051e-02
-6.654236000031232834e-03
7.017271593213081360e-03
5.535888671875000000e-02
-9.865157306194305420e-02
6.603889912366867065e-02
-6.011797487735748291e-02
1.018740907311439514e-01
8.391594886779785156e-02
3.138009458780288696e-02
-7.506198715418577194e-03
-2.614034153521060944e-02
1.484708208590745926e-02
-4.097590222954750061e-03
-6.883004307746887207e-02
5.542988330125808716e-02
-3.871914371848106384e-02
6.985864788293838501e-02
1.253559142351150513e-01
1.551778800785541534e-02
5.732167512178421021e-02
1.947188377380371094e-02
-4.191073402762413025e-02
7.321821153163909912e-02
-8.207485079765319824e-02
-5.241031199693679810e-02
1.207078434526920319e-02
-1.601836830377578735e-01
8.943381160497665405e-02
1.027474738657474518e-02
-4.249914735555648804e-02
-6.855112314224243164e-02
-7.156813144683837891e-02
1.681825332343578339e-02
-8.770470321178436279e-02
2.048546075820922852e-02
8.354640565812587738e-03
-2.051463909447193146e-02
4.191517457365989685e-02
2.555665932595729828e-02
8.806981891393661499e-02
4.898728057742118835e-02
-1.183452550321817398e-02
7.609598338603973389e-02
-3.681012615561485291e-02
-4.303465783596038818e-02
1.471567340195178986e-02
-1.682708226144313812e-02
4.770905151963233948e-02
-6.795818358659744263e-02
-2.886735647916793823e-02
1.330695959040895104e-04
-1.433042623102664948e-02
-3.632226586341857910e-02
2.067684940993785858e-02
-2.763598226010799408e-02
1.342095062136650085e-02
-2.458255551755428314e-02
2.908325381577014923e-02
7.783694565296173096e-02
6.254047155380249023e-02
1.246058270335197449e-01
-3.743472322821617126e-02
-2.502267435193061829e-02
-4.892839491367340088e-02
-4.406306892633438110e-02
4.154146462678909302e-02
-2.831607311964035034e-02
-3.664792701601982117e-02
3.383887931704521179e-02
-7.174259424209594727e-02
1.262175617739558220e-03
5.512966960668563843e-02
9.134721755981445312e-02
1.278071850538253784e-02
-5.764472857117652893e-02
-6.465503480285406113e-03
4.135296121239662170e-02
4.469705373048782349e-02
9.625894017517566681e-03
3.699420392513275146e-02
1.141143888235092163e-01
5.096282437443733215e-02
4.917166195809841156e-03
2.840187586843967438e-02
1.646626554429531097e-02
-2.105216309428215027e-02
6.457649171352386475e-02
3.739273548126220703e-02
1.753961108624935150e-02
-7.623417675495147705e-02
7.622253615409135818e-03
8.133695274591445923e-02
-1.866824179887771606e-02
2.255699969828128815e-02
-5.004044994711875916e-02
6.162725389003753662e-02
3.969347849488258362e-02
3.297831490635871887e-02
-2.354673855006694794e-02
-3.685739263892173767e-02
-8.838044852018356323e-02
8.727335929870605469e-02
-6.270609050989151001e-02
8.023688942193984985e-02
2.492748759686946869e-02
-8.985799551010131836e-02
-3.580460324883460999e-02
3.372905775904655457e-02
1.984773576259613037e-02
6.248653680086135864e-02
-4.018422588706016541e-02
-9.180358052253723145e-02
8.490216918289661407e-03
-7.703579962253570557e-03
-5.799296498298645020e-02
-1.066658049821853638e-01
5.415150150656700134e-02
-5.311841145157814026e-02
-3.685728833079338074e-02
7.915393263101577759e-02
-5.052063986659049988e-02
-6.042717397212982178e-02
1.182121187448501587e-01
-3.439602907747030258e-03
9.372545778751373291e-02
-2.961013093590736389e-02
2.287223003804683685e-02
4.989569261670112610e-02
-8.080427534878253937e-03
3.635734319686889648e-02
1.692487113177776337e-02
1.100349240005016327e-02
3.030717745423316956e-02
-5.490031093358993530e-02
-7.432979345321655273e-02
7.934105582535266876e-03
6.143683940172195435e-02
-2.469756081700325012e-02
-1.925242319703102112e-02
8.205454796552658081e-03
4.993736743927001953e-02
5.614916235208511353e-02
-2.618863712996244431e-03
-7.902962155640125275e-03
4.961635544896125793e-02
-1.952102221548557281e-02
-1.065649688243865967e-01
1.555902883410453796e-02
9.775272011756896973e-02
6.175738200545310974e-02
-6.029371544718742371e-02
1.631557196378707886e-02
-6.443085521459579468e-02
5.938703939318656921e-02
-2.250899706268683076e-04
2.071877010166645050e-02
4.649869725108146667e-02
-7.476623356342315674e-02
6.639479845762252808e-02
-4.898872971534729004e-02
-4.925497993826866150e-02
2.751819230616092682e-02
-1.454971730709075928e-02
-3.066430240869522095e-02
1.333194822072982788e-01
-3.615117631852626801e-03
1.112367138266563416e-01
-6.433913111686706543e-02
-1.014878153800964355e-01
-1.127025261521339417e-01
-3.990649059414863586e-02
-1.173236370086669922e-01
3.631759062409400940e-02
4.082907363772392273e-02
4.340548440814018250e-02
-5.162777379155158997e-02
9.177815169095993042e-02
-9.729444980621337891e-02
5.739320442080497742e-02
1.807442307472229004e-02
1.979810371994972229e-02
4.315976426005363464e-02
8.449147641658782959e-02
-2.354363165795803070e-02
-6.607125699520111084e-02
5.110802873969078064e-02
7.229064404964447021e-02
7.349112629890441895e-02
1.080295965075492859e-01
3.372322395443916321e-02
2.461333945393562317e-02
-2.650422044098377228e-02
-2.530759386718273163e-02
-6.007099524140357971e-03
-6.069865822792053223e-02
3.366142138838768005e-02
1.677950099110603333e-02
-1.891278475522994995e-02
-7.892259955406188965e-02
5.132859945297241211e-02
1.839992105960845947e-01
3.176104277372360229e-02
-8.076315745711326599e-03
-4.481317847967147827e-02
1.506238132715225220e-01
4.626428708434104919e-02
1.332969963550567627e-01
1.948572136461734772e-02
8.318648487329483032e-02
-4.817127063870429993e-02
-2.573756687343120575e-02
3.069280274212360382e-02
4.366999119520187378e-02
-3.045486286282539368e-02
1.147589385509490967e-01
1.337425597012042999e-02
-5.363143980503082275e-03
-8.230213075876235962e-02
2.787042595446109772e-02
2.524483948945999146e-02
-4.454317502677440643e-03
6.798416376113891602e-02
-6.523489952087402344e-02
-1.766579039394855499e-02
5.699265375733375549e-02
-5.082421377301216125e-02
-2.695691585540771484e-02
-8.920089900493621826e-02
-4.336170479655265808e-02
6.328707188367843628e-02
-8.841384947299957275e-02
9.908135980367660522e-02
-5.732613056898117065e-02
-1.370166540145874023e-01
-3.853966947644948959e-03
8.834247291088104248e-02
1.223285570740699768e-01
1.358380615711212158e-01
-1.214631274342536926e-01
3.013011068105697632e-03
-4.068360105156898499e-02
-4.164717718958854675e-02
-1.356783211231231689e-01
-3.775373101234436035e-02
4.857369232922792435e-03
-5.962279438972473145e-02
-1.128072366118431091e-01
7.462136447429656982e-02
-2.623908221721649170e-02
-3.495442122220993042e-02
5.635950341820716858e-02
-2.277852036058902740e-02
1.282956153154373169e-01
-1.647005788981914520e-02
6.446579098701477051e-02
-1.316968258470296860e-02
7.808563858270645142e-02
2.530476078391075134e-02
-6.026016175746917725e-02
2.509866841137409210e-02
-7.709052879363298416e-04
-1.346067190170288086e-01
1.386641431599855423e-02
-8.456520736217498779e-02
7.409597933292388916e-02
-9.717924147844314575e-02
-3.807897865772247314e-02
-2.563489251770079136e-04
5.518402531743049622e-02
8.936730772256851196e-02
-5.545415915548801422e-03
2.868092060089111328e-02
6.672912859357893467e-04
-1.977412030100822449e-02
-1.182535067200660706e-01
-4.565062746405601501e-02
8.572623133659362793e-02
1.138724666088819504e-02
-6.143702566623687744e-02
8.543653041124343872e-02
-7.364547997713088989e-02
1.856065168976783752e-02
5.089535564184188843e-02
3.482715785503387451e-02
-2.955766394734382629e-02
-3.149159625172615051e-02
7.808442413806915283e-02
-1.319078728556632996e-02
-6.103198975324630737e-02
6.375782936811447144e-02
-4.228980839252471924e-02
6.868313252925872803e-02
6.098359450697898865e-02
-1.134906709194183350e-01
4.865798354148864746e-02
-1.474977657198905945e-02
-7.190079241991043091e-02
-5.876983702182769775e-02
-1.061341166496276855e-01
-1.752859540283679962e-02
1.973328925669193268e-02
-3.263835981488227844e-02
-2.796184271574020386e-02
-3.840090334415435791e-02
8.744966238737106323e-02
-1.133554577827453613e-01
-3.021862730383872986e-02
-9.468252956867218018e-02
1.102423891425132751e-01
-3.333467617630958557e-02
4.441566392779350281e-02
-6.485561374574899673e-03
1.452744565904140472e-02
1.212579235434532166e-01
-1.497295033186674118e-02
6.033384427428245544e-02
6.310160458087921143e-02
-7.587961852550506592e-02
7.543641608208417892e-03
-6.447936594486236572e-02
5.061649251729249954e-03
3.156337141990661621e-02
5.733692273497581482e-02
-9.424283169209957123e-03
4.735866561532020569e-02
5.844419822096824646e-03
-9.146960079669952393e-02
1.465341635048389435e-02
1.364548951387405396e-01
-3.811067715287208557e-02
-1.061891838908195496e-01
3.417309001088142395e-02
2.222829312086105347e-02
5.052093788981437683e-02
4.144683852791786194e-02
5.814938992261886597e-02
1.023976653814315796e-01
-1.119847409427165985e-02
-1.144266501069068909e-02
6.555078923702239990e-02
9.639689326286315918e-02
-1.004876792430877686e-01
8.277552574872970581e-02
5.385421961545944214e-02
4.054299741983413696e-02
-5.575705692172050476e-02
3.667579591274261475e-02
-6.391625106334686279e-02
-3.798491507768630981e-02
4.745873436331748962e-02
-4.080733656883239746e-02
3.635197877883911133e-02
4.750194400548934937e-02
5.576918274164199829e-02
-1.085846796631813049e-01
1.900572329759597778e-02
3.776251338422298431e-03
4.993899539113044739e-02
-2.616841159760951996e-02
9.778533130884170532e-02
6.296967715024948120e-02
-7.657468318939208984e-02
-2.342936024069786072e-02
2.274693362414836884e-02
1.075090616941452026e-01
1.083972081542015076e-01
1.345894020050764084e-02
-9.410221129655838013e-02
-4.981874674558639526e-02
6.695677340030670166e-02
-2.982602640986442566e-02
-9.023328125476837158e-02
-2.833068557083606720e-02
5.764298606663942337e-03
-9.740629792213439941e-02
8.293295651674270630e-02
6.173656135797500610e-02
-6.042503565549850464e-02
8.896206505596637726e-03
-1.979069411754608154e-02
9.112038463354110718e-02
3.387301415205001831e-02
4.041169211268424988e-02
3.774387389421463013e-02
7.654839195311069489e-03
5.880931764841079712e-02
4.044532775878906250e-02
2.914825640618801117e-02
-6.745774298906326294e-02
-9.584899991750717163e-02
3.307888656854629517e-02
1.880467869341373444e-02
7.116367667913436890e-02
-4.940249398350715637e-02
-5.712409317493438721e-02
3.050153516232967377e-02
-2.335521206259727478e-02
6.696621328592300415e-02
-7.793883234262466431e-02
-1.069007255136966705e-02
6.544090062379837036e-02
-1.639453135430812836e-02
-6.373862177133560181e-02
-3.017587214708328247e-02
-3.877846896648406982e-02
4.309704899787902832e-02
-7.262159883975982666e-02
1.240065204910933971e-03
-4.482539836317300797e-03
-2.045398810878396034e-03
-9.226645925082266331e-04
5.213560536503791809e-02
4.931208863854408264e-02
-9.616316109895706177e-02
1.503456942737102509e-02
2.332790568470954895e-02
-3.921167179942131042e-02
-6.593581289052963257e-02
-5.116632208228111267e-02
2.200265973806381226e-02
6.721448153257369995e-02
-6.482421606779098511e-02
-1.190575957298278809e-02
-8.648373186588287354e-02
-5.429515615105628967e-02
-3.850843012332916260e-02
-8.643070608377456665e-02
8.574422448873519897e-03
9.446655958890914917e-02
1.343210134655237198e-02
2.906768023967742920e-02
-1.822129450738430023e-02
6.874319165945053101e-02
1.445702929049730301e-02
-5.292965844273567200e-02
1.353799458593130112e-02
3.175647929310798645e-02
5.878413096070289612e-02
9.716223180294036865e-02
3.682034090161323547e-02
-3.084174357354640961e-03
1.030645966529846191e-01
4.768215864896774292e-02
3.050997747777728364e-06
7.630331069231033325e-02
-1.155943349003791809e-01
8.624969422817230225e-02
-4.334032535552978516e-02
-5.616388842463493347e-02
-5.537633597850799561e-02
7.685775309801101685e-02
3.314726054668426514e-02
-5.087085301056504250e-04
1.660466426983475685e-03
-4.638183489441871643e-02
6.459380686283111572e-02
8.455502241849899292e-02
-4.175134003162384033e-02
-6.635210663080215454e-02
-1.097019687294960022e-01
3.337918594479560852e-02
-3.853626921772956848e-02
-5.465051531791687012e-02
1.671028323471546173e-03
6.244874373078346252e-02
-6.605546176433563232e-02
-8.006390929222106934e-02
6.486058980226516724e-02
1.077309921383857727e-01
3.203097358345985413e-02
9.956249967217445374e-03
2.673906274139881134e-03
-7.572627812623977661e-02
6.933445576578378677e-03
6.327769160270690918e-02
-6.034961342811584473e-02
-2.063944004476070404e-02
-4.089815169572830200e-02
-4.343005642294883728e-02
-1.972918026149272919e-02
2.651845663785934448e-02
-3.027501748874783516e-03
1.883601024746894836e-02
-5.248506367206573486e-02
-5.496471002697944641e-02
1.694080233573913574e-01
-4.165225103497505188e-02
-4.717549309134483337e-02
6.584283709526062012e-02
3.265266492962837219e-02
9.265842288732528687e-02
7.666828110814094543e-03
1.525714099407196045e-01
2.662655897438526154e-02
3.797959303483366966e-03
-9.067697077989578247e-02
1.549180131405591965e-02
4.285549279302358627e-03
-5.975047871470451355e-02
-8.875067532062530518e-02
5.212435498833656311e-02
-1.322488673031330109e-02
-2.272005937993526459e-02
-7.961845956742763519e-03
7.401209324598312378e-02
-4.682983085513114929e-02
7.826951891183853149e-02
8.408406574744731188e-05
8.961325883865356445e-02
7.461593300104141235e-02
1.789452135562896729e-02
3.615386039018630981e-02
-1.048370078206062317e-02
-2.001012675464153290e-02
-6.594048440456390381e-02
7.608745992183685303e-02
-2.152995206415653229e-02
-4.976270720362663269e-02
1.072323042899370193e-02
-5.945597961544990540e-02
1.025873050093650818e-01
-7.044101133942604065e-03
-5.360449478030204773e-02
-4.233926534652709961e-03
-3.684643656015396118e-02
1.935302279889583588e-02
-1.025326270610094070e-02
-2.195136435329914093e-02
3.436832502484321594e-02
7.771907746791839600e-02
-2.814537659287452698e-02
-5.344833713024854660e-03
-1.520372461527585983e-04
2.296933531761169434e-02
2.468777261674404144e-02
-6.314007192850112915e-02
-1.393592804670333862e-01
3.467182442545890808e-02
-1.092096120119094849e-01
-3.331280872225761414e-02
-7.337994407862424850e-03
3.112962655723094940e-02
-2.541132271289825439e-03
-3.922912478446960449e-02
-2.391839772462844849e-02
4.052475094795227051e-02
-1.719206385314464569e-02
2.513837255537509918e-02
3.592356294393539429e-02
-5.601490382105112076e-03
3.045557066798210144e-02
4.630433395504951477e-02
-6.099484115839004517e-02
-4.987225681543350220e-02
-2.968238852918148041e-02
-6.516376137733459473e-02
6.959182769060134888e-02
6.845097243785858154e-02
-2.469233050942420959e-02
4.147453233599662781e-03
-3.743912652134895325e-02
1.881278492510318756e-02
-8.555714786052703857e-02
-2.761117555201053619e-02
6.586000323295593262e-02
2.862991392612457275e-02
8.225102722644805908e-02
7.762405276298522949e-02
2.265216037631034851e-02
2.001276239752769470e-02
3.273207321763038635e-02
-1.112181786447763443e-02
7.772026211023330688e-02
-5.546172335743904114e-02
-7.709123659878969193e-03
-9.488024748861789703e-03
1.911449828185141087e-03
2.972999587655067444e-02
-3.056627698242664337e-02
-1.682878471910953522e-03
2.307790331542491913e-02
-8.989272266626358032e-02
-2.025647088885307312e-02
1.046032644808292389e-02
6.562485545873641968e-02
2.099656127393245697e-02
-4.164645820856094360e-02
-2.073169872164726257e-02
1.102612912654876709e-02
1.280415803194046021e-01
-5.805395543575286865e-02
1.679378189146518707e-02
-6.371758133172988892e-02
-7.296444848179817200e-03
2.424833178520202637e-02
1.442806981503963470e-02
-3.996643424034118652e-02
4.247933998703956604e-02
2.634550258517265320e-02
1.992201060056686401e-02
3.782714903354644775e-02
-2.648189198225736618e-03
6.885172426700592041e-02
-1.402944177389144897e-01
8.470676839351654053e-02
1.495717745274305344e-02
-3.216258436441421509e-02
-4.407570511102676392e-02
-7.874337956309318542e-03
8.659151941537857056e-02
2.502445317804813385e-02
8.733426220715045929e-04
2.546332031488418579e-02
4.539096727967262268e-02
3.693278133869171143e-02
-4.764839634299278259e-02
-4.932785872370004654e-03
2.115689776837825775e-02
7.061349600553512573e-02
-8.889447897672653198e-02
5.924817919731140137e-02
3.662950173020362854e-02
6.602333486080169678e-02
-5.373863130807876587e-02
-1.586655341088771820e-02
3.756781667470932007e-02
4.231128841638565063e-02
5.579360574483871460e-02
-1.298876944929361343e-02
6.749652326107025146e-02
7.747304043732583523e-04
-4.416308179497718811e-02
3.007437102496623993e-02
1.599900983273983002e-02
1.673315465450286865e-02
6.082433834671974182e-02
-4.600542038679122925e-02
3.386089578270912170e-02
5.329733714461326599e-02
9.184060245752334595e-02
5.470255762338638306e-02
-1.001744996756315231e-03
-2.028104662895202637e-02
-5.438624694943428040e-02
6.082484498620033264e-03
-1.303960382938385010e-02
1.033988446579314768e-04
1.015819162130355835e-01
7.304299622774124146e-02
-8.829267695546150208e-03
-1.616181805729866028e-02
8.097311854362487793e-02
-6.637264788150787354e-02
-6.956659257411956787e-02
4.277567565441131592e-02
-7.084817439317703247e-02
9.444547444581985474e-02
8.822908997535705566e-02
-6.822592765092849731e-02
8.088508248329162598e-02
-2.477077208459377289e-02
1.875304244458675385e-02
-7.139579392969608307e-03
4.340590443462133408e-03
-1.206789463758468628e-01
-2.383019961416721344e-02
-9.510345011949539185e-02
5.242018029093742371e-03
-6.693369895219802856e-02
1.784721016883850098e-02
-5.264460295438766479e-02
-7.442832738161087036e-02
7.597732543945312500e-02
-8.868766017258167267e-03
-1.900093257427215576e-02
-1.475385576486587524e-02
-6.981307268142700195e-02
-5.177785828709602356e-02
3.608426824212074280e-02
5.082196742296218872e-02
-1.033062231726944447e-03
1.237666606903076172e-02
-3.422887297347187996e-03
-3.842999413609504700e-02
8.816792070865631104e-02
-2.025352604687213898e-02
-1.969341374933719635e-02
-5.518241785466670990e-03
2.542855031788349152e-02
-3.343592956662178040e-02
-5.126163735985755920e-02
5.997062660753726959e-03
5.673906207084655762e-02
1.262298673391342163e-01
8.469213545322418213e-02
3.951172158122062683e-02
1.158728227019309998e-01
-4.663062095642089844e-02
-9.556218236684799194e-02
-3.100658021867275238e-02
5.736039578914642334e-02
1.266136392951011658e-02
-3.230267018079757690e-02
-7.017730176448822021e-02
-2.282814867794513702e-02
-1.139174103736877441e-01
7.576936855912208557e-03
4.874700307846069336e-02
2.761824615299701691e-02
1.473855576477944851e-03
-3.856021538376808167e-02
-4.026138037443161011e-02
4.344797879457473755e-02
-1.058887597173452377e-02
6.212520226836204529e-02
-7.839231193065643311e-02
-2.132145315408706665e-02
7.144753634929656982e-02
-6.189197301864624023e-03
-2.500709518790245056e-02
2.671450749039649963e-02
-1.360057890415191650e-01
1.004440113902091980e-01
-6.439013034105300903e-02
-6.335041020065546036e-03
8.738631755113601685e-02
-5.534124746918678284e-02
6.743009388446807861e-02
6.900209933519363403e-02
-4.309632256627082825e-02
7.315912842750549316e-02
-1.194343194365501404e-01
1.386867314577102661e-01
1.279015243053436279e-01
-2.002828055992722511e-03
-5.583444610238075256e-02
2.420951798558235168e-02
1.025474071502685547e-02
3.220339072868227959e-03
7.435806095600128174e-02
-8.004953712224960327e-02
1.083257421851158142e-01
6.757757812738418579e-02
-1.884513534605503082e-02
-1.199945509433746338e-01
5.091809481382369995e-02
8.216091990470886230e-02
-3.586136968806385994e-03
7.423783093690872192e-02
7.775662094354629517e-02
2.909999713301658630e-02
-8.109176903963088989e-02
-1.726257987320423126e-02
1.027763411402702332e-01
-4.406734928488731384e-02
9.627796709537506104e-02
6.434362847357988358e-03
6.510607153177261353e-02
-1.255607977509498596e-02
-3.354119881987571716e-02
1.542381756007671356e-02
7.308399677276611328e-02
4.221569001674652100e-02
5.907863005995750427e-02
-5.877259373664855957e-02
1.010677441954612732e-01
4.960539517924189568e-04
4.725037515163421631e-02
-1.200133562088012695e-02
-9.277615696191787720e-02
-2.994666248559951782e-02
-6.370820105075836182e-02
6.637103389948606491e-03
3.062330000102519989e-02
1.970248483121395111e-02
-7.035078946501016617e-03
3.088622912764549255e-02
6.272768229246139526e-02
-1.169125363230705261e-01
-3.660811809822916985e-03
-8.061618357896804810e-02
2.765549346804618835e-02
9.003659337759017944e-02
-8.734785020351409912e-02
5.328436195850372314e-02
5.970464646816253662e-02
-3.985591232776641846e-02
-1.001822063699364662e-03
-1.305667310953140259e-01
2.756067365407943726e-02
-2.081574685871601105e-02
-4.694631323218345642e-02
-6.153867393732070923e-02
7.567597180604934692e-02
-2.216243185102939606e-02
1.334201544523239136e-01
2.017124788835644722e-03
6.243840605020523071e-02
4.026874527335166931e-02
-7.830728590488433838e-02
1.865743892267346382e-03
-9.632177650928497314e-02
-7.741536479443311691e-03
-3.368131443858146667e-02
-1.072499379515647888e-01
1.624013110995292664e-02
1.818114519119262695e-02
1.124244928359985352e-02
-2.996706403791904449e-02
-2.696926333010196686e-02
-3.021961636841297150e-02
-2.840943634510040283e-02
1.112133115530014038e-01
4.324362426996231079e-02
2.633459307253360748e-02
1.197354402393102646e-02
-2.613914571702480316e-02
1.183712109923362732e-01
-1.049405783414840698e-01
7.435932755470275879e-02
5.728049203753471375e-02
7.657649368047714233e-02
5.136976018548011780e-02
8.856484293937683105e-02
1.588800400495529175e-01
-1.889327354729175568e-02
-4.034008830785751343e-02
-5.984967201948165894e-02
-4.667582921683788300e-03
-1.932361396029591560e-03
7.402885705232620239e-02
-5.613998696208000183e-02
1.455706264823675156e-02
-9.306452423334121704e-02
-7.438959088176488876e-03
-5.568528082221746445e-03
1.529450761154294014e-03
-1.010252609848976135e-01
5.351189151406288147e-02
-5.127802863717079163e-02
-2.401801384985446930e-02
6.898269988596439362e-03
5.265920236706733704e-02
-9.252844005823135376e-02
-5.631506070494651794e-02
9.961653500795364380e-02
-1.882545650005340576e-02
5.921885371208190918e-03
-6.429748237133026123e-02
-1.253443807363510132e-01
2.171530760824680328e-02
3.127526491880416870e-02
7.629325985908508301e-02
-2.388719841837882996e-02
-1.763800345361232758e-02
6.388774514198303223e-02
7.732438296079635620e-02
5.043500661849975586e-02
-3.985580056905746460e-02
-1.318890601396560669e-01
6.792075932025909424e-02
3.236958011984825134e-02
-6.606566905975341797e-02
-1.070030704140663147e-01
9.761502593755722046e-02
1.051236875355243683e-02
3.146373480558395386e-02
-1.772212982177734375e-02
1.609592436579987407e-04
1.630151867866516113e-01
2.644880674779415131e-02
1.239096838980913162e-02
-9.904806315898895264e-02
6.633750349283218384e-02
3.805829584598541260e-02
-6.400033086538314819e-02
9.950542449951171875e-02
6.581374257802963257e-02
7.431755959987640381e-02
-1.518279612064361572e-01
3.857920691370964050e-02
6.236963346600532532e-02
4.312291368842124939e-02
5.122404918074607849e-02
-7.724646478891372681e-02
-2.198464982211589813e-02
3.078300505876541138e-02
1.808008551597595215e-02
1.193681824952363968e-02
3.746937587857246399e-02
2.632381953299045563e-02
8.878340572118759155e-02
-4.326693341135978699e-02
7.807131856679916382e-02
-4.959837533533573151e-03
8.605390042066574097e-02
1.639938913285732269e-02
-3.892895579338073730e-02
6.483964622020721436e-02
-3.533648699522018433e-02
6.350089609622955322e-02
3.006896376609802246e-02
-1.672592200338840485e-02
8.049086481332778931e-02
-6.557294726371765137e-02
9.763029217720031738e-02
-1.417151093482971191e-01
4.537203535437583923e-02
-5.561782978475093842e-03
2.319756662473082542e-03
5.604867637157440186e-02
-1.026091650128364563e-01
9.591438621282577515e-02
7.114583253860473633e-02
-2.593690901994705200e-02
-1.142783905379474163e-03
-9.222140163183212280e-02
-5.257133394479751587e-03
3.246581926941871643e-02
-2.294715121388435364e-02
-1.492277234792709351e-01
-4.519645869731903076e-02
-1.517638564109802246e-01
8.022389560937881470e-02
-9.136365354061126709e-02
-1.295163948088884354e-02
-7.707181572914123535e-02
-1.356941908597946167e-01
-2.762950025498867035e-02
-4.438007250428199768e-03
-8.728829212486743927e-03
8.391912095248699188e-03
-4.305774345993995667e-02
7.968050986528396606e-02
-6.068833917379379272e-02
-2.234946191310882568e-02
-4.279524832963943481e-02
-7.005553925409913063e-04
6.350430846214294434e-02
8.825722336769104004e-02
5.959960818290710449e-02
7.944590598344802856e-02
9.179501980543136597e-02
5.866942554712295532e-02
-5.671542510390281677e-02
2.764766290783882141e-02
-1.404278352856636047e-02
5.084541812539100647e-02
-3.299342095851898193e-02
4.382636398077011108e-02
-6.999040953814983368e-03
5.465099960565567017e-02
1.453884392976760864e-01
-1.909813284873962402e-02
-3.614552319049835205e-02
1.141390483826398849e-02
4.524087160825729370e-02
2.239486202597618103e-02
-1.936320960521697998e-02
-7.522410154342651367e-02
3.655413165688514709e-02
-4.856966063380241394e-02
-3.843462839722633362e-02
-2.502048201858997345e-02
-1.354904472827911377e-02
-3.601068630814552307e-02
-1.817843317985534668e-02
-3.212860226631164551e-02
1.253247410058975220e-01
1.687086187303066254e-02
-5.237396433949470520e-02
3.200212959200143814e-03
-1.594948396086692810e-02
-1.008867286145687103e-02
3.292307024821639061e-03
1.019050180912017822e-02
-5.941621586680412292e-02
-9.953238070011138916e-03
-4.128822684288024902e-02
1.611602678894996643e-02
5.687266588211059570e-02
5.013559013605117798e-02
1.150171458721160889e-01
-6.018827483057975769e-02
-3.793995827436447144e-02
-2.449653670191764832e-02
2.804192528128623962e-02
1.929892972111701965e-02
1.799362897872924805e-02
5.365394055843353271e-02
-5.601219832897186279e-02
-9.433260560035705566e-02
-6.974349729716777802e-03
1.801200769841670990e-02
-8.473077416419982910e-02
-5.467772483825683594e-03
-5.075943842530250549e-02
1.310659199953079224e-01
-1.520490646362304688e-02
-2.488351985812187195e-02
3.040673024952411652e-02
1.949944160878658295e-02
8.254967629909515381e-02
3.207261115312576294e-02
1.048885956406593323e-01
7.364176213741302490e-02
-1.727446541190147400e-02
-1.191324368119239807e-01
6.296811252832412720e-02
-2.218830585479736328e-02
-8.342807739973068237e-02
6.944470852613449097e-02
-1.732991635799407959e-02
-1.579265296459197998e-02
-7.961667329072952271e-02
-1.480567548424005508e-02
-1.071321964263916016e-02
-6.682316958904266357e-02
-2.957220748066902161e-02
9.321930259466171265e-02
8.137423545122146606e-02
8.366985619068145752e-02
-3.377806395292282104e-02
2.397096343338489532e-02
-1.551577472127974033e-03
1.441180356778204441e-03
-2.891176752746105194e-02
5.617311224341392517e-02
-1.656753756105899811e-02
-6.958591192960739136e-02
3.058608621358871460e-03
7.350696623325347900e-02
3.570944443345069885e-02
-4.651358723640441895e-02
-9.014797396957874298e-03
7.239837944507598877e-02
-5.784009583294391632e-03
4.932738095521926880e-02
-1.223787694470956922e-04
-9.086236357688903809e-02
4.944313783198595047e-03
2.590318210422992706e-02
-9.666712023317813873e-03
-2.503787353634834290e-02
-3.082169219851493835e-02
3.186735138297080994e-02
-2.620259858667850494e-02
-3.287553787231445312e-02
-1.036826893687248230e-02
-7.442964613437652588e-02
-1.192599087953567505e-01
5.169580131769180298e-02
-3.741598129272460938e-02
8.638308197259902954e-02
-7.953520864248275757e-02
-8.094906806945800781e-02
3.824196755886077881e-02
-1.449919072911143303e-03
8.513152599334716797e-03
-1.727426890283823013e-03
1.900812238454818726e-02
-2.424072287976741791e-02
-9.052933752536773682e-02
-5.321685597300529480e-02
1.179763861000537872e-02
-1.406420953571796417e-02
-3.662276268005371094e-02
-2.690361253917217255e-02
5.476048216223716736e-02
-8.957266807556152344e-03
1.773739606142044067e-02
-6.945087015628814697e-02
2.006921172142028809e-02
-2.802851982414722443e-02
2.169129997491836548e-02
1.003114953637123108e-01
-1.432349527021870017e-04
9.135094285011291504e-02
6.643419712781906128e-02
5.052917078137397766e-02
1.937217451632022858e-02
-6.438893731683492661e-03
1.070056576281785965e-02
5.792643129825592041e-02
9.535061568021774292e-02
3.102163225412368774e-02
2.086322940886020660e-02
-1.524751819670200348e-02
-8.890647441148757935e-03
1.998322457075119019e-02
6.439848244190216064e-02
-4.496434703469276428e-02
-4.015826433897018433e-02
4.823503084480762482e-03
1.028280798345804214e-02
7.800168357789516449e-03
1.347417980432510376e-01
-6.188011169433593750e-02
4.232064262032508850e-02
-9.454853087663650513e-02
3.188905119895935059e-02
-5.046356469392776489e-03
3.709641471505165100e-02
-1.224688347429037094e-02
-1.561844139359891415e-03
7.351725827902555466e-03
3.267298638820648193e-02
5.228072777390480042e-02
6.074320897459983826e-02
-4.033565893769264221e-02
5.616201460361480713e-02
-5.448016524314880371e-02
-1.386124640703201294e-02
-1.061152853071689606e-02
9.898308664560317993e-02
-1.148529909551143646e-02
-6.272841244935989380e-03
4.739877209067344666e-02
-4.157011862844228745e-03
3.918825089931488037e-02
-1.297994889318943024e-02
-4.289173334836959839e-02
-6.276029348373413086e-02
5.537800490856170654e-02
-5.199804529547691345e-02
8.771389722824096680e-02
-8.449872257187962532e-04
-2.224194444715976715e-02
1.810952904634177685e-03
-9.194433689117431641e-02
7.562141120433807373e-02
4.434270411729812622e-02
9.869612753391265869e-02
9.053619951009750366e-02
5.850275605916976929e-02
-2.071006968617439270e-02
-2.613159269094467163e-02
-1.743619889020919800e-02
3.295459598302841187e-02
5.288852006196975708e-02
2.854031510651111603e-02
-5.418485775589942932e-02
-3.753057122230529785e-02
5.361044406890869141e-02
-1.387280691415071487e-02
2.719982527196407318e-02
-5.170591175556182861e-02
1.424984633922576904e-02
5.654696002602577209e-02
1.235690116882324219e-01
-3.099901787936687469e-02
2.232507616281509399e-02
3.538399562239646912e-02
-7.495430111885070801e-02
-1.375956553965806961e-02
-2.502029202878475189e-02
-2.944865822792053223e-02
-4.996062442660331726e-02
7.624686695635318756e-04
9.091894328594207764e-02
8.727069944143295288e-02
-7.910876721143722534e-02
-7.602968066930770874e-02
-7.705530617386102676e-03
-7.152540981769561768e-02
1.780095696449279785e-02
-2.355902828276157379e-02
-9.755919873714447021e-02
3.908858168870210648e-03
-9.614971466362476349e-03
-6.391681730747222900e-02
7.805499434471130371e-02
2.189403399825096130e-02
7.685307413339614868e-02
4.497183114290237427e-02
-6.621061265468597412e-02
-9.742526710033416748e-02
-4.307256639003753662e-02
-5.276408419013023376e-02
1.127179786562919617e-01
5.632304772734642029e-02
6.008544936776161194e-02
-3.388864919543266296e-02
2.304030209779739380e-02
4.470067843794822693e-02
-4.360769689083099365e-02
-2.644069492816925049e-02
-4.058821126818656921e-02
-3.523873165249824524e-03
4.154008999466896057e-02
2.364811860024929047e-02
6.811585277318954468e-03
-3.291704505681991577e-02
-8.118829876184463501e-02
-7.434428483247756958e-02
-2.700245194137096405e-02
1.015078276395797729e-01
-1.887962594628334045e-02
3.015521541237831116e-02
-1.510065793991088867e-02
6.367303431034088135e-02
6.493772566318511963e-02
9.308518841862678528e-03
8.326672762632369995e-02
1.468464266508817673e-02
1.207990050315856934e-01
3.556870669126510620e-02
7.549934089183807373e-02
3.680986119434237480e-03
1.573157496750354767e-02
-4.736826568841934204e-02
-2.359245270490646362e-01
-7.802316546440124512e-02
2.685643173754215240e-02
8.975376188755035400e-02
-1.086974889039993286e-02
1.733208000659942627e-01
-4.967485554516315460e-03
1.477511525154113770e-01
-4.159891232848167419e-02
-2.422163262963294983e-02
-8.722425252199172974e-02
2.051089107990264893e-01
-1.603375524282455444e-01
-1.699133589863777161e-02
-6.544103380292654037e-03
1.112626641988754272e-01
-2.129330635070800781e-01
-1.984673142433166504e-01
1.285371482372283936e-01
-1.694024205207824707e-01
-4.209081828594207764e-02
-2.440513521432876587e-01
-1.792458295822143555e-01
4.578535631299018860e-02
-6.820271164178848267e-02
7.761098444461822510e-02
8.134244382381439209e-02
8.143291622400283813e-02
1.204014569520950317e-01
2.492104843258857727e-02
1.751409657299518585e-02
9.582995623350143433e-02
3.072096779942512512e-02
-4.901817440986633301e-02
8.341763913631439209e-02
-1.642337441444396973e-02
-2.208960503339767456e-01
2.195761799812316895e-01
1.394339501857757568e-01
-9.537579491734504700e-03
9.250234067440032959e-02
1.398243159055709839e-01
1.354243904352188110e-01
2.136802971363067627e-01
-2.492072135210037231e-01
-9.030275046825408936e-02
7.354739308357238770e-02
1.995289921760559082e-01
-1.592643707990646362e-01
3.564533591270446777e-02
2.109254337847232819e-02
9.867330640554428101e-02
-1.780245751142501831e-01
1.086723953485488892e-01
9.138539433479309082e-03
5.729512777179479599e-03
1.303205192089080811e-01
-2.424218356609344482e-01
1.486858278512954712e-01
-6.173086538910865784e-02
-1.909962445497512817e-01
1.356612145900726318e-01
4.072587564587593079e-02
-2.308545857667922974e-01
1.269154250621795654e-01
4.641089960932731628e-02
1.116168498992919922e-01
-2.363028824329376221e-01
1.199388802051544189e-01
-1.236657872796058655e-01
-1.249372726306319237e-03
2.200181037187576294e-01
-2.799118682742118835e-02
8.265224099159240723e-02
1.831884384155273438e-01
1.089812293648719788e-01
1.923003941774368286e-01
-1.289034634828567505e-01
1.187847182154655457e-01
-2.504258453845977783e-01
1.309931278228759766e-01
-9.652450680732727051e-02
-8.578992635011672974e-02
1.374965757131576538e-01
-2.828157246112823486e-01
1.406692266464233398e-01
2.503659725189208984e-01
8.162753283977508545e-02
1.122007369995117188e-01
-5.915013700723648071e-02
-3.701241686940193176e-02
2.094772905111312866e-01
-2.044721692800521851e-01
-2.237116992473602295e-01
-1.695141196250915527e-01
-2.306316494941711426e-01
1.412709206342697144e-01
-2.933582067489624023e-01
1.876419931650161743e-01
-8.527555316686630249e-02
-1.958002746105194092e-01
5.345761030912399292e-02
-4.961798340082168579e-02
8.105043321847915649e-02
-7.934396713972091675e-02
8.909665793180465698e-02
2.915952540934085846e-02
-1.827253550291061401e-01
-3.003798052668571472e-02
-9.998681023716926575e-03
8.101822435855865479e-02
7.549293339252471924e-02
1.049589887261390686e-01
8.652984350919723511e-02
1.336417198181152344e-01
6.257999688386917114e-02
1.004042997956275940e-01
-2.039127349853515625e-01
1.450733542442321777e-01
-2.195573449134826660e-01
2.610969245433807373e-01
-1.711015403270721436e-01
1.568205207586288452e-01
8.483952283859252930e-02
9.039994329214096069e-02
8.791938424110412598e-02
-1.680026799440383911e-01
1.180739142000675201e-02
-1.132110580801963806e-01
-1.363746263086795807e-02
-1.573105603456497192e-01
1.983377933502197266e-01
1.890932442620396614e-03
1.349193155765533447e-01
-7.561321835964918137e-04
1.978528648614883423e-01
-7.100347429513931274e-02
2.794669382274150848e-02
1.354171801358461380e-02
1.564515829086303711e-01
-2.259865254163742065e-01
1.346241123974323273e-02
2.227190323173999786e-02
1.090806201100349426e-01
-2.530609667301177979e-01
-1.768647730350494385e-01
1.466011404991149902e-01
-2.151671350002288818e-01
-5.809038504958152771e-02
-1.718835085630416870e-01
-2.436451464891433716e-01
-3.865734487771987915e-02
1.168889924883842468e-03
1.002983152866363525e-01
-5.470862239599227905e-02
1.641421616077423096e-01
5.751340091228485107e-02
2.777595259249210358e-02
1.181558668613433838e-01
6.773269176483154297e-02
8.643102645874023438e-02
-1.533391140401363373e-02
7.088510692119598389e-02
-4.227472841739654541e-02
-2.101531326770782471e-01
1.389514207839965820e-01
-1.477326080203056335e-02
-9.546891786158084869e-03
-6.568224728107452393e-02
1.568274646997451782e-01
4.496321827173233032e-02
1.422939002513885498e-01
-2.306929528713226318e-01
2.708880789577960968e-02
8.904525637626647949e-02
2.399536669254302979e-01
-2.695232331752777100e-01
1.533734649419784546e-01
7.466393709182739258e-02
3.769394382834434509e-02
-2.287907898426055908e-01
5.416896194219589233e-02
1.328623946756124496e-02
-2.001724764704704285e-02
-1.961910910904407501e-02
-2.432744801044464111e-01
-2.168877795338630676e-02
-1.789898574352264404e-01
-1.276981085538864136e-01
1.043332144618034363e-01
-2.170956507325172424e-02
-1.606947928667068481e-01
9.212103486061096191e-02
1.069000139832496643e-01
4.869141429662704468e-02
-2.299078106880187988e-01
6.334346532821655273e-02
-3.093132935464382172e-02
-5.053151771426200867e-02
1.537658274173736572e-01
9.046473354101181030e-02
2.386159822344779968e-02
9.156014770269393921e-02
-1.681520603597164154e-02
8.214280009269714355e-02
-9.431217610836029053e-02
9.609346091747283936e-02
-2.067052870988845825e-01
3.457650542259216309e-02
-8.492063730955123901e-02
-5.850684270262718201e-02
7.977177947759628296e-02
-2.487982511520385742e-01
4.468290880322456360e-02
1.554743498563766479e-01
2.706302329897880554e-02
4.363769665360450745e-02
1.055965572595596313e-01
-2.705260552465915680e-02
1.893452852964401245e-01
-1.384404152631759644e-01
-2.195648103952407837e-01
-2.482858151197433472e-01
-2.792458236217498779e-01
-2.102958038449287415e-02
-2.883741557598114014e-01
1.975475996732711792e-01
-1.036980226635932922e-01
-8.796735107898712158e-02
-6.433130055665969849e-02
-8.984558284282684326e-02
1.185077056288719177e-01
-4.558204859495162964e-02
9.514963626861572266e-02
1.990344375371932983e-03
-2.014036476612091064e-01
-6.131118163466453552e-02
-4.032160341739654541e-02
9.684520214796066284e-02
-6.881535798311233521e-02
-3.008419647812843323e-03
6.148725748062133789e-02
3.119084052741527557e-02
6.788156926631927490e-02
1.589553654193878174e-01
-1.103292182087898254e-01
1.068180799484252930e-01
-1.926753818988800049e-01
2.515362799167633057e-01
-2.365929633378982544e-01
5.514758452773094177e-02
1.104989722371101379e-01
5.587709695100784302e-02
-2.405432425439357758e-02
-1.984556168317794800e-01
7.863367348909378052e-02
1.899738013744354248e-01
1.043296381831169128e-01
-1.322372704744338989e-01
3.438638290390372276e-03
1.834909780882298946e-03
-8.670030534267425537e-02
1.393684744834899902e-01
-4.146228358149528503e-02
4.285644739866256714e-02
1.387638002634048462e-01
-9.637062251567840576e-02
-1.909836940467357635e-02
9.227000921964645386e-02
1.131853088736534119e-01
8.560547977685928345e-02
-4.365604370832443237e-02
6.804736703634262085e-02
1.135882139205932617e-01
-5.801239050924777985e-03
1.464975774288177490e-01
1.278112977743148804e-01
1.102173700928688049e-01
1.395998746156692505e-01
-8.988294005393981934e-02
1.341069191694259644e-01
8.282604813575744629e-02
-1.752436161041259766e-01
2.130288481712341309e-01
-1.056911200284957886e-01
-1.076425164937973022e-01
-7.734712213277816772e-02
1.554490476846694946e-01
5.667528137564659119e-02
-8.375717699527740479e-02
-1.678367145359516144e-02
-1.183180436491966248e-01
2.322722412645816803e-02
-7.585760951042175293e-02
-9.495797753334045410e-02
-1.444841027259826660e-01
-1.265967041254043579e-01
-1.292482763528823853e-01
1.650421321392059326e-01
-1.299807131290435791e-01
3.738483041524887085e-02
3.714544326066970825e-02
-6.294420361518859863e-02
-7.419691234827041626e-02
1.176554188132286072e-01
6.893511861562728882e-02
2.193498164415359497e-01
-6.128026172518730164e-02
3.372520580887794495e-02
-6.235422566533088684e-03
-2.272851765155792236e-02
-9.915971755981445312e-02
-1.144704073667526245e-01
1.381787955760955811e-01
-1.173661425709724426e-01
-1.333147883415222168e-01
7.672356814146041870e-02
-8.189085125923156738e-02
-1.551954448223114014e-01
5.554147064685821533e-02
-7.537516206502914429e-02
1.976699531078338623e-01
-1.727559231221675873e-02
2.857376588508486748e-03
1.178302392363548279e-01
5.839825794100761414e-02
7.571833580732345581e-02
-5.583523586392402649e-02
1.025245860219001770e-01
-1.355705857276916504e-01
-1.786892265081405640e-01
-1.246887296438217163e-01
-1.289197057485580444e-01
1.257645934820175171e-01
-7.675526291131973267e-02
2.085368521511554718e-02
-1.282037049531936646e-01
1.059112623333930969e-01
2.330535836517810822e-02
-8.209759742021560669e-02
1.220748573541641235e-01
-1.046296805143356323e-01
-1.474520117044448853e-01
-1.545038372278213501e-01
-1.075928956270217896e-01
1.798636317253112793e-01
2.039139717817306519e-01
-2.920458558946847916e-03
9.955865889787673950e-02
1.247049719095230103e-01
-1.802282407879829407e-03
9.542046487331390381e-02
-8.959354460239410400e-02
3.190904110670089722e-02
-1.164192408323287964e-01
4.658081382513046265e-02
1.169574782252311707e-01
-1.451961249113082886e-01
1.203751415014266968e-01
-5.917135253548622131e-02
1.679018139839172363e-01
2.179993093013763428e-01
-1.838491410017013550e-01
7.907538115978240967e-02
-1.410820037126541138e-01
-1.984553188085556030e-01
-1.362529247999191284e-01
-1.897064894437789917e-01
-9.056147187948226929e-02
2.197517454624176025e-01
-8.414667099714279175e-02
-7.083864510059356689e-02
-1.826361864805221558e-01
1.353355795145034790e-01
-5.260250717401504517e-02
1.226183027029037476e-01
-7.277145981788635254e-03
1.090127825736999512e-01
-4.879400506615638733e-02
1.951248794794082642e-01
-1.121874675154685974e-01
-7.068309187889099121e-02
1.374878883361816406e-01
7.863602042198181152e-02
1.168710663914680481e-01
1.130555197596549988e-01
-1.318158358335494995e-01
-6.462534517049789429e-02
-9.677962213754653931e-02
-9.737972170114517212e-02
-6.396825425326824188e-03
9.590150439180433750e-04
-1.023846585303544998e-02
1.263034492731094360e-01
-2.974304603412747383e-03
-5.445126909762620926e-03
2.587177231907844543e-02
1.127457171678543091e-01
4.955703020095825195e-02
-1.395548414438962936e-02
7.604076713323593140e-02
-1.339396554976701736e-02
3.715089336037635803e-02
6.675264984369277954e-02
1.185863018035888672e-01
2.122207358479499817e-02
1.096409410238265991e-01
-1.211566478013992310e-01
2.836130326613783836e-03
1.507175862789154053e-01
-1.192657202482223511e-01
5.607891082763671875e-02
-1.393445730209350586e-01
-3.693700954318046570e-02
-4.059696570038795471e-02
6.646942347288131714e-02
1.481619011610746384e-02
-4.971424862742424011e-02
4.999417439103126526e-02
-1.625088751316070557e-01
-2.394584380090236664e-02
-5.633514001965522766e-02
-1.334647238254547119e-01
-1.570812463760375977e-01
-2.704968303442001343e-02
-1.409901678562164307e-01
8.464046567678451538e-02
-8.110459893941879272e-02
-2.080454118549823761e-02
-2.240636385977268219e-02
-7.060128450393676758e-02
3.165909275412559509e-02
6.265760958194732666e-02
3.476842865347862244e-02
7.747790962457656860e-02
-1.420585066080093384e-01
-1.368925720453262329e-02
-6.772187352180480957e-02
-6.322434544563293457e-02
-3.684045001864433289e-02
-2.026617713272571564e-02
1.673061773180961609e-02
-1.696214266121387482e-02
-7.887224107980728149e-02
1.933948323130607605e-02
-6.324503570795059204e-02
-9.874291718006134033e-02
4.493063315749168396e-02
3.867447376251220703e-02
1.883942186832427979e-01
-2.412515692412853241e-02
7.831849902868270874e-02
7.819642126560211182e-02
8.031954616308212280e-02
8.455685526132583618e-02
4.472195636481046677e-03
1.173270046710968018e-01
-4.245924204587936401e-02
-9.422174841165542603e-02
-8.515515923500061035e-02
2.778028324246406555e-02
1.350102126598358154e-01
-7.284040004014968872e-02
9.019718319177627563e-02
-1.193448379635810852e-01
-1.032334379851818085e-02
-9.669206105172634125e-03
8.833881467580795288e-03
4.947223141789436340e-02
-9.709596633911132812e-02
-2.521919086575508118e-02
-2.909223549067974091e-02
-2.727217786014080048e-02
8.433499932289123535e-02
1.847130209207534790e-01
-1.835482940077781677e-02
-2.597649209201335907e-02
6.101047620177268982e-02
-2.775130607187747955e-02
7.372815907001495361e-02
-8.674320764839649200e-03
-9.895977564156055450e-03
-2.619811706244945526e-02
4.833751171827316284e-02
7.358439266681671143e-02
-1.116702854633331299e-01
1.108833327889442444e-01
-2.996288798749446869e-02
6.999986711889505386e-03
2.068644016981124878e-01
-1.265637874603271484e-01
-2.218167297542095184e-02
-1.151896566152572632e-01
-1.005390882492065430e-01
-5.525284260511398315e-02
-1.395230740308761597e-02
-1.287589818239212036e-01
1.694485396146774292e-01
-1.024014204740524292e-01
-5.791549384593963623e-02
-4.342969134449958801e-02
1.205003038048744202e-01
-5.786758661270141602e-02
2.955933846533298492e-02
1.282722339965403080e-03
-1.971905864775180817e-02
-2.787592075765132904e-02
9.572786092758178711e-02
-2.050341106951236725e-02
-3.597197309136390686e-02
1.069244220852851868e-01
1.394324842840433121e-02
8.097465033642947674e-04
9.087882936000823975e-02
-2.777929976582527161e-02
-1.910542510449886322e-02
-3.005889244377613068e-02
-1.528200600296258926e-02
3.713807091116905212e-02
2.948214299976825714e-02
8.642651140689849854e-03
1.827724836766719818e-02
-1.182619333267211914e-01
7.358566392213106155e-03
-2.168417535722255707e-02
1.157504841685295105e-01
6.558926403522491455e-02
-7.006398588418960571e-02
-9.596101194620132446e-02
-6.330988556146621704e-02
-5.422003567218780518e-03
-7.852590829133987427e-02
4.571692645549774170e-02
-1.086671799421310425e-01
-5.244724452495574951e-02
-5.179644376039505005e-02
4.761545360088348389e-02
1.126365214586257935e-01
-6.093321368098258972e-02
1.137284040451049805e-01
-1.306985039263963699e-02
-3.399403998628258705e-03
-8.194179832935333252e-02
8.488383144140243530e-02
-1.654565148055553436e-02
4.570280387997627258e-02
2.252174913883209229e-02
-1.012974157929420471e-01
-5.593729019165039062e-02
3.633657470345497131e-02
-1.134414970874786377e-01
-9.459637850522994995e-02
-1.755915395915508270e-02
3.113095462322235107e-02
1.457505077123641968e-01
-2.182553149759769440e-02
-4.796285182237625122e-02
-6.307020038366317749e-02
-1.615437306463718414e-02
3.202063590288162231e-02
-1.751237735152244568e-02
5.818911269307136536e-02
7.354670763015747070e-02
3.798164054751396179e-02
-4.788901284337043762e-02
-3.969561308622360229e-02
4.505247808992862701e-03
5.199275910854339600e-02
-3.269694745540618896e-02
-4.086610302329063416e-02
8.183833211660385132e-03
-7.806551456451416016e-02
-1.558485906571149826e-02
-5.544606223702430725e-02
8.228789269924163818e-02
-1.231446340680122375e-01
8.163706213235855103e-02
5.602804943919181824e-02
-4.287886992096900940e-02
-7.980547845363616943e-02
4.466920346021652222e-02
9.379637241363525391e-02
2.822110429406166077e-02
-9.625339880585670471e-03
-1.536619529360905290e-04
-4.096310958266258240e-02
4.976747184991836548e-02
-5.282165016978979111e-03
-3.422692790627479553e-02
-3.910163044929504395e-02
4.240369051694869995e-02
-5.387882143259048462e-02
1.267909165471792221e-02
6.367082893848419189e-02
-6.165650859475135803e-02
6.108624115586280823e-02
-2.963015809655189514e-02
3.687163442373275757e-02
-2.102858200669288635e-02
-1.371058262884616852e-02
-4.108985885977745056e-03
-4.917103424668312073e-02
9.693997353315353394e-02
2.785909920930862427e-02
-5.351281911134719849e-02
1.416983734816312790e-02
-2.110335230827331543e-02
-2.186479978263378143e-02
-1.599253714084625244e-02
-8.298938721418380737e-02
-2.159823663532733917e-02
2.170054428279399872e-02
5.370219424366950989e-02
-2.768794447183609009e-02
-5.490189068950712681e-04
-3.734658285975456238e-02
4.643612727522850037e-02
4.564785212278366089e-02
4.776828363537788391e-02
-5.010690167546272278e-02
6.122057139873504639e-02
3.607022110372781754e-03
-6.406688690185546875e-02
4.882773011922836304e-02
2.684882609173655510e-03
8.038420975208282471e-02
-7.932384312152862549e-02
4.868274554610252380e-02
8.842448703944683075e-03
-4.642904922366142273e-02
-1.164571382105350494e-02
4.171571135520935059e-02
1.009543165564537048e-01
-8.343618363142013550e-02
3.883856162428855896e-02
1.420641094446182251e-01
-7.040844112634658813e-02
3.135915100574493408e-02
-7.642710953950881958e-02
4.412683472037315369e-02
1.108551677316427231e-02
1.568746007978916168e-02
-5.025182664394378662e-02
6.472873687744140625e-02
-8.150456473231315613e-03
-7.746191695332527161e-03
-2.069916948676109314e-02
-7.317718863487243652e-02
-3.532069036737084389e-03
-4.032655432820320129e-02
-1.311328858137130737e-01
1.378076616674661636e-02
-2.870266139507293701e-02
1.297139525413513184e-01
1.912553235888481140e-02
6.606357544660568237e-02
-2.870621718466281891e-02
-4.039288684725761414e-02
2.113532647490501404e-02
1.309988461434841156e-02
9.707121178507804871e-03
-3.841762244701385498e-02
-1.294460613280534744e-02
-4.471817240118980408e-02
-6.892262399196624756e-02
4.999673366546630859e-02
-1.886895485222339630e-02
2.411799971014261246e-03
-1.021959856152534485e-01
4.564592987298965454e-02
-6.873730570077896118e-02
4.161748290061950684e-02
-1.651947945356369019e-02
6.954395212233066559e-03
4.405398666858673096e-02
-2.478165924549102783e-02
-2.809055708348751068e-02
4.385641217231750488e-02
-6.896892935037612915e-02
-1.051239073276519775e-01
-1.951757259666919708e-02
-4.952245950698852539e-02
1.051327288150787354e-01
-1.623224280774593353e-02
-6.963685154914855957e-02
-4.898774251341819763e-02
3.168609738349914551e-02
7.581914216279983521e-02
-6.477981805801391602e-02
1.056998595595359802e-01
7.558357715606689453e-02
-1.640838757157325745e-02
-6.232371181249618530e-02
5.795938894152641296e-02
-4.263619333505630493e-02
-3.888195008039474487e-02
-5.702131427824497223e-03
-4.553031548857688904e-02
2.944329008460044861e-02
-2.527339756488800049e-02
1.360204070806503296e-02
-4.305373411625623703e-03
5.199942737817764282e-02
-8.421208709478378296e-02
9.538963204249739647e-04
2.819956839084625244e-02
-2.038593031466007233e-02
-3.195429593324661255e-02
1.220665574073791504e-01
4.523706808686256409e-02
-3.878417611122131348e-02
1.733355340547859669e-03
-6.535813678056001663e-03
-3.304337337613105774e-02
6.304393708705902100e-02
3.088823333382606506e-02
-5.316668376326560974e-02
-8.955517783761024475e-03
3.024564124643802643e-02
1.603966765105724335e-02
-3.422900289297103882e-02
-8.366801589727401733e-02
1.404132973402738571e-02
7.745299488306045532e-02
-4.373539611697196960e-02
4.371673613786697388e-02
-3.431169688701629639e-02
-4.832380264997482300e-02
-3.778523951768875122e-02
-3.966468945145606995e-02
1.402134746313095093e-01
-2.579439058899879456e-02
5.052682943642139435e-03
-4.445696715265512466e-03
-5.206607654690742493e-02
-1.872382685542106628e-02
6.000052019953727722e-02
-6.689400225877761841e-02
5.959699675440788269e-02
6.108027696609497070e-02
6.738084554672241211e-02
-4.524546861648559570e-02
3.339040279388427734e-02
4.012875258922576904e-02
5.029822885990142822e-02
4.503142088651657104e-02
6.945355329662561417e-03
-1.007566154003143311e-01
4.812672734260559082e-02
1.039705239236354828e-02
-3.661399334669113159e-02
2.626023814082145691e-02
3.080201521515846252e-02
5.117818713188171387e-02
5.603253841400146484e-02
4.160377010703086853e-02
-4.074705298990011215e-03
-7.838153839111328125e-02
-5.443600937724113464e-02
5.195934325456619263e-02
4.710335284471511841e-02
2.245040051639080048e-02
4.256868362426757812e-02
5.406066775321960449e-02
-3.778321668505668640e-02
1.469710022211074829e-01
-7.073474582284688950e-03
-4.746108129620552063e-02
1.182054635137319565e-02
1.310335844755172729e-01
-3.935179114341735840e-02
2.407754771411418915e-02
-1.079929471015930176e-01
-2.220742590725421906e-02
-2.122423425316810608e-02
-5.176577717065811157e-02
-3.332532569766044617e-02
-3.748616576194763184e-02
-7.936349511146545410e-02
3.476219996809959412e-02
4.462549462914466858e-02
1.101973094046115875e-02
-3.093963116407394409e-02
-7.272272557020187378e-02
-4.361230414360761642e-03
-3.436100110411643982e-02
-3.103377856314182281e-02
2.142037451267242432e-02
2.159492671489715576e-02
-2.003058232367038727e-02
3.050109371542930603e-02
2.313990518450737000e-02
-1.181342732161283493e-02
1.225883364677429199e-01
-8.430900424718856812e-02
2.904132381081581116e-02
-4.335569217801094055e-02
-5.821908265352249146e-02
-5.879728868603706360e-02
1.503667533397674561e-01
6.434365361928939819e-02
2.192343026399612427e-02
8.619648963212966919e-02
-1.524659246206283569e-01
-4.021166265010833740e-02
-1.490829605609178543e-02
-1.346275955438613892e-01
-7.473921775817871094e-02
-5.921742413192987442e-03
-6.192358583211898804e-02
1.213918626308441162e-01
-8.666890859603881836e-02
1.515133120119571686e-02
-5.693484470248222351e-02
5.088663659989833832e-03
3.372663049958646297e-04
4.422077536582946777e-02
6.317203491926193237e-02
1.288276612758636475e-01
-5.484019219875335693e-02
6.100138649344444275e-02
2.592090703547000885e-02
-5.752712488174438477e-02
1.121456734836101532e-02
-5.129275470972061157e-02
4.556616395711898804e-02
-7.526849955320358276e-02
-7.881487905979156494e-02
5.941323935985565186e-02
-5.956702865660190582e-03
4.187949374318122864e-02
-3.457667678594589233e-02
2.271901629865169525e-02
6.000411510467529297e-02
-1.400565821677446365e-02
4.605512693524360657e-02
1.322368830442428589e-01
7.061041891574859619e-02
-3.172881668433547020e-03
-2.229634299874305725e-02
4.800043627619743347e-02
-9.712809696793556213e-03
6.607405096292495728e-02
-3.571476787328720093e-02
-9.428346529603004456e-03
7.227415591478347778e-02
-6.230180338025093079e-02
-4.079419746994972229e-02
-1.143109053373336792e-03
3.798282891511917114e-02
-2.952368184924125671e-02
1.082411687821149826e-02
1.332836970686912537e-02
5.016088858246803284e-02
-6.231015920639038086e-02
1.882203668355941772e-02
7.451199926435947418e-03
5.177332088351249695e-02
1.222044155001640320e-01
-2.658794634044170380e-02
2.127685351297259331e-03
8.149437606334686279e-02
-1.139937527477741241e-02
-2.485536038875579834e-02
8.512159436941146851e-02
5.488008260726928711e-02
-3.260179236531257629e-02
2.328937500715255737e-02
1.438719220459461212e-02
1.352587435394525528e-02
2.569183707237243652e-03
-8.379284292459487915e-02
2.815489098429679871e-02
1.198409199714660645e-01
-4.321639239788055420e-02
-8.536971174180507660e-03
-6.241468340158462524e-02
-5.117955431342124939e-02
-5.763838440179824829e-02
-8.830240368843078613e-02
-3.002763260155916214e-03
1.335034817457199097e-01
-1.127424184232950211e-02
-2.299140021204948425e-02
-4.547525197267532349e-02
-1.444876845926046371e-02
-5.162974447011947632e-02
5.635532364249229431e-02
1.257476489990949631e-02
-5.106367543339729309e-02
-7.109007239341735840e-02
1.289373189210891724e-01
-1.846315525472164154e-02
5.063933879137039185e-02
-4.763484932482242584e-03
5.848215892910957336e-03
2.829637192189693451e-02
5.060749873518943787e-02
-5.566927790641784668e-02
8.281444758176803589e-02
-7.949646562337875366e-02
-1.897597126662731171e-02
-4.409894719719886780e-02
-3.952164947986602783e-02
-9.506291151046752930e-02
-6.956982612609863281e-02
-1.610967516899108887e-02
1.907793618738651276e-02
-5.329512804746627808e-02
6.046928837895393372e-02
-2.006435068324208260e-03
7.934029400348663330e-02
-9.687482565641403198e-02
-8.826129883527755737e-02
1.085001900792121887e-01
-3.282839059829711914e-02
-4.588714241981506348e-02
-1.515987142920494080e-02
-9.944418072700500488e-02
4.061907157301902771e-02
2.605594694614410400e-02
1.233519539237022400e-01
5.274985358119010925e-02
9.990892559289932251e-02
-1.767095178365707397e-02
-2.663218975067138672e-02
-7.027785480022430420e-02
1.213582605123519897e-01
-4.576129093766212463e-02
9.126192890107631683e-03
5.867914855480194092e-02
-1.093621402978897095e-01
-1.012676581740379333e-01
6.387722492218017578e-02
1.750358194112777710e-02
4.450921900570392609e-03
5.824589729309082031e-02
5.326448008418083191e-02
1.151808872818946838e-01
-5.561086907982826233e-02
-8.279569447040557861e-02
-5.540000274777412415e-02
1.019515935331583023e-02
2.333298325538635254e-02
4.217802081257104874e-03
-1.549329888075590134e-02
9.946938604116439819e-02
3.973668441176414490e-02
-8.579310774803161621e-02
-1.881837286055088043e-02
-3.651420772075653076e-02
6.483223289251327515e-02
1.090707704424858093e-01
-1.015746593475341797e-02
5.309951957315206528e-03
-5.225517600774765015e-02
-4.706275835633277893e-02
2.515460550785064697e-02
6.912625581026077271e-02
-1.130647137761116028e-01
1.053068041801452637e-01
8.817329257726669312e-02
-6.771347019821405411e-03
-3.501329571008682251e-02
3.180769830942153931e-02
4.811405669897794724e-03
2.358178899157792330e-04
1.958071719855070114e-03
-3.556008636951446533e-02
3.739396855235099792e-02
6.989456713199615479e-02
-5.850966274738311768e-02
6.387971341609954834e-02
3.919780999422073364e-02
2.822101116180419922e-02
-6.824288982897996902e-03
2.552499808371067047e-02
-8.129907399415969849e-02
-1.049927547574043274e-01
5.642408132553100586e-02
-2.423362433910369873e-02
-4.669729620218276978e-02
1.696737483143806458e-02
1.918492279946804047e-02
4.825498536229133606e-02
-3.068055585026741028e-02
1.114914119243621826e-01
4.436429589986801147e-02
-1.362193934619426727e-02
1.522649638354778290e-02
-6.448958814144134521e-02
-6.738556176424026489e-02
4.045359045267105103e-02
-6.411644071340560913e-02
5.027477070689201355e-02
3.100318089127540588e-02
-3.364549484103918076e-04
-4.891300201416015625e-02
4.780456051230430603e-02
6.001209095120429993e-02
1.565653458237648010e-02
2.875307982321828604e-04
2.417775616049766541e-02
2.380013000220060349e-03
-1.587155647575855255e-02
-7.071872055530548096e-02
-3.553401678800582886e-02
-2.693402580916881561e-02
6.470709294080734253e-02
-6.965033244341611862e-04
-4.615342617034912109e-02
-1.841922663152217865e-02
4.189151898026466370e-02
1.926841796375811100e-03
-1.323954947292804718e-02
-2.809355221688747406e-02
1.175779663026332855e-02
-7.709397375583648682e-02
-1.671427674591541290e-02
-9.378197137266397476e-04
8.900352753698825836e-03
4.765393957495689392e-02
-7.147739082574844360e-02
8.547906577587127686e-02
8.733932673931121826e-02
1.493752300739288330e-01
-1.264406442642211914e-01
4.479551687836647034e-02
-1.301826536655426025e-01
-5.414089187979698181e-03
2.722289040684700012e-02
-9.279067814350128174e-02
-1.440807897597551346e-02
-1.843044534325599670e-02
-7.925780117511749268e-02
1.984807103872299194e-02
-3.829813003540039062e-02
4.704374819993972778e-02
-8.505977690219879150e-03
5.201615765690803528e-02
5.848238710314035416e-03
-5.492499098181724548e-02
-3.908044472336769104e-02
-4.057808965444564819e-02
8.628498017787933350e-02
3.570389002561569214e-02
5.768895521759986877e-02
-7.017696648836135864e-02
-1.926090102642774582e-03
4.112070426344871521e-02
-3.794526681303977966e-02
4.000081121921539307e-02
-9.509880095720291138e-02
-1.344087067991495132e-03
-3.080247901380062103e-02
1.386717855930328369e-01
-2.854450605809688568e-02
1.999534666538238525e-02
7.769113034009933472e-02
-5.827193707227706909e-02
5.467984825372695923e-02
6.684820353984832764e-02
-6.297363340854644775e-02
-4.894547164440155029e-02
4.441765695810317993e-02
-9.523307532072067261e-02
1.375688165426254272e-01
7.440185174345970154e-03
-4.828317090868949890e-02
8.295270055532455444e-02
-5.959558486938476562e-02
-1.601883210241794586e-02
8.183022029697895050e-03
1.275357156991958618e-01
5.073243379592895508e-02
-3.482381254434585571e-02
-3.875056048855185509e-03
-4.744232445955276489e-02
-1.468032747507095337e-01
-1.094076689332723618e-02
-7.429863791912794113e-03
6.194652244448661804e-02
2.190223149955272675e-02
-4.961324483156204224e-02
-1.421176921576261520e-02
-4.088044911623001099e-02
-2.320052124559879303e-02
3.865075996145606041e-03
3.030832111835479736e-02
8.706470578908920288e-02
3.051336109638214111e-02
2.848905883729457855e-02
2.255672402679920197e-02
1.632699742913246155e-02
3.664684295654296875e-02
-4.939356073737144470e-02
-1.352426689118146896e-02
-7.889570668339729309e-03
5.400540307164192200e-02
-1.069178655743598938e-01
-9.919755160808563232e-02
-8.661355823278427124e-04
-7.044076919555664062e-02
-4.903934895992279053e-02
1.884893164969980717e-03
-1.649812236428260803e-02
-6.307293474674224854e-02
2.419876307249069214e-02
3.970746416598558426e-03
-4.755095764994621277e-02
-6.799191981554031372e-02
-6.686160713434219360e-02
-4.982451349496841431e-02
6.309512257575988770e-02
7.541805505752563477e-02
1.373304799199104309e-02
2.567972987890243530e-02
2.682889625430107117e-02
4.122699052095413208e-02
7.731952518224716187e-02
-8.899128064513206482e-03
9.401400573551654816e-03
-2.775237709283828735e-02
9.599228948354721069e-02
2.499582804739475250e-02
-9.392312914133071899e-02
-7.920321077108383179e-03
-3.811732679605484009e-02
3.468731418251991272e-02
4.368416592478752136e-02
2.380247972905635834e-02
-4.284537956118583679e-02
-8.273461461067199707e-02
-7.248692214488983154e-02
-5.524560436606407166e-02
-5.045196041464805603e-02
-3.332606703042984009e-02
5.887006223201751709e-02
1.526846736669540405e-02
4.428698867559432983e-02
-3.002815938089042902e-04
3.779394179582595825e-02
-9.029316157102584839e-02
8.396064862608909607e-03
-1.371147856116294861e-02
9.104639291763305664e-03
-8.506076037883758545e-02
1.338535547256469727e-01
-2.150739915668964386e-02
-1.322578638792037964e-02
-1.514688506722450256e-02
-5.783532280474901199e-03
9.631744027137756348e-02
5.500235036015510559e-02
-1.285609751939773560e-01
-5.402364209294319153e-02
-2.616654522716999054e-02
2.200069651007652283e-02
9.065882861614227295e-02
-8.718812838196754456e-03
6.082262189011089504e-05
-5.792728625237941742e-04
-1.148117929697036743e-01
5.153517052531242371e-02
-5.374116823077201843e-02
9.550669044256210327e-02
4.944476857781410217e-02
6.393487006425857544e-02
4.952052235603332520e-02
1.403557229787111282e-02
7.522138208150863647e-02
-5.322981998324394226e-02
8.458691835403442383e-02
1.550285052508115768e-02
5.320918560028076172e-02
-4.591614753007888794e-02
-5.118521675467491150e-02
9.266795963048934937e-02
-9.935263544321060181e-02
5.873538181185722351e-02
-5.708537250757217407e-02
-8.816540986299514771e-02
-9.646035730838775635e-02
1.226036623120307922e-01
5.868356674909591675e-02
1.051768776960670948e-04
3.657394647598266602e-02
-1.210186854004859924e-01
5.558906495571136475e-02
5.616705119609832764e-02
-1.502952277660369873e-01
-4.091088473796844482e-02
4.555210936814546585e-03
-9.099099785089492798e-03
8.273480832576751709e-02
-3.364364430308341980e-02
2.294089645147323608e-02
5.058511719107627869e-02
-1.101950258016586304e-01
3.121911920607089996e-02
3.337777033448219299e-02
2.163643948733806610e-02
9.850165992975234985e-02
-4.814333468675613403e-02
7.542110234498977661e-02
-3.139169141650199890e-02
-6.783033162355422974e-02
-1.703217625617980957e-02
3.663108870387077332e-02
5.628290399909019470e-02
-2.397458814084529877e-02
-3.801950812339782715e-02
-4.680633917450904846e-02
-1.192940119653940201e-02
1.130203483626246452e-03
2.732548303902149200e-02
4.133958835154771805e-03
8.099555969238281250e-02
-7.160991430282592773e-02
2.975102141499519348e-02
1.476854644715785980e-02
1.968085579574108124e-02
8.434334397315979004e-02
-2.926200814545154572e-02
-9.589498513378202915e-04
-9.896358847618103027e-02
-4.141050856560468674e-03
-8.268501609563827515e-02
-2.991532348096370697e-02
6.066111847758293152e-03
-6.851997971534729004e-02
2.061315439641475677e-02
-5.589441210031509399e-02
