-7.296729367226362228e-03
2.995386905968189240e-02
-1.654816791415214539e-02
-4.244457930326461792e-03
-3.092718310654163361e-03
-1.288527157157659531e-02
-1.718154549598693848e-02
7.148479111492633820e-03
1.218317449092864990e-02
-8.391508832573890686e-03
-1.087204460054636002e-02
-1.311049680225551128e-03
-1.188402995467185974e-02
-1.640968769788742065e-02
4.989101737737655640e-02
-3.166339173913002014e-02
1.328374142758548260e-03
1.446427893824875355e-03
-1.903264783322811127e-02
7.074140943586826324e-03
6.762101780623197556e-03
-1.860421523451805115e-02
-1.966164447367191315e-02
-4.694228118751198053e-04
-1.907884702086448669e-02
-2.373077161610126495e-02
-4.106339532881975174e-03
-1.591007574461400509e-03
7.625211961567401886e-03
-3.431221004575490952e-03
4.426914267241954803e-03
9.002526290714740753e-03
-2.001105062663555145e-02
-1.881194300949573517e-02
-1.452503167092800140e-02
-9.802436456084251404e-03
-1.088926102966070175e-02
6.486476399004459381e-03
-1.169054117053747177e-02
-1.092090550810098648e-02
2.847857587039470673e-02
-1.672306843101978302e-02
-3.759670536965131760e-03
3.717927029356360435e-04
-1.409881841391324997e-02
1.760066859424114227e-02
1.000708900392055511e-02
-1.303083822131156921e-02
-1.325707789510488510e-02
-2.655903249979019165e-02
-6.493853405117988586e-03
2.769906446337699890e-02
-1.130429189652204514e-02
-7.866232655942440033e-03
-1.555988099426031113e-02
-5.403894465416669846e-03
6.212600972503423691e-03
4.866268951445817947e-03
-9.166719391942024231e-03
-2.040222659707069397e-02
4.048646893352270126e-03
-9.652372449636459351e-03
-2.126857452094554901e-02
-8.422664250247180462e-04
1.219143252819776535e-02
2.639817446470260620e-02
-1.052234228700399399e-02
-1.792430994100868702e-04
1.051606982946395874e-02
-1.096146460622549057e-02
-3.201170265674591064e-02
1.317789778113365173e-02
-4.853747319430112839e-03
-4.346414003521203995e-03
-2.023312728852033615e-03
-1.099143549799919128e-02
-1.494417525827884674e-02
1.621082797646522522e-02
1.274096872657537460e-02
-6.966162938624620438e-03
1.612011715769767761e-02
-7.852879352867603302e-03
-2.755666337907314301e-02
4.612350370734930038e-03
1.412268169224262238e-02
2.580856345593929291e-02
-1.901641115546226501e-02
-9.972628206014633179e-03
3.175310557708144188e-03
6.177143193781375885e-03
1.217637490481138229e-02
-5.393970757722854614e-03
-7.145525421947240829e-03
8.626442402601242065e-03
-1.766533963382244110e-02
-2.749013155698776245e-02
-3.504498861730098724e-03
-1.109464839100837708e-02
-4.336512181907892227e-03
2.381982468068599701e-02
3.505362430587410927e-03
-2.678647823631763458e-02
-4.876975435763597488e-03
3.259351849555969238e-02
-6.028204690665006638e-03
-1.309887506067752838e-02
1.305008586496114731e-02
-1.928875409066677094e-02
1.845135912299156189e-02
4.925868473947048187e-03
-1.040307711809873581e-02
-6.091454997658729553e-03
1.824581064283847809e-02
-1.121354382485151291e-02
-1.609106780961155891e-03
1.139703392982482910e-02
-2.201427146792411804e-02
-1.860653981566429138e-02
-9.944959543645381927e-03
-1.008458808064460754e-02
8.879742585122585297e-03
-1.068378915078938007e-03
5.920530296862125397e-03
9.514271281659603119e-03
5.781448911875486374e-03
3.228599578142166138e-02
2.681429963558912277e-03
2.167199738323688507e-03
