5.900903791189193726e-02
1.624039113521575928e-01
-4.041719436645507812e-01
-1.643669158220291138e-01
1.149977743625640869e-01
-9.081059694290161133e-01
-4.428037703037261963e-01
-1.228178262710571289e+00
2.672403156757354736e-01
-3.907121121883392334e-01
5.964266508817672729e-02
2.013580054044723511e-01
1.065840423107147217e-01
-3.733761906623840332e-01
1.348265260457992554e-01
-5.011293292045593262e-01
-4.133661687374114990e-01
3.631913959980010986e-01
-3.417533040046691895e-01
-9.353151321411132812e-01
-2.024244964122772217e-01
1.031438559293746948e-01
-3.397261798381805420e-01
-5.284099578857421875e-01
6.089898198843002319e-02
-4.363839030265808105e-01
1.204092949628829956e-01
-3.767052888870239258e-01
5.366547405719757080e-02
3.268673643469810486e-02
1.140264347195625305e-01
4.879917204380035400e-02
-5.915016531944274902e-01
-1.283635944128036499e-01
-4.049285352230072021e-01
-4.977694153785705566e-01
2.211849987506866455e-01
-4.676681756973266602e-01
2.433772534132003784e-01
1.339812129735946655e-01
-3.995404243469238281e-01
-5.437971353530883789e-01
-1.556247919797897339e-01
-2.529684305191040039e-01
2.727689445018768311e-01
1.730597913265228271e-01
-2.450420409440994263e-01
1.410602033138275146e-01
-3.901822865009307861e-01
-2.614673972129821777e-01
-3.738901317119598389e-01
3.043398261070251465e-01
-4.020430147647857666e-01
1.657145917415618896e-01
2.222689390182495117e-01
-4.582221806049346924e-01
3.042112588882446289e-01
-4.513964056968688965e-01
-3.083935976028442383e-01
3.113153278827667236e-01
1.912592723965644836e-02
-1.869599968194961548e-01
1.641355007886886597e-01
3.041090667247772217e-01
-3.372651040554046631e-01
-1.359425932168960571e-01
-1.427141726016998291e-01
-3.682983219623565674e-01
-4.448599219322204590e-01
-4.888374209403991699e-01
-2.315198183059692383e-01
1.213420107960700989e-01
4.903509840369224548e-02
-2.465517520904541016e-01
1.067249104380607605e-01
2.796054482460021973e-01
-3.193464875221252441e-01
-3.258453607559204102e-01
-2.826784551143646240e-01
5.604581534862518311e-02
-1.689142435789108276e-01
1.625180393457412720e-01
-2.965997159481048584e-01
-5.058200359344482422e-01
4.507109522819519043e-02
-3.108558654785156250e-01
-3.506742119789123535e-01
-5.273782014846801758e-01
-6.723749041557312012e-01
-4.877058863639831543e-01
5.981538444757461548e-02
1.291005164384841919e-01
1.286415606737136841e-01
1.412510573863983154e-01
-3.965666592121124268e-01
3.179187774658203125e-01
1.750906556844711304e-01
-3.772920966148376465e-01
-3.619020581245422363e-01
8.523759990930557251e-02
-2.061392515897750854e-01
6.142307072877883911e-02
8.712494373321533203e-02
-3.689039349555969238e-01
-3.212112188339233398e-01
-2.565796077251434326e-01
-2.002766877412796021e-01
9.577744454145431519e-02
-2.593711614608764648e-01
-3.158233165740966797e-01
1.109825670719146729e-01
-2.507007122039794922e-01
-3.865513801574707031e-01
1.998703479766845703e-01
-3.984778821468353271e-01
2.569822072982788086e-01
5.971863120794296265e-02
-4.686335623264312744e-01
-6.062085032463073730e-01
-3.189539909362792969e-01
7.803941518068313599e-02
-3.340728282928466797e-01
4.383246228098869324e-02
-2.926163077354431152e-01
1.058286577463150024e-01
-3.654669821262359619e-01
2.622126638889312744e-01
2.329807281494140625e-01
