3.444296075031161308e-03 5.634579807519912720e-02 -3.530583903193473816e-02 5.018702149391174316e-02 -7.145589217543601990e-03 4.776590317487716675e-02 3.962700068950653076e-02 4.041890799999237061e-02 -2.288266085088253021e-02 5.211530998349189758e-02 4.592590406537055969e-02 -2.625680342316627502e-02 3.069816157221794128e-02 -6.638243794441223145e-02 -9.066624566912651062e-03 2.375911176204681396e-02 5.179015919566154480e-02 6.642202287912368774e-02 1.749573834240436554e-02 5.036336183547973633e-02 -4.716978874057531357e-03 1.912832707166671753e-01 -7.380534708499908447e-02 1.350868940353393555e-01 -1.605083607137203217e-02 -2.000377327203750610e-02 7.808157056570053101e-02 3.512820228934288025e-02 -2.143717110157012939e-01 1.927967742085456848e-02 -7.617355324327945709e-03 4.166372865438461304e-02 6.936881691217422485e-02 7.053916156291961670e-02 -1.385541050694882870e-03 7.206086814403533936e-02 2.610654830932617188e-01 3.484963253140449524e-02 4.055956751108169556e-02 -7.785823941230773926e-02 4.859228432178497314e-02 5.045039206743240356e-02 -2.298367209732532501e-02 -8.776641450822353363e-03 -2.257997356355190277e-02 5.215321481227874756e-02 1.157275587320327759e-01 -3.889707382768392563e-03 4.080200940370559692e-02 3.266262263059616089e-02 5.741610750555992126e-02 7.462295889854431152e-02 2.874807454645633698e-02 1.007915884256362915e-01 -8.086578547954559326e-02 -1.036026515066623688e-02 2.189485169947147369e-02 2.156420946121215820e-01 4.369582235813140869e-02 4.118300974369049072e-02 -6.508965045213699341e-03 -3.146052733063697815e-02 5.306367576122283936e-02 4.358910955488681793e-03 -5.681866779923439026e-03 3.982469812035560608e-02 3.821778809651732445e-03 -5.757635831832885742e-02 6.106425449252128601e-02 1.887683719396591187e-01 -5.824533756822347641e-03 -1.848666183650493622e-02 -3.264229372143745422e-02 5.088104307651519775e-02 2.151818946003913879e-03 -6.710899621248245239e-02 4.101453721523284912e-02 2.099670469760894775e-02 8.696969598531723022e-02 -6.016217172145843506e-03 3.026314266026020050e-02 1.471499949693679810e-01 -2.608282491564750671e-02 9.184516035020351410e-03 1.236754953861236572e-01 6.798497587442398071e-02 2.915830584242939949e-03 3.782461211085319519e-02 -4.934313241392374039e-03 3.826389461755752563e-02 -1.111722737550735474e-02 6.785029545426368713e-03 3.096413612365722656e-02 3.335404396057128906e-02 -8.413477800786495209e-03 1.889859586954116821e-01 -7.536008954048156738e-03 -2.486873650923371315e-03 -5.372996442019939423e-03 -1.625535488128662109e-01 3.305730223655700684e-02 -1.366810407489538193e-02 6.743313372135162354e-02 4.374266788363456726e-02 -1.513834297657012939e-01 2.246555984020233154e-01 -4.782408848404884338e-02 -1.373358070850372314e-02 -2.719607390463352203e-02 5.736865103244781494e-02 -1.346284337341785431e-02 7.606588304042816162e-02 5.206074938178062439e-02 5.617794767022132874e-02 1.017259135842323303e-01 4.169655963778495789e-02 2.276955731213092804e-02 5.557307973504066467e-02 1.315173227339982986e-02 3.372515365481376648e-02 2.015581279993057251e-01 1.946237683296203613e-02 4.627010226249694824e-02 -1.682196743786334991e-02 7.409071922302246094e-02 3.871046379208564758e-02 5.351614207029342651e-02 6.858875602483749390e-02
