3.278231888543814421e-04 9.643714874982833862e-03 -6.960773840546607971e-03 -1.280435919761657715e-02 -1.712095341645181179e-03 1.477894838899374008e-02 2.109324373304843903e-02 -2.918377518653869629e-02 1.197045668959617615e-02 7.799260783940553665e-03 -9.145934134721755981e-03 -7.965867407619953156e-03 -2.609204733744263649e-03 -1.245383359491825104e-02 -2.875739522278308868e-02 -5.006817169487476349e-03 -2.895859628915786743e-02 -1.987889222800731659e-02 -1.243817619979381561e-02 2.180810552090406418e-03 1.214877469465136528e-03 -1.264214050024747849e-02 2.932780049741268158e-02 -1.747182570397853851e-02 -1.309904456138610840e-02 -1.062746904790401459e-02 -1.711467094719409943e-02 -1.083008386194705963e-02 1.400992181152105331e-02 -2.416459284722805023e-02 -2.189972437918186188e-02 6.175004411488771439e-03 -1.542878895998001099e-02 -1.100461464375257492e-02 -1.856986992061138153e-02 6.700772210024297237e-04 -7.780428975820541382e-03 -7.695486769080162048e-03 1.005676854401826859e-02 -9.305386804044246674e-03 6.916000857017934322e-04 -1.335944980382919312e-03 -4.471536260098218918e-03 3.981048241257667542e-03 -1.308541558682918549e-02 -2.806642558425664902e-03 -6.428786087781190872e-03 1.150808879174292088e-03 2.547764033079147339e-02 1.121956203132867813e-02 1.264869701117277145e-03 -1.915316330268979073e-03 1.345586776733398438e-02 -9.670375846326351166e-03 7.307170424610376358e-03 -4.976681433618068695e-03 5.437220679596066475e-04 -3.533021779730916023e-03 9.432956576347351074e-03 -6.672963500022888184e-03 1.271491311490535736e-02 -1.323209889233112335e-02 -6.994428578764200211e-03 -5.754217971116304398e-03 4.918360617011785507e-03 1.222678460180759430e-02 -2.340489736525341868e-04 1.317418925464153290e-02 -3.374140942469239235e-04 6.105212029069662094e-03 -2.873550402000546455e-03 -3.227759525179862976e-02 -9.555318392813205719e-03 -6.591822952032089233e-03 -6.883095949888229370e-03 -9.511382668279111385e-04 8.334766607731580734e-05 -1.493111904710531235e-02 4.706302133854478598e-04 -1.154560875147581100e-02 -4.073568619787693024e-03 -1.842916011810302734e-02 -1.172886975109577179e-02 3.238452132791280746e-03 -1.485020760446786880e-02 -6.867125630378723145e-03 -1.207665912806987762e-02 -2.385130897164344788e-02 5.681424867361783981e-03 1.809524744749069214e-02 6.798174697905778885e-03 5.940474104136228561e-03 -2.352390252053737640e-02 -1.745618530549108982e-03 -3.490136563777923584e-02 8.341392502188682556e-03 4.848128650337457657e-03 2.776221605017781258e-03 -4.034810885787010193e-02 4.259910492692142725e-04 -1.307823695242404938e-02 -1.241417485289275646e-03 -3.354994812980294228e-03 -1.237390842288732529e-02 2.134184120222926140e-03 -3.303109435364603996e-03 1.418809592723846436e-02 -2.921622479334473610e-03 2.337113721296191216e-03 2.825137460604310036e-03 -1.609245315194129944e-02 -1.519943121820688248e-02 -1.690807752311229706e-03 8.609792566858232021e-04 -8.356281556189060211e-03 1.315260492265224457e-02 1.603974588215351105e-02 1.273776497691869736e-02 -1.247014384716749191e-02 9.255677461624145508e-03 -2.028185501694679260e-02 -1.103896275162696838e-02 3.810494905337691307e-03 1.139172539114952087e-02 9.220778010785579681e-03 -9.495574049651622772e-03 9.581704623997211456e-03 -7.891776971518993378e-03
