2.861565351486206055e-02
2.800676412880420685e-02
-4.313266836106777191e-03
-4.495206102728843689e-02
-7.613485213369131088e-03
-3.595303744077682495e-02
9.206517715938389301e-04
-2.488626725971698761e-02
-4.623389337211847305e-03
-4.623734392225742340e-03
3.499785438179969788e-02
1.680763997137546539e-02
2.057591825723648071e-02
9.045992046594619751e-03
1.468652626499533653e-03
3.343788674101233482e-03
-6.914596538990736008e-03
-1.830314099788665771e-02
-2.054533176124095917e-02
-4.232179373502731323e-02
-3.191437199711799622e-02
2.633526222780346870e-03
-1.036166492849588394e-02
4.378591664135456085e-03
8.164076134562492371e-03
-7.869009859859943390e-03
1.801878958940505981e-02
-1.362042967230081558e-02
-1.633410714566707611e-02
1.509566977620124817e-02
-1.853939518332481384e-02
5.868804641067981720e-03
7.159562315791845322e-03
-3.097964450716972351e-02
-1.112188585102558136e-02
-6.909154821187257767e-03
5.217850673943758011e-03
-1.751149259507656097e-02
1.975219696760177612e-03
5.825093016028404236e-03
3.457995830103754997e-03
8.717985823750495911e-03
-1.833348884247243404e-03
-7.969745784066617489e-04
8.620330132544040680e-03
1.371160242706537247e-02
-6.464230827987194061e-03
1.647667214274406433e-02
2.180709736421704292e-03
-1.236724294722080231e-02
-1.109677925705909729e-02
5.122995935380458832e-03
-1.662657409906387329e-02
6.405229680240154266e-03
1.258081104606389999e-02
-3.671529702842235565e-05
-2.057692594826221466e-02
-1.680592633783817291e-02
-2.465116791427135468e-02
7.970548234879970551e-03
3.348805755376815796e-02
-2.849651128053665161e-02
-8.881900459527969360e-03
1.832209294661879539e-03
1.151107903569936752e-02
-5.502464249730110168e-02
-2.358197234570980072e-02
-8.781226351857185364e-03
-2.035282924771308899e-02
-3.722952678799629211e-04
-2.124271914362907410e-02
-7.535962853580713272e-03
-5.668778903782367706e-03
-1.884827949106693268e-02
6.409788969904184341e-03
-4.539057146757841110e-03
-2.187452279031276703e-02
-3.199125453829765320e-02
-4.405362065881490707e-03
9.601070545613765717e-03
-3.174715116620063782e-02
9.108721278607845306e-03
-1.622929819859564304e-03
-1.370623940601944923e-04
3.017130307853221893e-03
-6.803925149142742157e-03
-2.832657285034656525e-02
-3.213805705308914185e-02
-3.711036592721939087e-02
1.638265512883663177e-02
1.330328080803155899e-02
-4.115330055356025696e-03
8.576183579862117767e-03
1.852543279528617859e-02
-8.583501912653446198e-03
-1.075072586536407471e-02
1.118912827223539352e-02
2.788065467029809952e-03
-1.397170964628458023e-02
1.618408411741256714e-02
-2.976180240511894226e-02
2.852865308523178101e-02
-1.809752359986305237e-02
-5.568407941609621048e-03
-2.219798043370246887e-02
-1.220920309424400330e-02
-3.739345818758010864e-02
-2.126032020896673203e-03
-1.778259500861167908e-02
-4.866683389991521835e-03
8.998578414320945740e-03
-1.440101489424705505e-02
3.248258959501981735e-03
-9.616078808903694153e-03
-2.370652509853243828e-03
-4.630789160728454590e-03
-1.677396823652088642e-03
-1.877461746335029602e-02
9.355945512652397156e-03
-1.712200790643692017e-02
3.023323137313127518e-03
-2.124216780066490173e-02
3.673646599054336548e-02
-3.616165742278099060e-02
-1.120970770716667175e-02
-1.958638802170753479e-02
-1.733213290572166443e-02
2.056228462606668472e-03
