-1.170721719972789288e-03 1.088710874319076538e-02 2.067912369966506958e-03 6.715221330523490906e-03 6.378887686878442764e-03 1.995169790461659431e-03 -6.212730892002582550e-03 -3.347635734826326370e-03 7.590059190988540649e-03 -7.740248460322618484e-03 -4.098283126950263977e-03 7.725464180111885071e-03 -1.778351515531539917e-02 5.874532507732510567e-04 -1.316159404814243317e-02 3.351965686306357384e-03 -9.128190577030181885e-03 5.591909401118755341e-03 1.067436765879392624e-02 -6.212677340954542160e-03 3.013894194737076759e-03 -1.036259159445762634e-02 1.154648791998624802e-02 -1.872735284268856049e-02 -5.739790387451648712e-03 5.004069302231073380e-03 6.871255114674568176e-03 1.077247411012649536e-02 -1.723820227198302746e-03 2.464915858581662178e-03 -1.347529049962759018e-02 1.559049077332019806e-02 -1.609514653682708740e-02 2.835310529917478561e-03 3.853370668366551399e-03 -7.471571676433086395e-03 -2.609792910516262054e-02 -9.115492925047874451e-03 1.275628339499235153e-03 -6.511941552162170410e-03 -2.330458810320124030e-04 1.816340954974293709e-03 -1.314558740705251694e-02 5.573892965912818909e-03 6.795373279601335526e-03 1.304686069488525391e-02 -8.697581477463245392e-03 -1.008477713912725449e-02 1.249009557068347931e-02 -1.435538288205862045e-02 3.156275954097509384e-03 3.772952128201723099e-03 7.369830564130097628e-05 -4.421812016516923904e-03 -1.231962349265813828e-02 6.398175843060016632e-03 -1.392433978617191315e-02 -1.196378283202648163e-02 -8.560129441320896149e-03 -2.477099886164069176e-03 -1.059519685804843903e-02 1.119381189346313477e-02 1.752452226355671883e-03 1.690501230768859386e-03 7.231188355945050716e-04 -9.392803534865379333e-03 1.561242993921041489e-02 9.409732185304164886e-03 -1.142256241291761398e-02 1.220123097300529480e-02 -1.218661852180957794e-02 1.043464429676532745e-02 -1.423658803105354309e-02 1.762598566710948944e-02 4.596062004566192627e-03 -4.928699508309364319e-02 6.392639596015214920e-03 1.037337165325880051e-02 -2.723786979913711548e-03 5.481819622218608856e-03 4.559888970106840134e-03 -2.295499294996261597e-02 1.573001407086849213e-02 -1.268791034817695618e-02 1.396611519157886505e-02 1.362822391092777252e-02 -5.866576451808214188e-03 -8.673373609781265259e-03 1.287053339183330536e-02 -1.288795471191406250e-02 -1.734508201479911804e-02 2.160552248824387789e-04 2.559935860335826874e-02 -6.247011572122573853e-02 -1.545525621622800827e-02 -2.505485899746417999e-03 -3.967011813074350357e-03 -7.705076131969690323e-03 6.985445506870746613e-03 -2.628277754411101341e-03 -1.516266725957393646e-03 -7.052159402519464493e-03 -2.834839746356010437e-03 -4.641902633011341095e-03 -2.734298445284366608e-02 -3.575853770598769188e-03 4.239715635776519775e-03 -1.789945876225829124e-03 1.139881927520036697e-02 6.989203975535929203e-04 -1.569850370287895203e-03 6.229594349861145020e-03 -6.703534163534641266e-03 -9.264522232115268707e-03 -2.286323346197605133e-03 -3.805898129940032959e-03 8.888099109753966331e-04 8.481643744744360447e-04 -3.701317822560667992e-03 -1.168827433139085770e-02 -9.222631342709064484e-03 7.039576303213834763e-03 1.282222568988800049e-02 -1.541171222925186157e-02 -1.152592990547418594e-02 -1.753574237227439880e-03 5.309734027832746506e-03 2.346278540790081024e-02
