-1.016429811716079712e-01 8.733859658241271973e-02 2.414710372686386108e-01 2.353042066097259521e-01 -1.303743124008178711e-01 2.018988877534866333e-01 9.581670165061950684e-03 2.027205377817153931e-02 4.663611948490142822e-02 -2.386816293001174927e-01 6.737837195396423340e-02 -1.819660961627960205e-01 8.022587746381759644e-02 1.739023178815841675e-01 1.999113261699676514e-01 -7.266104966402053833e-02 1.090936288237571716e-01 -7.973187020979821682e-04 -3.316467404365539551e-01 -2.249899059534072876e-01 2.660021781921386719e-01 -1.014367640018463135e-01 -1.508011668920516968e-01 -1.644825935363769531e-01 2.521665990352630615e-01 1.847437024116516113e-01 -1.628625765442848206e-02 4.874627105891704559e-03 2.725258469581604004e-01 -1.091536059975624084e-01 -1.619086600840091705e-02 -3.081326745450496674e-02 -1.157049983739852905e-01 -2.559132874011993408e-01 -2.797748148441314697e-01 1.905393749475479126e-01 -9.357814490795135498e-02 -1.433804184198379517e-01 1.495715677738189697e-01 1.905169188976287842e-01 -2.481992356479167938e-02 -4.190286248922348022e-02 -1.483379602432250977e-01 1.218647360801696777e-01 1.967298984527587891e-01 -9.729609638452529907e-02 2.903992235660552979e-01 1.412350237369537354e-01 -1.716155558824539185e-02 -4.839693382382392883e-02 3.895110916346311569e-03 -1.700162589550018311e-01 -2.864554822444915771e-01 -2.509309649467468262e-01 -2.394460290670394897e-01 -1.812175512313842773e-01 9.155891090631484985e-02 -2.758426219224929810e-02 -8.651528507471084595e-02 -1.715506985783576965e-02 -1.326560229063034058e-01 -7.721559703350067139e-02 2.532064616680145264e-01 -1.133113447576761246e-02 -1.633033305406570435e-01 1.896288096904754639e-01 -3.094132840633392334e-01 1.948247998952865601e-01 6.557121127843856812e-02 -1.524578034877777100e-01 1.947232484817504883e-01 -8.554385602474212646e-02 -9.157098829746246338e-03 -2.178402096033096313e-01 9.351523965597152710e-02 2.067642360925674438e-01 -2.656196355819702148e-01 -5.487888678908348083e-02 1.522171497344970703e-01 -1.878108829259872437e-01 -1.495424807071685791e-01 2.573719620704650879e-01 1.434384286403656006e-01 4.528159275650978088e-03 -5.046608299016952515e-02 -2.446480542421340942e-01 -2.425478398799896240e-01 1.379036158323287964e-01 -8.450148254632949829e-02 1.103834807872772217e-01 1.644587218761444092e-01 -8.507326990365982056e-02 -2.919905781745910645e-01 2.017932832241058350e-01 4.044577851891517639e-02 2.181159891188144684e-02 2.709726393222808838e-01 2.842886447906494141e-01 2.701019048690795898e-01 -1.686280407011508942e-02 1.224406957626342773e-01 -1.219549030065536499e-01 -2.312332838773727417e-01 2.357083559036254883e-01 6.704710423946380615e-03 1.258595436811447144e-01 -6.215926259756088257e-02 9.802656713873147964e-04 -1.210591793060302734e-01 1.541995350271463394e-02 2.409964501857757568e-01 -1.000795662403106689e-01 -1.918699145317077637e-01 9.192597866058349609e-02 -1.227958593517541885e-02 2.692548036575317383e-01 -1.538436710834503174e-01 -2.504202127456665039e-01 1.409835070371627808e-01 -9.867990016937255859e-02 2.497849762439727783e-01 -1.378533542156219482e-01 1.995046585798263550e-01 -1.747346371412277222e-01 -1.342961043119430542e-01 -1.250880509614944458e-01 -1.860548406839370728e-01 -2.124039642512798309e-02 2.580176293849945068e-01 -1.907568424940109253e-01 -2.736481428146362305e-01 -3.046268522739410400e-01 3.962948918342590332e-02 -1.466569211333990097e-02 -4.647251218557357788e-02 -1.529030352830886841e-01 -8.314154297113418579e-02 6.924210488796234131e-02 -1.858857870101928711e-01 1.909488588571548462e-01 -1.530884355306625366e-01 -7.685036957263946533e-02 -3.411151170730590820e-01 3.032800853252410889e-01 -2.698248624801635742e-01 -2.611801922321319580e-01 1.202199831604957581e-01 1.467983722686767578e-01 -1.932901889085769653e-01 3.080559372901916504e-01 2.896838486194610596e-01 2.174251377582550049e-01 -2.784590125083923340e-01 -2.108867913484573364e-01 -7.639326155185699463e-02 2.927351295948028564e-01 -4.943853244185447693e-02 3.127004206180572510e-01 2.371967583894729614e-01 1.099813431501388550e-01 9.856387972831726074e-02 7.380298525094985962e-02 3.649577870965003967e-02 -2.812573313713073730e-01 1.263672709465026855e-01 1.182098686695098877e-01 -2.250338196754455566e-01 -2.563399672508239746e-01 2.334856837987899780e-01 2.589520215988159180e-01 1.120144575834274292e-01 -1.261271238327026367e-01 -1.241472139954566956e-01 7.022393494844436646e-02 -1.685411632061004639e-01 -1.756138354539871216e-01 -2.615068256855010986e-01 1.013395711779594421e-01 -1.958892680704593658e-02 2.355339080095291138e-01 2.517817318439483643e-01 2.021354287862777710e-01 4.648102913051843643e-03 3.046318292617797852e-01 -3.315579891204833984e-01 1.609856188297271729e-01 1.639561057090759277e-01 -9.254594333469867706e-03 1.332199666649103165e-02 2.085249572992324829e-01 -1.516948938369750977e-01 3.100208938121795654e-01 7.519590109586715698e-02 -2.801074087619781494e-01 6.604252755641937256e-02 -1.352712213993072510e-01 -1.328179538249969482e-01 1.683490872383117676e-01 -4.135269671678543091e-02 2.902837693691253662e-01 2.093585729598999023e-01 2.788730263710021973e-01 -1.429958641529083252e-01 -1.127595901489257812e-01 1.502711325883865356e-01 2.114234492182731628e-02 -1.335572153329849243e-01 1.744371950626373291e-01 3.487926423549652100e-01 -2.400212436914443970e-01 -1.801427602767944336e-01 -3.074457347393035889e-01 2.410700321197509766e-01 3.130084574222564697e-01 2.663020789623260498e-01 -2.804420292377471924e-01 8.068599551916122437e-02 -2.687798067927360535e-02 -2.697118222713470459e-01 2.156386971473693848e-01 3.704026341438293457e-01 -1.091092303395271301e-01 -1.723605394363403320e-01 -3.100748360157012939e-01 -1.062193736433982849e-01 -1.721158325672149658e-01 -3.084589540958404541e-01 2.607418894767761230e-01 -2.065608650445938110e-01 1.369230002164840698e-01 1.879394203424453735e-01 -1.096800416707992554e-01 -1.556170731782913208e-01 -2.927475869655609131e-01 2.367077320814132690e-01 -4.670206084847450256e-02 1.354273706674575806e-01 -2.743028998374938965e-01 -2.206961065530776978e-01 6.143191084265708923e-02 9.408266842365264893e-02 -2.965847589075565338e-02 1.518972516059875488e-01 -2.618380784988403320e-01 2.512612640857696533e-01 1.557510644197463989e-01 -4.240439459681510925e-02 -6.758504081517457962e-03 -1.504398584365844727e-01 1.986225843429565430e-01 -5.263721570372581482e-02 1.022446751594543457e-01 2.522910237312316895e-01 1.469814777374267578e-01 2.505966424942016602e-01 7.880455255508422852e-02 1.327790915966033936e-01 -1.160819754004478455e-01 -8.242790400981903076e-02 -1.685996949672698975e-01 7.661515474319458008e-02 -2.447087019681930542e-01 -2.847832143306732178e-01 -2.815204262733459473e-01 -1.207004189491271973e-01 2.261270880699157715e-01 -9.173271059989929199e-02 7.677344232797622681e-02 -2.609973251819610596e-01 -1.046898365020751953e-01 -2.220174074172973633e-01 2.080804109573364258e-01 -2.666339278221130371e-01 -1.197968721389770508e-01 1.891129761934280396e-01 1.409177780151367188e-01 -5.999691784381866455e-02 8.970888704061508179e-02 1.048129647970199585e-01 2.180064320564270020e-01 -2.773223221302032471e-01 -3.976919874548912048e-02 -2.561770379543304443e-01 9.751642495393753052e-02 -2.441251724958419800e-01 2.250685095787048340e-01 2.717084586620330811e-01 5.033850297331809998e-02 1.909071058034896851e-01 1.780322641134262085e-01 7.774995267391204834e-02 -3.279703259468078613e-01 1.719014942646026611e-01 2.479971647262573242e-01 -6.182720512151718140e-02 -1.722190529108047485e-01 7.743580732494592667e-03 6.154288537800312042e-03 1.312594860792160034e-01 -3.284004703164100647e-02 -6.197059899568557739e-02 2.783744633197784424e-01 -2.095752209424972534e-01 -1.860930472612380981e-01 9.865464642643928528e-03 1.230987161397933960e-01 -2.623476088047027588e-01 1.231554523110389709e-01 1.842734664678573608e-01 2.771002948284149170e-01 7.983530871570110321e-03 2.325142621994018555e-01 -1.544381976127624512e-01 2.312120646238327026e-01 2.879860699176788330e-01 -3.345833718776702881e-02 2.424612790346145630e-01 1.603166162967681885e-01 -2.605700790882110596e-01 2.162804454565048218e-01 1.992215961217880249e-02 -5.373033508658409119e-02 2.247701883316040039e-01 -2.504256963729858398e-01 -2.180798202753067017e-01 3.243600428104400635e-01 -1.012094840407371521e-01 2.824312448501586914e-01 2.428814470767974854e-01 3.263165652751922607e-01 -2.391445636749267578e-01 -1.270478069782257080e-01 2.982668280601501465e-01 1.848125308752059937e-01 -2.588953264057636261e-02 9.860703349113464355e-02 2.050797045230865479e-01 -3.629998266696929932e-01 -1.257704943418502808e-01 -3.090882599353790283e-01 2.656725645065307617e-01 2.341046780347824097e-01 2.964557111263275146e-01 -1.355431228876113892e-01 2.425213605165481567e-01 -8.119055628776550293e-02 -1.001424193382263184e-01 1.785232424736022949e-01 1.280406564474105835e-01 -2.309630364179611206e-01 -2.047038227319717407e-01 -1.558359116315841675e-01 -1.638422906398773193e-01 -6.423240900039672852e-02 -2.311265766620635986e-01 5.799977481365203857e-02 -7.658299803733825684e-02 1.929699629545211792e-01 7.653940469026565552e-02 -1.488368511199951172e-01 -3.455675244331359863e-01 -2.843078672885894775e-01 1.066674105823040009e-02 7.816030643880367279e-03 2.534387409687042236e-01 -2.321372181177139282e-01 -2.632724046707153320e-01 6.252562999725341797e-02 1.881442666053771973e-01 -3.194239437580108643e-01 6.048304215073585510e-02 -2.519348859786987305e-01 1.095738932490348816e-01 2.340267598628997803e-02 -1.132120862603187561e-01 2.591746672987937927e-02 -1.752957701683044434e-01 3.524862527847290039e-01 1.437177788466215134e-02 1.348740048706531525e-02 2.061943411827087402e-01 9.329237043857574463e-02 7.307621091604232788e-02 3.023139536380767822e-01 -1.512740850448608398e-01 6.211760919541120529e-03 7.322354614734649658e-02 7.359483093023300171e-02 -3.013232164084911346e-02 1.826678514480590820e-01 1.531119197607040405e-01 1.049691885709762573e-01 1.720937192440032959e-01 -1.874628961086273193e-01 1.673012077808380127e-01 -2.019977718591690063e-01 1.619673967361450195e-01 1.680660247802734375e-01 1.161156669259071350e-01 -1.694023162126541138e-01 1.273290961980819702e-01 7.939082384109497070e-02 -1.597166657447814941e-01 -7.428857684135437012e-02 4.599462263286113739e-03 -2.875882387161254883e-02 -7.139741629362106323e-02 -8.386400341987609863e-02 2.517379820346832275e-01 1.068965196609497070e-01 2.928147837519645691e-02 -1.718391925096511841e-01 1.837726831436157227e-01 -1.879979670047760010e-01 -3.014745414257049561e-01 -4.209961742162704468e-02 -3.794422373175621033e-02 -1.168673578649759293e-02 -1.344250142574310303e-02 1.969757527112960815e-01 -2.564318180084228516e-01 -1.187661811709403992e-01 1.717875450849533081e-01 1.232807710766792297e-01 -4.617440700531005859e-02 -2.342577725648880005e-01 -2.418297715485095978e-02 3.522151336073875427e-02 1.640597134828567505e-01 -1.102341786026954651e-01 2.729221284389495850e-01 2.666448652744293213e-01 2.229530364274978638e-01 -2.195400595664978027e-01 1.661864817142486572e-01 -9.963158518075942993e-02 -2.405738979578018188e-01 -2.840208262205123901e-02 -8.504310995340347290e-02 -1.973240524530410767e-01 2.893430292606353760e-01 -2.710170112550258636e-02 -9.180677682161331177e-02 1.850904077291488647e-01 -2.132112532854080200e-01 -1.800723224878311157e-01 9.026934951543807983e-02 -1.004476845264434814e-01 -1.930680125951766968e-01 -2.214962616562843323e-02 -1.979195475578308105e-01 2.196110039949417114e-02 1.894920766353607178e-01 -1.439931392669677734e-01 -1.650630310177803040e-02 -1.878229379653930664e-01 -6.421233713626861572e-02 -2.086591571569442749e-01 1.333028823137283325e-01 5.732137709856033325e-02 -2.388634532690048218e-01 -6.449963152408599854e-02 4.097381234169006348e-02 -2.343101352453231812e-01 -1.540388762950897217e-01 2.237315773963928223e-01 2.150432206690311432e-02 6.757515668869018555e-02 -4.596142843365669250e-02 -3.199871256947517395e-02 -9.131927043199539185e-02 1.555427461862564087e-01 -2.239685654640197754e-01 2.495831251144409180e-01 1.125582829117774963e-01 -2.795184254646301270e-01 -9.873457252979278564e-02 4.731489345431327820e-02 1.541085243225097656e-01 2.680567800998687744e-01 2.755629830062389374e-02 1.792396456003189087e-01 1.524969637393951416e-01 -1.613667979836463928e-02 1.538520604372024536e-01 -6.905156373977661133e-02 -1.165456548333168030e-01 1.502628922462463379e-01 2.611343562602996826e-01 1.056072860956192017e-01 -2.045144140720367432e-01 1.962606310844421387e-01 -2.604677975177764893e-01 -3.091794252395629883e-02 6.509000062942504883e-02 -2.402716875076293945e-01 -1.459856778383255005e-01 9.128197282552719116e-02 -2.542895078659057617e-01 2.134973257780075073e-01 -1.850159317255020142e-01 -1.203183829784393311e-02 1.926941573619842529e-01 -9.165162593126296997e-02 2.332965135574340820e-01 -2.454710155725479126e-01 1.366250813007354736e-01 -2.919239550828933716e-02 -2.344085462391376495e-02 -1.518498808145523071e-01 -2.543541491031646729e-01 -3.181986883282661438e-02 -1.769368499517440796e-01 -2.321878634393215179e-02 2.301868796348571777e-01 2.356115877628326416e-01 -6.692006252706050873e-03 -1.267243875190615654e-03 1.890453547239303589e-01 1.605800539255142212e-01 1.104661002755165100e-01 -1.781025230884552002e-01 9.881771169602870941e-03 -2.747394144535064697e-01 9.644085168838500977e-02 1.340650469064712524e-01 2.577391266822814941e-01 -2.087813913822174072e-01 2.838520705699920654e-01 2.807602584362030029e-01 -3.112392425537109375e-01 -4.764406010508537292e-02 7.717477530241012573e-02 -2.730658650398254395e-01 -2.033117413520812988e-01 -7.274027913808822632e-02 9.213356673717498779e-02 3.800978884100914001e-02 2.671921253204345703e-01 1.244398299604654312e-02 2.445112913846969604e-01 -2.147520780563354492e-01 -2.279562875628471375e-02 -8.929127454757690430e-02 -2.543488442897796631e-01 -2.260848432779312134e-01 -2.083146125078201294e-01 7.007119711488485336e-03 -2.821464091539382935e-02 -2.242268174886703491e-01 3.091894835233688354e-02 1.871227174997329712e-01 6.670303991995751858e-04 -7.004827260971069336e-02 -1.256306618452072144e-01 6.621984392404556274e-02 8.987772464752197266e-02 -1.153006330132484436e-01 1.127187907695770264e-01 1.760506778955459595e-01 6.336470693349838257e-02 -2.716055214405059814e-01 6.738285720348358154e-02 -1.094334498047828674e-01 -7.475399225950241089e-02 -7.019095588475465775e-03 -1.973368078470230103e-01 -1.535223424434661865e-01 3.061214983463287354e-01 1.998611539602279663e-02 -3.013381920754909515e-02 2.166768312454223633e-01 -1.817568242549896240e-01 -1.702273488044738770e-01 3.142071366310119629e-01 5.250955466181039810e-03 -1.908374279737472534e-01 2.648931369185447693e-02 -2.860346734523773193e-01 9.341690689325332642e-02 1.513354033231735229e-01 -2.377948760986328125e-01 1.897639632225036621e-01 -1.649108678102493286e-01 -1.823473274707794189e-01 -2.190074324607849121e-01 2.465081512928009033e-01 1.350407898426055908e-01 -4.969149455428123474e-02 -2.227441370487213135e-01 1.653813868761062622e-01 -3.609877824783325195e-02 -2.824740409851074219e-01 2.115946114063262939e-01 -1.473295735195279121e-03 2.609742581844329834e-01 -7.669389992952346802e-02 1.443048659712076187e-02 -5.649545416235923767e-02 -5.641793366521596909e-03 -4.179158434271812439e-02 2.295997887849807739e-01 2.682029306888580322e-01 -1.623319387435913086e-01 -1.450162827968597412e-01 5.224511027336120605e-02 1.353455483913421631e-01 5.832554772496223450e-02 1.325020492076873779e-01 1.211014240980148315e-01 1.140730804763734341e-03 -8.869307488203048706e-02 2.522107362747192383e-01 -1.032772138714790344e-01 -9.601087868213653564e-02 2.003725767135620117e-01 2.325639128684997559e-01 2.535228431224822998e-01 -1.856766939163208008e-01 1.247337535023689270e-01 -7.405495643615722656e-02 1.453443169593811035e-01 2.129803597927093506e-01 -3.221254050731658936e-02 -5.938832089304924011e-02 1.746215522289276123e-01 -2.748673260211944580e-01 1.119943559169769287e-01 -1.372307986021041870e-01 -2.148255109786987305e-01 2.754724025726318359e-01 1.218002289533615112e-02 2.422227859497070312e-01 -6.839795410633087158e-02 1.309021562337875366e-01 -7.198002934455871582e-02 -3.912901878356933594e-02 -1.410911083221435547e-01 -2.197738736867904663e-01 -2.293001562356948853e-01 -1.707911938428878784e-01 1.997812688350677490e-01 3.291667103767395020e-01 2.957659363746643066e-01 -2.162376791238784790e-01 1.565976440906524658e-01 1.473406404256820679e-01 2.140058726072311401e-01 3.499977663159370422e-02 -8.164137601852416992e-02 8.169637620449066162e-02 -1.123276799917221069e-01 1.971858739852905273e-01 1.514879018068313599e-01 1.379145234823226929e-01 -1.030246168375015259e-01 2.290809601545333862e-01 2.336203157901763916e-01 -1.232898011803627014e-01 -1.837602704763412476e-01 1.539508104324340820e-01 -2.683830857276916504e-01 -3.242032229900360107e-01 -7.627018541097640991e-02 1.897094696760177612e-01 1.407889742404222488e-02 4.149964451789855957e-02 -1.356017887592315674e-01 2.363370358943939209e-01 -1.951402723789215088e-01 -1.262737512588500977e-01 -2.482557296752929688e-01 -5.306653678417205811e-02 -1.862723380327224731e-01 -1.879501640796661377e-01 3.443456441164016724e-02 -2.423562109470367432e-01 -8.641937375068664551e-02 3.044051527976989746e-01 1.007849872112274170e-01 -4.721800237894058228e-02 -1.500930190086364746e-01 -7.995919138193130493e-02 2.091467082500457764e-01 2.075179219245910645e-01 -3.169511854648590088e-01 1.568494588136672974e-01 1.708315461874008179e-01 2.228609919548034668e-01 -4.159665107727050781e-02 1.442550271749496460e-01 -2.886911630630493164e-01 -2.015622854232788086e-01 -1.398592144250869751e-01 -1.820995062589645386e-01 -9.082788974046707153e-02 3.044797182083129883e-01 -2.216465324163436890e-01 -4.838807508349418640e-02 2.030166238546371460e-01 -2.852353453636169434e-02 -3.132224828004837036e-02 2.282349318265914917e-01 -2.010072022676467896e-01 -1.349036395549774170e-01 1.507645398378372192e-01 -2.734666168689727783e-01 2.608509734272956848e-02 5.017319694161415100e-02 -2.998391389846801758e-01 1.263592094182968140e-01 -1.165581420063972473e-01 -2.596912682056427002e-01 -2.597678303718566895e-01 8.252993226051330566e-02 2.440968006849288940e-01 -3.048619925975799561e-01 -2.649334669113159180e-01 1.144427210092544556e-01 -2.734110653400421143e-01 -3.428353965282440186e-01 1.305608600378036499e-01 1.666997075080871582e-01 2.674849927425384521e-01 -3.075329959392547607e-01 -2.427991628646850586e-01 -2.541359663009643555e-01 7.789140939712524414e-02 -1.827738136053085327e-01 3.562559187412261963e-02 1.690176278352737427e-01 -7.826167345046997070e-02 -2.868502736091613770e-01 1.139226779341697693e-01 1.741369813680648804e-01 1.609555035829544067e-01 3.462327420711517334e-01 3.354184627532958984e-01 9.894789010286331177e-02 -3.202389180660247803e-02 2.643339931964874268e-01 4.893562756478786469e-03 -1.230587884783744812e-01 1.397656649351119995e-01 2.348278015851974487e-01 2.614330649375915527e-01 -1.948529928922653198e-01 2.126806378364562988e-01 -1.191635206341743469e-01 3.973978757858276367e-02 1.552864909172058105e-01 -8.756496757268905640e-02 -6.537528336048126221e-02 3.169387280941009521e-01 -2.902054190635681152e-01 6.078339740633964539e-02 -4.240234568715095520e-02 -6.143106892704963684e-02 3.055138289928436279e-01 -1.418019831180572510e-01 3.181233704090118408e-01 -1.477012783288955688e-01 3.162315487861633301e-01 -1.288521140813827515e-01 -9.833702817559242249e-03 -2.494567185640335083e-01 -1.105289161205291748e-01 -2.054459601640701294e-01 -4.269493278115987778e-03 2.638508081436157227e-01 1.120242327451705933e-01 1.827914118766784668e-01 -2.930423021316528320e-01 1.761257089674472809e-02 1.500841081142425537e-01 5.837168917059898376e-02 2.583604156970977783e-01 -3.042121529579162598e-01 1.902138441801071167e-01 -1.374019980430603027e-01 2.064223140478134155e-01 2.266118377447128296e-01 2.504031658172607422e-01 -8.290638774633407593e-02 2.742919623851776123e-01 1.705693453550338745e-01 -1.917609125375747681e-01 -1.486192494630813599e-01 1.474211513996124268e-01 -2.960201501846313477e-01 -1.309861987829208374e-01 -2.500197887420654297e-01 6.836297363042831421e-02 1.142615973949432373e-01 2.405526638031005859e-01 -2.456463575363159180e-01 2.642624676227569580e-01 -2.770392596721649170e-01 -5.427479743957519531e-02 -8.584518730640411377e-02 -3.211319744586944580e-01 -9.110134094953536987e-02 -2.909301221370697021e-01 8.279886096715927124e-02 -6.174407154321670532e-02 -1.270125210285186768e-01 1.728973835706710815e-01 2.887888848781585693e-01 -5.295199155807495117e-02 -8.137077093124389648e-02 -1.221003830432891846e-01 2.790448069572448730e-01 1.211288273334503174e-01 -2.868146300315856934e-01 9.607774764299392700e-02 2.790626287460327148e-01 2.736456692218780518e-01 -4.218978062272071838e-02 1.173439845442771912e-01 -1.382549107074737549e-01 -1.958881914615631104e-01 -1.883653365075588226e-02 -5.983613431453704834e-02 -8.144243806600570679e-02 1.196189746260643005e-01 -2.136879563331604004e-01 -1.514624357223510742e-01 1.227567940950393677e-01 -9.300037473440170288e-02 -6.429035961627960205e-02 1.515388041734695435e-01 -2.824025154113769531e-01 -3.235678970813751221e-01 2.911943495273590088e-01 -8.933598548173904419e-02 1.021531820297241211e-01 2.617725171148777008e-02 -2.254356294870376587e-01 1.419820487499237061e-01 -2.746500968933105469e-01 -2.505264580249786377e-01 -1.947171688079833984e-01 2.374183237552642822e-01 -3.317997232079505920e-02 -2.390228658914566040e-01 -1.883282363414764404e-01 2.211307138204574585e-01 -2.667109072208404541e-01 -3.198977112770080566e-01 4.758950695395469666e-02 1.379112303256988525e-01 1.944993436336517334e-02 -8.775389939546585083e-02 -5.040184035897254944e-02 -3.278313949704170227e-02 2.287158817052841187e-01 3.353597596287727356e-03 1.799737364053726196e-01 1.651906967163085938e-01 -5.652793217450380325e-03 -1.550944000482559204e-01 9.102526307106018066e-02 5.771053209900856018e-02 2.612031698226928711e-01 2.559068202972412109e-01 2.093650996685028076e-01 1.816695928573608398e-01 -1.309657692909240723e-01 4.539864137768745422e-02 -5.993235856294631958e-02 -2.447125874459743500e-02 2.823202610015869141e-01 2.388286963105201721e-02 1.982810944318771362e-01 -1.763976216316223145e-01 2.430332452058792114e-01 -2.303178906440734863e-01 1.294370442628860474e-01 2.850022353231906891e-02 -1.831062585115432739e-01 -2.002130746841430664e-01 2.931103706359863281e-01 -2.440607249736785889e-01 1.992264203727245331e-02 -1.307410895824432373e-01 -7.247000932693481445e-02 7.812042534351348877e-02 -2.194075137376785278e-01 6.566704064607620239e-02 -2.072070240974426270e-01 1.867353171110153198e-01 -2.996268272399902344e-01 -1.435465216636657715e-01 -2.943400144577026367e-01 -8.527586609125137329e-02 -4.287994652986526489e-02 -1.483105123043060303e-01 1.740860641002655029e-01 2.858381867408752441e-01 3.153762519359588623e-01 -3.133560717105865479e-01 1.611647307872772217e-01 3.203630074858665466e-02 4.419323429465293884e-02 1.618064641952514648e-01 -1.275008916854858398e-01 1.020822525024414062e-01 -3.086891472339630127e-01 2.379576563835144043e-01 1.167265027761459351e-01 2.593601644039154053e-01 -9.026551246643066406e-02 2.607507407665252686e-01 3.716715797781944275e-02 -3.442350327968597412e-01 -1.475028097629547119e-01 4.880008101463317871e-02 -2.407055348157882690e-01 -1.360863596200942993e-01 -2.169770449399948120e-01 1.788679510354995728e-01 1.878567487001419067e-01 2.131171673536300659e-01 -1.236953511834144592e-01 2.113740593194961548e-01 -3.000148534774780273e-01 -2.239563018083572388e-01 -3.921581432223320007e-02 -2.369169145822525024e-01 -1.951635926961898804e-01 -8.554820716381072998e-02 2.283678799867630005e-01 -6.600349396467208862e-02 -1.616109311580657959e-01 9.468117356300354004e-02 6.939127296209335327e-02 -1.355251222848892212e-01 -1.801029145717620850e-01 -7.944910973310470581e-02 9.481165558099746704e-03 3.015118539333343506e-01 -2.923897206783294678e-01 2.857362627983093262e-01 3.005431294441223145e-01 6.048990786075592041e-02 -2.375930100679397583e-01 8.670415729284286499e-02 -1.114058047533035278e-01 -1.886329203844070435e-01 -2.730210423469543457e-01 -2.594323754310607910e-01 -3.389056026935577393e-01 3.424140512943267822e-01 -1.863802224397659302e-01 -1.028017848730087280e-01 1.012432277202606201e-01 -5.622626468539237976e-02 -1.271728873252868652e-01 1.478446125984191895e-01 -8.635635673999786377e-02 -3.025476336479187012e-01 1.439478397369384766e-01 -2.473850399255752563e-01 1.561317145824432373e-01 2.942433655261993408e-01 -1.293012350797653198e-01 1.268023103475570679e-01 -3.053681366145610809e-02 -3.039590716361999512e-01 -2.224585860967636108e-01 9.025343507528305054e-02 3.916271403431892395e-02 -9.273011237382888794e-02 -2.725838124752044678e-01 2.354842424392700195e-01 -2.010737806558609009e-01 -3.372430503368377686e-01 2.954461276531219482e-01 2.685108184814453125e-01 8.861646801233291626e-02 -2.296724766492843628e-01 -2.271473854780197144e-01 -2.749334275722503662e-01 2.483417838811874390e-01 -1.139989197254180908e-01 7.696979492902755737e-02 2.453539371490478516e-01 -1.953891217708587646e-01 -9.784576296806335449e-02 7.113917917013168335e-02 4.703265801072120667e-02 2.625206708908081055e-01 8.270895481109619141e-02 1.076284050941467285e-01 4.860144853591918945e-02 -2.541836500167846680e-01 6.830749660730361938e-02 -2.077762931585311890e-01 -1.112512871623039246e-01 1.339491903781890869e-01 3.105695247650146484e-01 8.086898177862167358e-02 -2.064746022224426270e-01 2.554997801780700684e-01 -2.096875160932540894e-01 2.035494893789291382e-01 2.047341614961624146e-01 -1.754291057586669922e-01 -2.687725238502025604e-02 1.319216638803482056e-01 -4.587764665484428406e-02 1.638983190059661865e-01 -3.036380708217620850e-01 1.211807481013238430e-03 7.117497920989990234e-02 -1.403144448995590210e-01 1.446889340877532959e-01 -3.471237421035766602e-01 4.862748831510543823e-02 -5.322388559579849243e-02 -1.032805442810058594e-01 -1.428508758544921875e-02 -2.695079743862152100e-01 -3.292295336723327637e-01 -4.512971732765436172e-03 1.390745788812637329e-01 1.737900972366333008e-01 2.664959132671356201e-01 -2.385907918214797974e-01 9.821963310241699219e-02 2.031863480806350708e-01 2.352185547351837158e-01 3.021622598171234131e-01 -2.083813957870006561e-02 1.862792819738388062e-01 -8.858776092529296875e-02 4.357468709349632263e-02 7.985056936740875244e-02 1.009597703814506531e-01 -2.875491417944431305e-02 2.637326717376708984e-01 2.498020678758621216e-01 -3.219341635704040527e-01 -1.798685640096664429e-01 1.727079749107360840e-01 -3.143973648548126221e-01 -1.444057673215866089e-01 -1.564996093511581421e-01 3.298288881778717041e-01 3.848379850387573242e-02 2.281274795532226562e-01 -2.728658914566040039e-01 1.502408087253570557e-01 -2.983287870883941650e-01 -4.862381517887115479e-02 -1.187970191240310669e-01 -1.858314126729965210e-01 -2.485154718160629272e-01 -1.129729077219963074e-01 3.162471055984497070e-01 -1.855588555335998535e-01 -1.409423649311065674e-01 8.310421556234359741e-02 2.721955180168151855e-01 -3.344680368900299072e-02 -1.541917026042938232e-01 -2.533311843872070312e-01 2.165430784225463867e-01 2.807983160018920898e-01 -1.909375190734863281e-01 2.283817976713180542e-01 2.666611596941947937e-02 2.497625350952148438e-01 -2.719333171844482422e-01 9.092538058757781982e-02 -1.749309003353118896e-01 -1.384024024009704590e-01 -8.030054718255996704e-02 -1.940208524465560913e-01 -1.248662173748016357e-01 1.406910866498947144e-01 -1.292029917240142822e-01 -2.858137786388397217e-01 2.177903503179550171e-01 -2.019577026367187500e-01 -2.184859812259674072e-01 3.472470343112945557e-01 -2.735517024993896484e-01 -3.174335062503814697e-01 2.563070058822631836e-01 -3.178481757640838623e-01 3.736469522118568420e-02 7.154557108879089355e-02 -2.810534536838531494e-01 1.774411499500274658e-01 -2.113461792469024658e-01 -1.722826063632965088e-01 -7.507084310054779053e-02 1.950142532587051392e-01 1.066570207476615906e-01 -1.114327162504196167e-01 -1.245741546154022217e-01 1.838681250810623169e-01 -3.296090364456176758e-01 -3.434948623180389404e-01 2.572137415409088135e-01 9.270750731229782104e-02 9.849742799997329712e-02 -2.271168529987335205e-01 -2.356820553541183472e-02 -2.743719518184661865e-01 1.630179584026336670e-01 -1.909147351980209351e-01 -1.362667768262326717e-03 1.575673371553421021e-01 -2.298005968332290649e-01 -3.104997575283050537e-01 5.318111181259155273e-02 2.870496511459350586e-01 2.168867737054824829e-01 2.486978471279144287e-01 2.562436163425445557e-01 2.716515660285949707e-01 -2.767689153552055359e-02 -1.103639230132102966e-02 -1.531883776187896729e-01 -1.860946416854858398e-01 1.834239512681961060e-01 1.897590607404708862e-01 3.170101046562194824e-01 -1.189225167036056519e-01 -9.544935077428817749e-03 -5.275596678256988525e-02 1.233368813991546631e-01 3.365047648549079895e-02 -1.224374771118164062e-02 -9.844867885112762451e-02 2.053786963224411011e-01 -1.899523735046386719e-01 1.885705143213272095e-01 -1.839789189398288727e-02 2.616312587633728981e-03 2.568474411964416504e-01 -2.977032214403152466e-03 2.080657482147216797e-01 -2.653798758983612061e-01 3.572617471218109131e-02 -4.641603678464889526e-02 -1.946001946926116943e-01 -5.483920127153396606e-02 -1.447789669036865234e-01 -2.986318767070770264e-01 2.949600853025913239e-02 -1.228869557380676270e-01 -2.211061120033264160e-01 -1.926613301038742065e-01 3.195486962795257568e-01 -1.451492011547088623e-01 -1.659322381019592285e-01 -2.912916243076324463e-01 -1.179630234837532043e-01 2.677732408046722412e-01 -3.170679509639739990e-01 2.325223684310913086e-01 -3.348334431648254395e-01 -2.423460185527801514e-01 -2.427947968244552612e-01 1.946459114551544189e-01 -9.013635665178298950e-02 -5.957247689366340637e-02 2.549103796482086182e-01 -8.730462752282619476e-03 -7.316612452268600464e-02 2.135241776704788208e-01 3.181033134460449219e-01 2.015878818929195404e-02 -2.619546651840209961e-01 -5.650179926306009293e-03 -8.652700483798980713e-02 2.176980823278427124e-01 -8.283817768096923828e-02 7.041135430335998535e-02 1.071289777755737305e-01 2.433143705129623413e-01 2.942856550216674805e-01 4.499844461679458618e-02 2.070201486349105835e-01 -2.641616165637969971e-01 1.212573647499084473e-01 2.641071677207946777e-01 -1.019623354077339172e-01 -2.613003253936767578e-01 1.245367154479026794e-01 1.932163685560226440e-01 1.464423090219497681e-01 -2.698889933526515961e-02 -2.402478083968162537e-02 1.396097093820571899e-01 -1.387617886066436768e-01 -1.285345554351806641e-01 -1.440430283546447754e-01 1.710595935583114624e-01 -1.638084067963063717e-03 3.040187656879425049e-01 1.122408807277679443e-01 7.003701757639646530e-03 1.198307499289512634e-01 1.544065475463867188e-01 -3.330096006393432617e-01 1.667598932981491089e-01 3.205102682113647461e-01 -4.747617244720458984e-02 5.849425494670867920e-02 1.031139418482780457e-01 -3.290146887302398682e-01 1.695597916841506958e-01 1.648055016994476318e-01 -3.319547176361083984e-01 1.049296855926513672e-01 -9.901504032313823700e-03 -1.307815462350845337e-01 1.626918911933898926e-01 -1.537325829267501831e-01 1.834482103586196899e-01 2.724036574363708496e-01 1.082563400268554688e-01 -1.966272294521331787e-01 -2.475412338972091675e-01 3.315001130104064941e-01 2.375421822071075439e-01 -2.479494661092758179e-01 2.329767644405364990e-01 3.780921995639801025e-01 -3.440874218940734863e-01 6.778695620596408844e-03 -2.156191468238830566e-01 3.234893679618835449e-01 1.435393244028091431e-01 2.243355661630630493e-01 -1.855696886777877808e-01 1.021507084369659424e-01 -3.299820423126220703e-02 -2.491432726383209229e-01 1.602963209152221680e-01 2.118491232395172119e-01 -2.919630408287048340e-01 -3.666994869709014893e-01 -3.573102653026580811e-01 -3.413719534873962402e-01 -2.373040616512298584e-01 -1.248055025935173035e-01 3.015649020671844482e-01 -1.004271768033504486e-02 7.144378870725631714e-02 1.171981021761894226e-01 -1.754454523324966431e-01 -3.911393582820892334e-01 -2.938079237937927246e-01 2.268872410058975220e-01 -2.264102399349212646e-01 3.967565298080444336e-02 -2.041364461183547974e-01 -2.343668043613433838e-01 1.097000315785408020e-01 1.463780850172042847e-01 -2.155442833900451660e-01 1.605113744735717773e-01 -2.104758769273757935e-01 3.300440907478332520e-01 7.284798473119735718e-02 -2.105407714843750000e-01 2.499763220548629761e-01 -3.290506601333618164e-01 1.934239566326141357e-01 -2.471510767936706543e-01 9.630466997623443604e-02 8.160852640867233276e-02 2.487669885158538818e-01 3.404092192649841309e-01 2.691046893596649170e-01 -1.550561040639877319e-01 2.845217585563659668e-01 2.491734325885772705e-01 2.167145349085330963e-02 -3.125067055225372314e-01 1.098347976803779602e-01 1.107297837734222412e-01 3.189501166343688965e-01 2.520009279251098633e-01 -2.316067814826965332e-01 1.678235530853271484e-01 -1.423396468162536621e-01 1.329031735658645630e-01 2.593719661235809326e-01 2.220326662063598633e-01 -1.975032091140747070e-01 2.942669093608856201e-01 3.934418782591819763e-02 -1.090679988265037537e-01 -4.439816251397132874e-02 7.693622726947069168e-03 -1.637879014015197754e-02 -2.972993254661560059e-01 1.181272324174642563e-02 2.801998257637023926e-01 8.939123898744583130e-02 -3.413282101973891258e-03 -5.319606512784957886e-03 3.158521279692649841e-02 -8.277179300785064697e-02 -5.847065895795822144e-02 -1.586342900991439819e-01 -1.624085605144500732e-01 -1.416513472795486450e-01 -4.853325337171554565e-02 2.155427187681198120e-01 -1.167178153991699219e-01 -4.017780534923076630e-03 3.129809200763702393e-01 2.387212365865707397e-01 -2.121232748031616211e-01 -1.352877318859100342e-01 -1.848882436752319336e-01 1.022104322910308838e-01 2.182621061801910400e-01 -2.199074923992156982e-01 1.432682722806930542e-01 4.734334070235490799e-03 1.532434821128845215e-01 -5.467543005943298340e-02 1.051560863852500916e-01 -1.711447685956954956e-01 -1.110408920794725418e-03 -7.317619770765304565e-02 -4.133998602628707886e-02 -2.128779888153076172e-01 4.887415096163749695e-02 -9.163288772106170654e-02 -3.284118324518203735e-02 2.039076387882232666e-01 -8.283457159996032715e-02 -7.904644310474395752e-02 1.876919716596603394e-01 -2.852185070514678955e-01 -3.066537380218505859e-01 2.733361124992370605e-01 -1.502642780542373657e-01 2.888244986534118652e-01 2.277294695377349854e-01 -6.295606493949890137e-02 -9.106118232011795044e-03 -1.194242089986801147e-01 -1.596814543008804321e-01 -2.959501743316650391e-01 1.922962665557861328e-01 2.392784319818019867e-02 -1.976544223725795746e-02 -1.870411485433578491e-01 2.234432399272918701e-01 -4.074631631374359131e-02 -1.037208512425422668e-01 2.895841896533966064e-01 1.858635395765304565e-01 2.652452588081359863e-01 -1.981714218854904175e-01 -2.225623130798339844e-01 -1.422593444585800171e-01 8.392085134983062744e-02 -9.986133873462677002e-02 1.274632811546325684e-01 1.775151342153549194e-01 -8.384817093610763550e-02 -2.039826959371566772e-01 6.905216723680496216e-02 1.322876513004302979e-01 2.690479457378387451e-01 1.273149102926254272e-01 2.932011336088180542e-02 2.234817743301391602e-01 -5.614573881030082703e-02 1.892260015010833740e-01 2.658267132937908173e-02 -1.099446322768926620e-02 2.912722229957580566e-01 2.717259526252746582e-01 1.933508515357971191e-01 -2.948503494262695312e-01 1.327626556158065796e-01 -2.222013622522354126e-01 1.785964965820312500e-01 9.355347603559494019e-02 -6.047634407877922058e-02 -2.924851477146148682e-01 2.607651054859161377e-01 -2.954720258712768555e-01 2.664822638034820557e-01 -1.557142436504364014e-01 -5.298181250691413879e-02 1.852506995201110840e-01 -1.455727368593215942e-01 1.936261802911758423e-01 -2.520596683025360107e-01 1.279784888029098511e-01 -2.897565364837646484e-01 -1.296431869268417358e-01 -1.357507407665252686e-01 -2.885344326496124268e-01 -1.231696307659149170e-01 -5.714477598667144775e-02 1.871251165866851807e-01 2.016510814428329468e-01 3.928064182400703430e-02 -1.834415644407272339e-01 4.555221274495124817e-02 2.906754016876220703e-01 3.020415008068084717e-01 2.481475025415420532e-01 -6.247884780168533325e-02 3.037903010845184326e-01 -1.055726259946823120e-01 2.255287021398544312e-01 2.795205712318420410e-01 1.382339149713516235e-01 -1.612588167190551758e-01 2.507247030735015869e-01 2.819931507110595703e-01 -2.798212468624114990e-01 -7.394868414849042892e-03 2.884332835674285889e-01 -5.914940312504768372e-02 -1.106219366192817688e-01 -1.150501295924186707e-01 2.161160558462142944e-01 7.025663554668426514e-02 2.022721916437149048e-01 -8.276861160993576050e-02 8.948075771331787109e-02 -1.738784909248352051e-01 -1.567714363336563110e-01 -3.004272282123565674e-02 -1.884603798389434814e-01 -1.732315719127655029e-01 -2.416964918375015259e-01 3.025786876678466797e-01 -1.262800395488739014e-01 -7.743568718433380127e-02 2.401347607374191284e-01 3.007645905017852783e-01 -2.182165533304214478e-01 -1.863114982843399048e-01 -3.055249452590942383e-01 7.628469169139862061e-02 1.503635048866271973e-01 -1.328292638063430786e-01 2.552879154682159424e-01 1.392226815223693848e-01 2.262492179870605469e-01 -7.147321850061416626e-02 2.840966172516345978e-02 -2.884171605110168457e-01 -2.076152563095092773e-01 -7.595191150903701782e-02 -4.844951257109642029e-02 -4.227130860090255737e-02 2.636142969131469727e-01 -2.965699695050716400e-02 -5.289455503225326538e-02 2.271433360874652863e-02 -2.523863315582275391e-01 -2.190025523304939270e-02 1.507002115249633789e-01 -1.633451133966445923e-01 -4.234193265438079834e-02 2.583522200584411621e-01 -3.164870142936706543e-01 2.130087465047836304e-01 2.230181246995925903e-01 -2.552541196346282959e-01 5.070828273892402649e-02 -6.887494027614593506e-02 -2.541528642177581787e-02 -1.749466508626937866e-01 1.654409617185592651e-01 -3.085520491003990173e-02 -5.423643067479133606e-02 -1.645850837230682373e-01 2.318048328161239624e-01 -2.193951010704040527e-01 -2.178222239017486572e-01 1.441047936677932739e-01 1.300032287836074829e-01 8.312257379293441772e-02 -3.217022866010665894e-02 -2.141941040754318237e-01 -2.464754730463027954e-01 1.743869930505752563e-01 -2.169891893863677979e-01 2.217164784669876099e-01 2.277278900146484375e-01 -8.780088275671005249e-02 -2.573707401752471924e-01 2.047640532255172729e-01 3.072038590908050537e-01 3.013947606086730957e-01 2.487994432449340820e-01 1.866416186094284058e-01 1.908863484859466553e-01 -1.991978436708450317e-01 4.452231153845787048e-02 1.898938044905662537e-02 -1.007345318794250488e-01 2.194788157939910889e-01 1.059016510844230652e-01 2.984495460987091064e-01 -1.173599511384963989e-01 -1.000689715147018433e-02 -1.329697202891111374e-02 1.104432046413421631e-01 1.301543861627578735e-01 -7.849912345409393311e-02 -9.258325397968292236e-02 2.608706988394260406e-02 -2.521187663078308105e-01 2.310528159141540527e-01 -1.450348347425460815e-01 -3.039229474961757660e-02 1.054162308573722839e-01 -4.761406034231185913e-02 7.634124904870986938e-02 -2.426633089780807495e-01 2.769379615783691406e-01 -6.675159186124801636e-02 -1.091497540473937988e-01 -7.196411490440368652e-02 -3.021275699138641357e-01 -2.231771945953369141e-01 2.178265750408172607e-01 -1.287206113338470459e-01 -2.142333984375000000e-01 -2.190010845661163330e-01 2.283790707588195801e-01 -2.716018259525299072e-01 -1.781496703624725342e-01 -1.590410023927688599e-01 -2.627497613430023193e-01 1.917267590761184692e-01 -1.709034591913223267e-01 1.936871856451034546e-01 -7.943146675825119019e-02 -1.471928954124450684e-01 -1.283419281244277954e-01 1.618410050868988037e-01 -1.493119001388549805e-01 -2.488429844379425049e-01 2.358852773904800415e-01 2.748039364814758301e-01 -2.415715605020523071e-01 2.125453799962997437e-01 1.781804412603378296e-01 2.317435890436172485e-01 -3.198152184486389160e-01 3.598638577386736870e-03 -2.363693565130233765e-01 2.956625223159790039e-01 -1.975153088569641113e-01 1.766429096460342407e-01 1.916800886392593384e-01 2.221105843782424927e-01 1.838438510894775391e-01 7.828361541032791138e-02 1.573346555233001709e-01 -3.553211987018585205e-01 2.503569424152374268e-01 1.502050608396530151e-01 -8.217736333608627319e-02 -2.161495983600616455e-01 1.067441627383232117e-01 8.581414818763732910e-02 1.615135520696640015e-01 -1.597253978252410889e-01 -2.454986125230789185e-01 6.143929436802864075e-02 -3.024619221687316895e-01 -2.813577651977539062e-01 -1.492491215467453003e-01 2.327572703361511230e-01 -3.163253888487815857e-02 9.562183171510696411e-02 8.120046555995941162e-02 4.017427563667297363e-02 1.338136494159698486e-01 1.185937896370887756e-01 -3.336945176124572754e-01 1.559733320027589798e-02 2.252239435911178589e-01 -6.569334119558334351e-02 2.211133986711502075e-01 2.787564694881439209e-01 -2.653484642505645752e-01 3.218301534652709961e-01 2.614385783672332764e-01 -1.666327118873596191e-01 3.144907653331756592e-01 -1.653362810611724854e-02 -2.717932462692260742e-01 9.406457096338272095e-02 -1.802962422370910645e-01 5.183238908648490906e-02 7.776238769292831421e-02 3.407630324363708496e-01 -1.200198009610176086e-01 -2.735142409801483154e-01 2.542156577110290527e-01 1.038254946470260620e-01 -6.392841041088104248e-02 2.065150588750839233e-01 2.044408768415451050e-01 -2.027958631515502930e-01 -1.664560884237289429e-01 -3.499307632446289062e-01 2.164260149002075195e-01 1.317927241325378418e-01 2.557108104228973389e-01 -9.255332499742507935e-02 6.584507972002029419e-02 -2.582737803459167480e-01 -8.509659767150878906e-02 2.868498563766479492e-01 1.795359700918197632e-01 -1.549028605222702026e-01 -1.872178316116333008e-01 -9.795504063367843628e-02 -2.173496931791305542e-01 -2.830201983451843262e-01 -2.364794909954071045e-01 2.352913618087768555e-01 -1.608043722808361053e-02 9.565907530486583710e-03 2.135575711727142334e-01 -2.161189466714859009e-01 -3.503615260124206543e-01 -4.715985432267189026e-02 1.814661622047424316e-01 -6.191867962479591370e-02 2.648270130157470703e-01 -1.268142275512218475e-02 -2.796316444873809814e-01 1.445943415164947510e-01 2.912966310977935791e-01 -3.010000586509704590e-01 1.771098822355270386e-01 -1.917044520378112793e-01 2.956377267837524414e-01 1.169777289032936096e-01 -4.484676569700241089e-02 2.524964809417724609e-01 -8.726482838392257690e-02 3.734837174415588379e-01 -1.350764185190200806e-01 2.254091501235961914e-01 -3.016006760299205780e-02 3.045799434185028076e-01 3.200691342353820801e-01 3.580227792263031006e-01 -2.383903563022613525e-01 8.532845973968505859e-02 2.331304252147674561e-01 6.953788548707962036e-02 -2.272870689630508423e-01 4.708076640963554382e-02 2.747164852917194366e-02 1.963273733854293823e-01 3.137117624282836914e-02 -2.039645239710807800e-02 1.651185452938079834e-01 -2.318241596221923828e-01 2.743932902812957764e-01 2.000011205673217773e-01 8.101850748062133789e-02 -1.823444813489913940e-01 2.013605535030364990e-01 6.401155143976211548e-02 -7.894576340913772583e-02 -2.743006646633148193e-01 -5.509220063686370850e-03 -1.561203002929687500e-01 -9.144006669521331787e-02 -2.739174664020538330e-01 2.404399774968624115e-02 1.560985893011093140e-01 1.465959846973419189e-01 -2.761812210083007812e-01 1.610643714666366577e-01 -9.639520943164825439e-02 -1.091371476650238037e-01 -1.743405014276504517e-01 -1.687797158956527710e-01 -5.658257007598876953e-02 -2.409574240446090698e-01 3.733589872717857361e-02 -2.879066020250320435e-02 -2.366169989109039307e-01 2.455118000507354736e-01 3.064711093902587891e-01 -2.566037476062774658e-01 -1.400922890752553940e-02 -9.611903131008148193e-02 8.514268696308135986e-02 1.810937672853469849e-01 -2.095115333795547485e-01 1.898154616355895996e-01 4.486470296978950500e-02 2.252410054206848145e-01 -1.075389534235000610e-01 3.917410224676132202e-02 -1.171560585498809814e-01 -1.292618513107299805e-01 -2.662926018238067627e-01 -2.651414275169372559e-01 -1.365361213684082031e-01 1.321936994791030884e-01 -2.618011236190795898e-01 -2.510435879230499268e-01 2.608935236930847168e-01 -2.590648531913757324e-01 -2.028328776359558105e-01 4.838473722338676453e-02 -1.311059594154357910e-01 -2.163527011871337891e-01 2.243706583976745605e-01 -2.229254692792892456e-01 2.165180146694183350e-01 2.306801080703735352e-01 -2.219464182853698730e-01 2.753781676292419434e-01 -1.895130574703216553e-01 -1.838966906070709229e-01 -4.602067172527313232e-02 2.154722064733505249e-01 -4.626157134771347046e-02 -1.321483999490737915e-01 -5.754881352186203003e-02 2.186763137578964233e-01 -2.646964490413665771e-01 -1.941791027784347534e-01 1.755256950855255127e-02 9.335393458604812622e-02 2.703840732574462891e-01 -7.323038578033447266e-02 -1.932464838027954102e-01 -1.803150922060012817e-01 2.796986699104309082e-01 -6.514415144920349121e-02 1.610019207000732422e-01 2.639308869838714600e-01 -1.041941344738006592e-01 -1.283318400382995605e-01 2.599382074549794197e-03 1.092887371778488159e-01 1.733028441667556763e-01 1.160939931869506836e-01 2.915163636207580566e-01 2.033253014087677002e-01 -2.613973021507263184e-01 1.859993189573287964e-01 -7.714876532554626465e-02 -2.578674256801605225e-01 1.990220248699188232e-01 1.506040841341018677e-01 2.811207063496112823e-02 -1.612839847803115845e-01 2.243475615978240967e-01 -4.089826345443725586e-02 2.063918709754943848e-01 1.015256568789482117e-01 -2.152147889137268066e-01 -8.589300513267517090e-02 -1.333110412815585732e-05 -1.476263403892517090e-01 1.350395530462265015e-01 -2.033222317695617676e-01 -2.497644871473312378e-01 1.070845425128936768e-01 -1.513542830944061279e-01 9.727375209331512451e-02 -1.335546374320983887e-01 2.502329647541046143e-01 -2.327057421207427979e-01 -1.142652183771133423e-01 -1.307422667741775513e-01 -8.300510048866271973e-02 -2.352007627487182617e-01 -2.511381804943084717e-01 1.250644493848085403e-02 2.511619329452514648e-01 8.604521863162517548e-03 -2.158033400774002075e-01 2.012633830308914185e-01 1.238125041127204895e-01 1.309669762849807739e-01 1.740676313638687134e-01 -2.504929900169372559e-01 1.176289096474647522e-01 -2.595391869544982910e-01 1.365729421377182007e-01 1.182230412960052490e-01 1.191719025373458862e-01 -1.603351086378097534e-01 1.048908382654190063e-01 2.002481967210769653e-01 -2.424695342779159546e-01 3.223670274019241333e-02 2.090602666139602661e-01 -1.069867536425590515e-01 -1.618221849203109741e-01 5.953737418167293072e-04 5.332525819540023804e-02 8.767459541559219360e-02 1.414154767990112305e-01 -1.748441159725189209e-01 1.353236287832260132e-01 -2.759334743022918701e-01 -1.523926407098770142e-01 -3.067870810627937317e-02 -1.640689373016357422e-01 -1.957016289234161377e-01 -2.257300168275833130e-01 1.005714461207389832e-01 -5.039463285356760025e-03 2.781947888433933258e-02 2.861211001873016357e-01 1.842962056398391724e-01 -2.293486446142196655e-01 -1.715302616357803345e-01 -2.760021388530731201e-02 5.264239758253097534e-02 2.980994805693626404e-02 -2.323421537876129150e-01 1.949126571416854858e-01 2.436749339103698730e-01 1.631308794021606445e-01 -1.420318186283111572e-01 1.326593309640884399e-01 -7.136677950620651245e-02 -2.542506754398345947e-01 -2.463412582874298096e-01 -2.559899389743804932e-01 -6.607675552368164062e-02 2.629191577434539795e-01 -1.472510546445846558e-01 -4.650199413299560547e-02 1.626544445753097534e-01 -2.801116406917572021e-01 -5.431908369064331055e-02 1.943419724702835083e-01 -2.631993591785430908e-01 4.599679727107286453e-03 8.127706497907638550e-02 -9.379188716411590576e-02 1.709488630294799805e-01 1.108627952635288239e-02 -3.441637009382247925e-02 1.389131695032119751e-01 -2.352913618087768555e-01 -1.055663377046585083e-01 -2.044130861759185791e-01 1.295938193798065186e-01 -5.500541254878044128e-02 -1.005795970559120178e-01 -2.516947984695434570e-01 2.360912710428237915e-01 -2.448258996009826660e-01 -5.758282542228698730e-02 2.643516361713409424e-01 -2.112254872918128967e-02 2.430204898118972778e-01 -3.018534928560256958e-02 -2.212208211421966553e-01 -6.507290154695510864e-02 6.914947926998138428e-02 -9.262308478355407715e-02 2.427492886781692505e-01 6.687506567686796188e-03 -9.841086715459823608e-02 -2.316230535507202148e-01 1.621931344270706177e-01 3.000881969928741455e-01 7.494299113750457764e-02 5.187886208295822144e-02 2.885581552982330322e-01 1.287915855646133423e-01 -2.134703993797302246e-01 1.643726527690887451e-01 -1.045260652899742126e-01 6.574515253305435181e-03 1.920430958271026611e-01 1.264017224311828613e-01 1.157795116305351257e-01 -2.048011422157287598e-01 2.409708499908447266e-01 -2.620719671249389648e-01 1.899248212575912476e-01 2.456602454185485840e-02 -3.901917859911918640e-02 -2.401978895068168640e-02 2.625601291656494141e-01 -1.905497163534164429e-01 2.318083792924880981e-01 -1.809338778257369995e-01 -2.556842938065528870e-02 8.862691372632980347e-02 -1.339589506387710571e-01 2.348431795835494995e-01 -2.104977667331695557e-01 1.083781383931636810e-02 -6.878256052732467651e-02 -6.917129456996917725e-02 -1.889263689517974854e-01 -1.533439606428146362e-01 -2.894883751869201660e-01 -2.868468463420867920e-01 1.066961362957954407e-01 2.683266401290893555e-01 3.164688348770141602e-01 -2.272372245788574219e-01 5.404265224933624268e-02 8.594278991222381592e-02 1.027152910828590393e-01 3.649173676967620850e-02 -1.177983507513999939e-01 2.376334220170974731e-01 -2.894392311573028564e-01 2.251331657171249390e-01 2.229436784982681274e-01 1.966897696256637573e-01 -1.508103609085083008e-01 3.073260933160781860e-02 2.755033411085605621e-02 -1.412453055381774902e-01 -1.285444647073745728e-01 1.240200251340866089e-01 -1.148858070373535156e-01 -1.582248359918594360e-01 -7.505040615797042847e-02 6.879805028438568115e-02 1.769402176141738892e-01 9.773859381675720215e-02 -2.717476785182952881e-01 5.784627422690391541e-02 -1.243676915764808655e-01 -1.694831848144531250e-01 -2.050419896841049194e-01 -3.570057824254035950e-02 -1.852354258298873901e-01 -2.932657599449157715e-01 3.343938291072845459e-01 -1.648902893066406250e-01 -2.519394271075725555e-02 3.148065209388732910e-01 3.079718947410583496e-01 -4.055052995681762695e-02 -1.946145482361316681e-02 -3.847099095582962036e-02 1.165224984288215637e-01 1.863929927349090576e-01 -4.920790717005729675e-02 2.406483143568038940e-01 1.075944826006889343e-01 1.962858065962791443e-02 -2.436251193284988403e-01 1.952213197946548462e-01 -1.817666739225387573e-01 -2.200840413570404053e-01 -2.110437005758285522e-01 -1.068613231182098389e-01 -1.806139349937438965e-01 2.525496184825897217e-01 -2.631421759724617004e-02 -2.649157047271728516e-01 1.052688583731651306e-01 -2.453552931547164917e-01 -7.687547057867050171e-02 2.394595444202423096e-01 -2.611128389835357666e-01 -1.824069917201995850e-01 1.236396953463554382e-01 -1.109531298279762268e-01 2.046931833028793335e-01 2.696466743946075439e-01 -3.225036263465881348e-01 1.162857562303543091e-01 -2.120230495929718018e-01 -3.013775050640106201e-01 -2.831749022006988525e-01 4.922252148389816284e-02 1.723285615444183350e-01 -1.940460205078125000e-01 -1.471639573574066162e-01 1.084323674440383911e-01 -1.593750566244125366e-01 -5.533938854932785034e-02 3.108451366424560547e-01 1.048858985304832458e-01 9.649188816547393799e-02 -5.639623850584030151e-02 -2.051436007022857666e-01 -3.308637738227844238e-01 2.348750978708267212e-01 -2.949629724025726318e-01 1.687402874231338501e-01 2.600786983966827393e-01 -2.027245610952377319e-01 -3.428319692611694336e-01 2.225006669759750366e-01 2.720313072204589844e-01 2.855951488018035889e-01 1.330671459436416626e-01 4.795381799340248108e-02 3.154561519622802734e-01 -2.306041717529296875e-01 4.430938512086868286e-02 -4.854257404804229736e-02 -7.621069252490997314e-02 1.066998317837715149e-01 2.204999476671218872e-01 1.828023493289947510e-01 -2.214540243148803711e-01 2.722429037094116211e-01 -1.431837081909179688e-01 1.335369199514389038e-01 1.583477556705474854e-01 -9.067569673061370850e-02 -2.250306755304336548e-01 2.906101569533348083e-02 -1.582662463188171387e-01 2.939888834953308105e-01 -1.394576281309127808e-01 -5.634038895368576050e-02 2.961758375167846680e-01 -3.006286025047302246e-01 3.077765703201293945e-01 -3.352144062519073486e-01 3.696843236684799194e-02 -1.760230809450149536e-01 -3.806351125240325928e-02 -1.866004019975662231e-01 -2.780523598194122314e-01 -1.303917169570922852e-01 -2.673141360282897949e-01 2.550993263721466064e-01 1.877717860043048859e-02 1.829949617385864258e-01 -1.209262460470199585e-01 8.355782926082611084e-02 1.039114743471145630e-01 4.142072424292564392e-02 3.801667364314198494e-03 -1.845373511314392090e-01 2.909647822380065918e-01 -1.423145383596420288e-01 2.812620103359222412e-01 -4.495745524764060974e-03 5.271083861589431763e-02 -2.709140181541442871e-01 8.480674773454666138e-02 2.139189243316650391e-01 -1.477024108171463013e-01 -1.283036023378372192e-01 9.815461933612823486e-03 -1.860606521368026733e-01 -2.367815971374511719e-01 2.548648416996002197e-02 4.192816093564033508e-02 7.051488757133483887e-02 2.613438852131366730e-02 -3.284100815653800964e-02 2.428016960620880127e-01 -5.965796858072280884e-02 -1.289556622505187988e-01 -1.888512223958969116e-01 -6.274195760488510132e-02 -1.711233556270599365e-01 -2.125371694564819336e-01 2.784307003021240234e-01 -1.940232068300247192e-01 -1.018745824694633484e-01 2.440508455038070679e-01 1.625339388847351074e-01 -2.790145874023437500e-01 2.926236391067504883e-02 -8.356822282075881958e-02 1.734944283962249756e-01 2.510837018489837646e-01 -2.575939893722534180e-01 2.052955925464630127e-01 1.888445168733596802e-01 1.990291476249694824e-01 -4.734607040882110596e-02 7.981518656015396118e-02 -1.750052720308303833e-01 -1.747279167175292969e-01 -1.393433846533298492e-02 -1.782706677913665771e-01 -2.351658642292022705e-01 2.166140377521514893e-01 -2.201430797576904297e-01 -2.893183529376983643e-01 9.367308020591735840e-02 -7.532347738742828369e-02 -1.652587652206420898e-01 1.519306153059005737e-01 1.046134275384247303e-03 -1.170869395136833191e-01 1.275257319211959839e-01 -1.444809883832931519e-01 1.041775792837142944e-01 1.577178537845611572e-01 -1.804225593805313110e-01 1.802780479192733765e-01 -1.682738214731216431e-02 -1.423251926898956299e-01 -1.025600805878639221e-01 1.277320533990859985e-01 2.093936502933502197e-01 -8.123107254505157471e-02 -2.655802667140960693e-01 1.982475370168685913e-01 -9.748432040214538574e-02 -2.798013389110565186e-01 1.825770735740661621e-01 3.946402296423912048e-02 2.331808954477310181e-01 -3.699830919504165649e-02 -5.424720421433448792e-02 -1.302108019590377808e-01 5.139990523457527161e-02 3.841591067612171173e-03 1.719441413879394531e-01 9.635036438703536987e-02 -1.348000764846801758e-01 -7.333377841860055923e-03 -3.161451593041419983e-02 1.105799227952957153e-01 1.219454854726791382e-01 8.696539700031280518e-02 1.334182769060134888e-01 1.792219132184982300e-01 -2.476730346679687500e-01 1.971191465854644775e-01 -1.824329495429992676e-01 2.573735266923904419e-02 5.142123997211456299e-02 2.672449946403503418e-01 2.298868000507354736e-01 -9.028936177492141724e-02 1.617061793804168701e-01 -4.721772298216819763e-02 -3.300821408629417419e-02 9.165884554386138916e-02 -2.195780128240585327e-01 -8.685576170682907104e-02 1.980440616607666016e-01 -2.788098752498626709e-01 2.071431279182434082e-01 -2.111478894948959351e-02 -2.254030853509902954e-02 2.419125884771347046e-01 2.923131175339221954e-02 2.402995824813842773e-01 -1.328534185886383057e-01 1.679452508687973022e-02 -5.895930156111717224e-02 -1.787532567977905273e-01 -1.861625909805297852e-01 3.403153270483016968e-03 -1.235129535198211670e-01 -1.206983476877212524e-01 2.534624636173248291e-01 8.172208815813064575e-02 8.228553831577301025e-02 -2.305471450090408325e-01 5.278104543685913086e-02 6.006883457303047180e-02 1.794313043355941772e-01 9.444701671600341797e-02 -6.742978841066360474e-02 1.381996124982833862e-01 -2.402874827384948730e-01 2.326347082853317261e-01 1.953884959220886230e-01 1.278153061866760254e-01 -2.589026689529418945e-01 9.633270651102066040e-02 7.578702270984649658e-02 -1.749506443738937378e-01 -1.065846607089042664e-01 1.791765391826629639e-01 -2.755476236343383789e-01 -1.456838995218276978e-01 -4.237032309174537659e-02 1.858032643795013428e-01 8.603529632091522217e-02 -1.000154763460159302e-02 4.263389855623245239e-03 -6.854910403490066528e-03 -2.030983120203018188e-01 -8.922135084867477417e-02 -8.759486675262451172e-02 -1.665802896022796631e-01 -8.016405999660491943e-02 -3.011823892593383789e-01 1.766591966152191162e-01 -7.608696818351745605e-02 -1.803344786167144775e-01 1.537363976240158081e-01 9.032398462295532227e-02 -1.428881734609603882e-01 -1.641729027032852173e-01 -2.270928397774696350e-02 2.577112317085266113e-01 2.600947953760623932e-02 -2.267082631587982178e-01 2.259507328271865845e-01 2.762911915779113770e-01 -2.140096575021743774e-02 -2.926692068576812744e-01 2.035456895828247070e-01 -7.675211131572723389e-02 -1.166150942444801331e-01 -2.699934542179107666e-01 -5.102136731147766113e-02 -2.849438190460205078e-01 4.216784611344337463e-02 -2.784188985824584961e-01 -1.334141790866851807e-01 5.210991203784942627e-02 -3.987578675150871277e-02 -2.791888415813446045e-01 4.269905760884284973e-02 -1.675611436367034912e-01 -2.021306604146957397e-01 2.046543210744857788e-01 -3.790730237960815430e-02 9.177753329277038574e-02 2.243752479553222656e-01 -2.715674340724945068e-01 1.829771548509597778e-01 -8.842048048973083496e-02 -6.707431375980377197e-02 -8.059492707252502441e-02 2.444841414690017700e-01 -7.754488289356231689e-02 8.932117372751235962e-03 -2.290184199810028076e-01 4.728328436613082886e-02 -1.033302098512649536e-01 -2.167235761880874634e-01 2.953425049781799316e-01 1.781411021947860718e-01 9.692138433456420898e-02 -8.834093809127807617e-02 -1.662839055061340332e-01 -2.474035769701004028e-01 2.237799391150474548e-02 -1.738920658826828003e-01 1.763537973165512085e-01 1.406529545783996582e-01 -9.788147360086441040e-02 -1.157835498452186584e-01 1.357060372829437256e-01 6.721859425306320190e-02 1.739201545715332031e-01 1.638866513967514038e-01 2.424588352441787720e-01 2.202879339456558228e-01 -1.380720585584640503e-01 2.250009179115295410e-01 -1.713781952857971191e-01 5.840896628797054291e-03 3.956585377454757690e-02 2.581492066383361816e-01 1.460469365119934082e-01 -1.767817586660385132e-01 1.339140236377716064e-01 1.210918184369802475e-02 2.752450406551361084e-01 6.096962466835975647e-02 -1.573474258184432983e-01 -1.969549506902694702e-01 2.028647437691688538e-02 -2.434422522783279419e-01 -1.245284080505371094e-02 -2.659112513065338135e-01 -7.090758532285690308e-03 1.921600848436355591e-02 -2.575972676277160645e-01 2.321425974369049072e-01 -2.462929636240005493e-01 1.193010956048965454e-01 -1.358436346054077148e-01 3.955963253974914551e-02 1.300349645316600800e-02 -1.606620699167251587e-01 -7.208408415317535400e-02 1.108472943305969238e-01 -2.496837228536605835e-01 -1.207716986536979675e-01 -1.972586810588836670e-01 8.949571102857589722e-02 -4.303924739360809326e-02 -2.605861723423004150e-01 -4.762954264879226685e-02 1.944283954799175262e-02 2.180742472410202026e-01 -2.369183748960494995e-01 1.104325577616691589e-01 -2.648449242115020752e-01 -1.072909906506538391e-01 -1.122929453849792480e-01 3.919713199138641357e-02 -1.378852277994155884e-01 -1.976040154695510864e-01 3.373030126094818115e-01 5.273292306810617447e-03 -1.399284452199935913e-01 1.146169751882553101e-01 8.161859959363937378e-02 1.278327107429504395e-01 -3.144887685775756836e-01 3.894058242440223694e-02 -1.002821605652570724e-02 2.805300951004028320e-01 -2.445876151323318481e-01 1.795138120651245117e-01 2.834557592868804932e-01 2.757664620876312256e-01 2.409874498844146729e-01 1.824876642785966396e-03 2.702467739582061768e-01 -2.452375441789627075e-01 1.605182588100433350e-01 5.547994747757911682e-03 -5.542466416954994202e-02 -1.399728953838348389e-01 2.168499976396560669e-01 2.868338953703641891e-03 1.596298217773437500e-01 -1.123209297657012939e-01 -1.812069565057754517e-01 2.634492516517639160e-01 -1.353541016578674316e-01 -1.061280593276023865e-01 -1.089981663972139359e-02 3.611212968826293945e-02 -9.732501953840255737e-02 2.367275059223175049e-01 1.439104080200195312e-01 4.311117529869079590e-02 2.374859005212783813e-01 1.793221980333328247e-01 -2.910754829645156860e-02 -1.722626015543937683e-02 8.772610872983932495e-02 -1.914555132389068604e-01 2.321563065052032471e-01 2.664885818958282471e-01 -2.338971197605133057e-01 2.747223079204559326e-01 1.579603552818298340e-01 -2.097119390964508057e-01 2.445197403430938721e-01 8.986875414848327637e-03 -2.626992166042327881e-01 4.425998404622077942e-02 -2.080290019512176514e-01 1.958211185410618782e-03 2.052625417709350586e-01 9.931785613298416138e-02 -1.642766743898391724e-01 -2.665359899401664734e-02 2.209648936986923218e-01 -5.569548346102237701e-03 -2.346183508634567261e-01 2.861512601375579834e-01 3.210147917270660400e-01 -1.137832999229431152e-01 -5.453122034668922424e-02 -2.273384928703308105e-01 2.384932637214660645e-01 8.894469588994979858e-02 2.078266441822052002e-01 -1.644421517848968506e-01 3.533851727843284607e-02 -8.450108021497726440e-02 -2.030562907457351685e-01 9.275693446397781372e-02 3.309671282768249512e-01 -2.661751508712768555e-01 -1.449508666992187500e-01 -1.948184333741664886e-02 -2.104288935661315918e-01 -6.297017633914947510e-02 -2.803320288658142090e-01 2.224138297606259584e-04 -3.231595456600189209e-02 2.386944442987442017e-01 2.280840128660202026e-01 -1.907582432031631470e-01 -2.191307842731475830e-01 -2.080934345722198486e-01 2.330616265535354614e-01 -1.505709290504455566e-01 1.031681671738624573e-01 -5.139029771089553833e-02 -7.858423143625259399e-02 2.494387179613113403e-01 1.728750914335250854e-01 -2.966097593307495117e-01 1.414830684661865234e-01 -1.342812180519104004e-01 1.850582659244537354e-01 1.381030678749084473e-01 -2.504821121692657471e-01 2.153338342905044556e-01 -1.585672646760940552e-01 3.075415492057800293e-01 -1.574494838714599609e-01 -5.322928726673126221e-02 2.169013023376464844e-01 1.944629698991775513e-01 2.228938788175582886e-01 1.218539476394653320e-01 1.369780153036117554e-01 -2.728487849235534668e-01 -2.237989008426666260e-01 -2.536652386188507080e-01 1.797239780426025391e-01 -1.851674318313598633e-01 -6.444045901298522949e-02 -2.388074100017547607e-01 1.303911395370960236e-02 1.655167341232299805e-01 -2.433484196662902832e-01 3.026225864887237549e-01 -3.315278589725494385e-01 2.599192550405859947e-03 -2.293394058942794800e-01 1.859652996063232422e-01 -8.990882337093353271e-02 -2.344131171703338623e-01 3.910456895828247070e-01 2.123966347426176071e-03 -2.248022854328155518e-01 1.608361005783081055e-01 8.077371120452880859e-02 1.398463547229766846e-01 -2.093722820281982422e-01 -1.512890160083770752e-01 -8.130663074553012848e-03 1.541522741317749023e-01 -2.218670696020126343e-01 2.068605273962020874e-01 2.686677277088165283e-01 1.167046204209327698e-01 2.233077138662338257e-01 1.911766380071640015e-01 3.255224227905273438e-01 -3.212725520133972168e-01 1.983729898929595947e-01 1.217072531580924988e-01 -1.951528154313564301e-02 -2.014753520488739014e-01 9.238984435796737671e-02 2.780272364616394043e-01 1.746811568737030029e-01 -2.273565828800201416e-01 -1.210313811898231506e-01 4.560902714729309082e-02 -2.667009830474853516e-01 -5.053900927305221558e-02 -7.905959337949752808e-02 2.338828593492507935e-01 -7.715233415365219116e-02 2.698894739151000977e-01 2.437409162521362305e-01 1.364715248346328735e-01 8.117783069610595703e-02 7.163921743631362915e-02 -3.691490888595581055e-01 1.748529821634292603e-01 2.053975015878677368e-01 -1.317909080535173416e-02 7.855080068111419678e-02 1.926109641790390015e-01 -2.816234827041625977e-01 1.433829367160797119e-01 1.861090213060379028e-01 -1.893887519836425781e-01 1.947177797555923462e-01 -2.542340010404586792e-02 -7.469891011714935303e-02 1.344618946313858032e-01 -5.031263455748558044e-02 2.314424514770507812e-01 2.228318899869918823e-02 2.021138519048690796e-01 -2.359163016080856323e-01 -3.868673741817474365e-02 2.313568294048309326e-01 2.606683373451232910e-01 -1.095116585493087769e-01 2.612263858318328857e-01 3.175595998764038086e-01 -2.471575438976287842e-01 -1.685818880796432495e-01 -3.398417830467224121e-01 1.745791733264923096e-01 1.732802540063858032e-01 2.547032833099365234e-01 -6.321737170219421387e-02 3.465718403458595276e-02 -2.097827792167663574e-01 -3.511177003383636475e-01 5.205425247550010681e-02 1.464571356773376465e-01 -3.320503234863281250e-01 -1.993504613637924194e-01 -2.907121777534484863e-01 -2.693780958652496338e-01 -2.560854852199554443e-01 -2.022421658039093018e-01 1.238657012581825256e-01 -9.194685518741607666e-02 9.037730842828750610e-02 1.944562792778015137e-01 -8.420722186565399170e-02 -2.133438885211944580e-01 -2.044196873903274536e-01 1.555777639150619507e-01 -1.421724259853363037e-01 2.824185788631439209e-01 1.585531164892017841e-03 -5.181330069899559021e-02 6.150528788566589355e-02 1.757259964942932129e-01 -3.999747335910797119e-02 3.321001231670379639e-01 -1.409095972776412964e-01 1.850895769894123077e-02 2.230306155979633331e-02 -2.607392072677612305e-01 2.302826195955276489e-02 -1.252153962850570679e-01 2.802238464355468750e-01 -2.266963422298431396e-01 -1.561050023883581161e-02 2.439112402498722076e-02 2.803323566913604736e-01 3.133743703365325928e-01 1.732327342033386230e-01 -2.338927239179611206e-01 6.033122073858976364e-03 5.815464258193969727e-02 1.355651170015335083e-01 -2.277635037899017334e-01 7.521586120128631592e-02 1.506146788597106934e-02 2.068146020174026489e-01 1.753265783190727234e-02 -1.291059553623199463e-01 1.411512047052383423e-01 1.869427040219306946e-02 1.286378502845764160e-01 2.710391581058502197e-01 2.851350605487823486e-01 -1.222155466675758362e-01 2.791327238082885742e-01 1.580484956502914429e-01 -3.319587931036949158e-02 1.952992565929889679e-02 9.519071131944656372e-02 -9.690397232770919800e-02 -2.709378302097320557e-01 -3.799721971154212952e-02 1.598602384328842163e-01 1.347898840904235840e-01 2.361331880092620850e-01 -2.337611615657806396e-01 2.046000212430953979e-01 -2.289101779460906982e-01 -1.848257184028625488e-01 -2.616862058639526367e-01 -7.566183805465698242e-02 -1.227003186941146851e-01 -1.999933570623397827e-01 1.657305359840393066e-01 -1.186529695987701416e-01 -2.145658433437347412e-01 5.833326280117034912e-02 9.608099609613418579e-02 -2.567283511161804199e-01 -1.179080083966255188e-01 -1.150164678692817688e-01 5.066907405853271484e-02 9.734947234392166138e-02 -4.590409994125366211e-02 1.346082985401153564e-01 1.586719974875450134e-02 2.035346776247024536e-01 -2.894321382045745850e-01 2.774262614548206329e-02 -3.868381306529045105e-02 -2.603170871734619141e-01 -1.522979140281677246e-01 -5.611156672239303589e-02 -1.131660714745521545e-01 3.048065900802612305e-01 -1.102591603994369507e-01 -1.278824806213378906e-01 1.774940043687820435e-01 -6.632257997989654541e-02 -1.331712007522583008e-01 1.565762311220169067e-01 -5.510336533188819885e-02 -2.523213624954223633e-01 2.083960324525833130e-01 -2.194488495588302612e-01 1.808303967118263245e-02 2.633619606494903564e-01 -2.724307775497436523e-01 2.103320211172103882e-01 -1.552939116954803467e-01 -1.920136511325836182e-01 -1.419843919575214386e-02 6.144173070788383484e-02 -3.862590715289115906e-02 -2.637537419795989990e-01 1.697081699967384338e-02 8.149871975183486938e-02 -3.813633695244789124e-02 -3.048905730247497559e-01 2.205145955085754395e-01 1.950556933879852295e-01 2.398058027029037476e-01 -4.999801144003868103e-02 -1.319966167211532593e-01 -2.067057788372039795e-02 2.306171954842284322e-04 -6.249598041176795959e-02 1.291771680116653442e-01 1.611546277999877930e-01 -1.460620313882827759e-01 -2.322752028703689575e-01 1.019996963441371918e-02 1.229183003306388855e-01 3.002051413059234619e-01 1.862982064485549927e-01 2.630040943622589111e-01 1.123502925038337708e-01 -1.286379992961883545e-01 9.889243543148040771e-02 -4.093758016824722290e-02 -3.059009835124015808e-02 1.984716951847076416e-01 9.853491187095642090e-02 1.009767130017280579e-01 -5.457931384444236755e-02 1.469522267580032349e-01 -1.988801211118698120e-01 2.342352718114852905e-01 1.760812252759933472e-01 -2.237581163644790649e-01 -7.690303958952426910e-03 1.486922651529312134e-01 -5.341249704360961914e-02 1.247758939862251282e-01 -5.255277082324028015e-02 -2.294514030218124390e-01 2.091933637857437134e-01 -1.975906454026699066e-02 4.903874173760414124e-02 -1.528312265872955322e-01 2.219082713127136230e-01 -2.616744041442871094e-01 -1.133744567632675171e-01 -1.800150126218795776e-01 -2.760342322289943695e-02 -1.704137176275253296e-01 -6.062590703368186951e-02 1.817557066679000854e-01 8.580565452575683594e-02 2.377175539731979370e-01 -2.153380811214447021e-01 6.381445378065109253e-02 1.174542456865310669e-01 -1.217796001583337784e-02 -1.581437326967716217e-02 -2.119051218032836914e-01 2.338599711656570435e-01 -1.821164041757583618e-01 1.564142554998397827e-01 1.865944862365722656e-01 2.902376353740692139e-01 8.363531902432441711e-03 1.956198066473007202e-01 -3.177602076902985573e-03 1.036298647522926331e-02 -1.070102304220199585e-01 9.116554260253906250e-02 -2.652986161410808563e-02 -2.541627883911132812e-01 -9.814148396253585815e-02 -1.145611982792615891e-02 2.188072502613067627e-01 1.254994422197341919e-01 5.187445878982543945e-02 -2.910143509507179260e-02 -9.889599680900573730e-02 -1.346795260906219482e-01 -3.673274815082550049e-02 -2.444677054882049561e-01 4.308246076107025146e-02 -2.523305416107177734e-01 5.841661989688873291e-02 -9.031745791435241699e-02 -3.399474546313285828e-02 1.462377756834030151e-01 2.662140429019927979e-01 6.690770853310823441e-03 3.984703868627548218e-02 -2.169851027429103851e-02 9.538114070892333984e-02 8.964079618453979492e-02 3.204233944416046143e-02 1.585931330919265747e-01 1.101090312004089355e-01 3.534945845603942871e-02 -1.759212166070938110e-01 6.922813504934310913e-02 -2.304922044277191162e-01 -1.328713744878768921e-01 -6.972028315067291260e-02 -4.464192315936088562e-02 -4.104493185877799988e-02 8.014653809368610382e-03 -1.697028726339340210e-01 -1.832198947668075562e-01 5.101804062724113464e-02 1.842667907476425171e-02 -6.895428150892257690e-02 -2.582410909235477448e-02 -1.674031019210815430e-01 -1.207821890711784363e-01 2.458219081163406372e-01 -8.471181988716125488e-02 1.876077651977539062e-01 8.976200222969055176e-02 -9.516225010156631470e-02 -1.040272531099617481e-03 -7.172870635986328125e-02 -2.204210311174392700e-02 -1.280120611190795898e-01 2.334362268447875977e-01 1.396451592445373535e-01 -2.333228886127471924e-01 1.070335973054170609e-02 3.504172340035438538e-02 -1.907095909118652344e-01 -5.125773325562477112e-02 -3.011177480220794678e-02 6.680689007043838501e-02 2.567293941974639893e-01 -2.419646084308624268e-01 -2.348140031099319458e-01 -1.733575612306594849e-01 -3.782363235950469971e-02 -1.327643245458602905e-01 7.776006311178207397e-02 2.396156936883926392e-01 -1.008654087781906128e-01 -2.015295326709747314e-01 1.311677247285842896e-01 1.113828718662261963e-01 1.486349734477698803e-03 2.169415354728698730e-01 1.173895373940467834e-01 2.478722110390663147e-02 -1.489236503839492798e-01 1.606261730194091797e-01 3.851165296509861946e-03 -2.245289683341979980e-01 -3.776118683163076639e-04 2.157776206731796265e-01 -4.091589152812957764e-02 -2.146931141614913940e-01 -6.482727080583572388e-02 -2.831750363111495972e-02 2.385549694299697876e-01 1.733479276299476624e-02 -1.564981639385223389e-01 -2.353681176900863647e-01 1.262976974248886108e-01 1.933844946324825287e-02 1.337583661079406738e-01 -1.683821976184844971e-01 1.853393763303756714e-02 2.271698415279388428e-01 -7.954881340265274048e-02 2.221213728189468384e-01 5.472238641232252121e-03 1.455092728137969971e-01 -1.981826722621917725e-01 -1.237442120909690857e-01 -1.336349695920944214e-01 -8.126204833388328552e-03 -1.523849368095397949e-02 3.221599161624908447e-01 -2.228876352310180664e-01 -1.020395979285240173e-01 -1.150254905223846436e-01 3.071741461753845215e-01 -2.779364585876464844e-01 -1.664143204689025879e-01 -1.134934425354003906e-01 -1.522890776395797729e-01 2.387250065803527832e-01 -2.658690512180328369e-01 3.721558451652526855e-01 -1.441218554973602295e-01 -2.780274152755737305e-01 -2.806727588176727295e-01 2.860952615737915039e-01 -2.754143178462982178e-01 -2.288455516099929810e-01 4.356183707714080811e-01 3.296406567096710205e-01 -1.130397543311119080e-01 2.066999524831771851e-01 1.645679324865341187e-01 1.569069623947143555e-01 -3.404193520545959473e-01 -1.426219642162322998e-01 -3.326431512832641602e-01 1.152253672480583191e-01 -9.062847495079040527e-02 3.559993207454681396e-01 1.857492923736572266e-01 2.865940630435943604e-01 2.703140377998352051e-01 2.120199650526046753e-01 3.385056555271148682e-01 -3.808877170085906982e-01 7.842927426099777222e-02 8.191499859094619751e-02 -2.854840457439422607e-01 -3.210197389125823975e-01 3.599538505077362061e-01 8.823944628238677979e-02 2.100572437047958374e-01 -3.070538043975830078e-01 -2.142945080995559692e-01 1.101779714226722717e-01 -3.780674934387207031e-01 -3.472083210945129395e-01 -1.171817630529403687e-01 3.039496243000030518e-01 -7.667724043130874634e-02 1.931239217519760132e-01 3.357911109924316406e-01 3.459302783012390137e-01 2.447503209114074707e-01 2.447077184915542603e-01 -2.005050480365753174e-01 2.130394279956817627e-01 3.183795511722564697e-01 -7.993347942829132080e-02 1.346826553344726562e-01 3.597322702407836914e-01 -1.308622360229492188e-01 2.873845994472503662e-01 1.594845205545425415e-01 -3.411343097686767578e-01 3.039256930351257324e-01 -1.988037079572677612e-01 -4.300664067268371582e-01 3.226129412651062012e-01 -2.424975782632827759e-01 1.191762536764144897e-01 1.551996320486068726e-01 2.861644327640533447e-01 -1.958192586898803711e-01 -1.151296645402908325e-01 1.545309722423553467e-01 1.357827633619308472e-01 -3.320134282112121582e-01 3.770082592964172363e-01 2.823024988174438477e-01 -3.648458719253540039e-01 -4.819509387016296387e-02 -2.139334827661514282e-01 3.411588966846466064e-01 1.334054619073867798e-01 3.824516832828521729e-01 -7.425954192876815796e-02 2.289123237133026123e-01 -3.733155429363250732e-01 -1.982360780239105225e-01 1.433320939540863037e-01 1.759472489356994629e-01 -1.707556694746017456e-01 -2.453939914703369141e-01 -1.002104803919792175e-01 -3.392289876937866211e-01 -4.086087048053741455e-01 -3.194428980350494385e-01 8.993221074342727661e-02 -3.338569700717926025e-01 3.203400075435638428e-01 3.401136994361877441e-01 -1.390271633863449097e-01 -3.849979639053344727e-01 -3.775709569454193115e-01 3.428187966346740723e-01 -3.333387076854705811e-01 1.114627718925476074e-01 -3.385514318943023682e-01 -2.163098156452178955e-01 3.088867366313934326e-01 1.105888038873672485e-01 -1.750104576349258423e-01 1.856455206871032715e-01 -2.519723176956176758e-01 1.278235614299774170e-01 1.663069725036621094e-01 -1.740220636129379272e-01 2.231228500604629517e-01 -2.324058413505554199e-01 3.336962461471557617e-01 -1.922903507947921753e-01 1.159737706184387207e-01 2.168609648942947388e-01 3.282691240310668945e-01 3.970924913883209229e-01 1.945903450250625610e-01 -1.783345043659210205e-01 1.835803389549255371e-01 2.216403335332870483e-01 2.102516591548919678e-01 -3.478774428367614746e-02 1.633834242820739746e-01 1.527779847383499146e-01 1.407679319381713867e-01 2.700186669826507568e-01 -2.018877714872360229e-01 1.704102754592895508e-01 -9.118620306253433228e-02 5.350152403116226196e-02 1.349882483482360840e-01 1.486024558544158936e-01 -1.127647757530212402e-01 2.260980755090713501e-01 2.733350098133087158e-01 -2.967329621315002441e-01 -1.997603029012680054e-01 6.777244061231613159e-02 -1.428321003913879395e-01 -4.948924295604228973e-03 -1.923508197069168091e-01 2.227357625961303711e-01 2.506654560565948486e-01 1.105126515030860901e-01 -8.857182413339614868e-02 1.163878105580806732e-02 -1.902591437101364136e-01 -1.296534016728401184e-02 -1.997649222612380981e-01 -8.268836885690689087e-02 -5.842335894703865051e-02 -2.102274149656295776e-01 4.745472967624664307e-02 -1.823102682828903198e-01 -9.206666052341461182e-02 1.551383882761001587e-01 6.720390170812606812e-02 -4.498064145445823669e-02 -1.686193794012069702e-01 -2.745471000671386719e-01 1.868050396442413330e-01 1.183902621269226074e-01 -2.623783349990844727e-01 -1.618615700863301754e-03 1.246361620724201202e-02 1.635340303182601929e-01 -1.288999468088150024e-01 1.946982592344284058e-01 3.345536533743143082e-03 -1.808096170425415039e-01 2.565031126141548157e-02 6.674758158624172211e-03 5.270607303828001022e-03 2.465939074754714966e-01 -8.123221248388290405e-02 -2.167403250932693481e-01 4.983924701809883118e-02 -1.957777142524719238e-01 -1.521291881799697876e-01 2.211224436759948730e-01 -2.765065729618072510e-01 -1.815722137689590454e-01 1.996146738529205322e-01 -7.058916240930557251e-02 2.353771775960922241e-01 2.440055906772613525e-01 -6.041068583726882935e-03 5.486699938774108887e-02 -1.478368937969207764e-01 1.822143234312534332e-02 -2.599059939384460449e-01 1.679683327674865723e-01 9.059549123048782349e-02 -2.023607790470123291e-01 -1.562576889991760254e-01 2.520183920860290527e-01 -5.424732342362403870e-02 -2.978236377239227295e-01 1.377366781234741211e-01 1.903820186853408813e-01 8.214234560728073120e-02 -1.428595483303070068e-01 -7.628310471773147583e-02 -2.467215061187744141e-02 1.886163651943206787e-01 -1.950113177299499512e-01 7.881616055965423584e-02 2.673098742961883545e-01 4.771038424223661423e-03 -2.136143296957015991e-01 4.825362563133239746e-02 9.276498109102249146e-02 6.916794925928115845e-03 4.148956760764122009e-02 -3.979932051151990891e-03 -1.262209750711917877e-02 -5.897879227995872498e-02 1.876738667488098145e-01 -9.450993686914443970e-02 -1.815127730369567871e-01 8.284112438559532166e-03 1.495736390352249146e-01 2.490444630384445190e-01 -7.741848379373550415e-02 5.547283962368965149e-02 -9.688072651624679565e-02 8.893561363220214844e-02 7.455255836248397827e-02 3.023886680603027344e-02 -1.527830660343170166e-01 2.479160577058792114e-01 -2.385266274213790894e-01 -2.080696076154708862e-02 -1.515847295522689819e-01 -1.120060905814170837e-01 9.937252849340438843e-02 -6.201497092843055725e-02 2.090699970722198486e-01 -2.402903139591217041e-01 8.428154140710830688e-02 -1.794773787260055542e-01 -3.189085423946380615e-02 -2.522364258766174316e-01 -1.205158755183219910e-01 -2.622512876987457275e-01 -7.297797501087188721e-02 1.639007404446601868e-02 4.612835124135017395e-02 1.299265027046203613e-01 -2.882930636405944824e-01 7.255345582962036133e-02 2.207908630371093750e-01 1.634999513626098633e-01 4.424184933304786682e-02 -7.527045905590057373e-02 1.659473925828933716e-01 -2.768571674823760986e-01 1.565346419811248779e-01 2.687129676342010498e-01 2.592965066432952881e-01 -1.956292837858200073e-01 1.128975972533226013e-01 1.451062411069869995e-01 -2.106132060289382935e-01 -2.101942338049411774e-02 6.092050299048423767e-02 -2.657502889633178711e-01 -2.148884981870651245e-01 -1.701761409640312195e-02 2.769566476345062256e-01 -1.636070199310779572e-02 1.201502531766891479e-01 -2.919060885906219482e-01 2.699073553085327148e-01 -1.596282571554183960e-01 -8.017499744892120361e-02 -1.275614202022552490e-01 -8.889345079660415649e-02 -2.649666666984558105e-01 -2.132973074913024902e-01 8.570204675197601318e-02 -6.676751375198364258e-02 -5.735129490494728088e-02 1.197953969240188599e-01 6.888815760612487793e-02 -9.710359573364257812e-02 -2.623830139636993408e-01 -7.768091559410095215e-02 1.022526621818542480e-01 8.586157113313674927e-03 -1.479253172874450684e-01 2.414884716272354126e-01 1.410355567932128906e-01 1.682789474725723267e-01 -1.797296106815338135e-01 2.544640898704528809e-01 4.017775878310203552e-03 -2.710990607738494873e-01 -2.356659621000289917e-01 -2.819770388305187225e-02 -2.061004191637039185e-01 6.236761435866355896e-02 -1.446089446544647217e-01 -1.648310422897338867e-01 1.964880228042602539e-01 -2.810748815536499023e-01 -1.456454694271087646e-01 2.906197607517242432e-01 -7.475471496582031250e-02 -2.558373808860778809e-01 1.830284595489501953e-01 -2.301158159971237183e-01 -2.796184737235307693e-03 2.750936150550842285e-01 -6.040041800588369370e-03 4.109710454940795898e-02 -9.812225401401519775e-02 -9.084208309650421143e-02 -1.462426781654357910e-01 7.190971821546554565e-02 7.974264025688171387e-02 -2.283405214548110962e-01 -1.220264136791229248e-01 5.103780701756477356e-02 -3.100421428680419922e-01 -1.343642026185989380e-01 1.852989941835403442e-01 2.900541760027408600e-02 1.006905138492584229e-01 -2.193847447633743286e-01 -2.791996300220489502e-01 -2.704398632049560547e-01 1.952429711818695068e-01 -1.328426599502563477e-01 2.715362012386322021e-01 1.274048686027526855e-01 -2.036774903535842896e-01 -1.997020691633224487e-01 2.147995866835117340e-02 1.815687566995620728e-01 2.286283522844314575e-01 8.246253430843353271e-02 2.341078370809555054e-01 1.004581451416015625e-01 -2.558816783130168915e-02 1.740063279867172241e-01 -8.706399798393249512e-02 -2.839189767837524414e-01 1.188739836215972900e-01 1.153578534722328186e-01 2.687069354578852654e-03 -7.876965403556823730e-02 1.109050437808036804e-01 -3.794666752219200134e-02 2.591051757335662842e-01 2.569791674613952637e-01 -2.361878752708435059e-01 -2.473604977130889893e-01 2.165675461292266846e-01 -2.179200798273086548e-01 2.042841762304306030e-01 -2.971175014972686768e-01 -1.430906653404235840e-01 1.148528698831796646e-02 -5.368117243051528931e-02 2.572022676467895508e-01 -2.217529863119125366e-01 2.074933648109436035e-01 -9.782754816114902496e-03 -1.699014753103256226e-01 -1.045133844017982483e-01 -3.218891620635986328e-01 -2.739277482032775879e-01 -2.254475355148315430e-01 8.952174335718154907e-02 1.831083446741104126e-01 1.933878362178802490e-01 -1.553214937448501587e-01 1.284293234348297119e-01 1.830210834741592407e-01 2.711888551712036133e-01 -1.185395568609237671e-02 -9.895003587007522583e-02 7.242776453495025635e-02 -2.443695068359375000e-01 8.750718086957931519e-02 1.967454105615615845e-01 8.034934848546981812e-02 -6.008346378803253174e-02 1.846791058778762817e-01 6.329161673784255981e-02 -2.707573175430297852e-01 -1.161479577422142029e-02 1.956483125686645508e-01 -1.038849651813507080e-01 -1.565490514039993286e-01 -2.744907140731811523e-01 2.007420808076858521e-01 -2.144859731197357178e-02 5.259806290268898010e-02 -2.191232889890670776e-01 8.656954020261764526e-02 -7.834462821483612061e-02 -2.517993152141571045e-01 -2.518133223056793213e-01 -8.663918077945709229e-02 -1.931401938199996948e-01 -9.541150927543640137e-02 2.329213172197341919e-01 -6.881900876760482788e-02 -2.550103068351745605e-01 2.727742195129394531e-01 2.878739237785339355e-01 -1.559519860893487930e-02 -2.403073161840438843e-01 -1.110627651214599609e-01 2.367148101329803467e-01 2.827039062976837158e-01 -6.048791483044624329e-02 2.719624042510986328e-01 1.564203649759292603e-01 2.167042493820190430e-01 -4.656565189361572266e-02 1.721432209014892578e-01 -9.641190618276596069e-02 -2.234984785318374634e-01 -6.613304466009140015e-02 -2.204772680997848511e-01 -4.478401690721511841e-02 1.924470514059066772e-01 -2.244102954864501953e-01 -2.285993546247482300e-01 2.166401296854019165e-01 -2.359634339809417725e-01 -1.512708957307040691e-03 2.841692268848419189e-01 -1.553746014833450317e-01 -1.673704087734222412e-01 1.621013879776000977e-01 -1.177280545234680176e-01 1.427235752344131470e-01 7.174091041088104248e-02 -1.309583038091659546e-01 2.541928291320800781e-01 -1.812438219785690308e-01 -1.335236281156539917e-01 -1.300339251756668091e-01 8.081867359578609467e-03 1.737171113491058350e-01 -2.016338407993316650e-01 -1.134863942861557007e-01 1.498053669929504395e-01 -5.117029696702957153e-02 -3.918669000267982483e-02 2.997544109821319580e-01 1.969403624534606934e-01 7.917468994855880737e-02 -1.412149369716644287e-01 6.915450096130371094e-03 -4.804516956210136414e-02 4.094162024557590485e-03 4.386558663100004196e-03 1.557790488004684448e-01 1.941501200199127197e-01 -2.127179205417633057e-01 -1.135855913162231445e-01 -6.269236654043197632e-02 2.383991777896881104e-01 2.672860920429229736e-01 2.127034217119216919e-01 2.865575440227985382e-02 1.722922772169113159e-01 -6.872028857469558716e-02 1.779791861772537231e-01 -1.520614419132471085e-02 7.203055080026388168e-03 1.921079009771347046e-01 1.936760097742080688e-01 6.625333428382873535e-02 -2.877183854579925537e-01 -1.891295611858367920e-02 -2.016168534755706787e-01 2.416942566633224487e-01 2.694881558418273926e-01 -1.237794905900955200e-01 -3.317576274275779724e-02 2.071635127067565918e-01 -2.098779827356338501e-01 1.119676679372787476e-01 -2.329541444778442383e-01 -1.949757486581802368e-01 2.608638703823089600e-01 2.718295156955718994e-02 2.612873315811157227e-01 -6.075569614768028259e-02 -1.874628849327564240e-02 -1.135026887059211731e-01 -2.369448170065879822e-02 -1.750651150941848755e-01 -8.037526160478591919e-02 -2.423168867826461792e-01 -1.298441439867019653e-01 1.268794536590576172e-01 2.051522433757781982e-01 2.546317875385284424e-01 -1.209460571408271790e-01 3.064320385456085205e-01 2.029296904802322388e-01 3.095833361148834229e-01 1.047712787985801697e-01 -1.936396211385726929e-01 1.786095350980758667e-01 -2.413056045770645142e-01 3.069646060466766357e-01 1.064345762133598328e-01 3.049638569355010986e-01 -2.546807229518890381e-01 2.624537348747253418e-01 1.684526652097702026e-01 -1.928098648786544800e-01 -8.077428489923477173e-02 2.435836941003799438e-01 -2.852990292012691498e-02 -3.010695278644561768e-01 -2.358362972736358643e-01 2.169460952281951904e-01 2.253859490156173706e-01 1.188023611903190613e-01 -2.946013510227203369e-01 1.317351460456848145e-01 -8.750495314598083496e-02 -3.311886191368103027e-01 -1.899424046277999878e-01 -1.493204683065414429e-01 -2.591212093830108643e-01 -1.630177199840545654e-01 2.277298122644424438e-01 -2.948186099529266357e-01 -1.464799791574478149e-01 1.717138141393661499e-01 7.821473479270935059e-02 -3.116134107112884521e-01 -1.447826325893402100e-01 -1.037095040082931519e-01 2.228782176971435547e-01 1.310705393552780151e-01 -1.392182111740112305e-01 2.090521752834320068e-01 4.998343810439109802e-02 6.367163360118865967e-02 -7.610134780406951904e-02 1.150723621249198914e-01 -2.567595839500427246e-01 -1.027598455548286438e-01 -2.575877122581005096e-02 -2.359765022993087769e-01 -2.504259049892425537e-01 2.895696759223937988e-01 -1.816382706165313721e-01 -2.417710572481155396e-01 2.847248315811157227e-01 -2.026072703301906586e-02 -4.160979762673377991e-02 1.904295831918716431e-01 -5.070488527417182922e-02 -1.700837910175323486e-01 2.750946879386901855e-01 -1.282925903797149658e-01 2.232166677713394165e-01 3.342291116714477539e-01 -2.319837808609008789e-01 2.034491896629333496e-01 -8.711649477481842041e-02 -1.957637518644332886e-01 -2.211780697107315063e-01 3.023711442947387695e-01 1.406555324792861938e-01 -1.644577980041503906e-01 -3.042482137680053711e-01 2.496401779353618622e-02 -3.065297901630401611e-01 -1.179997026920318604e-01 2.640344500541687012e-01 1.711337268352508545e-01 6.545684486627578735e-02 -2.083199471235275269e-02 -1.775645762681961060e-01 -1.564957648515701294e-01 2.664454281330108643e-01 -2.898565530776977539e-01 5.958075448870658875e-02 3.240343630313873291e-01 -1.803519278764724731e-01 -1.430842429399490356e-01 -2.053398452699184418e-02 3.030536472797393799e-01 4.217962548136711121e-02 2.560233473777770996e-01 2.125844061374664307e-01 2.513028681278228760e-01 -2.175373733043670654e-01 1.857506111264228821e-02 -1.358118057250976562e-01 -2.142264395952224731e-01 3.154960572719573975e-01 1.970427781343460083e-01 2.233365625143051147e-01 -1.519579589366912842e-01 1.610483676195144653e-01 -2.325083613395690918e-01 1.499163508415222168e-01 1.141987368464469910e-01 -2.041377425193786621e-01 -2.286764085292816162e-01 2.145321480929851532e-02 -1.710327416658401489e-01 1.332869082689285278e-01 -2.906505763530731201e-01 -2.282852381467819214e-01 5.312597751617431641e-02 -1.791231036186218262e-01 1.927733719348907471e-01 -1.060306802392005920e-01 1.104284003376960754e-01 -1.338775176554918289e-02 -1.374095026403665543e-02 -3.521392494440078735e-02 -2.928387224674224854e-01 -2.191909402608871460e-01 2.656070888042449951e-01 -2.101635336875915527e-01 -1.033478751778602600e-01 -1.471548527479171753e-01 1.628126055002212524e-01 -6.050532683730125427e-04 -6.347938906401395798e-03 -2.623727023601531982e-01 -2.066569477319717407e-01 2.082071304321289062e-01 -2.857789695262908936e-01 1.143276467919349670e-01 -1.268593668937683105e-01 -1.632729023694992065e-01 -3.607869446277618408e-01 2.775855362415313721e-02 -2.170554250478744507e-01 -3.165561333298683167e-02 3.194109499454498291e-01 6.793810427188873291e-02 -2.039800435304641724e-01 2.579295933246612549e-01 2.267208397388458252e-01 2.491651028394699097e-01 -9.754604846239089966e-02 -1.066862270236015320e-01 -2.276571542024612427e-01 2.110417485237121582e-01 -2.695717513561248779e-01 1.744992136955261230e-01 2.750680446624755859e-01 2.001490741968154907e-01 2.281158417463302612e-01 1.058442294597625732e-01 7.870487123727798462e-02 -2.868882119655609131e-01 1.933217793703079224e-02 2.131966501474380493e-01 -1.239161938428878784e-01 -6.324381381273269653e-02 2.173433601856231689e-01 1.745721101760864258e-01 8.262540400028228760e-02 -1.263684928417205811e-01 -2.745594978332519531e-01 6.371156126260757446e-02 -9.957700967788696289e-02 -2.780557870864868164e-01 -5.275050923228263855e-02 1.664038449525833130e-01 2.450754120945930481e-02 1.321309804916381836e-01 1.649255007505416870e-01 8.025091141462326050e-02 2.106810957193374634e-01 2.536261975765228271e-01 -7.810707390308380127e-02 1.887669414281845093e-01 2.615744173526763916e-01 -8.251427859067916870e-02 2.118550986051559448e-01 2.010164111852645874e-01 -2.516050338745117188e-01 1.955408602952957153e-01 2.864086329936981201e-01 -1.365902572870254517e-01 2.566756904125213623e-01 -2.622936069965362549e-01 -2.683674395084381104e-01 6.721208989620208740e-02 -1.835469454526901245e-01 3.015044145286083221e-02 9.876927733421325684e-02 5.994095280766487122e-02 -1.629301607608795166e-01 -1.898073107004165649e-01 2.542783319950103760e-01 2.449046373367309570e-01 -2.892678678035736084e-01 1.069368869066238403e-01 8.849596977233886719e-02 -3.572329580783843994e-01 -1.973702609539031982e-01 -9.552107006311416626e-02 1.430397182703018188e-01 2.219724059104919434e-01 1.336322277784347534e-01 -8.441834151744842529e-02 1.271454989910125732e-01 -1.460522562265396118e-01 -7.152410596609115601e-02 1.766822636127471924e-01 1.598279923200607300e-01 -8.438284695148468018e-02 -2.523052096366882324e-01 -2.299467325210571289e-01 -3.937641158699989319e-02 -2.360724061727523804e-01 -5.129208415746688843e-02 2.119151204824447632e-01 -1.284134984016418457e-01 1.660911738872528076e-01 5.805842578411102295e-02 -2.270774841308593750e-01 -3.109402656555175781e-01 -1.723280251026153564e-01 1.502139270305633545e-01 -7.520060986280441284e-02 1.450192779302597046e-01 -1.516697108745574951e-01 -6.739454809576272964e-03 7.768920809030532837e-02 8.565347641706466675e-03 -2.302464097738265991e-01 2.993516325950622559e-01 -4.110557213425636292e-02 2.893243432044982910e-01 6.082635000348091125e-02 -8.051234483718872070e-02 -2.107677236199378967e-02 -1.699727773666381836e-01 1.865371614694595337e-01 -2.038844972848892212e-01 2.149754613637924194e-01 1.998227275907993317e-02 1.268726289272308350e-01 3.109286129474639893e-01 8.793898671865463257e-02 -2.833640016615390778e-02 -1.110386550426483154e-01 -6.888420134782791138e-02 -8.444519340991973877e-02 3.570865094661712646e-02 -1.320482343435287476e-01 -1.687371879816055298e-01 -1.727876514196395874e-01 -8.963143080472946167e-02 2.501752674579620361e-01 -1.658668667078018188e-01 2.102235555648803711e-01 -4.500272497534751892e-02 -7.297759503126144409e-02 -3.307180106639862061e-01 1.725760698318481445e-01 -5.056218430399894714e-02 -2.007987648248672485e-01 2.615644335746765137e-01 1.152983382344245911e-01 -1.690886318683624268e-01 9.014534950256347656e-02 1.296408921480178833e-01 6.392659246921539307e-02 -2.824796140193939209e-01 -1.423710286617279053e-01 -1.907449066638946533e-01 1.269845664501190186e-01 1.122978050261735916e-02 7.076608389616012573e-02 2.656268775463104248e-01 1.193596497178077698e-01 5.372931063175201416e-02 1.256328970193862915e-01 1.034781485795974731e-01 -2.745058536529541016e-01 1.202495545148849487e-01 -6.275688111782073975e-02 -2.363359369337558746e-02 -2.776983380317687988e-01 2.422370463609695435e-01 2.072786837816238403e-01 2.395604550838470459e-01 -1.183665171265602112e-01 -2.411876916885375977e-01 2.320641875267028809e-01 -2.667361795902252197e-01 -1.478520333766937256e-01 -1.557535608299076557e-03 2.533082067966461182e-01 -1.670976281166076660e-01 7.035547494888305664e-02 4.427119717001914978e-02 -7.257619872689247131e-03 1.557609289884567261e-01 1.071312874555587769e-01 -2.756920754909515381e-01 1.225843131542205811e-01 1.326288133859634399e-01 4.771318659186363220e-02 -2.709211967885494232e-02 1.755287684500217438e-02 -7.079182565212249756e-02 1.389051228761672974e-02 1.132595688104629517e-01 -6.370320916175842285e-02 3.141365349292755127e-01 -1.823871769011020660e-02 -1.625543236732482910e-01 2.526942789554595947e-01 -1.151620447635650635e-01 1.814816594123840332e-01 1.032791286706924438e-01 2.070946395397186279e-01 -5.372919887304306030e-02 -1.780349910259246826e-01 6.803921610116958618e-02 1.066782623529434204e-01 -2.391857206821441650e-01 2.682516574859619141e-01 6.634672731161117554e-02 -1.496345251798629761e-01 -1.633065938949584961e-01 -2.104040384292602539e-01 1.691986918449401855e-01 1.861863732337951660e-01 2.405124306678771973e-01 -2.340419143438339233e-01 6.861107051372528076e-02 -1.900339722633361816e-01 -1.648414433002471924e-01 2.485792338848114014e-01 1.843629032373428345e-01 -1.252240152098238468e-03 -2.583218812942504883e-01 -2.645943164825439453e-01 -1.111208349466323853e-01 -1.834314018487930298e-01 -1.254910230636596680e-01 -1.979538239538669586e-02 -9.112843126058578491e-02 8.054919540882110596e-02 8.595265448093414307e-03 -7.277424633502960205e-02 -2.800530791282653809e-01 -3.386571630835533142e-02 2.318417131900787354e-01 -1.499855816364288330e-01 2.045266777276992798e-01 -3.004182875156402588e-02 -7.699701189994812012e-02 2.655261456966400146e-01 -3.828032687306404114e-02 5.185957998037338257e-03 2.935310080647468567e-02 -1.077699437737464905e-01 2.130084671080112457e-02 -5.068319290876388550e-02 -7.990752160549163818e-02 8.062960952520370483e-02 -3.485350310802459717e-02 2.888768613338470459e-01 -1.258519738912582397e-01 1.289584189653396606e-01 1.481676101684570312e-01 1.613668948411941528e-01 1.911520957946777344e-01 2.169834077358245850e-01 -1.920578032732009888e-01 2.208911180496215820e-01 2.781689763069152832e-01 1.727994084358215332e-01 -2.203340977430343628e-01 2.154084295034408569e-01 2.399947196245193481e-01 2.956939041614532471e-01 9.165845811367034912e-02 -1.039346233010292053e-01 2.078806906938552856e-01 -2.462258338928222656e-01 1.929272115230560303e-01 2.042241543531417847e-01 2.303551733493804932e-01 -3.735193610191345215e-02 1.149933561682701111e-01 2.398312985897064209e-01 -1.023774147033691406e-01 -1.148381680250167847e-01 1.023621037602424622e-01 -1.510260999202728271e-01 -2.102255225181579590e-01 -1.155728287994861603e-02 3.029180467128753662e-01 8.115529268980026245e-02 1.922385692596435547e-01 -3.671374171972274780e-02 1.671972572803497314e-01 -3.184551745653152466e-02 -8.520462363958358765e-02 -2.916200459003448486e-01 -2.081056982278823853e-01 -7.445080578327178955e-02 -2.689871191978454590e-01 2.708623707294464111e-01 -2.053141444921493530e-01 -3.357639163732528687e-02 2.360561788082122803e-01 1.620993167161941528e-01 -2.199045568704605103e-01 -1.379674971103668213e-01 -2.811235785484313965e-01 2.584416186437010765e-03 6.871472299098968506e-02 -3.063835501670837402e-01 7.430998980998992920e-02 2.134154587984085083e-01 1.929719932377338409e-02 -1.316005140542984009e-01 1.645118147134780884e-01 -5.347514897584915161e-02 -1.151738688349723816e-01 -6.204848736524581909e-02 -1.328112334012985229e-01 -2.570540010929107666e-01 2.509487569332122803e-01 -2.861530780792236328e-01 -2.258767634630203247e-01 9.821154922246932983e-02 -5.331072583794593811e-02 -4.640950262546539307e-02 2.456324994564056396e-01 -4.191381484270095825e-02 -5.693515390157699585e-02 1.462158560752868652e-01 -1.992755830287933350e-01 3.140943124890327454e-03 6.030704081058502197e-02 -2.353955209255218506e-01 1.296580135822296143e-01 -1.586728543043136597e-01 -1.477897614240646362e-01 -2.188001424074172974e-01 1.078616157174110413e-01 2.138592302799224854e-01 -1.879001408815383911e-01 -9.443005919456481934e-02 2.655029669404029846e-02 -2.777197659015655518e-01 -1.624619811773300171e-01 2.641946673393249512e-01 2.803279459476470947e-02 2.664556801319122314e-01 -6.582529097795486450e-02 -2.604551911354064941e-01 -7.765775173902511597e-02 2.120313346385955811e-01 -1.963285207748413086e-01 1.961844563484191895e-01 2.512038052082061768e-01 -2.042645961046218872e-01 -1.833740770816802979e-01 -5.078944563865661621e-02 2.941084206104278564e-01 1.058894991874694824e-01 3.024253249168395996e-01 9.999815374612808228e-02 1.334589868783950806e-01 -1.693420708179473877e-01 -2.804980054497718811e-02 -1.083022654056549072e-01 -2.731202915310859680e-02 5.757889524102210999e-02 2.162470221519470215e-01 5.150026641786098480e-03 -1.471080183982849121e-01 -1.774261705577373505e-02 -2.571708559989929199e-01 -1.750479266047477722e-02 2.312002778053283691e-01 -7.091482728719711304e-02 -1.315253823995590210e-01 4.214699938893318176e-02 -5.357207357883453369e-02 6.669904291629791260e-02 -3.537203744053840637e-02 -2.612203061580657959e-01 2.105958312749862671e-01 -2.305614948272705078e-01 1.393647044897079468e-01 -2.451819628477096558e-01 2.572341263294219971e-01 -2.430028766393661499e-01 -7.311764359474182129e-02 -6.259387731552124023e-02 -2.251463383436203003e-01 -2.936955988407135010e-01 -2.845226824283599854e-01 2.828082442283630371e-01 2.792729437351226807e-01 5.401566997170448303e-02 -3.967475146055221558e-02 2.802799344062805176e-01 2.006301134824752808e-01 2.969060540199279785e-01 2.969517707824707031e-01 -1.685686260461807251e-01 1.367157101631164551e-01 -9.664128720760345459e-02 1.926617771387100220e-01 1.526518315076828003e-01 2.451104074716567993e-01 -1.782843321561813354e-01 1.591421067714691162e-01 2.378597408533096313e-01 -1.555080264806747437e-01 -6.912183761596679688e-02 6.377274543046951294e-02 -1.078095734119415283e-01 -1.843664050102233887e-01 -2.839806079864501953e-01 1.699559241533279419e-01 2.599703073501586914e-01 6.369769573211669922e-02 -1.113266199827194214e-01 1.749463975429534912e-01 -1.553352773189544678e-01 -1.154892593622207642e-01 -1.505693197250366211e-01 -2.402480095624923706e-01 -2.183785140514373779e-01 -2.209786176681518555e-01 2.094075232744216919e-01 -2.426626719534397125e-02 -2.870192229747772217e-01 2.705283276736736298e-02 1.185145750641822815e-01 -2.146472781896591187e-01 -3.227990493178367615e-02 -2.452035844326019287e-01 1.565099358558654785e-01 1.606512814760208130e-01 -3.875478357076644897e-02 3.052195608615875244e-01 1.876450479030609131e-01 2.924603521823883057e-01 -5.308599397540092468e-02 9.942852705717086792e-02 -7.789181917905807495e-02 -1.649939715862274170e-01 -7.652039825916290283e-02 -7.266499102115631104e-02 -5.266408994793891907e-02 4.542397707700729370e-02 -2.667331397533416748e-01 -2.986450791358947754e-01 2.341456860303878784e-01 -7.576967030763626099e-02 -2.573937773704528809e-01 3.097754716873168945e-01 -1.956115067005157471e-01 -1.085898354649543762e-01 2.243168801069259644e-01 -1.825060546398162842e-01 2.338875532150268555e-01 2.651696503162384033e-01 -1.215107217431068420e-01 3.114665858447551727e-02 -1.643552780151367188e-01 -2.510415017604827881e-01 -2.790826261043548584e-01 2.740886248648166656e-02 1.120812445878982544e-01 -1.729695647954940796e-01 -2.078898698091506958e-01 1.056603491306304932e-01 -9.258341789245605469e-02 