-4.099310338497161865e-01 1.701545119285583496e-01 2.333807796239852905e-01 6.211793795228004456e-02 -3.654364943504333496e-01 1.939239054918289185e-01 2.525014579296112061e-01 3.478568494319915771e-01 9.678133577108383179e-02 -4.184584021568298340e-01 2.565291225910186768e-01 -5.229881405830383301e-01 1.075558811426162720e-01 2.319698333740234375e-01 2.448207587003707886e-01 -4.609042704105377197e-01 1.339280009269714355e-01 1.381954252719879150e-01 -5.719376206398010254e-01 -3.270586133003234863e-01 2.273453585803508759e-02 -3.733903169631958008e-01 -5.437482595443725586e-01 -3.548596203327178955e-01 2.220104336738586426e-01 1.420968174934387207e-01 2.821575105190277100e-02 -4.640712440013885498e-01 9.519919753074645996e-02 -3.529896140098571777e-01 -4.586564004421234131e-01 -4.545993506908416748e-01 -4.454298615455627441e-01 -2.737744450569152832e-01 -5.807595252990722656e-01 2.777470648288726807e-01 -3.239580094814300537e-01 -2.761644124984741211e-01 1.448053121566772461e-01 2.298809885978698730e-01 -2.694330513477325439e-01 -3.681353330612182617e-01 -3.239336013793945312e-01 1.443513929843902588e-01 8.517155051231384277e-02 -4.763225317001342773e-01 2.403321117162704468e-01 2.022281438112258911e-01 2.060259580612182617e-01 -4.239078760147094727e-01 1.127390041947364807e-01 -4.046553969383239746e-01 -3.853433728218078613e-01 -3.302328586578369141e-01 -2.459747195243835449e-01 -5.566786527633666992e-01 2.818964123725891113e-01 -2.976662218570709229e-01 -3.347901999950408936e-01 4.818322136998176575e-02 -4.625457823276519775e-01 -3.426274061203002930e-01 3.459904491901397705e-01 -3.660022020339965820e-01 -4.975683391094207764e-01 1.499207466840744019e-01 -6.226223707199096680e-01 1.061588972806930542e-01 1.280464529991149902e-01 -5.714154839515686035e-01 1.280668079853057861e-01 -3.469000756740570068e-01 -3.963466286659240723e-01 -3.521195054054260254e-01 1.123719736933708191e-01 -1.000786200165748596e-01 -4.857277274131774902e-01 -4.573089480400085449e-01 1.445491705089807510e-02 -3.873001039028167725e-01 -6.790605187416076660e-01 3.173832595348358154e-01 6.373471021652221680e-02 2.268288880586624146e-01 -4.727319478988647461e-01 -4.889214336872100830e-01 -3.594049215316772461e-01 1.800558120012283325e-01 -3.121014237403869629e-01 1.145245209336280823e-01 2.139870077371597290e-01 -4.709289669990539551e-01 -5.090886354446411133e-01 -2.173459827899932861e-01 1.629474610090255737e-01 1.906464546918869019e-01 9.402070194482803345e-02 2.042832970619201660e-01 2.574636936187744141e-01 -2.491486221551895142e-01 7.827475666999816895e-02 -1.431318521499633789e-01 -2.950316965579986572e-01 1.142952144145965576e-01 1.855552792549133301e-01 2.246713489294052124e-01 -4.423801004886627197e-01 2.328212186694145203e-02 -4.425258934497833252e-01 1.422996819019317627e-01 2.460378259420394897e-01 -2.698379456996917725e-01 -3.431714177131652832e-01 2.328287065029144287e-01 -5.634803771972656250e-01 9.458398818969726562e-02 -4.802608489990234375e-01 -2.712922692298889160e-01 7.430651783943176270e-02 -2.331682443618774414e-01 1.839065253734588623e-01 -4.975393414497375488e-01 1.873570531606674194e-01 -3.555758893489837646e-01 -1.358642429113388062e-01 -3.651415705680847168e-01 -6.189475655555725098e-01 -5.448381304740905762e-01
